1198 10
13 0.031223485 -0.03233692 0.07564421 -0.09777182 0.20656595 0.26383314 0.19470358 0.26754716 -0.23128477 0.31232587
18 0.09658075 -0.037452765 0.09785193 -0.10432215 0.25957552 0.17463839 0.17184004 0.23387142 -0.3192121 0.3363179
4 -0.021719635 -0.06111382 0.15768087 -0.026051609 0.18799493 0.2567242 0.18363851 0.21165508 -0.30495745 0.33952028
2 -0.018101685 -0.0029102806 0.08041045 -0.10491395 0.20557806 0.26030213 0.22315781 0.26787433 -0.21763621 0.32739174
1 -0.031862516 -0.038768575 0.074607894 -0.13709952 0.17945395 0.20817873 0.21521202 0.25141478 -0.2945056 0.3228948
16 0.03170178 -0.084230654 0.095917135 -0.08182157 0.21005979 0.22360788 0.19877586 0.2330235 -0.2539994 0.34853405
15 0.005001059 -0.013525424 0.12172038 -0.18806714 0.20568107 0.2203521 0.16249666 0.2511578 -0.30573827 0.2962365
20 0.025117978 -0.022663178 0.17649108 -0.050633997 0.15889187 0.23657012 0.21731974 0.25593036 -0.30424586 0.291579
8 0.0066484557 -0.04202559 0.16041663 -0.1408895 0.22398724 0.21159464 0.22670275 0.1812178 -0.27643505 0.3415409
5 0.016118787 -0.009245489 0.10584437 -0.05457492 0.17314906 0.25066218 0.23272036 0.20110172 -0.31751674 0.33007473
3 0.035580136 -0.06705048 0.14729534 -0.038611963 0.2389947 0.21304281 0.21985184 0.21050444 -0.3166985 0.28784823
9 0.013593638 -0.04370047 0.052959915 -0.13737029 0.14040971 0.25562426 0.23198368 0.14886875 -0.3115992 0.35423422
10 -0.04155183 0.021787614 0.12689978 -0.08320124 0.14729717 0.27307734 0.18322924 0.23717111 -0.33663 0.28959945
7 0.010858824 -0.066140175 0.10118437 -0.13419688 0.20953137 0.22178651 0.20693204 0.2485102 -0.2035534 0.39076924
12 -0.002178711 -0.035139922 0.10929643 -0.06270971 0.18377692 0.23181893 0.2408527 0.2064596 -0.31407556 0.30083233
0 0.048676677 -0.024205815 0.0984208 -0.11882727 0.20272057 0.20243973 0.19648904 0.29883483 -0.29868615 0.26694795
14 0.03660999 -0.06989416 0.05943428 -0.11353282 0.16199598 0.21865268 0.27214283 0.2818799 -0.21612225 0.3497044
11 -0.0006948546 -0.025324833 0.12977228 -0.11168495 0.22647269 0.20805214 0.2181144 0.2660545 -0.2575731 0.31662962
6 0.04301453 0.0059327567 0.08065528 -0.16870514 0.14250201 0.2947568 0.24448483 0.19333404 -0.27520847 0.28180188
17 0.03995356 -0.04741435 0.06503615 -0.1008875 0.118963115 0.24953982 0.19157924 0.25920308 -0.29985934 0.3333485
19 0.1203085 -0.015007115 0.079765216 -0.099121004 0.18604718 0.22996522 0.19293778 0.23009796 -0.3181263 0.33003792
21 0.007706469 -0.25701836 0.13517514 -0.122871995 0.14913043 0.3860583 0.027445108 0.22315833 -0.3167153 0.1121941
255 -0.19355236 -0.2089741 -0.14728363 -0.15293397 0.11120478 0.3122614 0.016688058 0.2395649 -0.38488188 0.25231224
902 0.0055027157 -0.25266862 0.068580694 0.06257698 0.31915724 0.48672885 0.24088511 0.15600853 -0.21038184 0.0251981
582 -0.12559065 -0.113185845 0.06475475 -0.061372597 0.057513192 0.39816737 0.14068212 0.44418675 -0.29512838 0.03171626
712 0.11488208 -0.31921396 0.036332056 -0.05122215 0.2545655 0.5393568 0.0035772761 0.25068983 -0.025457976 0.25931075
686 0.16080283 -0.23025087 -0.047519736 0.068026096 -0.050797585 0.5627901 0.21845947 0.26677638 -0.34775808 0.010424081
461 0.022478458 -0.2764656 0.13551122 -0.33626238 0.2459011 0.2498022 0.067912325 0.27781364 -0.3311637 0.0007466431
708 0.026157469 -0.2395015 -0.079701655 -0.31530365 0.124807395 0.17677264 0.022334293 0.2991883 -0.46437153 0.11899276
1128 -0.0072601703 -0.22517991 0.38371137 -0.09769211 0.22053397 0.39472434 0.00025074108 0.21904929 -0.31650418 0.027220383
310 0.09776178 -0.08910217 -0.09682885 -0.1422257 0.17472547 0.526081 0.025109395 0.28789443 -0.27279946 0.032036845
561 0.14586185 -0.20487964 -0.16138399 -0.042708207 0.21392754 0.5574867 0.27456763 0.24881099 -0.07996207 0.1136411
71 -0.15142488 -0.05226441 0.10190789 -0.082268044 0.35131484 0.54791576 0.059411284 0.17794178 -0.16653423 0.08699873
668 -0.12614417 -0.34530032 -0.05754705 -0.05351491 0.16523406 0.3596227 0.2484916 0.3477373 -0.15383916 0.11932901
817 -0.18151377 -0.20767738 0.095297985 -0.060315236 0.024928186 0.24251801 0.0711038 0.28335702 -0.5558024 0.06295829
790 -0.086065546 -0.11498783 0.065335006 -0.2008068 0.098236606 0.39111945 0.31299064 0.3035554 -0.22200316 -0.006897046
694 0.0077050235 -0.16813594 0.07187445 -0.064850606 0.14949223 0.44083026 0.017998258 0.20038554 -0.35742542 0.09515843
126 0.1860136 -0.32977375 -0.17177863 -0.17109822 0.24197678 0.42028582 0.076093644 0.235908 -0.134011 0.26143944
280 0.13497688 -0.19346304 0.07396715 -0.10659071 0.09603034 0.28282574 0.07501647 0.38977838 -0.48778996 -0.06882945
525 -0.09802261 -0.24790597 -0.111540124 -0.2237762 0.15044393 0.35091853 0.13213903 0.21461487 -0.3843956 0.04895686
1125 -0.24973492 -0.15942 -0.120748594 -0.23061205 0.27565742 0.3618244 0.11662349 0.38714695 -0.1237885 0.1524606
56 -0.11570259 0.0036042647 -0.016731018 -0.21022731 0.46479103 0.33307362 -0.03499521 0.32352498 -0.36090606 -0.034999743
1009 -0.18252668 -0.030463472 0.009950255 -0.34608802 0.1881957 0.4583765 -0.029011548 0.27994415 -0.2519741 0.10620182
808 -0.12435226 -0.2452305 0.2068677 0.08983204 0.06113935 0.53532535 0.11753058 0.09667135 -0.35446373 0.07715612
195 0.01618134 -0.16993064 -0.08546878 0.073190816 0.18203224 0.5131824 0.10291484 0.32622668 -0.28647012 0.020237993
654 -0.12512174 -0.14769307 0.085513376 -0.24941307 0.17482533 0.39483184 -0.06430313 0.20907052 -0.33989137 0.14645673
1144 -0.30153 -0.069496624 -0.06268591 -0.14449248 0.28744644 0.49819124 -0.033430137 0.32749617 -0.21073876 0.079879224
391 0.060396165 -0.29920778 0.02499576 -0.07622003 0.16505846 0.503818 0.2603881 -0.07853774 -0.35344434 0.07761028
64 0.30171928 -0.27046847 -0.08772834 -0.1991279 0.2493563 0.3606152 0.017710837 0.2619827 -0.33425462 0.057980914
815 0.14059576 -0.18388976 0.17697904 -0.1353115 -0.047526207 0.41697648 0.17205553 0.2601418 -0.36371815 0.029818986
874 -0.06703284 -0.1478683 0.045646086 -0.16054647 0.29616556 0.3913755 0.054815672 0.07154088 -0.41055617 0.06382836
610 -0.03180077 -0.23909988 -0.23733458 -0.113460824 0.32899174 0.29971567 0.14568259 0.34314647 -0.2460337 0.11931156
981 -0.10199587 -0.13354918 0.06209398 -0.032591257 0.17087124 0.2948538 0.15838107 0.41604137 -0.3021097 0.07815576
1025 -0.080889456 -0.28985798 0.015316864 -0.27178144 0.36454624 0.32726339 0.16725485 -0.041499447 -0.33762255 0.08601749
860 -0.013806282 -0.19732259 -0.21032281 0.05730927 0.27327988 0.35923484 0.30118626 0.22004627 -0.3728546 -0.016365472
372 0.16914685 -0.24850902 0.05002597 -0.09765351 0.15691166 0.34834102 0.12466341 0.1634213 -0.40303567 0.086648986
546 0.14267458 -0.27983937 0.20456932 -0.09012717 0.14489393 0.40175313 0.09462788 0.21872474 -0.27871382 0.06173474
614 -0.23779342 -0.16855496 -0.0068095755 -0.00632331 0.3513696 0.42120704 0.054405395 0.22614092 -0.25316527 0.16047905
1011 -0.08995459 -0.1632561 -0.04185717 -0.28645432 0.20363128 0.41200474 0.16090298 0.041935984 -0.27787697 0.19291273
158 0.053704903 -0.17070147 0.061702628 -0.22002362 0.113437645 0.35199255 0.27462542 0.24122705 -0.35673612 -0.058089837
83 -0.19661482 0.13536921 0.1800555 -0.33724812 0.26049793 0.35227644 0.18931608 0.35342902 -0.30249983 -0.1269259
515 0.020643726 -0.19271867 -0.008855792 0.08865706 0.06359639 0.48143846 0.16435726 0.36755458 -0.250068 0.091002986
416 -0.064335056 -0.24208272 0.12884867 -0.084169656 0.22466193 0.36488366 0.26566106 0.20796733 -0.22550198 0.06698336
266 -0.31987536 -0.024769213 -0.020614635 -0.12140125 0.30893648 0.42892474 0.21867594 0.13420276 -0.3099353 0.046485726
294 0.044786785 -0.1346675 0.046240162 -0.37888503 0.1676382 0.38339677 -0.10559655 0.12718368 -0.5118247 0.027911423
191 0.16950642 -0.19238967 -0.10642676 -0.123373754 0.16161492 0.59174275 0.062085792 -0.057974122 -0.37939 0.11888903
125 -0.046133477 -0.13631377 -0.0090535665 -0.12240883 0.16430406 0.53499264 0.0016516467 0.12788197 -0.28853366 0.16058917
281 0.04176334 -0.27040952 -0.097598955 -0.15240197 0.20950168 0.47783247 0.17595626 -0.043398082 -0.3440028 0.12281167
869 -0.01780352 -0.17273144 0.064792275 -0.35160175 -0.05608097 0.33321002 0.35494947 0.20300704 -0.44652307 -0.10914938
116 -0.059794497 -0.055765122 -0.12791605 -0.2531522 0.15009283 0.38600644 0.29160267 0.2883362 -0.22444676 0.083373435
994 0.009273009 -0.11051915 0.17394641 -0.10741987 0.33370134 0.36314097 0.11949107 0.3820383 -0.1819482 -0.0065676807
1066 -0.059091613 -0.08339676 0.19357692 -0.17991339 0.17693678 0.51446635 0.002258312 0.03112086 -0.45480213 -0.024651144
705 -0.06741152 0.03615757 -0.13756625 -0.029764082 0.13460058 0.4483063 -0.057471666 0.4415397 -0.35598555 0.12129182
271 -0.060580954 -0.27981928 0.063768364 0.00013532653 0.23233712 0.3124962 0.26552728 0.050988033 -0.52256817 -0.06823876
595 -0.11057408 -0.28317782 0.11791022 -0.078133546 0.29461125 0.39578214 0.09625907 0.11017983 -0.35660973 0.058919083
724 -0.13609688 -0.059691895 0.22850575 -0.4991104 0.14461832 0.43336734 0.1640973 0.20647196 -0.22399007 -0.069532655
1092 -0.04594919 -0.15606798 0.13656738 -0.21772094 0.3265691 0.33608592 0.080678396 0.24709436 -0.2441166 0.067293726
201 -0.36296377 -0.21267469 0.15201493 -0.24530543 0.12507449 0.3069723 0.115998864 0.24796452 -0.2862627 0.1424587
403 -0.27862194 0.017949466 -0.02474697 -0.16859728 0.36078528 0.41034174 0.16687103 0.28911313 -0.12784368 0.13818882
131 0.112254985 -0.1559967 0.08560343 -0.22479391 0.0009355493 0.43886468 0.028655298 0.08555653 -0.5083809 0.06665023
1051 -0.106443994 -0.10542921 0.05398731 0.0231002 0.15796915 0.34827128 0.17512095 0.42237374 -0.38722086 -0.03934636
269 -0.0024359955 -0.07482192 0.028052613 -0.21266153 0.23979074 0.35421965 0.13065296 0.2932515 -0.29534128 0.037591115
425 -0.17212081 -0.36106843 0.3451943 -0.1208604 0.29083636 0.2538943 0.2266639 0.025826305 -0.40050435 -0.030618116
100 -0.2009897 -0.12886478 0.0009963729 -0.1046473 0.35389057 0.50873846 0.15724292 0.17747271 -0.10129994 0.13260223
674 -0.113962226 -0.43715036 0.25755098 -0.33840865 0.20908378 0.30035725 0.17528617 0.0780981 -0.2966744 0.024650877
89 0.05357807 -0.1467843 0.27702838 -0.15417492 0.26061314 0.55142295 0.0712944 0.07917781 -0.27468127 -0.06066385
593 0.07548042 -0.12290001 0.018844206 -0.1148614 0.17616166 0.5602217 0.11821478 0.38588014 -0.07527429 0.052627094
162 0.02220492 0.11813689 0.16899896 -0.056836627 0.073371306 0.61036134 0.22577615 0.2693834 -0.1969472 -0.0044357423
623 -0.16384143 -0.19484164 0.05438815 -0.40493608 0.22252075 0.31121382 0.26987007 0.21296994 -0.15682003 0.11348596
1008 -0.13175778 -0.21444805 0.23437177 0.024245523 0.3605838 0.43697923 -0.08207305 0.26575506 -0.25271314 0.081529
743 -0.014319985 -0.15866904 -0.026755841 -0.34714442 0.36252746 0.29071635 -0.091982275 0.34569034 -0.27668712 0.101076946
637 -0.1651084 -0.30272007 0.16832854 -0.16869861 0.19513114 0.42169243 -0.089835614 0.16101435 -0.37154666 0.083854854
413 -0.329796 -0.06792952 -0.057404097 0.00412341 0.20758371 0.30067182 0.17261949 0.2545572 -0.45401084 0.08652374
441 -0.06462908 -0.10915688 -0.21953376 -0.095749795 0.29256088 0.37910783 0.23866792 0.3381015 -0.28635332 -0.023279157
682 -0.13324358 0.014677484 0.006943429 -0.13067414 0.33629233 0.22771876 -0.07445037 0.50689983 -0.400264 0.0225699
344 -0.22526394 -0.27551344 0.033268403 0.102765135 0.09674446 0.32822594 -0.040592834 0.26424304 -0.5238232 0.12734936
396 -0.15527418 -0.07570614 0.0794547 0.019923339 0.21922256 0.3904111 0.26490712 0.34312376 -0.29396698 -0.035320073
122 -0.09730474 -0.037488215 0.03193128 -0.18025434 0.16912268 0.4358701 0.19758989 0.3966761 -0.12490196 0.07892732
603 -0.01342913 -0.115701236 0.19964881 -0.07873121 0.21362986 0.5599327 0.017284516 0.12148992 -0.24856976 0.08251281
79 -0.1992943 -0.10888454 0.15435295 -0.0024866331 0.25724426 0.3040608 0.023273818 0.32837212 -0.46532562 -0.029634308
176 -0.075679734 -0.16012739 -0.015732871 -0.14920604 0.257709 0.42929867 0.108535826 0.12413993 -0.28284135 0.13985595
1075 -0.03927456 -0.08542015 -0.03611371 -0.14261316 0.35221404 0.4181773 0.18330267 0.22499868 -0.26022664 -0.0143552525
78 -0.13077262 -0.29487264 -0.17926407 -0.31249616 0.17902741 0.36712375 0.3253323 -0.04034197 -0.39318752 0.013833775
324 0.00022414274 -0.16136411 0.050399374 -0.13238817 0.17598091 0.31929997 0.19404957 0.200311 -0.46291506 -0.011600667
1145 -0.28039515 -0.15527749 0.10263194 -0.035364483 0.20709428 0.3763404 0.09909588 0.30391493 -0.3375598 0.011748354
609 0.047420263 -0.36621463 0.041781083 -0.13222724 0.36717102 0.31649062 -0.006734988 0.35697678 -0.1359634 0.14440985
727 0.107600085 -0.13069344 0.06840298 -0.37702838 0.16809845 0.41707325 0.23741862 0.044711415 -0.32378614 0.032979712
716 -0.3086124 -0.054072842 0.033165712 -0.16680208 0.0781651 0.47153813 0.118721046 0.12735659 -0.42437914 0.041386615
615 0.08650277 -0.29663038 -0.15958771 -0.030432845 0.4912453 0.27286118 0.117334284 0.10589647 -0.30220985 0.17936893
227 0.0844842 -0.35444242 0.18183751 -0.14361957 0.18863231 0.36985183 0.21456322 0.070257574 -0.26688477 0.09090539
773 0.15168728 -0.21403944 0.06879268 0.006604744 0.09615474 0.35530978 0.2094694 0.31772292 -0.39568052 -0.023636425
900 0.14039275 -0.31003714 0.10924806 -0.16423056 0.24198498 0.3737048 0.20324853 0.31372318 -0.108586304 0.07742826
601 -0.20422585 -0.34593013 0.17766686 -0.107565194 0.13670331 0.34039086 0.06481336 0.23195273 -0.3546769 0.07955832
134 0.07610409 -0.20332797 -0.14220805 -0.18375544 0.00802869 0.34367275 -0.08398548 0.43770325 -0.4005724 0.14356984
1184 -0.051650282 -0.077709526 0.08027009 -0.087120995 0.09779716 0.48213542 0.31295907 0.17265202 -0.28860614 -0.011888631
533 -0.1460376 -0.28636324 -0.04858012 0.029962882 0.2993167 0.32068324 0.10751434 0.28986797 -0.28282833 0.1455219
1093 -0.12988311 -0.23185353 0.3455856 -0.034385115 -0.015969472 0.45455876 -0.021619657 0.3752215 -0.24422406 0.13208285
789 -0.17509814 -0.39777172 0.05527679 -0.08537685 0.13358581 0.42628542 0.1706518 0.1657247 -0.19852716 0.17944612
443 0.03772441 -0.18703535 0.3527267 -0.15016308 0.3189279 0.46822685 -0.059419096 0.2238198 -0.116866745 0.14228876
930 -0.12884529 -0.3526005 -0.022578303 0.08916292 -0.097553775 0.4896945 0.104726456 0.16387513 -0.47743365 0.09835713
1110 -0.1386239 -0.057818323 0.08603667 -0.18836734 0.30493677 0.39631653 0.066395305 0.096341446 -0.35241386 0.071888246
257 -0.004388709 -0.32295167 0.18460035 -0.21150044 0.14277348 0.2559252 0.12797302 0.23640427 -0.4092036 0.00011441285
423 -0.101338856 -0.17008628 0.097920135 -0.26179862 0.2103968 0.41372982 0.19102816 0.11335736 -0.3033049 0.0008242299
148 -0.22232917 -0.18567717 0.0126144625 -0.32323036 0.23168494 0.3464625 0.113553934 -0.013096359 -0.44908231 0.064369164
965 -0.3463622 -0.33639324 0.03068132 -0.27763104 0.08359173 0.2549128 0.11610439 0.25724614 -0.29406258 0.1761094
982 -0.030964077 -0.30017456 0.12024967 0.018537106 0.31477383 0.32756132 0.23427144 0.3856445 -0.15157829 0.025264587
998 0.10749702 -0.2998395 0.0008277895 -0.08029926 0.18427967 0.39269382 0.07137431 0.17467673 -0.33572978 0.108178265
159 0.025856763 -0.25370702 0.12256926 -0.024671702 0.04367198 0.46359366 0.12849125 0.3789564 -0.24345535 0.06117062
884 -0.07870942 -0.22371894 -0.0059243385 -0.1782419 0.16908343 0.4871271 0.026097892 0.1529196 -0.263837 0.16517375
246 -0.077045724 -0.32554603 -0.02248762 -0.029793158 0.20563449 0.51389104 0.094858706 0.31744346 -0.1123211 0.109250836
205 -0.111375056 -0.23534797 -0.07955782 -0.23973225 0.18735439 0.3001724 0.13328196 0.29543442 -0.24635194 0.19273774
440 -0.13074984 -0.3461294 -0.025469972 -0.20177892 0.13616689 0.25411546 0.21015348 0.20265558 -0.30414608 0.15129994
37 -0.25663245 -0.04067466 -0.14199822 -0.31693175 0.049184643 0.530609 0.06021513 0.2061476 -0.27879554 0.17949879
1061 0.07464361 -0.08858776 0.07893134 -0.23863326 0.31251517 0.3854278 0.16027665 0.17584173 -0.25169542 0.0404877
616 0.03865165 -0.105519004 0.080947265 -0.23441167 0.15129623 0.4430581 -0.13100754 0.4424235 -0.23100396 0.07660364
1146 0.049301125 -0.35685837 0.04829323 -0.15893449 0.17320946 0.28916493 0.22802761 0.2846374 -0.24458256 0.08843363
1182 -0.2268196 -0.08289712 0.04422712 -0.12089866 0.1409911 0.4592728 0.25463262 0.52587193 -0.047449358 0.022790547
373 0.032077294 -0.31602016 -0.13517413 -0.21663104 0.23020028 0.3179835 0.06568921 0.28669477 -0.24853422 0.15538855
821 -0.042243928 -0.014156569 0.103717946 -0.012372934 0.2468386 0.39657027 0.22476785 0.22676231 -0.33643484 0.024348509
514 0.105004855 -0.27961698 -0.19350702 -0.121667646 0.09986213 0.4081876 0.2078529 0.20931397 -0.2536367 0.14779048
93 -0.028731452 -0.14181307 0.11506356 -0.11654684 0.3368596 0.3018293 0.16920839 0.33098394 -0.25303182 -0.005058287
483 -0.030690491 -0.2910345 -0.036002003 -0.1413645 0.394573 0.32793647 0.013190148 0.4020206 -0.13425054 0.13088875
485 -0.23068233 -0.32790983 0.27586147 0.06249353 0.15985557 0.46591488 0.07123134 0.24757922 -0.21551731 0.10000785
27 -0.1783885 -0.24391596 0.1697032 -0.13154095 0.16979806 0.45904174 0.003582976 0.1759046 -0.2831613 0.10901182
386 0.003512374 -0.13869308 0.17165534 -0.2045575 0.019843027 0.41428176 -0.039514974 0.40241295 -0.35913718 0.026924362
754 -0.2558347 -0.064674035 -0.033845097 -0.12060273 0.40798363 0.33347797 0.20124507 0.15700588 -0.25923672 0.12811267
1174 0.015039539 -0.11095197 -0.050536033 -0.2648835 0.2721606 0.44336265 -0.00690471 0.25019437 -0.23931928 0.10970227
376 0.043970276 -0.24576546 0.043901257 -0.10703948 -0.011942969 0.32873988 0.055151172 0.4317291 -0.33061337 0.12472183
85 -0.106049635 -0.30267563 0.19255745 -0.16958767 0.15256259 0.42203635 0.21766092 0.28637317 -0.18282029 -0.038111534
404 -0.09760626 -0.018264694 -0.13664 -0.19571108 0.31725678 0.44572285 0.1483524 0.1112296 -0.3010378 0.08947387
500 -0.23000048 -0.10497776 0.144466 -0.15952109 0.26573375 0.34247926 0.028125402 0.34206232 -0.26001042 0.08113504
1102 -0.023427773 -0.37892625 -0.15041521 -0.045308977 0.13479376 0.3965407 0.18753073 0.22895908 -0.27853757 0.1085741
622 0.03337214 -0.22443642 0.10393776 -0.1816697 0.23226182 0.27295747 -0.0310177 0.44983593 -0.22724833 0.12257462
1046 -0.040248517 -0.14285281 -0.14024138 -0.20828468 0.07042105 0.42788264 0.2230732 0.064259775 -0.4015829 0.13739368
1156 0.07145616 -0.17475544 0.11424451 -0.22349626 0.14180906 0.43152156 -0.005829294 0.27716294 -0.31480134 0.02192242
1175 -0.057937264 -0.07965191 0.08577394 0.00020408377 0.33560467 0.4072583 0.13502686 0.086603 -0.4474826 -0.0055441805
663 0.19608907 -0.15585655 -0.14153828 -0.13047205 0.19879879 0.49082989 0.013438956 0.20531945 -0.35718998 0.046474505
776 -0.0007899845 -0.043582924 -0.17746077 -0.017984735 0.13171709 0.41267914 0.35419497 0.33257586 -0.34371558 -0.05492144
136 -0.020608695 -0.24540463 0.017376376 -0.118932344 0.2854066 0.4011307 0.1300063 -0.07807826 -0.4149304 0.15208675
1022 -0.00048224005 -0.437306 -0.051689215 -0.1437854 0.19039305 0.15809995 0.16959746 0.31640604 -0.37882102 0.074372664
408 -0.13967288 -0.10358622 -0.16173734 -0.1896614 0.23663968 0.42865747 0.36272618 0.09207445 -0.1774402 0.16264148
519 -0.24313606 -0.33627787 -0.06308252 -0.21325096 0.32700372 0.33862036 0.17960165 0.2621451 -0.18601973 0.049022377
688 0.1255481 -0.12978426 -0.08396814 -0.13152012 0.11955282 0.44603986 0.37166628 0.26691866 -0.26324555 -0.06379825
629 -0.26718134 -0.11953969 -0.040319007 -0.010147899 0.21156715 0.42372876 0.035302106 0.15387325 -0.41047752 0.15991983
305 -0.03811938 0.06470664 0.070396826 -0.32436165 0.23034081 0.48503694 0.17784518 0.28199524 -0.20948917 -0.031842735
747 -0.16144985 -0.20793146 0.076313496 -0.043551017 0.18277028 0.45893487 0.10070376 0.3293877 -0.21788602 0.050860446
768 -0.16567418 -0.20984031 0.10850707 0.017793363 0.22334652 0.5272263 0.13984238 0.11624398 -0.29390588 0.034524478
715 -0.008727198 -0.05702732 -0.03199622 -0.1090302 0.23567428 0.4436072 0.03120109 0.23605792 -0.22581506 0.250251
103 -0.20552859 -0.11556563 0.052508336 -0.18410681 0.2431093 0.26520878 0.3911981 0.35213774 -0.23163097 -0.02856012
272 -0.09094588 -0.20747605 0.043025076 -0.025066236 0.049158186 0.3963494 0.11883875 0.3226562 -0.35488155 0.063621454
737 -0.052997988 -0.22426723 -0.2720463 -0.10313373 0.03778622 0.3155671 0.17384192 0.19361979 -0.5822303 0.035416633
208 -0.02275302 -0.13390166 -0.021528482 -0.15333875 0.32676515 0.33495152 0.15762457 0.3575578 -0.12110124 0.14407212
31 -0.008259763 -0.27265215 0.05567173 -0.16864881 0.070798606 0.26306814 0.31829396 0.36127722 -0.28000882 0.013498609
53 -0.0662843 -0.20409958 0.13124855 0.030192541 0.3825088 0.4045935 0.25951767 0.15493076 -0.22450878 0.017276831
333 -0.105033815 -0.09216186 0.1216359 -0.13503039 0.19897246 0.49340236 -0.0829194 0.27075508 -0.24694477 0.14588302
474 0.005852704 -0.18453482 -0.017422749 -0.08253244 0.13573934 0.34740368 0.05192356 0.257504 -0.420649 0.095048994
1037 -0.025774173 -0.2827184 -0.024309771 -0.22760306 0.24396704 0.26405716 0.09866614 0.2483298 -0.26256937 0.19131762
1000 -0.013395457 -0.054519124 0.12992728 -0.31709984 0.5024877 0.30536947 -0.21248849 0.31296343 -0.39929882 -0.06918258
1017 0.0078034294 -0.27903634 0.12704083 -0.22649898 0.15344298 0.33245975 0.23343147 0.29308188 -0.16065927 0.09007037
59 -0.19074059 -0.0978538 0.19735767 -0.09287378 0.09529466 0.48950815 0.1369169 0.21026585 -0.32516286 -0.013014185
198 -0.2485745 -0.16699766 0.004067479 0.07075144 0.31993443 0.4132816 0.32549438 0.18271983 -0.22902904 0.04717752
1123 -0.06639244 -0.29065895 -0.003961545 -0.08807703 0.1316344 0.6462694 -0.0061604297 0.21448436 -0.09327419 0.219362
834 0.08757316 -0.15429913 0.020221233 -0.32653672 0.19393232 0.44138816 0.12247272 0.29457718 -0.15287128 0.07831494
624 -0.12952656 -0.1043214 0.039883863 -0.17923492 0.02226153 0.5080446 -0.035627022 0.29810786 -0.29722294 0.15048373
898 -0.17028737 -0.14008738 0.03420267 -0.11914828 0.1486299 0.45587686 0.14883053 0.27533904 -0.19118685 0.12621254
419 -0.058552 -0.12864858 -0.13264813 0.026773632 0.3184924 0.43105033 0.12685277 0.13538347 -0.35946018 0.1479303
723 -0.08932502 -0.13397568 -0.18175688 -0.27999824 0.247736 0.3127202 0.2048034 0.07218263 -0.49896535 0.00063395133
1074 -0.11212467 -0.022330057 0.096070595 -0.16861056 0.12381177 0.44666803 0.23495574 0.29563493 -0.28979605 -0.055888664
978 -0.12374883 -0.16042347 0.09592385 -0.16042763 0.29633167 0.20208731 -0.037950445 0.3435081 -0.44139844 0.056810364
1019 -0.038290467 -0.29040498 0.113048024 -0.16974176 -0.09040085 0.41507497 0.11678763 0.2699816 -0.33235073 0.098903604
786 0.070864834 -0.18418668 -0.1695529 -0.12761767 0.081858516 0.5750596 0.11372551 0.17847683 -0.21794191 0.17936449
577 0.06967389 -0.052331407 0.026303817 -0.27829197 0.36318177 0.33357853 0.193351 0.124890715 -0.4034023 -0.09991977
993 0.0019367477 -0.11680835 0.020220457 -0.23016696 0.24341784 0.4174339 -0.033752106 0.17745614 -0.4022467 0.024111513
339 0.13350067 -0.29244304 0.06270713 -0.282701 0.19492714 0.18688373 0.17100225 0.27839524 -0.41807452 -0.06628579
689 -0.23701383 -0.1137405 -0.011966944 -0.018118743 0.19603387 0.5542317 0.17788328 0.23127626 -0.21177532 0.025850272
897 -0.0783848 -0.26488963 -0.058937877 -0.15505265 0.13905792 0.40633732 0.14396165 0.2937283 -0.20127164 0.10318584
1130 -0.23417425 -0.0327337 -0.01607159 -0.11450878 0.30624288 0.46303838 0.08538945 0.18961482 -0.2290277 0.1541388
409 -0.20184857 -0.33919412 0.016869571 -0.2932638 0.18506818 0.42611662 0.007863847 0.20717591 -0.12666695 0.26319933
602 -0.01730315 -0.0142558105 -0.029809047 -0.14243183 0.13370171 0.55270654 0.21399494 0.10333449 -0.36358252 -0.02781457
630 0.17617609 -0.15407754 0.046369012 -0.066678695 0.33886972 0.39698038 -0.049630895 0.20569131 -0.3925077 -0.0011458078
200 0.28476137 -0.3179292 0.06762208 -0.16181286 0.15955397 0.29458895 0.24410558 0.23358275 -0.37171078 -0.03057481
1177 -0.20457697 -0.034013797 0.24057363 -0.15470873 0.25823575 0.40830743 0.066002145 0.41719684 -0.21925859 -0.0436256
516 -0.018034065 0.047484633 -0.08190044 -0.13156828 0.12687294 0.4315127 0.18579537 0.27090576 -0.3489301 0.050204143
73 -0.009323419 -0.13121603 0.027536325 -0.32225075 0.19162112 0.23750761 0.08446134 0.52940756 -0.22151367 0.05872223
33 -0.08057556 -0.07544693 -0.02200008 0.033917986 0.08499628 0.37583843 -0.066309966 0.35859847 -0.5186513 0.07062063
102 -0.23790696 -0.2620996 -0.032646988 -0.18931045 0.15168403 0.24797508 0.2578189 0.11326266 -0.4844092 0.044104457
238 -0.055517968 -0.19667602 0.10063499 -0.116657786 0.4182296 0.4373733 -0.026394038 0.23211038 -0.17991947 0.095860615
925 -0.059760123 -0.14717212 0.16561146 -0.24596229 0.36778137 0.3796771 0.08974244 0.111501075 -0.30335423 0.011490294
966 -0.123741105 -0.23674318 0.16246271 -0.18042596 0.22566213 0.3668733 0.16889493 0.24156031 -0.21022518 0.0775655
1157 0.0024150475 -0.17171763 -0.14919595 0.04254934 0.12344118 0.5067706 0.31608832 0.21678786 -0.27560946 0.039268747
366 -0.21953446 -0.27866858 0.18027133 -0.20460942 0.11548355 0.39343193 0.09841548 0.051853176 -0.3153922 0.18301927
568 -0.12536538 -0.08224823 0.02678682 -0.40312403 0.24167833 0.35307842 0.09370961 0.28922042 -0.23489657 0.027702468
1060 -0.12108034 -0.1490033 0.06966737 -0.178869 0.3107719 0.24453081 0.27688015 0.39584658 -0.22987828 -0.061437845
151 0.09576319 -0.36378655 -0.08026181 -0.17185007 0.22322622 0.37587312 -0.02788454 0.2961523 -0.19420518 0.19497336
539 -0.13897161 -0.3997204 -0.16438766 0.045737814 0.096319534 0.3624224 0.2280882 0.029853923 -0.42731088 0.1842295
77 0.036415458 -0.26410788 -0.08936061 -0.24276 0.22660488 0.27843964 0.09608922 0.24202308 -0.39256006 0.076267615
906 -0.1399656 -0.101081945 0.17447883 -0.121189326 0.2905927 0.32593122 0.06685566 0.304227 -0.33752018 0.030750288
142 0.10461894 -0.21373087 0.042587638 -0.041631274 0.31715977 0.34237596 -0.06405196 0.30634242 -0.39126682 0.024070622
350 0.1389408 -0.09658772 0.16047695 -0.07246117 0.0736395 0.4785949 0.21400638 0.2182311 -0.27274048 0.030148914
895 -0.0424794 -0.16935736 0.021588366 -0.12110694 0.07781526 0.32747793 0.22809985 0.30522504 -0.3043532 0.090506755
1155 -0.13826874 -0.18256985 0.19751734 -0.21770343 0.16367343 0.4425369 0.13425533 0.22092366 -0.20860241 0.072448984
1069 -0.088709526 -0.13970318 -0.09815186 -0.050452773 0.018871905 0.3077973 0.09907975 0.37846017 -0.5152105 0.059856337
607 -0.013132492 -0.0464393 0.1852474 -0.10879469 0.34082234 0.42873114 0.15859915 0.26232836 -0.25801876 -0.067329206
576 -0.09957581 -0.09406066 0.2214105 -0.15032448 0.3227306 0.4100463 -0.11045661 0.2668323 -0.2886602 0.093813114
845 -0.088115185 -0.1653442 0.06440874 -0.0740289 -0.041614987 0.37092668 0.32239646 0.26280755 -0.49313405 -0.1257364
852 0.13902578 -0.060484506 0.021086708 -0.27472752 0.12199201 0.21308993 0.12508656 0.42029238 -0.47633868 -0.06891147
719 -0.118106246 -0.21240315 0.04588936 -0.31543076 0.050717313 0.40642855 -0.069190785 0.24597426 -0.338911 0.1618284
135 -0.22495274 -0.23371129 0.24068138 0.03684506 0.20299968 0.3673024 0.15234864 0.16358197 -0.4203185 -0.040957484
585 0.11221545 -0.21405292 -0.06454142 -0.24655694 0.20296277 0.23051257 0.2538123 0.27058953 -0.39633918 -0.027326614
1193 -0.028039759 -0.09823663 -0.005893146 -0.30952558 0.2488991 0.40638483 0.05318555 0.23748939 -0.32868382 0.0065898397
190 -0.058015592 -0.20746553 -0.095511824 -0.260208 0.15258048 0.2894063 0.16713953 0.10684246 -0.4687649 0.07930705
1016 0.009180838 -0.09764045 0.05732114 -0.012595179 0.250476 0.3786218 0.08844127 0.45548677 -0.2902694 -0.055483334
563 0.0067106504 -0.2759954 0.010632369 0.037622914 0.18121776 0.3200351 0.1683641 0.110590994 -0.4678287 0.06937618
798 0.23456983 -0.34061128 0.12451991 -0.22516307 0.08024088 0.37792653 0.21390791 0.13727085 -0.31064656 0.041981217
677 -0.12404241 -0.18307771 0.22793067 -0.124778844 0.25185832 0.2576059 -0.0022549615 0.17276968 -0.52962375 -0.017517634
427 0.15091462 -0.14082341 -0.15241045 -0.22185983 0.17230913 0.46786252 0.15969974 0.23234694 -0.1784133 0.16129084
1116 0.019821223 -0.08098504 0.11910342 -0.24900007 0.16617508 0.24519832 0.10602878 0.5795796 -0.27680427 -0.0274023
1163 0.06287071 -0.12659942 0.07329634 -0.0063309986 0.2592516 0.55118394 0.16751203 0.09739998 -0.28652215 0.0073636803
788 0.033622567 -0.13150702 -0.007776131 -0.06710235 0.24081957 0.4600037 -0.11172977 0.17033464 -0.3680821 0.16487834
704 -0.08686241 -0.18069306 -0.12342639 -0.19226255 0.21684001 0.35330752 0.13187668 0.1835473 -0.3479362 0.11203873
642 0.09812922 -0.2577011 0.075575866 -0.20596674 0.44574642 0.19409117 0.1365268 0.36617574 -0.3256818 -0.1347818
548 0.04972419 -0.0830109 -0.014069943 0.03873031 0.07421829 0.62924707 0.06256998 0.30494845 -0.1575127 0.2016479
524 -0.13986538 -0.15825197 0.10036562 -0.0052702404 0.121683456 0.5488015 0.18507038 0.053117096 -0.33444962 0.053694833
541 -0.0923186 -0.4083423 0.146823 0.0034469718 0.16332628 0.283317 0.20674157 0.21453246 -0.23582809 0.2172227
1097 -0.14656864 0.031124821 0.27796283 -0.22726716 0.16198376 0.45382982 0.021387635 0.21482483 -0.39194486 -0.07396505
1034 -0.13797462 -0.22333726 -0.07374382 -0.28338322 0.22525138 0.3585109 0.06472515 0.1464747 -0.28544483 0.18736267
456 -0.053298794 -0.19138594 0.16959663 -0.17329074 0.05804843 0.41915947 0.21298559 0.11505212 -0.2970875 0.123045616
394 0.0729123 -0.28346038 -0.26111498 -0.28072825 0.34829387 0.28731874 0.15579998 0.23702031 -0.28792113 0.06509162
417 -0.067987494 -0.21073952 -0.019318923 -0.13936326 0.38024965 0.23879781 0.28881174 0.12543291 -0.36434427 -0.0008183735
1139 -0.19806065 -0.05445418 0.12240046 -0.25254878 0.15197548 0.384845 0.023085773 0.19000368 -0.43943396 0.011532541
34 0.08829716 -0.2872659 0.056445118 -0.09978536 0.21482463 0.3462695 0.08101324 0.21359615 -0.4599269 -0.058767375
35 -0.03353933 -0.2949546 -0.13493423 -0.032710128 0.35271406 0.2893404 0.19628951 0.29065028 -0.2717901 0.062457953
972 0.0667335 -0.15717158 0.074301966 -0.48573086 -0.05428838 0.4878629 0.14974721 0.11610236 -0.30094418 0.05420968
72 -0.17439428 -0.2215807 -0.11326521 0.013592843 0.32653835 0.5463489 0.38839734 0.09841612 -0.040340062 0.15727448
888 -0.17192237 -0.22079672 0.08050097 -0.10990641 0.13587241 0.31757814 0.34526673 0.24187689 -0.25492525 0.07817655
883 0.04802908 -0.37306246 -0.11979074 -0.019119995 0.11561876 0.4398449 0.14606208 0.21065998 -0.27224445 0.15311992
431 0.049733754 -0.24656862 -0.040520314 -0.0721456 0.07513573 0.40407786 0.21977936 0.17049697 -0.31014225 0.14909045
875 0.16425332 -0.2344925 0.046680737 -0.1904892 0.17561145 0.30294907 0.14124462 0.22145697 -0.35637936 0.06843111
759 -0.035811905 -0.28901038 -0.056830205 -0.2246812 0.16286154 0.40005216 0.24878168 0.19460331 -0.21174929 0.07706125
156 0.25222966 -0.10458145 0.20316413 -0.20679629 0.240371 0.3987281 0.02460305 0.17620632 -0.38682765 -0.032815143
976 -0.038375128 -0.16525704 0.022049231 -0.05687674 0.38866284 0.44353676 0.11040627 0.19708093 -0.2479856 0.019891614
415 0.052892115 -0.17982677 0.043463767 -0.123172075 0.07317061 0.51150525 -0.0073121586 0.19919014 -0.34870735 0.11145084
167 0.041365426 -0.2011598 -0.13479054 -0.1889229 0.18925829 0.43481556 0.0048653954 0.19844528 -0.3594407 0.077764854
641 -0.050439246 -0.29811406 -0.1078962 -0.28010285 0.20567606 0.40117094 0.10095937 0.12940602 -0.25681418 0.15742686
436 -0.10874733 -0.19742686 0.24261674 0.13077044 0.09740821 0.47794703 0.039202355 0.06582337 -0.5464 0.025687022
617 0.016253978 -0.13120043 0.09157951 -0.24630448 0.11305352 0.33697012 0.22394696 0.16717018 -0.41834372 -0.01514028
1160 0.10699224 -0.11580694 -0.2373392 -0.17620377 0.25908476 0.51646465 0.06312891 0.17488089 -0.24247766 0.12555939
927 -0.01953801 -0.23294237 -0.20353568 -0.08999367 0.12576297 0.52968013 0.33753404 0.16116883 -0.24736503 0.022774057
876 0.12733088 -0.13287655 0.019291475 0.018922806 0.3675514 0.462286 0.20289227 0.2609826 -0.20947766 -0.038109943
928 0.036244076 -0.17540836 -0.06322626 -0.13710861 0.25379056 0.45854202 0.32641786 0.06960991 -0.2457948 0.038509976
720 -0.04281665 0.043875005 0.2055273 -0.21623637 0.33783162 0.44816515 0.108698174 0.16807537 -0.3624202 -0.14985837
745 0.13942829 -0.20108905 0.048371203 -0.10170945 0.21615289 0.47232062 0.012461743 0.33812362 -0.16582933 0.106713
973 -0.053957965 -0.23934852 0.018028986 -0.13303144 0.27474707 0.33916268 0.18915568 0.21284677 -0.36927402 -0.06327933
261 0.061929435 -0.097703226 0.053192686 -0.18314454 0.18167146 0.3802625 0.017102709 0.40209842 -0.26112545 0.08515599
766 -0.024807446 -0.39507914 -0.016162977 -0.15076269 0.036630932 0.29143238 0.26990643 0.2946174 -0.3371865 0.019163717
646 0.2101891 -0.3336064 -0.25029936 0.097405106 0.2144665 0.34850088 0.07057916 0.20826364 -0.52893084 0.0646405
549 -0.12632498 -0.35619017 0.16755573 -0.39942962 0.051263936 0.21796319 0.11770634 0.17288925 -0.36534002 0.12128611
364 -0.123701595 -0.1658804 -0.029961392 -0.3398953 0.17124018 0.33809054 0.12989567 0.2848202 -0.24751309 0.10993564
1012 0.07805451 -0.50104374 0.12946536 0.03343225 0.1181932 0.43015122 0.06226826 0.21490875 -0.17585105 0.2247603
1141 -0.0608801 -0.21212807 -0.06365221 -0.20184761 0.060763728 0.4343282 0.069714576 0.04765632 -0.4446452 0.17840347
846 -0.10132596 -0.19218203 0.19522619 -0.32738847 0.095746666 0.3507752 -0.06500943 0.31073946 -0.29773384 0.11647358
219 0.0024410537 -0.37828615 0.14903884 -0.15074211 0.034464475 0.3437699 0.013333135 0.3317728 -0.3005593 0.11205055
644 -0.08390563 -0.17633754 -0.033174552 -0.16719541 0.20867258 0.37414405 0.04187302 0.11406673 -0.4141076 0.139473
562 0.025359845 -0.060986847 -0.27017727 -0.10847859 0.29920346 0.56836665 0.17641544 0.12565756 -0.2506419 0.071884096
611 0.103946954 -0.19668348 -0.05326074 -0.05061761 0.1720504 0.43042648 0.22571893 0.35809422 -0.22574355 -0.018522043
702 -0.20415194 -0.06653749 0.08900263 0.021034399 0.24766882 0.49710843 0.09786031 0.19903857 -0.33183727 0.00524674
1077 0.053818658 -0.05128262 -0.14240766 -0.25728944 0.32838893 0.4006004 0.022932496 0.074800625 -0.407225 0.08783862
330 -0.016529905 -0.21365988 0.051271614 -0.15468846 0.50217944 0.3196283 0.084367126 0.29764774 -0.17188682 0.051317465
411 -0.028165681 -0.22698463 0.022211408 -0.0575071 0.13304435 0.40836552 0.10113763 0.23101045 -0.34649473 0.070723854
60 0.1657841 -0.28637832 0.17921606 -0.06955572 0.31661257 0.47890767 -0.051557448 0.2136339 -0.17730054 0.13012938
564 -0.2533487 -0.35758 0.060427375 -0.1976105 0.20675485 0.27292764 0.017146373 0.13679595 -0.41256744 0.14192928
1021 -0.08369824 -0.16856529 0.06283122 -0.023128113 0.4077865 0.62765133 0.08758876 -0.01941448 -0.15711196 0.102319434
1001 -0.109259576 -0.37605247 0.04006588 -0.005174836 0.023539977 0.4638341 0.18119338 0.26256463 -0.12157026 0.26239967
606 0.023640648 -0.120255694 0.078093305 0.011350846 0.20023026 0.4844022 0.12945603 0.09519118 -0.4142053 0.03336901
764 -0.03773667 -0.22276524 0.06180292 -0.08329501 0.024485653 0.5325462 0.25328377 0.1165718 -0.25010383 0.12661745
458 -0.23017874 -0.07392367 -0.012217516 -0.16752921 0.2556881 0.32454434 -0.067080244 0.2939266 -0.41237497 0.113869965
835 -0.097066775 -0.27245203 -0.05704944 -0.1452687 0.21846037 0.28410885 0.19126067 0.2721827 -0.29363373 0.10977104
880 -0.06349718 -0.17114435 0.1151463 -0.24217536 0.25690496 0.421723 0.12276284 0.26904574 -0.21964988 -0.036045987
989 0.037410337 -0.15026243 0.029271847 -0.21200708 0.032271985 0.5735222 -0.0042312457 0.12834683 -0.29076245 0.13127412
297 0.29366726 0.031288482 -0.14484394 -0.21449348 0.090944186 0.50192285 0.10730329 0.10675844 -0.44792408 0.027089112
700 0.10377152 -0.07108338 0.10325927 -0.10311363 0.284347 0.47065553 0.101300284 0.22327985 -0.26752025 0.02648644
270 -0.071842365 -0.3403966 0.11845551 -0.38706544 0.17618191 0.3588143 -0.12156531 0.42165467 -0.025499212 0.29076838
322 -0.005354964 -0.25306204 0.20176767 -0.16386044 0.12416966 0.40185222 0.09589688 0.15767351 -0.37935287 0.012795381
43 0.031918753 -0.1743179 -0.088307165 -0.11467997 0.20885532 0.31914657 0.22243503 0.38612235 -0.29317155 0.021211317
1121 0.0126943365 -0.23786165 -0.08228505 -0.2662042 0.20980242 0.3950883 -0.0122564 0.2495789 -0.2373704 0.17480794
740 0.07966145 0.0075215404 0.113370314 -0.17501093 -0.004840047 0.55445004 0.22972026 0.37181216 -0.17523682 0.027908055
626 0.11170979 -0.3089715 -0.23133078 -0.19207987 0.33936346 0.24987577 0.31495196 0.44133002 -0.12908478 0.026379827
949 -0.026497597 -0.17587268 0.0092407605 -0.23329541 0.20410691 0.47719786 0.14898756 0.25892228 -0.19453007 0.009517993
631 -0.14820836 -0.16635025 0.08174973 -0.23842862 0.2367579 0.45508847 0.2772284 0.064881645 -0.20101246 0.05183783
649 0.012319815 -0.07154018 -0.13708138 -0.2813398 0.14391178 0.42018497 0.21164717 0.21605535 -0.2723174 0.0693876
312 -0.16417848 -0.052213598 0.08450935 -0.15742747 0.33594346 0.51130515 0.090851955 0.027634006 -0.32070452 0.02747711
926 -0.045668304 -0.22606164 -0.049923293 -0.16650556 0.14349802 0.21450037 0.07582501 0.1772523 -0.55378354 0.10052369
877 0.08162911 -0.21701579 -0.03072712 -0.22615929 0.30726457 0.40541774 0.20427948 0.16030212 -0.17503287 0.10839707
166 0.017600307 -0.25090155 0.039641667 -0.042564433 0.31782314 0.4742949 0.0502776 0.17806529 -0.24992296 0.07705774
510 0.029430911 -0.28740135 0.16590822 -0.043318883 0.27281883 0.42466694 0.048304077 0.43374556 -0.14349225 -0.021847984
836 0.17670476 -0.20312418 -0.01700235 -0.29497424 0.26144686 0.42195562 -0.00019810541 0.108639136 -0.28383768 0.16182782
741 -0.05184767 -0.176032 0.056119177 -0.2524154 0.36936203 0.44743767 0.08737554 -0.019398032 -0.1943136 0.18589246
1179 -0.14103058 -0.082760476 0.05724293 -0.10468562 0.11529633 0.48377934 0.13777219 0.26728964 -0.20533304 0.14451616
109 -0.10044754 -0.03681141 0.19029076 -0.16785474 0.25036037 0.4653615 0.18670861 0.18509892 -0.27380756 -0.045712125
172 -0.11017016 -0.36919963 -0.10701568 -0.10235553 0.13906698 0.31973487 0.15682973 0.44974595 -0.19405423 0.12457302
129 -0.1374702 -0.27240753 -0.018554376 -0.037986096 0.216856 0.32910764 0.1800048 0.19548336 -0.4250771 -0.005466457
446 -0.16668428 -0.10045181 0.02729964 -0.27071258 0.14337683 0.3011894 0.16677439 0.41658399 -0.20229456 0.10087967
192 -0.24248137 -0.33424997 0.19801365 -0.22029339 0.09386306 0.1276621 0.22900644 0.42396504 -0.41287622 -0.059271604
527 -0.12276866 -0.027000334 0.0818193 -0.25445285 0.028129254 0.5036603 0.03992823 0.26298803 -0.28765994 0.122997545
161 0.118046805 -0.287299 -0.012763926 -0.14275892 -0.00022695688 0.21063958 0.16803354 0.5319929 -0.39026037 -0.0061419928
635 0.17411079 -0.27578464 -0.050951295 -0.14230447 0.2863942 0.37895727 0.39336407 0.12248773 -0.18810047 0.04357473
1073 0.09137644 -0.12019802 -0.06579326 -0.2958748 0.20688468 0.41487744 0.18956928 0.18123466 -0.2572742 0.05717997
729 -0.2684096 -0.32827622 -0.016560152 -0.205257 0.15198728 0.32284358 0.23381387 0.099799596 -0.22666404 0.22732821
1105 0.13776617 -0.050765686 -0.0106244795 -0.06328832 0.17925294 0.50894123 -0.031587422 0.22485583 -0.35535622 0.11676843
164 0.17698014 -0.22495475 0.22592962 -0.12434569 0.11078298 0.53306574 0.14817412 0.26990628 -0.1644851 -0.00016512204
710 -0.15635128 -0.27241957 0.092150934 -0.09156847 0.29515722 0.4180433 0.26827022 0.18995292 -0.1377213 0.079227194
334 0.025559943 -0.16819446 0.0178847 -0.10096905 -0.01843475 0.59857947 0.26069152 0.13089131 -0.2235892 0.12113329
453 0.06367927 -0.024993382 -0.040785264 -0.2697007 0.32526568 0.44132268 0.02581363 0.14863466 -0.25307348 0.14619724
1065 -0.09861903 -0.15895931 0.036729902 -0.26031706 0.3256973 0.39336947 0.09305711 0.25219017 -0.18910031 0.061355688
355 -0.20040688 -0.34887403 0.09969529 0.046473876 0.23135664 0.3308391 0.10041658 0.29186487 -0.28682122 0.13406847
452 0.0379596 -0.29128385 0.018179167 -0.18593892 0.18653086 0.27574134 0.17100984 0.20774223 -0.40992293 0.012065344
703 -0.25064093 -0.0883543 0.07866588 -0.05373241 -0.022076663 0.484012 0.08240444 0.384967 -0.28402266 0.08821169
1138 0.017291535 -0.23250094 -0.03655722 -0.2579968 0.3150545 0.39974526 0.19497968 0.21980605 -0.118892394 0.11782398
608 -0.111873664 -0.25450966 0.17927617 0.004497182 0.18861465 0.45052588 0.1350019 0.19061376 -0.25004074 0.0876264
762 -0.15067036 -0.16616651 0.07004524 -0.24929628 0.065602235 0.51322734 0.08185739 0.1590037 -0.344453 0.028973052
495 -0.078171335 -0.32931703 0.12216223 -0.05591553 -0.15513375 0.46132872 0.23834331 0.29259452 -0.25155458 0.1731118
42 -0.08862504 -0.2621121 0.1145735 0.07089699 0.15672803 0.3122112 0.18641108 0.27730465 -0.44627023 -0.029148256
969 0.07426103 -0.18524289 0.19345671 -0.11850174 0.2937941 0.2941157 0.14937834 0.20805052 -0.4473089 -0.11483625
381 0.21270347 -0.036085736 -0.16037275 -0.086619206 0.1458692 0.5248021 -0.11365884 0.16287507 -0.5376487 0.03142341
1189 0.03378253 -0.16176909 0.0144330505 -0.1001835 0.24346535 0.42675537 0.14312223 0.2284611 -0.28316244 0.048390023
861 -0.03796225 -0.28052473 -0.09598187 -0.041303277 0.24762505 0.3606444 0.21236534 0.310457 -0.21309163 0.08380692
315 0.10427726 -0.2899439 -0.13797115 -0.104317695 0.25499567 0.2438769 0.19645546 0.24648142 -0.3762959 0.08972887
1035 0.018469656 -0.23345046 -0.12537478 -0.039708305 0.1809838 0.30529785 0.018054595 0.37326223 -0.4514747 0.0458149
711 0.08916024 -0.18425936 -0.043617595 -0.20153105 0.32964176 0.485433 0.13987936 0.26998892 -0.050580792 0.10887309
806 -0.07777396 -0.22300713 -0.14633445 -0.22387312 0.19909197 0.4015403 0.1596096 0.107752755 -0.2819798 0.15161186
488 0.019026523 -0.24863523 0.112868875 -0.1534318 0.19521007 0.2959602 0.16564722 0.3633555 -0.25734732 0.05268883
341 -0.18979779 -0.10625918 0.17295612 -0.20204653 -0.06312702 0.44807467 0.25141045 0.24333747 -0.31478637 0.027477652
222 -0.20413782 -0.09580842 -0.19364473 -0.23016007 0.19326402 0.43875065 0.1360933 0.27427858 -0.27060443 0.07590023
647 -0.07610396 0.07478938 0.08336511 -0.21453959 0.110251345 0.45462787 -0.06765287 0.28526193 -0.43257296 -4.125221e-05
605 -0.0078027854 -0.17638102 0.07497936 -0.14550668 0.179313 0.3252132 0.09313831 0.28907454 -0.38686836 0.006795441
1162 -0.09992862 -0.030156842 0.1162021 -0.21916263 0.39440447 0.29311275 0.00064263406 0.5059959 -0.22021247 -0.021860538
971 -0.10639508 -0.21391113 0.24370919 -0.20914659 0.19457328 0.34302258 0.08354861 0.22548844 -0.3069793 0.041557517
553 -0.031260803 -0.16262485 -0.06464414 -0.23797871 0.21526803 0.24691732 0.07947911 0.26345804 -0.42391247 0.051891994
738 0.091659956 0.06568019 -0.05778783 -0.07591342 0.15646191 0.54872483 -0.0153560545 0.45467383 -0.30588797 -0.049314182
1113 -0.18403529 -0.16077271 0.013479207 -0.22758271 0.23635013 0.31423733 0.16448675 0.13675538 -0.43325922 0.016561773
1161 -0.0019354611 -0.15761068 -0.23759286 -0.11331037 0.17695838 0.5606929 -0.07874486 0.14437576 -0.29917055 0.221983
664 -0.13631852 -0.18846829 0.07293594 -0.16899508 0.076616056 0.33891323 0.15350263 0.31725574 -0.27530953 0.1341377
475 0.05551871 -0.33679864 -0.037566386 -0.24408042 0.22256678 0.47191265 0.15166794 0.27158293 -0.014965885 0.15043189
962 -0.025999997 -0.37168732 0.101683706 -0.22649868 0.21413484 0.40957612 0.2730226 0.19151007 -0.17755303 -0.022606414
52 0.04603003 -0.3776943 0.16897517 -0.09973696 0.2623346 0.40039578 0.06843998 0.17230596 -0.26810116 0.034888495
114 -0.022366432 0.09302441 0.14275165 -0.24792917 0.021346549 0.3188296 0.1402036 0.30808845 -0.5238835 -0.058440443
438 -0.11410132 -0.12985283 0.06153855 -0.14688113 0.023473324 0.5641289 0.14826776 0.30927318 -0.19039014 0.07202364
118 0.23010461 -0.14106068 -0.058073945 -0.17418134 0.2629921 0.44465756 -0.0058603063 0.22748707 -0.27754077 0.12907577
65 -0.11242481 -0.3266279 0.029508427 -0.18390147 0.09684469 0.20647211 0.33021954 0.40420398 -0.3573623 -0.07949189
645 -0.04418723 -0.20152912 0.18896566 -0.060163267 0.18944995 0.44975764 0.20626332 0.2540061 -0.2518156 -0.06188545
673 0.112672314 -0.2734735 0.0032519272 -0.25479195 0.13111606 0.25348195 -0.050932102 0.3858054 -0.4084576 0.05148965
320 -0.1207171 0.0021543202 -0.094943576 -0.39731672 0.14579046 0.48574257 0.07074591 0.07623782 -0.437401 0.014673472
820 0.018534442 -0.1393619 0.15649097 -0.4309779 0.25627133 0.39818633 0.05068086 0.19807923 -0.21145484 0.06360857
326 -0.015893208 -0.0481689 -0.010670949 -0.16862893 0.07515792 0.3398767 0.36773482 0.32828045 -0.3817636 -0.08438372
1015 -0.14607501 -0.31076685 -0.055212177 -0.24684428 0.25211373 0.36740264 0.17343313 0.26814526 -0.1575461 0.095817186
1082 -0.10078348 0.016342057 -0.15222771 -0.22378276 0.120115764 0.36800236 0.25486007 0.30497676 -0.43317145 -0.09567986
157 -0.10951509 -0.34829032 0.035648283 -0.044070847 0.32385728 0.32858974 -0.05107794 0.35753962 -0.23303269 0.09961409
758 -0.2610533 -0.22743037 -0.13112777 -0.13487595 0.14275715 0.43103635 0.07502629 0.18490541 -0.24374326 0.29342732
140 -0.103734456 -0.038683765 0.009720132 -0.118758656 0.30024227 0.47078216 -0.023084309 0.29231384 -0.28470853 0.043174915
804 -0.2448974 -0.28885946 -0.0546203 -0.017144633 0.23567116 0.38037673 0.25358447 0.05166 -0.3171179 0.1585321
683 0.10421036 -0.07850792 -0.0026031367 -0.24484223 -0.01735102 0.48773226 0.06487352 0.12160278 -0.51909906 -0.013669195
986 -0.101423725 -0.25629994 0.045479283 -0.14229465 0.07212653 0.3052861 0.050918907 0.30674094 -0.44614363 0.041308146
894 -0.10138347 -0.07247106 -0.17894949 -0.24119864 0.055231187 0.38548392 0.023822777 0.30040395 -0.42528042 0.087730646
81 -0.2742306 -0.17625776 0.29992485 -0.018456686 0.2945472 0.33891404 0.064087406 0.32435703 -0.26419637 0.038022734
323 0.00852885 -0.20204672 -0.08978125 -0.2245962 0.223792 0.48291177 0.2719527 0.07886245 -0.21501821 0.042082224
782 0.0020067438 -0.15439251 -0.027022138 -0.27203333 0.25896284 0.30901656 -0.007991448 0.20604447 -0.37948003 0.13165583
62 0.12947346 -0.27346995 0.19083112 -0.074276425 0.09251071 0.25826254 0.38371497 0.3722401 -0.29079854 -0.07034342
368 -0.24560569 -0.36628988 -0.032477498 -0.2953339 0.18173464 0.32104152 0.2488023 0.17663126 -0.14262733 0.21069689
731 0.018816132 -0.23607641 0.028149782 -0.023259837 0.23670058 0.31381854 0.18074794 0.3125815 -0.29794568 0.046812
293 -0.08940471 -0.25548536 -0.075764835 -0.1306789 0.042359557 0.38866657 0.22984509 0.30909982 -0.220538 0.14459363
1079 0.13442282 -0.23424955 0.2197454 -0.09763572 0.42240912 0.35184652 0.16569963 0.108669385 -0.29897082 -0.021890696
777 0.1027169 -0.19669321 0.23213388 -0.08270386 0.042700924 0.4935312 0.05349296 0.2175154 -0.31845456 0.05749985
202 -0.10617137 -0.30558854 0.1040001 -0.2894919 0.0581834 0.27794194 0.059775114 0.26751924 -0.3037938 0.20424375
1119 0.06354003 -0.09030322 -0.07026025 -0.18079042 0.32716343 0.42916462 0.20473273 0.07819824 -0.2327718 0.1373523
213 -0.17497204 -0.18882275 0.030100405 -0.015755745 -0.047823366 0.33860612 0.3358209 0.29335973 -0.40440887 0.035940383
45 0.050700102 -0.050292253 -0.012421969 -0.14175694 -0.09785375 0.57514894 0.35937688 0.20657218 -0.26106793 0.029882409
424 -0.027720226 -0.25428182 -0.20136952 -0.13041353 0.15174355 0.30438575 0.04423399 0.366224 -0.32318813 0.17193139
651 -0.0029593294 -0.16247056 0.022152778 -0.3074469 0.19497527 0.44630316 0.0057781287 0.30786622 -0.15241976 0.14486462
685 -0.12879835 -0.34149548 0.013067364 -0.029760195 0.09456784 0.35775375 0.07502235 0.2684858 -0.3643788 0.13143906
508 -0.4172998 -0.027115932 -0.0056814197 -0.45903397 0.026908893 0.427503 0.18555579 0.35880804 -0.20263971 0.02977626
669 0.16511355 -0.33810025 -0.10806457 -0.15921599 0.22916056 0.2995566 0.10759067 0.2970628 -0.23326491 0.1479106
1049 -0.083595656 -0.3797353 0.12794793 -0.14920194 0.0006216512 0.26649532 0.12772863 0.45020232 -0.23659097 0.12808214
1114 0.055256266 -0.23689756 0.13256598 -0.09883476 0.16912661 0.41652012 0.093917914 0.35516188 -0.21647805 0.016420193
767 -0.028587889 -0.2606388 0.17156097 -0.13467053 0.26902342 0.2897731 0.110202566 0.3057274 -0.22533819 0.121717684
849 -0.058644474 -0.20285152 -0.078301266 -0.12307834 0.00844793 0.45881224 0.036560394 0.24977736 -0.3375754 0.21050397
106 -0.20718874 -0.15481077 -0.05396727 -0.22705474 0.025260594 0.42513853 0.11605268 0.33420542 -0.18553647 0.20667005
520 -0.14752944 -0.08344891 -0.01338799 -0.15548946 0.019427782 0.47584876 0.15570273 0.34600943 -0.312922 0.025086105
954 -0.02299851 -0.0118761975 0.15013137 -0.29674366 0.19331127 0.5942856 0.199641 -0.07361777 -0.35908034 -0.0655796
264 -0.086626306 -0.04785704 0.07717873 0.122071095 0.31032428 0.4865587 0.05893619 0.29391325 -0.31529835 0.011440296
1070 -0.02860097 -0.18135662 0.16909942 -0.217936 0.039215885 0.3784387 0.08777298 0.17827857 -0.42004827 0.061027326
802 0.13790287 -0.2676778 0.1562176 -0.1567986 0.16864322 0.28343162 -0.11278211 0.28297684 -0.451006 0.05502552
422 0.031513494 0.15919751 -0.11138264 -0.25746435 0.3731682 0.48342267 -0.09481127 0.24815103 -0.29429218 0.101242095
569 -0.008130102 -0.110577464 -0.105120845 -0.14073692 0.13772346 0.43920922 0.21654157 0.14666101 -0.3723765 0.036594905
903 0.1032996 -0.22653432 -0.09038156 -0.10428593 0.15143597 0.49407142 0.016227033 0.089642175 -0.3306662 0.22799091
224 0.14290595 -0.26027074 0.041581195 -0.16365829 0.11817689 0.49504635 0.15044813 0.0876984 -0.24115467 0.17165257
511 -0.17438784 -0.10688808 -0.041194607 -0.2058756 0.15754667 0.42564508 0.06754438 0.12632734 -0.30954865 0.2077806
387 -0.14762288 -0.24073379 0.0019775021 -0.17093045 0.20493804 0.20430346 0.061933756 0.19397703 -0.57024544 0.0036422033
401 -0.14430618 -0.28211352 -0.05506614 -0.10488375 0.27915493 0.2831438 0.056794018 0.29000497 -0.27049607 0.19211254
598 0.0011067475 -0.11640444 0.054658912 0.058036916 0.019846318 0.5663793 0.15965337 0.39754763 -0.2123875 0.030804152
128 0.3224354 -0.251394 0.07861054 -0.0819316 0.29032415 0.46292713 0.09962675 0.114912875 -0.28032592 0.05632132
678 -0.1641092 -0.15806332 -0.074364096 -0.35475272 0.22772612 0.21915141 0.19669637 0.26651445 -0.3605721 0.03462743
742 -0.03153612 -0.10279192 0.04460759 -0.22370759 0.2549951 0.32060593 0.11414341 0.3322109 -0.28479016 0.030103685
753 -0.06070675 -0.20117404 -0.18076627 -0.037088376 0.267103 0.26917362 0.27081224 0.28494862 -0.27520233 0.1412247
247 0.049621947 -0.19812784 -0.0206718 -0.04921904 0.18296145 0.33387804 0.38115105 0.13955307 -0.38192484 -0.011819913
177 -0.021973435 -0.25532857 0.090571426 -0.11143128 0.23665291 0.40310648 0.054476947 0.23300135 -0.22442476 0.1538606
489 -0.101083115 -0.21209891 0.012083942 -0.05085228 0.17167993 0.40759784 -0.10282955 0.1922848 -0.41827616 0.16853608
809 0.0066154907 -0.16343178 -0.02039665 0.08691051 0.1275723 0.48768783 0.22318368 0.3546208 -0.19233447 0.08434079
552 0.010261314 -0.09317657 -0.1060739 -0.31968084 0.25315467 0.4673958 0.22147119 0.23917548 -0.20584434 -0.02975658
1054 -0.13550378 -0.124232166 -0.13592526 -0.19562908 0.45046142 0.34292603 0.23613144 0.16467637 -0.30411816 -0.019226436
823 -0.08378145 -0.092990465 0.068791434 -0.28161773 0.040998515 0.54614276 0.015648562 0.25083295 -0.23981205 0.097602114
785 -0.0067109526 -0.30379546 0.10990467 -0.2964525 0.16939484 0.3460377 0.26622486 0.08133841 -0.2984542 0.048964858
470 -0.43672726 -0.05937989 0.0424627 -0.18381071 0.54917765 0.29599932 0.030786049 0.07039402 -0.5334622 -0.13490683
57 0.18576688 -0.20263277 0.11643364 0.13760643 0.09138473 0.43484443 0.16728257 0.17426383 -0.49993774 -0.047126118
447 -0.29931086 -0.33647743 0.01779376 -0.051629554 0.2181214 0.37392032 0.33054394 0.15517612 -0.17728308 0.17911199
466 -0.17950492 -0.17138043 -0.11041517 -0.30748433 0.18910263 0.43125764 0.16460344 0.13923548 -0.24359919 0.13970493
779 -0.13070253 -0.120189 -0.13062954 -0.17196527 0.27317777 0.24227148 0.19850102 0.3189548 -0.41758278 -0.0016784061
138 -0.03351425 -0.35278335 0.31457436 -0.18145777 0.21402383 0.32132164 -0.013780576 0.37590364 -0.17489052 0.12005491
1081 -0.03508833 -0.26175272 -0.16853127 -0.17632207 0.0781658 0.5223489 0.006922776 0.11346856 -0.3069127 0.24077588
243 -0.02524607 0.013163744 0.10955916 -0.29160845 0.29206902 0.56023 0.20361449 0.16864339 -0.15534984 -0.03697657
1041 -0.08156986 -0.19460155 0.10122417 -0.23419447 0.16065283 0.49571243 -0.12180897 0.23223808 -0.25727022 0.15465425
1094 0.024771115 -0.19537698 0.092256926 -0.22822262 0.29263145 0.37684232 0.16241224 0.24337047 -0.19400683 0.03787466
910 0.09752864 -0.2771117 -0.1330629 -0.11684138 0.14993232 0.4382343 0.24330641 0.050689746 -0.33417135 0.10948483
1181 -0.06393416 -0.276 -0.032886792 -0.36677122 0.20275643 0.27596533 -0.030813543 0.26122573 -0.35920405 0.09531812
491 -0.160556 0.18227285 0.010119621 -0.21434142 0.32648855 0.45265374 0.15145312 0.41704813 -0.23405276 -0.08073781
680 -0.20801845 -0.119185336 -0.2288664 -0.17665616 -0.08356781 0.39640158 0.19926046 0.26904172 -0.41469178 0.14285596
1045 0.063682914 -0.1513573 -0.11261587 -0.17281258 0.3929567 0.5168503 0.068630904 0.34550565 -0.014948689 0.120824546
531 0.07489584 -0.13682018 0.14281473 -0.018550493 0.23264271 0.4272272 0.3603374 0.2212803 -0.22757313 -0.047210727
480 -0.1281397 0.027517328 0.15005256 -0.20400774 0.1356011 0.6565418 0.036313508 0.12757123 -0.16272163 0.15007941
244 -0.13737014 -0.23131807 0.11983352 0.029380156 0.18312232 0.32929358 0.103924654 0.35509166 -0.33014718 0.06490711
357 -0.15499994 -0.12013014 -0.18257196 -0.13841495 0.13524175 0.22583506 -0.017985081 0.5621216 -0.47335163 0.0033149289
956 -0.10740203 -0.1223491 0.0092170425 -0.23993655 0.01893236 0.502219 0.01646078 0.19677979 -0.28653526 0.20194212
220 -0.2566365 -0.18832497 0.17829232 -0.19591027 0.2242251 0.3032753 0.2375149 0.11448864 -0.37875906 0.004660483
1032 -0.06860585 -0.44170478 -0.05085777 -0.08171034 0.03940748 0.37326816 0.1885635 0.33955175 -0.17451587 0.17054604
554 -0.05979436 -0.33630913 0.21200445 -0.13086298 0.10792107 0.37106836 -0.013484252 0.20619021 -0.3009776 0.19535142
1038 -0.33197263 -0.22849631 8.306597e-05 -0.14538427 0.11624812 0.44542465 0.0334305 0.10220635 -0.26751184 0.3024422
1185 -0.020647349 -0.13196218 -0.049098067 -0.091405526 0.2133398 0.55869466 0.23694679 0.11234986 -0.22147231 0.046451382
99 -0.13113596 -0.109490514 0.13144788 -0.25404254 0.18699293 0.45236674 0.07737404 0.23930486 -0.28822923 0.013737725
313 0.12382857 -0.19021161 0.09658501 -0.053089827 0.26008424 0.52617496 -0.010930621 0.20494173 -0.26810697 0.03872438
709 -0.122985095 -0.3138183 0.17367357 -0.113851234 0.18752182 0.41755447 0.01885831 0.10928073 -0.3493426 0.08970396
24 0.12600489 -0.005749046 0.06481881 -0.16342577 0.27792266 0.42588532 0.25141045 0.45238423 -0.1265823 -0.08575885
276 0.058707155 -0.19860584 -0.065380216 -0.17112245 0.3086375 0.44672713 0.28409615 0.17107798 -0.12454723 0.1068877
952 -0.07100565 -0.24383643 -0.009032064 -0.17911819 0.16610374 0.23620428 0.15293245 0.34174764 -0.36235046 0.01900664
1107 0.07265761 -0.10367363 -0.05142951 -0.2185654 0.40818828 0.41887552 -0.11737679 0.043602105 -0.4452991 0.076365076
938 -0.051725816 -0.13706854 0.2711157 -0.037077066 0.20577878 0.394025 0.10344527 0.16299538 -0.41998208 0.0026121913
145 -0.1643279 -0.11186946 0.04465244 -0.06532563 0.3037869 0.50045705 0.038064916 0.11353571 -0.24542771 0.16560987
230 -0.0564377 -0.13996796 0.06010275 -0.31291646 0.2382967 0.28998452 0.13712563 0.032159243 -0.48782098 0.011616026
282 -0.13877974 -0.18470764 0.11456659 -0.09910831 0.2807585 0.36251265 0.15965277 0.17796059 -0.37627646 -0.064767584
813 -0.10127271 -0.25892988 0.08756149 -0.23361944 0.1879406 0.33782926 0.11056285 0.16729794 -0.33663163 0.09535282
904 -0.1179627 -0.16799091 0.20701474 -0.19994324 0.23802187 0.46624207 -0.062962316 0.1533148 -0.24866807 0.18100627
964 0.04451522 -0.26249892 0.026044406 -0.4279682 0.062238038 0.41886187 0.2035017 -0.018148772 -0.3028678 0.1593782
29 -0.058556546 -0.19094405 -0.02729234 0.007055678 0.12680732 0.38646224 0.021800099 0.13775936 -0.5245897 0.0930445
329 0.04527307 -0.06341155 0.10453816 -0.17029265 0.14839448 0.38334176 0.37409785 0.10194398 -0.43925795 -0.11823462
868 0.12716179 -0.32240164 0.040824953 -0.16625325 0.29578033 0.41241002 0.07677776 0.07097355 -0.26447117 0.14742255
442 0.17942235 -0.113121025 -0.00080551684 -0.26271382 0.21401502 0.45899945 0.045748662 0.0137036815 -0.51044375 -0.065523475
658 0.30262858 -0.111490674 0.12823027 -0.34337065 0.050403632 0.5557289 0.06253219 0.2035788 -0.2499481 0.0104264375
229 -0.060055993 -0.49904642 -0.078851044 0.0707511 0.18477032 0.436436 0.3708644 -0.025130032 -0.34250197 0.05175278
143 -0.27111334 -0.42757243 0.0950505 -0.19148068 0.21593349 0.33405328 0.22205622 0.06943374 -0.22136664 0.15442602
433 0.22528204 -0.23780541 0.0022332838 -0.10804216 0.18900843 0.40894106 0.21032405 0.22016615 -0.24007206 0.09153392
317 -0.08353548 -0.2841315 -0.10103049 -0.09165017 0.2688237 0.33858728 0.2236179 0.21687225 -0.28323507 0.088259704
392 -0.2217957 -0.2716994 0.03530976 -0.2740841 0.059738208 0.18240018 0.047905654 0.34828869 -0.4727362 0.05984127
1018 0.115659565 -0.13617009 0.040296912 -0.16329372 0.22562324 0.2501182 0.1114465 0.4757814 -0.32311097 -0.035096426
907 -0.2809988 -0.07362423 0.004129659 -0.12785675 0.21635443 0.38497636 0.09215122 0.25997093 -0.26936594 0.16761158
1178 0.088596106 -0.33185863 0.1014594 -0.12109298 0.2773736 0.41040578 0.21197803 0.12970272 -0.17010957 0.11451901
1099 0.09114534 -0.090154506 -0.14298224 -0.10657357 0.11492793 0.5468756 0.23871566 0.229429 -0.30264917 -0.014645467
1090 -0.018854884 -0.22990815 0.10207457 0.025815327 0.35493538 0.51133674 0.19304308 0.08189703 -0.15660274 0.10812596
816 -0.28684896 -0.13097426 -0.04491215 -0.06740313 0.21525648 0.36538792 0.2868177 0.3762148 -0.24964017 -0.0046102703
165 0.17158791 -0.39406484 0.10098904 -0.052554905 0.26601797 0.34921393 0.15535542 0.3529229 -0.18422703 -0.0023920597
1089 -0.14199841 -0.1835805 0.053537663 -0.054831065 0.20467 0.39394438 0.21322578 0.21934406 -0.29272443 0.046219043
218 -0.04393986 -0.2877344 0.1345189 -0.21247698 0.01967563 0.29161182 -0.072643876 0.483427 -0.36337727 0.049021255
586 -0.33729023 -0.12041295 0.23801146 -0.20724875 0.2546154 0.42758054 0.18380344 0.09535839 -0.25039178 0.051113535
147 0.034372997 -0.3940269 0.13219118 -0.18379626 -0.016246673 0.3665717 0.0039345874 0.43375954 -0.24121204 0.09240936
245 0.0781967 -0.13690065 0.059731185 -0.44308704 0.16928355 0.34276533 0.20731609 0.15826322 -0.31982613 -0.026732797
529 0.043889984 -0.41058236 0.11024922 -0.0029352144 0.34169734 0.286255 0.08737626 0.36938852 -0.23661503 0.044303633
698 0.03081732 -0.067841664 0.089734785 -0.121972054 0.33513626 0.48329222 0.13263221 0.33055443 -0.087590225 0.038679294
388 -0.052424103 -0.10132613 0.067681566 -0.18847942 0.25771767 0.47194913 0.21641657 0.08824585 -0.31463182 -0.028357638
580 0.14576432 -0.13628061 0.0498253 -0.23073412 0.115583174 0.52392006 0.146437 0.15426926 -0.22969985 0.055517003
242 0.045188542 -0.37082097 0.11735027 -0.24687266 0.44516355 0.32585213 0.21994801 0.12296387 -0.13214397 0.04255702
670 0.0012665127 -0.15301605 -0.017911313 0.14360961 0.13670792 0.41943085 0.23255502 0.24470565 -0.34476042 0.11462427
454 -0.17513035 -0.15508483 -0.023095934 -0.18892637 0.27517468 0.39684954 0.037598804 0.18841536 -0.27275854 0.15562414
540 0.019499158 -0.17568487 0.06743291 -0.009041578 0.33351952 0.44931793 -0.0021061003 0.2905515 -0.18838131 0.14772584
915 -0.00666915 -0.44293594 -0.04105407 0.083111055 0.21873467 0.36488512 -0.034767587 0.2267505 -0.35566816 0.18169479
684 0.16789119 -0.18165708 -0.04449463 -0.1279105 0.1164468 0.4272502 0.02866071 0.35497826 -0.30290717 0.072823934
28 -0.14127117 -0.3398062 0.14248188 -0.24151188 0.08849603 0.44554487 0.2669507 0.14745705 -0.16727841 0.062270235
730 -0.09523859 -0.14798552 0.04740585 -0.11202023 0.26729164 0.4566198 0.069762856 0.29701877 -0.1814087 0.07130182
115 -0.09741225 0.17216647 -0.002113235 -0.27405587 0.22611459 0.50790906 0.186167 0.26958475 -0.23702434 -0.03613992
150 0.046099514 -0.25536776 0.0837173 -0.1701664 0.23911226 0.31564707 0.32078677 0.22307386 -0.29808414 -0.040870145
450 -0.07511379 -0.20884599 -0.06680347 -0.21684541 0.20584135 0.25992453 0.08895778 0.20659046 -0.4045686 0.14388627
1124 -0.14460662 -0.25083983 -0.0459073 -0.20270963 0.27543366 0.37987542 0.28065154 -0.015821418 -0.29315642 0.10417597
746 0.09809073 0.08748715 -0.021742329 -0.16771178 0.12120305 0.6300295 0.065143965 0.070198864 -0.28633434 0.16560951
901 0.20817372 -0.2905918 0.1448891 -0.18646792 0.004282349 0.4193925 0.032019153 0.3443764 -0.2289657 0.13063131
127 -0.02009361 -0.23378009 0.2699307 -0.065930866 0.12841667 0.506201 -0.07749446 0.20726275 -0.2708166 0.117692396
800 0.090869226 -0.1621055 -0.19314323 -0.1420882 0.37169293 0.26792842 0.036386047 0.39060736 -0.29924068 0.11486869
308 -0.07251626 -0.08803781 -0.10365552 0.109972306 0.35206077 0.4579991 -0.0017488879 0.36265787 -0.27365452 0.08926687
841 -0.13502002 -0.16206713 -0.06600705 -0.17361146 0.12001055 0.42704803 0.0797629 0.21603663 -0.32620233 0.11886225
661 -0.03534739 -0.30320716 0.11072087 -0.16442467 0.11128903 0.23252083 0.07477544 0.29193917 -0.4959972 -0.023412073
356 -0.19295962 -0.19234982 0.1746437 -0.24623159 0.3646453 0.32583988 0.20916955 0.37147957 -0.123131335 -0.022508997
933 -0.22715765 -0.05614544 -0.28990865 -0.22850297 0.35607103 0.38908592 0.1995968 0.14930452 -0.26478377 0.13268532
734 -0.20719801 -0.19739863 -0.22342539 0.019250209 0.1659546 0.4132556 0.13097945 0.15293783 -0.37421834 0.18092808
1050 0.075186975 -0.30349243 -0.08011827 -0.17760904 0.18246782 0.45157337 0.16385308 0.12272044 -0.16398253 0.24661501
590 0.09371427 -0.43706918 -0.0673004 -0.20888406 0.2707003 0.2741982 0.23531799 0.09982128 -0.31639445 0.06508202
331 0.07258374 -0.10769534 0.012436165 -0.15274858 -0.063781284 0.6127321 0.07426102 0.24208187 -0.32976195 -0.011943072
814 -0.23366019 -0.37783647 0.18022588 -0.05771083 0.18592486 0.5043926 0.06349478 0.102794096 -0.27304024 0.07596622
579 -0.10652722 -0.26169536 -0.04741001 -0.11542889 0.08772621 0.38141146 -0.07201846 0.21450262 -0.45132497 0.14105837
378 0.10107686 -0.24631518 -0.051587705 -0.26757583 0.083336905 0.37666142 0.09450052 0.26021498 -0.26235276 0.13978267
848 -0.07164144 -0.18989034 0.13504377 -0.2920347 0.23015338 0.31886768 0.030015806 0.16200365 -0.3291988 0.118419655
774 0.082154974 -0.2704241 0.046899125 -0.21415775 0.30709758 0.2826115 -0.009839789 0.34368607 -0.3124723 0.024179617
432 0.12506013 -0.2233322 -0.093320735 -0.058711242 -0.22427414 0.4932046 0.33601147 0.22985831 -0.3443974 0.09483346
496 -0.24355605 -0.22078279 0.10870252 0.052197963 0.063725285 0.35836956 0.07059253 0.42336848 -0.28992045 0.1547104
1087 0.14512697 -0.15465775 0.034142513 -4.3825694e-06 0.020113232 0.4146715 0.2910526 0.2255041 -0.4350173 -0.042848628
383 0.08258364 -0.13096543 0.12679188 -0.10996387 -0.18615673 0.5466274 0.1426973 0.3125849 -0.33924222 0.027092109
988 -0.14798215 -0.1257754 0.008652334 0.01610444 0.1901852 0.36555955 0.20719045 0.35124326 -0.32677022 -0.003692594
505 0.035717137 -0.2173505 0.24062534 -0.026453407 0.23080075 0.39801645 0.08782265 0.05443747 -0.55426496 -0.112726435
1086 -0.017139327 -0.10985883 0.10874289 -0.24756096 0.25397396 0.32010305 0.4455804 0.2204991 -0.17542121 -0.016827522
882 -0.096850745 -0.06379804 0.027103098 -0.23898804 0.034344092 0.425526 0.11444304 0.3018509 -0.36652994 0.026608864
923 -0.036364645 -0.47041783 -0.13669507 -0.19150521 0.23182042 0.26895502 0.15569091 0.37058902 -0.094998315 0.21945027
434 -0.009178332 -0.1997469 -0.029652363 -0.140859 0.24580821 0.36694774 0.17008045 0.24097498 -0.31827584 0.011232045
234 0.006937155 -0.18446472 -0.10365687 -0.08586755 -0.0370027 0.6358339 0.064023204 0.1417442 -0.20863907 0.2761998
384 -0.2187715 -0.2071695 0.0793801 -0.05785133 0.084604874 0.35627136 0.22244497 0.24340995 -0.3487798 0.06578528
917 -0.070181146 -0.3796989 0.17256026 -0.3206906 0.122428514 0.33075726 -0.007248347 0.25369048 -0.2703309 0.1131093
95 -0.22316776 -0.02828496 -0.005802644 -0.31801188 0.17422432 0.40376624 0.1845838 0.3279344 -0.18358293 0.076622196
286 -0.012560126 -0.367597 0.19894844 0.013903915 0.30696508 0.3162758 -0.051814597 0.20339234 -0.40173516 0.05651988
1043 0.17695533 -0.22378662 0.005101473 -0.25115836 0.22809047 0.44075537 0.17092478 0.234195 -0.167367 0.0177505
1133 -0.17710446 -0.115423314 0.21273378 -0.16659956 0.17215158 0.35651356 0.031015 0.3602384 -0.32541245 0.0062997467
389 -0.15036117 -0.33149368 -0.13172215 -0.103004664 0.19804579 0.362061 0.019146008 0.24770573 -0.3677566 0.10503977
914 -0.14575784 -0.20605545 0.21206559 -0.009516751 0.38961306 0.5251814 0.06365982 0.15801673 -0.10540526 0.094979286
154 0.067030124 -0.047708374 -0.05937015 -0.1993028 0.2887212 0.4721459 -0.018012665 0.18763636 -0.38134685 0.0143246
174 -0.1401594 -0.028987708 0.015972635 -0.27978188 0.11803425 0.50401384 0.28683466 0.1633602 -0.12648432 0.19115219
763 -0.15329883 -0.27519834 0.21139492 -0.13896596 0.33134046 0.4498728 0.07075215 0.014551024 -0.30053598 0.065420955
783 -0.084564336 -0.22687413 0.21769612 -0.095129795 0.24655883 0.26671964 -0.0033476048 0.1706844 -0.4468501 0.08710228
197 0.063071676 0.059826076 0.04476909 -0.2633637 0.10185579 0.56246895 0.11539885 0.056976132 -0.44821924 -0.046903595
113 -0.0022539499 -0.31896162 -0.067587145 -0.119399704 0.097151965 0.437181 0.14995086 0.23783873 -0.3081769 0.048758127
955 0.19116996 -0.2565045 0.002945895 -0.11268773 0.023574093 0.50657547 0.2473335 0.14633626 -0.29919738 0.05220654
831 -0.14417885 -0.06332279 0.043229654 -0.14087561 0.17499158 0.44356173 0.15434845 0.2664683 -0.24683446 0.08403036
1143 -0.14083332 -0.13318719 0.12217026 -0.25255516 0.072009 0.33819592 -0.016745605 0.34795654 -0.33123508 0.10014637
995 -0.01991927 -0.2963447 -0.034413207 -0.15963057 0.28733614 0.24293257 0.099525794 0.14297445 -0.4806029 0.016650667
82 -0.13455673 0.07697639 -0.002549847 -0.031945556 0.04695572 0.6108106 0.15731464 0.25351048 -0.23505145 0.13131237
695 0.0234564 -0.13456327 -0.016545728 -0.037497673 0.39609012 0.49933538 0.22662163 0.292931 -0.02112942 0.08227112
477 -0.026734222 -0.37579888 0.045617074 -0.10038247 0.13528961 0.43454206 0.010136304 0.17477596 -0.27926177 0.15044905
449 0.15705265 -0.22350122 0.011854687 -0.08445961 0.15618503 0.4951536 -0.0799242 0.1346366 -0.38040283 0.14242113
249 -0.10550723 -0.3847525 0.0048671323 -0.20449781 0.019453406 0.38214895 0.01086383 0.15440547 -0.37286612 0.19077669
1122 0.096214026 -0.21859834 -0.14746791 -0.073786475 0.2776808 0.5198193 0.04626655 0.15480451 -0.2127843 0.17078298
1064 -0.077493 -0.31961015 0.017054327 -0.23411489 0.37327304 0.1453851 0.15707932 -0.0702746 -0.54766643 0.07025438
1148 0.0529039 -0.19087374 0.036615267 -0.12959854 0.1072228 0.427272 -0.12722883 0.27623004 -0.4444937 0.07018361
189 0.15212086 -0.12786712 -0.14261733 -0.0763617 0.2677156 0.36633587 0.107129656 0.29329938 -0.41312566 -0.031114837
1028 -0.10851456 -0.19807953 0.10714584 -0.24072461 0.15971158 0.41237265 0.1218397 0.19351718 -0.20348331 0.1259706
363 -0.12417434 -0.12981187 0.12252736 -0.020199167 0.37733585 0.37862676 0.2546075 0.23488976 -0.20123294 0.015533904
556 0.07501257 -0.29843917 0.10121818 -0.03021384 0.19379844 0.49863598 0.20627853 0.0044533433 -0.29627594 0.05911233
287 -0.1764933 0.08148939 0.04258563 -0.02638946 0.43751222 0.62553316 -0.021258635 0.1572255 -0.21197492 0.07226066
299 0.03263134 -0.21527962 -0.22695357 0.19172515 0.16934696 0.46971533 0.18257815 0.116609745 -0.509443 0.04329548
101 0.0021388165 -0.29417762 0.17975731 -0.19382478 0.3177236 0.41652367 0.12137826 0.16842136 -0.14529751 0.083521746
465 -0.113870546 -0.08996971 0.15254143 -0.14168464 0.18473604 0.5108219 0.005017755 0.14718448 -0.29319185 0.09836332
1033 -0.042685505 -0.071983375 -0.18768695 -0.069409214 0.12341155 0.48023865 0.010162802 0.2972389 -0.35217488 0.11357234
482 -0.10168301 -0.25199208 0.08517419 -0.07312358 0.0022370685 0.45040712 0.2249129 0.17557079 -0.3456462 0.06666377
328 0.14292386 -0.20397979 0.13580525 -0.11908656 0.23393965 0.33757395 0.094680876 0.22292355 -0.40520155 -0.023342527
1042 -0.116036534 -0.123107314 0.0666752 -0.09616855 0.060329642 0.53494227 0.09043098 0.036936894 -0.40976775 0.082273595
974 0.015961986 -0.04186515 -0.15283997 -0.016215077 0.48369884 0.5002241 0.055607677 0.2026915 -0.22832109 0.09084027
74 -0.087387525 -0.18420349 -0.100748286 -0.14663307 0.2240684 0.5480464 0.04409989 0.26806176 -0.14774677 0.11903045
594 0.047561713 -0.23581435 0.157271 0.046210833 0.08921106 0.39600748 0.18547703 0.2644003 -0.35854682 0.023337968
337 0.056499016 -0.14458176 0.14054804 -0.08508724 0.050589282 0.5032176 0.046120618 0.2750071 -0.32401845 0.025453983
273 -0.21730544 -0.21106638 0.0865485 -0.16050059 0.022724397 0.48588982 0.06839351 0.18584152 -0.31889394 0.13259196
382 0.08392659 -0.38128445 0.36534828 -0.13190404 0.3190595 0.52904326 0.07743145 0.0736151 -0.120855466 0.04440211
399 0.004269867 -0.31843764 0.12802234 -0.0964256 0.05210458 0.30124623 0.07655536 0.31444255 -0.33258322 0.12121872
260 -0.10560973 -0.17095782 0.124313846 -0.24111485 0.24038194 0.33752108 0.006538564 0.2470442 -0.3390789 0.07959657
400 0.0014263903 -0.0853474 0.05722087 -0.1455668 0.25152943 0.41624612 0.22626886 0.29160416 -0.1956158 0.04163754
338 0.08438509 -0.07876478 0.011690045 -0.05519538 0.20953102 0.4860911 -0.024461333 0.073944524 -0.41637698 0.1593333
187 -0.1704151 -0.52367735 -0.12529579 -0.101168685 0.25367206 0.24797043 -0.1127135 0.3742443 -0.21037233 0.3509069
371 -0.050943032 -0.018727127 -0.113834575 0.050488554 0.15531446 0.39298713 0.3842614 0.2143614 -0.3893418 -0.02460007
96 -0.15252739 -0.2666711 0.12735076 -0.20205218 0.24475323 0.283586 -0.13785294 0.30194533 -0.35894573 0.14306033
1164 -0.14546971 -0.31416607 -0.034092758 -0.06433524 0.09192222 0.32787195 0.20794475 0.17057428 -0.40904886 0.09714791
672 -0.24920805 -0.14486444 -0.058326866 -0.20567848 0.3517707 0.34397763 0.08841016 0.041465133 -0.4197145 0.098276496
650 -0.1194336 -0.22563764 -0.06550755 -0.25696367 0.23664203 0.43138185 0.1711969 0.18945554 -0.13094753 0.19284084
697 -0.086388364 -0.23162018 -0.02995262 -0.1190297 0.3709461 0.32139385 0.16203365 0.25940853 -0.1775184 0.13193129
44 -0.07863514 -0.22103953 -0.18366511 -0.00012605876 0.43423116 0.37899464 -0.1637377 0.32899866 -0.31990266 0.1624595
90 -0.38200644 -0.3021367 0.13652487 0.0046895696 0.19527508 0.4067189 0.08260542 0.23900676 -0.18201624 0.25076368
1068 0.1522715 -0.2843811 0.18396674 -0.23945777 0.09500597 0.28752193 0.059360985 0.111710675 -0.44483495 0.10813739
359 -0.023521157 -0.26057237 -0.0013831845 -0.08104403 0.0031004439 0.3103131 0.5091087 0.21637635 -0.3880593 -0.07317481
805 -0.09687994 -0.15867057 0.03214676 -0.050733183 0.18418665 0.30866984 0.20193507 0.24544843 -0.37544072 0.06560931
625 -0.39652216 -0.19816901 0.22082347 -0.08372205 0.17663758 0.39116597 0.09206328 0.14564505 -0.27064556 0.21819554
61 -0.18402632 -0.21793209 0.29558027 -0.23368058 0.28648293 0.28558105 -0.06272611 0.18319945 -0.35686308 0.10907729
348 0.09436184 -0.2736775 0.024776611 -0.16228004 0.23281705 0.3532476 0.1891675 0.41615987 -0.14641711 0.030620893
692 0.066554375 -0.05668176 -0.013230522 -0.3660564 0.021381188 0.45755163 0.05574549 0.45008925 -0.27681428 -0.04886
410 -0.14816794 -0.13025637 0.056613285 -0.07481854 0.23963584 0.40867445 0.17703348 0.16735044 -0.33270884 0.06776086
1056 -0.19893014 -0.12769836 -0.011960354 -0.014734899 -0.04803137 0.49482122 0.15952407 0.40628627 -0.2842587 0.07513503
1168 0.10456431 -0.19868279 0.19111685 -0.077814154 0.26340643 0.3610012 0.20230792 0.40773162 -0.1868587 -0.07949544
1191 -0.17063119 0.07957937 0.18938452 -0.2571755 0.31701994 0.443367 0.016626952 0.39358222 -0.18859951 -0.01054893
1078 -0.14680983 -0.25129676 -0.04081284 0.030631572 0.035357643 0.39648098 0.22318184 0.31510898 -0.25462762 0.17483921
542 0.1437645 -0.4245317 0.07903595 -0.18694595 0.28647852 0.37330657 0.21660003 0.07019901 -0.20539737 0.08361211
891 -0.026910147 -0.13511175 0.17031547 -0.26606548 0.14545883 0.37909788 -0.07690371 0.2775758 -0.32567316 0.12238508
1173 -0.15501285 -0.15234374 0.030613894 -0.27495915 0.2867149 0.44270784 0.23377591 0.10288667 -0.24329981 -0.008378259
1149 -0.076296546 -0.21830378 0.050987598 -0.07303608 -0.042527817 0.41094837 0.059815437 0.3542706 -0.39221808 0.06705919
385 -0.22070546 -0.11573461 -0.06209236 -0.15329488 0.27440283 0.19619699 0.26737267 0.11767441 -0.44054666 0.11591152
922 -0.20002341 -0.22046195 0.1297376 -0.19508609 0.17191724 0.39013702 0.16198018 0.1009934 -0.23736468 0.18850389
141 0.046550978 -0.34275222 0.03578019 0.02955013 0.123404644 0.40193483 0.06268921 0.25184685 -0.30534175 0.15964496
1052 0.03184599 -0.3618978 -0.1342652 -0.09787503 0.19473319 0.24872585 0.3465913 0.25714326 -0.30955577 0.06234441
872 0.19560942 -0.18500027 0.15952615 0.057868145 0.26045477 0.51838934 0.17134619 0.23521176 -0.20367843 -0.02255988
40 -0.04340926 -0.17510968 -0.008510487 -0.35776144 0.16985504 0.3770508 0.13310574 0.13998555 -0.31226483 0.076349735
744 -0.12173057 -0.18387347 0.0073447446 -0.16541861 0.2052352 0.4243306 0.11326503 0.08341266 -0.30997422 0.14417693
472 0.14459807 -0.2656115 -0.10792054 -0.2911345 0.24532391 0.2909563 0.03067647 0.28524807 -0.36067435 0.033556867
1071 -0.02607043 -0.22693856 0.018979495 -0.36494678 0.23505898 0.320678 0.296232 0.22294624 -0.17980042 0.044325322
599 0.18061265 -0.24434401 -0.1929241 -0.105834745 0.031662896 0.4568111 0.10749567 0.24048738 -0.29199824 0.2211618
652 -0.016812932 -0.27352744 0.113739505 -0.16203511 0.018460259 0.3568389 0.24234058 0.13949656 -0.41551715 0.016346525
124 -0.23255706 -0.086169474 0.048907254 -0.1258043 0.14114994 0.33239728 0.11122291 0.20098723 -0.44495887 0.06778433
240 0.08295013 -0.3791392 -0.17609441 -0.20782124 0.28583312 0.42622545 0.13577895 0.22944207 -0.0906083 0.17464207
69 -0.31228152 -0.19283845 0.22841823 -0.2349312 0.201568 0.29110909 0.11684229 0.36647668 -0.29463032 -0.03833019
1104 -0.20022014 -0.35852808 -0.012595529 0.11512748 0.34847426 0.30565113 0.17723909 0.21883872 -0.29450232 0.08659535
133 0.07746585 -0.20368198 0.2764495 -0.18331419 0.20052925 0.25254172 0.16920936 0.18197884 -0.50715333 -0.1586557
545 -0.22325437 -0.23048674 -0.095725276 0.12592797 0.12177009 0.35255006 0.029891536 0.4352357 -0.322249 0.18836896
1006 -0.15175474 -0.13910957 0.12002206 -0.24386962 0.048596505 0.44491255 0.053253442 0.3546275 -0.2727635 0.03838533
426 0.038330086 -0.3838674 0.13904813 -0.033054322 0.32219326 0.27445263 0.26631296 0.5198058 -0.11562581 -0.0935581
117 -0.096354045 -0.1584711 -0.040767692 -0.15846175 0.116172895 0.51886255 0.14705521 0.29168534 -0.18725756 0.08831611
26 -0.13022874 -0.17276464 0.07808408 -0.18315136 0.13813537 0.46970206 0.0106363045 0.18498324 -0.2973805 0.13204803
231 -0.23441195 -0.17641638 0.033050418 -0.4663315 0.45854536 0.34731385 0.08044777 0.16821583 -0.085816756 0.12029704
675 0.099525206 -0.22206087 -0.022062097 -0.05915239 -0.009363685 0.4184714 0.17286834 0.21016033 -0.43829048 0.061131623
1101 0.106211334 -0.24491788 0.096249245 -0.14935735 0.19687268 0.41390827 0.116698526 0.26905623 -0.15140156 0.115149006
314 -0.10810956 -0.37199938 -0.19032246 0.14677489 0.20898466 0.35571817 0.28400728 0.18497364 -0.29136544 0.1939774
306 -0.12841597 -0.3354691 -0.0054691285 0.0605333 0.15311779 0.38618946 0.08933596 0.26277095 -0.35205555 0.09243591
499 -0.031530023 -0.16640706 0.29800442 -0.2753528 0.12587184 0.50664836 -0.15012783 0.19851375 -0.28088138 0.088762
232 -0.052129783 -0.026623651 0.091172785 -0.2723641 0.3460178 0.46387815 -0.16604261 0.1639959 -0.36949408 0.026002413
1151 0.0422643 -0.2504079 0.005985388 -0.053977903 -0.023820765 0.618513 0.08202173 0.20050193 -0.17143431 0.204529
365 0.03478003 -0.21724463 -0.1969387 -0.00050886336 0.20969863 0.45661888 0.28359598 0.24739277 -0.18407103 0.12903282
460 0.18142144 -0.22679362 -0.2208171 0.010078384 0.19101061 0.37591755 0.0884362 0.3449345 -0.36152378 0.041813746
307 -0.081185676 -0.21759969 0.0023077934 -0.13845578 0.24359834 0.29937607 0.0012448884 0.30351648 -0.29915094 0.1788051
336 -0.1675735 -0.18400203 0.10007801 -0.024814319 0.3587843 0.27281412 0.24679095 0.12069368 -0.39518186 0.020364372
252 -0.10327319 -0.26468593 0.14502801 -0.28067854 0.24938585 0.3181605 0.03439905 0.18404026 -0.3515506 0.055675365
960 0.028163793 -0.19285494 -0.030207692 -0.1299625 0.3933656 0.22120401 0.06707824 0.2958339 -0.3485669 0.06426187
566 -0.059104323 -0.3287925 -0.076362975 -0.16443488 0.35497957 0.30621 0.16972274 0.07485627 -0.29244626 0.14752127
618 0.07196482 -0.23813854 -0.11318606 0.062117487 0.35070705 0.40132076 0.29511347 0.4747288 -0.105931975 -0.04176137
180 0.066048324 -0.11760553 0.016887276 -0.17670365 0.15063602 0.4639809 0.106636345 0.23000823 -0.29808897 0.044968747
494 -0.08805407 -0.23034623 0.059940185 -0.27787122 0.048029475 0.25075692 0.28682092 0.19783345 -0.46127325 -0.031866003
866 0.06423076 -0.20364606 0.036249895 -0.2715681 0.33396474 0.38464865 0.206083 0.14228293 -0.28015816 -0.051768947
679 -0.020958623 -0.1148162 0.16056253 -0.009833894 0.29301953 0.4472013 0.13048284 0.1567164 -0.3190093 0.023786157
627 -0.1790867 -0.010022368 0.045298632 -0.15319687 0.48858875 0.46210018 0.199724 0.1303134 -0.18776134 0.022458693
833 -0.029489582 -0.08836931 0.24937886 -0.10214357 0.25976056 0.47496957 0.14287291 0.2721449 -0.18764755 0.027847255
862 0.052496832 0.059401438 0.0026351905 -0.11736054 0.3426444 0.57573605 -0.0565167 0.18462653 -0.19459186 0.17383799
351 0.12772895 -0.13998848 0.04676945 -0.0948773 0.36498368 0.39149907 0.020206222 0.27944914 -0.23373544 0.07842892
970 -0.00011319367 -0.15175419 0.1259063 -0.21990798 0.35527804 0.55688053 -0.06428352 0.16698413 -0.15056461 0.0919884
298 -0.20030761 -0.23468046 0.095036395 -0.15073015 0.21185307 0.407554 0.20316093 0.29219612 -0.21169469 -0.019350598
86 -0.24218614 -0.1390264 0.14235905 -0.034345508 0.16887204 0.45023376 0.111397654 0.23712018 -0.28544754 0.104816236
479 -0.1764018 -0.23081017 0.033610556 -0.1515439 0.029929096 0.47288135 0.11885383 0.23593754 -0.26731944 0.14643033
259 0.06118477 0.09769594 -0.098504595 -0.34279186 0.43229166 0.52001315 -0.01709979 0.27655402 -0.16831322 0.011179341
1040 -0.021355165 -0.1492401 -0.062151868 -0.20152152 0.1965495 0.2781294 -0.14160451 0.521476 -0.40373123 0.052002627
283 -0.34746554 -0.12828594 -0.063998185 -0.11606007 0.2619305 0.23242502 0.084020905 0.35965616 -0.3553563 0.13575163
104 -0.008782085 -0.20480439 0.07387198 -0.27583507 0.10480469 0.4616561 0.20916238 0.20164208 -0.25124887 -0.00990462
318 -0.0207745 -0.1282833 0.119162664 -0.09873731 0.061146773 0.46040308 0.21642324 0.11460091 -0.38118437 0.032359775
1147 -0.08859553 -0.014333822 0.32252097 -0.03277762 0.078710884 0.4011444 0.13086267 0.40410614 -0.3696752 -0.088080235
1196 -0.037570953 -0.24050328 0.046121895 0.09465921 0.24160431 0.5018785 0.07741674 0.16401103 -0.22916189 0.20759049
251 -0.08574043 -0.20726341 0.07089383 -0.22148699 0.16919215 0.4811608 0.0830318 0.29156625 -0.15939152 0.06369035
1058 0.11997466 -0.10375739 0.104353584 -0.23478784 0.1348525 0.5230491 0.115133956 0.1377619 -0.25532755 0.072852656
1039 0.08437367 -0.23373818 -0.003822984 -0.105126336 0.048931573 0.38139924 0.03970109 0.36163226 -0.29680043 0.1740906
481 0.09708814 -0.23517872 -0.10202266 -0.1586723 0.25578946 0.3895868 0.19909567 0.123462506 -0.34005663 0.023515824
551 0.14096415 -0.15138626 -0.37113625 0.033709433 0.30237472 0.1952736 0.018984037 0.323555 -0.57433325 0.13327856
1112 0.003449062 -0.17625396 0.0730108 -0.0860778 0.29465264 0.41183183 0.4560404 0.20775238 -0.15236482 -0.04892051
393 -0.11926828 -0.1790451 -0.08798427 -0.07872244 0.14808306 0.37436014 0.08020459 0.26198646 -0.39023435 0.11930077
855 0.10943703 -0.30007336 -0.03436184 -0.051473476 0.10152195 0.29891354 0.008129932 0.30148467 -0.48216465 0.060323972
693 -0.124569006 -0.2580103 0.17679988 0.008258204 0.099766776 0.43518612 0.095425226 0.25563824 -0.34745222 -0.005935192
583 -0.101109184 -0.107101955 -0.0006905977 -0.37319028 0.19186799 0.27525893 0.07289606 0.18334214 -0.37712935 0.11327334
1023 -0.123532176 -0.23482712 -0.09102409 0.05678857 0.19843414 0.4029953 0.31833544 0.24068153 -0.3282326 0.0006076112
153 -0.0678757 -0.154734 -0.043422893 -0.18670152 0.34568128 0.45497143 0.04764007 0.076984145 -0.2978904 0.10782286
225 0.13757528 -0.22953239 -0.13315937 -0.021934513 0.18371792 0.31980842 0.17927551 0.3307315 -0.4085166 -0.010001479
865 0.10967265 -0.3911607 -0.11391253 -0.20833777 0.18343925 0.17641431 0.16606396 0.28490275 -0.29766038 0.19514634
532 0.123977676 -0.2581199 -0.03663809 -0.16132711 0.23986803 0.49832028 0.2548793 0.055886764 -0.128254 0.15101354
487 -0.2052328 -0.12044908 0.04008614 -0.19023804 0.12409739 0.42538616 0.18568689 0.006245925 -0.4917314 0.02898663
748 -0.14041713 -0.34484628 0.21675007 -0.31097242 0.21941994 0.326061 0.14260955 0.28766796 -0.19430484 -0.012092178
98 -0.15318874 -0.29585722 -0.14544988 -0.37125754 0.17552459 0.15802221 0.19917575 0.30466345 -0.34069917 0.11221131
316 0.07922643 0.024862885 -0.031140931 -0.2538241 0.14106837 0.47047073 0.09881421 0.25765422 -0.34933445 0.0020902974
279 0.016909061 -0.19049582 -0.13987522 0.11062192 0.38320252 0.5272624 0.020866254 0.05440936 -0.26380914 0.21110399
490 0.09394654 -0.24404809 0.0727471 -0.12964396 0.14362155 0.37922385 0.07990931 0.43027237 -0.17028148 0.118945405
1007 0.09778133 -0.10541195 0.1961521 0.03482413 0.17591202 0.3141015 -0.02133591 0.40260804 -0.5186573 -0.07484729
169 -0.028034931 -0.232554 -0.13599753 -0.4136298 0.176202 0.34624532 0.18109418 0.22624362 -0.29271445 0.00601947
1115 0.09188131 -0.10875166 0.003032543 -0.26476625 0.33420062 0.21373957 0.052446708 0.34454924 -0.44334435 -0.06252716
216 -0.017719885 -0.073370494 0.090797834 0.11334377 0.27443972 0.40891647 0.18759769 0.14748761 -0.46206006 -0.0412342
854 -0.16796347 -0.3014067 -0.021338614 -0.015154882 0.05057749 0.34452417 0.26602578 0.2659463 -0.26748478 0.17025049
909 0.04713531 -0.050507367 0.06106791 -0.08255905 0.28369337 0.43025303 0.076029025 0.34582466 -0.30056053 -0.061432227
757 -0.016864521 -0.3486379 0.011244701 -0.29480547 -0.0762763 0.31803787 0.1551299 0.2220239 -0.38664708 0.112774126
512 -0.2535963 -0.36813492 0.17615382 -0.22652352 0.15058717 0.38313717 0.11034694 0.2286823 -0.13212317 0.19048113
302 -0.20872304 -0.023414737 -0.06678438 0.004515446 0.21889092 0.45979512 0.21436165 0.3035461 -0.23424265 0.08664011
555 -0.08550816 -0.21237484 -0.0643238 -0.07953909 0.34665477 0.26277128 0.17735893 0.22111844 -0.31970423 0.09756665
347 -0.19610563 -0.14759086 0.13414124 -0.11607804 0.2453264 0.30860355 0.10938557 0.37045848 -0.33077386 -0.012452786
346 0.06092551 -0.29050872 -0.029758604 -0.22135387 0.23845933 0.444869 0.34514865 0.1461516 -0.12452627 0.06901462
733 0.1314285 -0.31398115 0.04325121 -0.15785025 0.13607417 0.3493492 0.1713947 0.19845478 -0.3296849 0.05680494
544 0.09017686 -0.19677614 0.11597766 -0.22181365 0.22779724 0.49886844 0.15966544 0.0026837932 -0.26042545 0.0924547
721 -0.007923577 -0.009301391 0.012269859 -0.16359676 0.1483839 0.4826278 0.14764185 0.39455757 -0.18040514 0.04951652
455 -0.03810381 -0.09637319 0.15703656 -0.05704826 0.18736392 0.35040978 0.16128388 0.3706165 -0.35629228 -0.04936221
284 0.1413473 -0.31127718 0.054409795 -0.07680699 0.14874065 0.4635987 0.19217122 0.06728148 -0.26168752 0.1353248
919 -0.031801358 -0.24701753 -0.13159946 -0.32922608 0.14132191 0.43596646 0.22602178 0.088525906 -0.3309767 0.0079319365
55 -0.05508835 -0.22067387 -0.09117948 -0.060830563 0.043171596 0.45781085 0.26921007 0.19646314 -0.28645056 0.120706454
963 -0.06678869 -0.14358401 0.22169156 -0.02314661 0.2852952 0.4339147 0.16482635 0.23971806 -0.24583983 -0.023642387
825 -0.07186426 -0.24943572 0.12963997 -0.120762326 0.24218233 0.38127986 0.053082 -0.029128991 -0.4720076 0.07735194
536 0.029339753 -0.17322089 0.27392814 -0.24354464 0.3661614 0.33192813 0.14738782 0.26160645 -0.23044881 -0.07694091
444 -0.07725486 -0.11130549 -0.16095364 -0.24269047 0.19502711 0.44306198 0.07982473 0.08876605 -0.35877827 0.13989784
343 0.050952848 -0.11207307 0.04338899 -0.14195156 0.17053919 0.55884314 0.26787746 0.21006423 -0.058811754 0.103513055
108 -0.031689163 -0.13329706 -0.14830123 -0.24155879 0.20206913 0.37641144 0.185109 0.20326237 -0.30891562 0.09041762
592 -0.09839626 -0.2262269 0.051500533 -0.2817548 0.11835838 0.3018834 0.094694704 0.1774905 -0.36775082 0.1610826
462 0.05928969 -0.12032724 0.14615682 -0.1693503 0.53589433 0.38087702 0.2610535 0.23544914 -0.12866999 -0.09234559
414 0.072137736 -0.2703298 -0.0014440379 0.0105712805 0.2030627 0.3989203 0.08902329 0.25031543 -0.29653093 0.13868275
97 -0.023032354 -0.0757194 -0.11093235 -0.2885074 0.3610512 0.33869827 0.40799385 -0.06853095 -0.3762168 0.0121109
1170 -0.008029298 -0.10287842 -0.05153588 -0.09602402 0.19264875 0.4312576 0.1783873 0.2142506 -0.31124496 0.06323135
1108 -0.05784373 -0.19540666 -0.01931574 -0.44566214 0.05519534 0.46604085 0.2749712 0.11168984 -0.20423284 0.08209269
473 -0.18213545 -0.11631796 0.22405516 -0.10297274 0.24549714 0.42543092 0.034675114 0.18992364 -0.28670943 0.10195114
183 0.025789307 -0.23009536 0.042321153 -0.27633715 0.28070018 0.41341406 0.16512178 0.1295746 -0.19929856 0.086783774
342 0.037047353 -0.24083205 -0.21351734 -0.25753835 0.12238554 0.35968098 0.055327523 0.28824726 -0.3511735 0.08720409
193 -0.0317827 -0.115730196 0.121918194 -0.20683615 0.13093325 0.4454322 0.10081965 0.33184856 -0.21993649 0.04788001
699 -0.12886044 -0.39556405 -0.041221045 0.01606632 0.28134066 0.20812577 0.16057721 0.46906814 -0.24156995 0.08694431
1165 0.020457162 -0.25530583 -0.08252914 -0.20397426 0.083606854 0.45741576 0.2724186 0.26999724 -0.08488418 0.19702551
292 -0.09882417 -0.38734385 0.13267772 -0.090637036 0.29070246 0.10542384 0.12487893 0.48924306 -0.37133664 -0.06799295
1132 -0.24634568 -0.030021226 -0.103225574 -0.079511516 0.17084561 0.46998292 0.06539721 0.39558068 -0.16691332 0.19289921
445 -0.2413636 -0.18700112 0.06846721 -0.038906768 0.31754145 0.2732156 0.3948673 0.2663351 -0.26811242 -0.01747584
984 0.09060919 -0.19971463 -0.11298666 -0.13560042 0.0077664605 0.49452558 0.3429667 0.021885265 -0.35167632 0.10650445
332 0.0087557 -0.45598158 -0.13084778 -0.39607978 -0.10110272 0.5016172 0.10995728 0.08384254 -0.21772486 0.25501096
997 -0.2510472 -0.2963948 -0.046886053 -0.27896288 0.30709624 0.21911186 0.116557114 0.4077393 -0.16731876 0.10721841
467 -0.23194323 -0.17794889 -0.2156388 -0.43261805 0.12159423 0.5103701 0.13591631 0.021199998 -0.251625 0.19304006
1010 0.0627675 -0.2868011 0.009961737 -0.27329516 0.23270753 0.34338287 -0.014325284 0.17821456 -0.26577035 0.1990132
665 -0.0449178 -0.27327642 0.03483532 -0.061064225 0.1790849 0.40864727 0.025161633 0.12280459 -0.43541595 0.057337902
1150 -0.15562406 -0.23351762 -0.13341571 0.050881024 0.19432883 0.34392673 -0.12064533 0.12417475 -0.5970963 0.21534559
468 0.20985875 -0.24127081 -0.20391949 -0.23275416 0.14097573 0.53042454 0.13495392 0.07867468 -0.23204653 0.17731088
639 -0.033740193 -0.120678134 0.07764646 -0.23969583 0.22960708 0.30559424 0.18215989 0.2592039 -0.2650839 0.09310923
523 -0.10110352 -0.28551108 0.12868416 -0.16987689 0.16889966 0.35507497 0.16402365 0.01767863 -0.42001694 0.042390987
830 -0.11646187 -0.1520012 0.10333893 -0.16691642 0.33558053 0.42135197 0.05311591 0.27553657 -0.17512886 0.084899925
628 -0.10074284 -0.18132184 0.064227685 -0.2818507 0.029062813 0.42570385 0.22902563 0.22665675 -0.2250331 0.091519535
503 0.018307928 -0.010733606 0.14310396 -0.12350095 0.15463069 0.4870207 0.099693894 0.20816037 -0.3386005 0.01692733
526 -0.12046424 0.030347036 0.04374488 -0.26711962 -0.004408586 0.6224745 0.17245093 0.22085144 -0.21741235 0.043809466
237 -0.0697516 -0.11606001 0.11269871 -0.21166116 0.32379138 0.35654202 0.07857606 0.16494547 -0.38321224 -0.03220221
863 -0.054581873 -0.26232284 0.072566055 -0.17281213 0.09214868 0.41932556 0.078807 0.32114303 -0.1370777 0.22623566
656 -0.22054842 -0.2191652 0.2471536 -0.20797417 0.18699238 0.26743472 0.113632955 0.2828139 -0.40670684 -0.056839332
459 -0.093102664 -0.1574023 0.07122272 -0.17646879 0.15510534 0.5041057 0.04839017 0.3179284 -0.08189611 0.20254697
139 -0.019492552 0.00854856 -0.03232959 -0.25307864 0.2095642 0.34241146 0.013863085 0.48794544 -0.3770672 -0.07977269
361 0.20644727 -0.11611603 -0.1430566 -0.02365438 -0.0072335787 0.64620215 -0.15193509 0.35941738 -0.31143582 0.12507665
632 -0.13055253 -0.13528325 -0.11462608 -0.2592703 0.20465596 0.2808609 0.2578172 0.4007801 -0.2796584 -0.04406424
1167 0.16679466 -0.27669227 0.13255447 -0.026579646 0.21155116 0.41459712 -0.021648278 0.15189894 -0.34389096 0.1621864
911 0.1523951 -0.27061737 -0.022308132 -0.31274006 0.04429631 0.37655523 -0.0050707976 0.24620111 -0.35505933 0.109288074
811 -0.101994805 -0.2529505 0.08317472 -0.13021454 0.17691116 0.3247191 0.14490783 0.38411546 -0.25163922 0.06836688
870 -0.0069596563 -0.37117544 -0.03678469 -0.23788422 0.13327327 0.20368855 0.1696912 0.28899488 -0.3423128 0.09952832
797 -0.040469464 -0.26873425 -0.015207413 -0.41521028 0.019789902 0.26600924 0.12984747 0.48083532 -0.25175264 0.03299201
832 0.029617615 -0.1596951 -0.11962686 -0.24785316 0.18674953 0.30784854 0.18446 0.22472452 -0.3930301 0.040255357
1002 -0.16081671 0.021094754 0.16711734 -0.17311788 0.29571477 0.33944237 -0.012188854 0.39720336 -0.34425473 -0.033098996
856 0.11958246 -0.09200702 -0.0371391 -0.13537656 0.11821464 0.42280555 0.30650344 0.25685975 -0.27474394 0.040187057
687 -0.09022342 -0.28389513 -0.046276234 -0.28329366 0.025988556 0.38874486 0.23798013 0.2642262 -0.25222674 0.0690567
407 0.16165507 -0.28376466 -0.04738037 -0.34038255 0.13345829 0.28734088 -0.02896013 0.1712312 -0.43395236 0.16500734
254 -0.15420432 -0.23978013 0.10388626 -0.2931528 0.26711586 0.22369851 -0.007814024 0.22581509 -0.4026652 0.0736552
112 -0.16434824 -0.09842019 -0.024189966 -0.4475584 -0.04273596 0.3396668 0.12250541 0.43389848 -0.3787213 -0.03572057
799 -0.18285976 -0.32370567 -0.058283478 -0.0790453 0.07714907 0.19761117 0.037062246 0.35692197 -0.4850958 0.11889992
207 -0.26055577 0.038093776 0.09970205 -0.15859772 0.16799903 0.39929453 0.08346166 0.3260629 -0.32612595 0.07247154
600 -0.1029515 -0.18187003 0.032734297 -0.02150109 0.1488276 0.44532567 -0.13799879 0.37216884 -0.25928512 0.21249878
681 -0.007561818 -0.06000709 -0.15145609 -0.115249544 0.22822572 0.5705527 0.06638008 -0.00086748274 -0.39543185 0.09616411
353 -0.17004825 -0.25087726 0.12968752 -0.10332845 0.049704477 0.33847487 -0.074330464 0.32990336 -0.40284577 0.14968126
144 -0.1064948 -0.18488885 0.08824208 -0.20651576 0.15865551 0.42435765 -0.053665783 0.2230635 -0.28635818 0.16643816
893 -0.22023289 -0.20410411 -0.0028551198 -0.13178091 0.19457601 0.23129673 0.18850791 0.20182247 -0.50512576 0.009847656
209 0.010146184 -0.14586903 0.10015047 -0.13775818 0.40695265 0.29683393 -0.030997762 0.18392235 -0.45511794 -0.0029269157
784 -0.027991638 -0.26063713 0.017708873 -0.25056952 0.073227316 0.41942742 0.22441244 -0.04605653 -0.41098183 0.088211104
196 0.24595566 -0.21644165 0.32138878 -0.05541753 0.18574145 0.48916417 0.24955098 0.026027514 -0.37171543 -0.13866083
290 0.057972502 -0.014586571 -0.010022914 -0.14464423 0.07956207 0.52454066 0.26002535 0.123847514 -0.44550475 -0.13086943
498 -0.05159256 -0.3303799 -0.03758705 -0.43075767 0.021954684 0.38539657 -0.0048352815 0.070469745 -0.39146867 0.17018625
105 0.019962799 -0.025077088 -0.12463348 -0.19545545 0.101111904 0.44121578 0.16097994 0.29554912 -0.3396374 0.039831597
439 0.057145566 -0.17289156 0.022214195 -0.16379023 0.12025173 0.44378155 0.10113564 0.27931058 -0.27331555 0.07821003
828 0.19013333 -0.36746734 0.20595607 -0.3474769 0.3701203 0.23662105 0.12109941 0.039470702 -0.37241095 -0.00641618
203 -0.1469318 -0.21433482 0.006699509 -0.2569088 0.21846807 0.37299865 -0.008507068 0.108758524 -0.41467175 0.10053914
958 0.049495876 -0.20484939 -0.2142064 -0.27390185 0.08542032 0.36598912 0.15485047 0.33305427 -0.30656642 0.08078192
194 -0.11277332 -0.21284877 0.13543943 -0.06959432 0.1049176 0.36802343 0.26061493 0.23733622 -0.30756947 0.0011998517
217 0.049982276 -0.24648724 0.10181742 0.029313888 0.51212555 0.4131621 0.060511775 0.06604116 -0.32076362 0.019918485
168 0.2282091 -0.3506997 0.12110122 -0.08325493 0.26300228 0.28353426 0.33846694 0.10147792 -0.37036648 -0.048004054
206 -0.17907204 -0.1137732 0.027143996 -0.39626813 0.12971434 0.3794668 0.10836809 0.34783694 -0.1659067 0.16552624
88 0.12192491 -0.33198634 0.055560026 -0.23954047 0.10377219 0.3273265 0.12929627 0.36160755 -0.20766342 0.094549425
304 -0.044085655 -0.19641857 -0.15628354 -0.38559473 0.19295414 0.41847694 0.19211155 0.087359495 -0.22423245 0.1368555
469 -0.10772469 -0.26349735 0.076458186 -0.22393014 0.18548532 0.31687114 0.06286832 0.22231627 -0.32224122 0.13393688
643 -0.120784655 -0.02365217 0.061115716 -0.06265101 0.08473641 0.5249754 0.13884337 0.33238858 -0.24273206 0.023122244
756 -0.15181562 -0.14439704 0.1778434 -0.1407941 0.1711158 0.40451002 0.25782388 0.24001443 -0.2656674 -0.012602467
212 0.12697211 -0.21830864 -0.044320285 -0.16407579 0.21459836 0.47888154 0.17913243 0.22589256 -0.15806529 0.07405126
771 -0.060244028 -0.16799128 -0.022182418 0.053922776 0.33040312 0.4542717 0.1367851 0.14526044 -0.28762665 0.101574965
152 -0.13950364 -0.31523168 0.17041662 -0.1271715 0.22226547 0.45655718 0.1381659 0.12411775 -0.13069788 0.16236512
557 0.038701385 -0.38830858 0.18718196 -0.30484805 0.2471905 0.38771597 -0.0031270345 0.24869686 -0.078324094 0.18202184
892 -0.02785753 -0.20283599 0.1819043 -0.04994122 0.24980761 0.30371702 0.032821774 0.2175312 -0.41420683 0.0691691
987 0.10033682 -0.17377944 0.27765033 -0.3417248 0.14060307 0.37915665 0.14562236 0.29561254 -0.22260325 -0.03708578
558 -0.2065058 -0.0867204 0.031042717 0.0030915888 0.0058893673 0.49966645 0.006078172 0.45745564 -0.3411058 0.04144611
70 0.13452269 -0.22464511 0.1807324 -0.046407968 0.19804993 0.41721523 0.18046457 0.068459876 -0.42321607 -0.04933603
418 -0.022044064 -0.3946626 0.07570501 -0.08752335 0.19388346 0.35755035 0.30960563 0.2788736 -0.15385392 0.02618949
696 0.0374693 -0.19118407 0.101380415 0.12760364 0.20815617 0.41143686 0.092859976 0.40807918 -0.3485145 -0.05834149
1136 -0.26247013 -0.11953063 -0.03747536 -0.2066811 0.12875482 0.46791238 0.2220034 0.41226104 -0.14641283 0.03958417
1120 -0.014858248 -0.187814 -0.023064896 -0.15106943 0.2781183 0.23691796 0.09172951 0.39820763 -0.31846714 0.058696587
957 0.06380119 -0.34028578 0.07403223 -0.34730074 0.31761846 0.21429987 0.11998932 0.13156135 -0.38523912 0.0032865538
819 -0.13470587 -0.13103296 0.05245596 -0.21577853 0.073836304 0.3503234 0.20969898 0.15459888 -0.49300292 -0.050476488
1169 -0.16277806 -0.17884862 0.22362971 -0.18505043 0.20133044 0.34257993 0.0711791 0.29268146 -0.32637882 0.0050609685
760 -0.08364574 -0.23348631 -0.042118452 -0.19957533 0.3392742 0.26502934 0.2191686 0.20511879 -0.25011665 0.123265095
291 0.13194993 -0.33569998 0.019860093 -0.13408363 0.29523024 0.2797098 0.10689892 0.32801563 -0.29762262 -0.014758391
851 0.14070284 -0.13418944 0.039522402 -0.122853026 0.29746336 0.42623678 -0.009243489 0.27185646 -0.2520799 0.08872453
1158 0.22138631 -0.15800238 -0.1429192 -0.23254569 0.011931436 0.48762393 0.14908314 0.07843862 -0.42194635 0.11481528
571 -0.20819496 -0.05802083 0.16899586 -0.17754242 0.156127 0.33260816 0.047058627 0.4369421 -0.21759588 0.13024092
905 0.1050751 -0.28583813 0.09966812 -0.22142558 0.29384357 0.3073806 0.00868398 0.28365558 -0.25524867 0.0924902
538 -0.032883722 -0.23125018 0.011670341 -0.088481575 0.24034443 0.42983267 0.12704945 -0.08053349 -0.44344512 0.11326241
405 0.07522144 -0.2606755 0.1385576 -0.19256218 0.24515158 0.46149716 0.13580571 0.081691206 -0.18486333 0.08939938
793 0.10483497 -0.1769808 0.12899823 -0.3331073 -0.06767859 0.31368613 0.077925526 0.28665313 -0.47735903 0.0021417758
934 0.19316354 -0.101782836 -0.06674975 -0.18248262 0.09527466 0.35706928 0.3996458 0.30939066 -0.33855507 -0.112776674
858 -0.16098951 -0.16583459 0.10408686 -0.25967044 0.19912265 0.25299647 0.07779255 0.45238528 -0.3087932 -0.039165106
398 -0.006440281 -0.27202997 0.30854017 -0.07330654 0.20810467 0.4437054 0.1540275 0.09467323 -0.31239027 -0.027214713
214 0.22502938 -0.356217 0.102279395 -0.05760358 0.32225457 0.51291645 0.086378604 0.020880224 -0.24664217 0.052050773
985 -0.12201149 -0.23098692 -0.048539616 -0.22420347 0.10784147 0.5181529 0.08344447 0.24560171 -0.21048932 0.1129273
837 -0.06650456 -0.23094797 0.040072374 -0.12802836 0.09715896 0.44217923 0.09933712 0.10240064 -0.35194272 0.15100527
1103 0.2028095 -0.21256779 -0.031852484 -0.0901535 0.30642912 0.46403944 0.09911677 0.3712812 -0.21446615 -0.08321253
597 -0.03790162 -0.20898223 0.20466676 -0.26703 0.29532695 0.43824637 0.12555395 0.06808593 -0.2034006 0.07184601
578 -0.057461634 -0.16931283 -0.08347419 0.09649314 0.27234918 0.37168276 0.07496007 0.3200158 -0.4200266 0.009264147
175 -0.15227506 -0.25416505 0.07091585 -0.20281728 0.09488489 0.41007152 0.1442705 0.18358758 -0.26918882 0.16543235
1109 -0.18377675 -0.27840596 -0.1520856 0.010688952 0.428027 0.2385138 0.0266566 0.17935017 -0.47126964 0.103335194
277 -0.23732126 -0.116399415 0.07448125 -0.050704937 0.1705068 0.53087074 0.05915809 0.265623 -0.19874503 0.15080659
944 -0.0063245646 -0.1259098 0.104886584 -0.15176143 0.04527498 0.36664063 -0.041410007 0.39239126 -0.44137117 -0.018919123
87 -0.11876446 -0.2500513 0.087086864 -0.13154933 0.018807428 0.4729219 0.25673285 0.25934526 -0.22567336 0.024589866
311 -0.0689094 -0.27052367 0.08188525 -0.1956023 0.41487274 0.33349615 -0.026910577 0.13836372 -0.31817856 0.08813954
840 -0.20602462 -0.23410262 0.24459784 0.023646478 0.13699006 0.36764568 0.17307653 0.38911095 -0.25328988 0.037036713
916 -0.10097059 -0.0240996 0.18375254 -0.1797766 0.137924 0.57960045 0.16838694 0.19577433 -0.18262832 0.03779411
1029 -0.13282016 -0.20496327 -0.09199213 0.11421311 0.07798157 0.43287188 -0.010615848 0.35190985 -0.33749023 0.22598153
584 0.15385674 -0.2941859 0.073668115 0.097721085 0.16041891 0.4045599 0.07340639 0.33649534 -0.2776441 0.08488724
574 0.01271043 -0.21036804 -0.17980991 -0.065427184 0.06641541 0.42896914 -0.09714631 0.35361576 -0.39240348 0.157667
226 0.03341898 -0.2706064 -0.2892107 -0.17358896 0.08279953 0.35515538 0.36191523 0.18081436 -0.41265452 0.0048223794
939 0.073444486 -0.18941484 -0.11722284 -0.09834919 0.12111181 0.3690682 0.22799623 0.26227403 -0.36480635 0.034858685
706 -0.10097512 -0.2640219 -0.19165163 -0.23792803 0.2603321 0.25644457 0.15292454 0.2322227 -0.30759707 0.17864478
543 -0.07003884 -0.5290602 0.106596835 -0.3131031 0.23795083 0.27178228 0.15497185 0.10882653 -0.19259095 0.19590658
46 0.05685021 -0.23552631 -0.032682236 -0.17520909 0.3464088 0.37578216 0.028833527 0.20653294 -0.17522153 0.19657706
253 -0.084058926 -0.09258747 0.30424088 0.07963399 0.16537514 0.44560784 0.03953132 0.37009194 -0.28163913 0.033588085
80 0.089222215 -0.20769295 -0.014819719 -0.21736792 0.09629681 0.4990235 0.22444569 0.31648853 -0.08774892 0.104800634
803 0.13841392 -0.07439395 -0.12962915 -0.063342676 0.23247412 0.4596008 0.2108949 0.4197679 -0.21293512 -0.05149236
1096 -0.21773826 0.04736248 0.14640877 -0.16195531 0.08561142 0.4437266 0.0835565 0.4154036 -0.3022354 -0.03435006
1180 0.0034759524 -0.20066491 -0.23421328 -0.29550484 0.28913683 0.33672518 0.08544311 0.25257242 -0.2578612 0.1288368
1055 -0.25401613 -0.23494212 0.27610868 -0.06385309 0.2534731 0.32385907 0.16755313 0.47254935 -0.18104805 -0.084652506
1004 -0.24825159 -0.29014492 -0.032360747 0.1307946 0.17108396 0.40271774 0.11406067 0.19815783 -0.29483384 0.24456412
573 -0.037633292 -0.1467161 0.13676952 -0.14519732 -0.077865824 0.5243259 -0.03136077 0.38348174 -0.21909417 0.17599718
