1198 10
54 4.511553 0.21895775 1.0645125 0.24341896 -0.62792444 -3.1546063 2.7362378 2.382737 -0.42420965 0.86581725
80 4.413802 0.25922993 1.0798794 0.23459412 -0.6125478 -3.048804 2.6119 2.321344 -0.38886192 0.9252132
1091 3.314443 2.6648476 -2.6106975 0.72877556 1.3182724 -6.4217386 -0.82430816 -1.3254387 -1.4178963 2.3128972
874 4.5238767 0.21900804 1.1332039 0.19449484 -0.8263587 -3.1462257 2.6395228 2.333892 -0.32598934 1.0731972
687 3.4739172 2.7582617 -2.6605334 0.6128524 1.0924249 -6.568053 -0.88677436 -1.1123596 -1.5413909 2.424551
583 2.6377578 -2.105512 0.94279706 -1.2235115 -0.6028696 1.0044731 -0.27474982 0.74469763 -1.4072574 0.98065776
645 2.6610713 -2.1289327 0.9475771 -1.2291752 -0.63257474 0.9877478 -0.28090844 0.7407714 -1.4221854 1.0257522
1000 4.414888 1.3492813 -2.4271555 1.0823182 2.8346705 -4.5357594 1.675728 -2.1686664 2.509618 0.13257499
710 4.4482746 0.14402561 1.1762334 0.2450794 -0.75594956 -3.119161 2.5793087 2.3588703 -0.36407986 1.0193573
585 3.2187893 -1.0153865 1.2328023 -1.2028172 1.3131899 1.4833045 -0.9439913 -0.84130657 0.84986854 0.16418609
616 3.2916293 -1.0589007 1.2935059 -1.2820916 1.2750118 1.5869099 -0.88879555 -0.81938094 0.8077982 0.21012081
1086 4.417529 1.3753816 -2.4701393 1.2656702 2.8512704 -4.4163394 1.9896156 -2.1900196 2.4995027 0.117591
664 2.6195576 -2.0427299 1.0944124 -1.4692955 -0.32455695 0.9237873 -0.5479631 0.800053 -1.4747605 0.7985205
632 2.4377027 -1.9904422 0.7585181 -0.79447263 -0.84179354 0.97385335 -0.042541187 0.62205946 -1.2541454 1.1693442
855 2.5778003 -2.0038335 1.3631583 -1.5320362 0.07059485 0.9702468 -0.6783679 0.5533453 -1.100236 0.71589357
857 2.6474643 -1.9912324 1.1320274 -1.5008142 -0.33770776 0.859865 -0.61813384 0.7992765 -1.4212096 0.75779957
661 2.5693824 -1.9674442 1.0743101 -1.4825813 -0.23617679 0.84776515 -0.5809476 0.7531473 -1.4195449 0.74658173
477 4.2185073 0.92522174 -2.4824157 0.70935434 2.0546796 -3.9907484 0.95393157 -1.3626273 1.9390252 0.5734827
178 3.5295432 0.2805183 0.50008124 0.38702956 -1.9862895 -2.861363 0.31615216 1.1246604 -0.10633063 2.83655
230 3.4923744 0.24968794 0.45270193 0.38285154 -1.985303 -2.8346121 0.24713084 1.0909259 -0.1412226 2.8464506
662 2.5900161 -1.9805294 1.0900404 -1.4554491 -0.29618323 0.9040528 -0.57441247 0.8002814 -1.4577817 0.7629339
1148 3.5300608 0.35078102 0.53647095 0.46333316 -2.0389702 -2.8960354 0.326625 1.0046952 -0.09535475 2.7790046
1109 1.5413787 -1.859579 -0.27004603 0.9102953 -1.8743576 1.4605668 1.2201871 -1.73986 -0.69108576 1.0346092
868 3.118765 2.6166525 -2.4516923 0.41666535 0.9216365 -5.8991623 -1.0651575 -1.2079451 -1.2074468 2.1104963
734 1.5118198 -1.8359057 0.07249693 0.8198279 -1.8043569 1.2522507 0.93804026 -1.2351396 -0.9223317 1.2901706
498 4.305862 0.94664437 -2.5122564 0.7524686 2.086482 -4.0935807 0.97372854 -1.3815446 1.9656951 0.55630636
128 3.90386 0.37942094 0.91225475 0.5710414 0.11460625 -2.8528564 2.4803462 2.1706336 -0.7268157 0.41295922
1009 4.290115 0.9701413 -2.5114374 0.759389 2.1065068 -4.0817766 0.94423884 -1.4495165 1.9893199 0.48607537
56 1.5746355 -1.886929 -0.48043838 0.92771363 -1.8382834 1.5559915 1.3108324 -1.936172 -0.65918773 0.91276944
205 3.564468 0.3077603 0.3931362 0.3402642 -2.0721695 -2.8526947 0.20328414 0.9660253 -0.059112187 2.8710494
199 3.5458307 0.33730537 0.38005376 0.32929385 -2.0647326 -2.7827356 0.24140552 0.98026556 -0.009024199 2.7425811
185 2.8140934 -1.2360299 -2.4307714 0.15440938 -0.960531 -5.055776 -2.417507 -2.468305 -0.7847316 2.5691612
862 2.5800383 -2.1264503 0.8373417 -0.9114723 -0.8630787 1.0888176 -0.06076285 0.6206745 -1.357793 1.2262402
860 2.6952283 -2.179027 0.95379007 -1.0873334 -0.71390796 1.0410072 -0.12777738 0.73753065 -1.4211158 1.0852501
719 0.4021673 -2.2677162 -0.7330757 -1.1887809 1.8983772 -0.41415033 -0.36517328 -2.1739357 -2.4380689 -1.137668
142 1.501137 -1.7704273 -0.014363935 0.84304255 -1.8373281 1.3299017 0.9958557 -1.3587707 -0.8646647 1.1844223
861 2.6729503 -2.2120147 0.9391494 -1.1605053 -0.72949344 1.0251385 -0.12341308 0.7200197 -1.4761318 1.0872489
646 2.17486 -2.086994 -0.033774916 0.651456 -1.4729185 1.102714 1.2578293 -0.275519 -1.4237348 1.6039599
1169 3.434491 0.26007327 0.5696735 0.38126707 -1.8468304 -2.7808762 0.34984368 1.1365439 -0.122638024 2.641821
215 1.7573851 -0.9798696 -1.2547847 0.827075 0.14071299 1.5636456 2.3612177 -1.6273979 -0.49709317 0.6049251
157 3.6973915 0.297557 0.84851205 0.50102484 0.11439252 -2.6738667 2.3625627 2.0924551 -0.6482563 0.3523924
625 3.02136 -1.9920254 1.89982 -1.7952232 0.48718715 1.060997 -0.7451609 0.28285846 -0.701963 0.8513975
223 1.8419433 -1.0166631 -1.3133657 0.80433613 0.1294163 1.5899199 2.3295212 -1.5577966 -0.52533853 0.6433791
761 2.8790338 -1.2763752 -2.4015849 0.068542846 -1.041245 -5.084744 -2.5123084 -2.532281 -0.7053782 2.6382935
171 1.3968327 -1.4070721 -0.6905651 -0.34199476 0.56850666 -1.9348305 0.8330328 -0.7906272 -0.84041417 -2.0721285
177 1.4805087 1.1137786 1.4621543 0.2181995 1.7153509 -0.068215 -0.8235186 -1.6293339 -0.89973783 2.2017057
26 0.34495446 -2.129249 -0.7218104 -1.0474582 1.7010388 -0.37919182 -0.37743488 -1.9878343 -2.2580643 -1.0077927
966 1.9634444 -0.09648454 -0.16084418 -0.36955822 1.2017416 -0.28609362 -2.130866 0.57443565 -2.6100318 0.45359424
677 3.129255 2.5549586 -2.5788717 0.4903459 1.0586301 -5.847461 -0.9538713 -1.2101215 -1.3532605 2.1932824
745 4.015972 0.42637843 0.85238725 0.5473466 0.23377852 -2.9149692 2.6441913 2.1872344 -0.69037825 0.3277979
150 1.4751852 -1.5489101 -0.81917876 -0.2703657 0.5775851 -1.8994561 0.7841781 -0.84396684 -0.801132 -2.0262692
34 0.34001303 -2.163303 -0.71188396 -1.0079675 1.6753166 -0.33340788 -0.30415702 -1.9705489 -2.2894258 -0.9762008
1172 1.4455937 -1.4426594 -0.76642007 -0.3401033 0.6256163 -1.960149 0.8366023 -0.79795665 -0.874449 -2.089074
650 2.164933 -2.148181 -0.0093013495 0.7305386 -1.4542426 1.1257228 1.3311843 -0.3415871 -1.4694049 1.5756913
1112 1.6017988 -0.8709248 -1.0900606 0.62525207 0.5043926 1.4121882 2.2457142 -1.6146653 -0.4331732 0.36697474
1023 1.646736 -0.9404528 -1.1860256 0.651002 0.41213056 1.472447 2.333994 -1.5933368 -0.507189 0.47290283
416 4.1222057 0.88202596 -2.3977258 0.6811046 1.9312775 -4.1040015 0.6560742 -1.3884143 1.9097439 0.61906725
579 1.9193338 -0.1350085 -0.104756884 -0.39554638 1.1577778 -0.2833613 -2.1106305 0.5860919 -2.5277321 0.44064215
564 1.9443192 -0.070619635 -0.09221744 -0.39222983 1.1538734 -0.26651293 -2.1432521 0.5505683 -2.564556 0.40698633
154 3.9964674 0.5531994 0.8025987 0.645544 0.27968016 -2.9256446 2.6274073 2.1623857 -0.70699865 0.16201308
639 1.910625 -2.038885 -0.046654724 0.86248934 -1.5216131 1.0243577 1.3938811 -0.6131215 -1.2613493 1.4904945
634 4.6706076 1.3406417 -2.3142622 1.7193564 2.8952749 -4.5819874 2.2636228 -2.308327 2.4222918 0.19859926
74 1.4620986 1.0296965 1.4159957 0.23294492 1.6754816 -0.07034245 -0.74409646 -1.6483544 -0.85093355 2.2293496
648 2.9528348 -1.9956915 1.9239252 -1.787472 0.4946826 1.0111498 -0.6957134 0.22391021 -0.6206007 0.86442876
1062 1.7393819 -0.9895892 -1.2557366 0.7416135 0.09699897 1.5479232 2.2676287 -1.565849 -0.468037 0.6223605
111 1.4352844 1.0526774 1.4634938 0.255621 1.6971917 -0.10592694 -0.7852782 -1.6740001 -0.88086456 2.256156
530 1.4344777 0.9089064 1.6715589 1.1741178 -0.49741825 0.2480829 -0.07304129 -0.8145056 -0.2677518 -0.6553823
44 0.3464917 -2.205442 -0.7438606 -0.9430263 1.6549046 -0.34819764 -0.31487718 -1.925114 -2.3252828 -0.97453463
406 0.8136164 1.1981885 0.4665162 -2.1840966 -0.40421838 0.72094846 0.75504076 -1.6849732 -1.5508947 0.46245012
132 1.5390491 1.1995435 1.45005 0.12906913 1.7643235 -0.24518453 -1.0157897 -1.6271861 -1.0988313 2.315589
1089 1.2961804 0.36670586 -0.07371954 -1.2608687 0.7479188 -1.5704607 0.9033473 0.18237966 -1.705712 -1.1847391
204 1.529031 -1.8498784 -0.15658282 0.88397926 -1.8945779 1.4167114 1.116744 -1.6267588 -0.7595636 1.094363
447 0.7429496 -0.40995654 -0.101644255 2.263033 -0.17691392 -1.0383784 -0.1961423 -2.092511 -1.7486888 1.2565098
563 1.8456366 -0.061393254 -0.03846807 -0.2940603 1.2927978 -0.29175478 -1.9735448 0.44751978 -2.412849 0.63211703
397 0.7519296 1.1272417 0.45781812 -2.1527326 -0.3723244 0.6662426 0.7526951 -1.6538223 -1.4778305 0.487634
640 1.3230288 0.41997176 -0.064123765 -1.2944708 0.7454092 -1.5719421 0.8970156 0.20375764 -1.7339184 -1.1379993
562 1.8570937 -0.06623128 -0.06273869 -0.3143938 1.2631872 -0.3015039 -2.0504148 0.46220714 -2.4324274 0.647215
976 1.8404919 -1.0132958 -1.2781794 0.7460226 0.19912761 1.5554849 2.3886952 -1.5974108 -0.49971953 0.63022256
961 0.774174 1.177012 0.43235335 -2.2298179 -0.43538064 0.6603614 0.74320644 -1.7001213 -1.5519462 0.52357256
896 2.229466 -0.020575667 -0.42436427 -0.6704198 0.98551136 1.1414174 -1.2469774 -1.386091 0.84957767 -0.5683206
101 1.5033243 -1.7046506 0.25418964 0.74283916 -1.4917966 1.1244624 0.8924328 -0.75234705 -1.1444148 1.4883431
608 3.0314772 -1.8352522 1.9989688 -1.6906596 0.68272597 1.1128482 -0.6865201 0.10376364 -0.34541312 0.801578
918 1.4672143 1.0138667 1.1862472 0.04877278 1.5641255 -0.3063846 -1.2966858 -1.3278506 -1.0884452 2.0774956
716 0.4360016 -2.2159483 -0.6285474 -1.5895318 1.9877105 -0.46314362 -0.513946 -2.4289377 -2.520261 -1.4001343
478 1.0808475 0.102445394 2.2747798 0.8690658 -1.5601912 -0.3910525 -1.2822961 -1.2813753 -0.93172055 -0.3943672
711 1.4938836 1.1055228 1.3420643 0.081226245 1.706716 -0.27257863 -1.1414492 -1.4638573 -1.1251868 2.2140226
373 0.77625287 0.54523283 0.6150209 -2.8216853 -0.42839935 -0.4289001 0.6921919 -1.9528521 -0.5149929 1.4695473
440 0.73211247 -0.38502926 -0.04411656 2.2259383 -0.1333694 -1.0679172 -0.058556274 -2.0711775 -1.7614146 1.1828074
486 0.78842664 -0.39197183 -0.10375739 2.3040934 -0.2065344 -1.01276 -0.23110831 -2.14827 -1.7953795 1.2655219
674 1.6548977 -2.0674384 -0.054970182 0.8363635 -1.5654285 1.11027 1.4776607 -1.0317079 -0.8884954 1.143689
557 0.60433865 -0.27166086 2.262512 -0.18552165 1.7482226 -0.03178964 0.5553123 -2.320039 -0.10678866 0.5038715
347 4.053976 0.6933758 -2.126533 0.12613556 1.2708869 -4.844963 -0.4996061 -1.1254154 1.1444684 1.3337636
481 2.055104 -2.3933923 -0.5006439 1.037983 -1.5453511 1.7597557 1.7878119 -2.0862381 -0.23665442 0.7150502
672 2.1434877 -2.1637309 -0.035075463 0.76096207 -1.5366852 1.1031544 1.3872063 -0.41014147 -1.4950205 1.6245673
537 0.59486455 -0.72868186 1.2694341 -0.086838394 1.3540037 0.31858885 1.1283911 -1.8960649 -0.058402214 -0.12234665
542 1.9341897 -0.12001842 -0.09590675 -0.3589927 1.2447228 -0.2956477 -2.1369576 0.53007644 -2.5282903 0.5506642
16 0.43450314 -2.3189747 -0.6197377 -1.613042 2.03532 -0.4984248 -0.52817655 -2.5159094 -2.6289654 -1.4378276
900 2.068218 -2.1343906 -0.012360638 0.86109245 -1.5509676 1.0752957 1.3604071 -0.49485105 -1.4342983 1.6450381
949 2.2404668 0.02986866 -0.22824481 -0.7115288 1.0739905 1.1861914 -1.2230394 -1.4003798 0.8225832 -0.5096944
472 1.5150752 1.0214345 1.721137 1.1659603 -0.4674199 0.27498022 0.011927302 -0.8469583 -0.26127163 -0.7422112
482 2.0417192 -2.4322238 -0.49947387 1.0607283 -1.5461485 1.7865276 1.7174765 -2.1489534 -0.22399418 0.7646871
942 1.1684895 -1.0154736 0.11175732 0.24924897 1.0420998 0.8152349 1.9238018 -1.7134538 0.026850512 -0.39164323
989 0.78139997 0.48064032 0.59585696 -2.8534486 -0.44907522 -0.46063074 0.6999378 -1.9279462 -0.52130395 1.4833963
451 0.7367359 -0.4020833 -0.15526156 2.2550151 -0.21221176 -1.0723368 -0.16959697 -2.140581 -1.7953771 1.2087312
631 4.7146144 1.2624087 -2.257462 1.7198042 2.8554547 -4.6116514 2.2962112 -2.218621 2.4447334 0.30325714
713 0.4742817 -2.27913 -0.6597517 -1.7273413 2.0317752 -0.47059226 -0.5939967 -2.520606 -2.5626442 -1.4282216
103 4.151403 1.0117316 0.693714 1.0266881 0.020054823 -2.79057 2.6881368 1.9975257 -0.74379295 0.17785028
965 1.3414761 -0.948899 -0.117119856 0.25087765 1.0246149 0.90854454 2.0872858 -1.6140764 0.02937421 -0.34804854
108 4.223404 1.1299964 0.7737966 0.9917488 -0.021830374 -2.866697 2.704968 2.1044154 -0.80655694 0.15269971
1170 1.4422835 -1.3783287 -0.7098399 -0.36875957 0.5902217 -1.9466716 0.8714973 -0.7915554 -0.8602212 -2.076037
596 1.3195665 0.4014296 -0.07839528 -1.2832273 0.6991751 -1.4953681 0.8669673 0.24091497 -1.6749678 -1.1088727
706 0.45425835 -2.2714326 -0.5798504 -1.7522984 2.1261108 -0.4635691 -0.5549569 -2.4873095 -2.5881767 -1.4147803
892 0.73698074 -0.36763492 -0.067943744 2.2688558 -0.11992183 -1.0752848 -0.16579725 -2.1163113 -1.8083053 1.1823773
1102 0.55848545 -0.42069584 2.1371634 -0.23327477 1.7831432 0.11389052 0.8231419 -2.3321733 -0.24223451 0.27361447
910 1.7764721 1.5432178 1.6094476 0.74545443 -0.48661214 0.046528343 0.89301753 -1.7508405 0.0076799807 -2.0243177
349 4.0549984 0.71550065 -2.1097631 0.0997994 1.4037085 -4.779748 -0.4268148 -1.0688843 1.1434504 1.3710539
987 1.5883913 -1.0875559 0.7269075 -0.9207091 -1.6891091 -1.3086721 -0.39724398 -1.0421795 0.9537556 -0.63828945
635 3.2099519 -1.9575971 2.0283542 -1.7801031 0.654107 1.1788455 -0.7266786 0.14726268 -0.42658672 0.8802741
41 1.3454846 -1.0319059 -0.49117863 -0.45675832 0.5450248 -1.7131475 0.922742 -0.53960913 -0.9402347 -2.0612102
994 0.76906574 1.4167165 -0.12095518 -1.9658878 -0.62891144 0.83325475 0.7687743 -1.7101251 -1.9815427 0.5502711
527 1.4063544 0.8316397 1.6119279 1.1853487 -0.5272091 0.22663432 -0.118657775 -0.76405287 -0.27738467 -0.6452356
869 1.1151754 -0.15065467 0.10073029 -0.8577493 0.63419497 -1.8207382 0.83743185 -0.117362104 -1.4805253 -1.6871654
209 1.2395073 -0.9361734 1.2800378 -0.8521446 -2.1596131 -0.84037054 -0.79920346 -0.8269903 -0.1718498 -1.1054987
148 1.5294502 1.187186 1.4800551 0.11173825 1.7750036 -0.19548406 -1.0051285 -1.6089451 -1.1241231 2.3206036
1032 0.75286883 -0.42620027 -0.11198211 2.285263 -0.19260056 -0.9960736 -0.2427398 -2.1056566 -1.7506583 1.1780702
354 0.78918314 0.49682218 0.62219477 -2.8127332 -0.43258905 -0.46452355 0.6900458 -1.900298 -0.54141796 1.4699976
829 0.71508133 -0.37537938 -0.07757293 2.257235 -0.17195001 -1.0823486 -0.13306776 -2.0794277 -1.7350953 1.1705271
488 0.56528103 -0.39350757 2.283441 -0.25128266 1.8520255 0.056336492 0.7693237 -2.4584892 -0.24946117 0.30958992
1047 1.1965921 0.23314705 -0.08376254 -1.1347126 0.6672553 -1.6819308 0.8993067 0.06409513 -1.6029218 -1.3041018
1171 1.4120672 -1.3311628 -0.7022787 -0.4225603 0.54043674 -1.9329206 0.87525827 -0.74874437 -0.91887057 -2.13885
516 1.7593598 1.5552701 1.5693713 0.7889282 -0.4808465 0.06562256 0.8352642 -1.6933202 0.026521927 -2.0025415
622 1.308199 0.25340506 1.8474078 0.28239483 1.8144349 0.02227882 -0.277313 -1.827051 0.22293672 1.285253
1159 1.7561826 -2.2517457 -0.24442974 0.87645257 -1.6663818 1.3890187 1.6594393 -1.606385 -0.5942404 0.9357371
811 1.6251721 -1.0334448 0.6602592 -0.95507437 -1.6869596 -1.3497424 -0.3388557 -1.0730693 1.0169222 -0.62833136
943 1.8771439 -2.3084867 -0.34587976 0.9485346 -1.6278167 1.553967 1.7077125 -1.7723346 -0.46862474 0.8324275
394 0.7892248 1.28879 0.34617585 -2.216834 -0.4991715 0.75114197 0.7661895 -1.7871192 -1.8075337 0.4838223
409 0.39354974 1.2661377 0.90787655 0.5165536 -0.12338047 -0.9864921 0.84430236 -2.016451 -2.2450047 -1.6123587
727 1.6152205 -1.7965007 0.24004856 0.7545523 -1.548473 1.1320657 0.8705394 -0.7576107 -1.1305835 1.5556633
721 0.34539136 -2.1583037 -0.77408874 -0.6528401 1.4201127 -0.32528713 -0.2458945 -1.6975213 -2.1590235 -0.8973648
422 0.39616892 1.2558 0.9192121 0.51392114 -0.16316931 -0.9559351 0.8284301 -1.9987537 -2.1563206 -1.5821804
1096 0.7324227 0.31623587 0.52717805 -2.8225672 -0.4452271 -0.7165456 0.59933597 -1.9967397 -0.465457 1.5341051
491 0.59414476 -0.44260818 2.1768703 -0.24939224 1.8773016 0.08083604 0.8095435 -2.4147625 -0.17816404 0.22507486
438 1.1641644 0.18086892 2.3568594 1.0082095 -1.5115322 -0.3390122 -1.2653807 -1.2295953 -0.945206 -0.45873502
375 0.40989405 1.2758592 0.90829813 0.5328442 -0.1496257 -0.9677205 0.84825265 -2.0699186 -2.259127 -1.6302488
399 0.7225737 -0.38708636 -0.056186754 2.2494605 -0.15010539 -1.0665336 -0.0857679 -2.0495458 -1.7667469 1.1764466
744 1.5516111 1.2003431 1.4843402 0.15059012 1.8005203 -0.1847155 -0.9153258 -1.6471826 -1.0425751 2.262607
960 0.7881484 0.45893404 0.5662678 -2.9675202 -0.47497746 -0.62677765 0.7029971 -2.1198688 -0.5539886 1.6042492
859 1.906644 0.13169764 -0.20907538 -0.4115776 0.59016293 0.11033574 -2.0707664 0.5889041 -2.1338513 -0.40884647
959 2.6809154 -1.324233 -2.2781804 1.3895389 -0.5320335 -5.0074553 -2.3886402 -2.7564476 -0.8276594 2.3212402
644 0.9515223 -1.8521187 -0.5261612 -0.3811204 0.6975191 -0.8874934 -0.1155382 -0.3052149 -1.198451 -1.257238
1025 1.9772663 0.32788837 -1.2939755 0.48864695 -0.3409101 0.69288397 -1.7600338 -1.7764299 0.17530565 0.16845304
840 0.54320765 -0.38193417 2.2717316 -0.2572992 1.8760182 0.06487489 0.7845387 -2.4900677 -0.25128075 0.31009713
408 1.0845561 0.10752841 2.242438 0.8698994 -1.5512123 -0.366063 -1.2568353 -1.2307854 -0.9146521 -0.36674738
833 0.4140241 1.2654892 0.934648 0.3936388 -0.21647891 -0.86788315 0.85135204 -1.8973522 -2.000648 -1.5605816
566 1.9472765 -0.052850913 -0.060493108 -0.26985613 1.3111662 -0.31011423 -2.0811548 0.45199323 -2.5059836 0.71700865
33 1.474378 1.1144538 1.3357147 0.050750736 1.6837882 -0.27940995 -1.1052419 -1.4640266 -1.093445 2.206739
834 1.518984 1.0036381 1.6885635 1.1517459 -0.43778554 0.28513014 0.035756268 -0.8525498 -0.21874908 -0.7115408
545 0.37128472 1.2484357 0.8732737 0.50871116 -0.1206702 -0.9534564 0.8142915 -2.0306466 -2.2617507 -1.5660913
485 1.1317617 0.1827238 2.2828407 0.9396624 -1.5361629 -0.32182014 -1.2799001 -1.2465689 -0.9556222 -0.44575274
254 3.6164227 0.2965165 0.47456813 0.41506565 -2.05352 -2.976327 0.30138934 1.1021583 -0.10506566 2.8404453
609 1.3573613 0.3300369 1.7403852 0.28575784 1.7361481 0.048834536 -0.33317932 -1.7649356 0.26147595 1.3497643
510 0.57615834 -0.36660707 2.250033 -0.23728509 1.7866718 0.00070644444 0.74515766 -2.427217 -0.1165838 0.3528906
572 0.4895966 -0.5060483 1.8722016 -0.21198268 1.6214898 0.17435105 0.9416703 -2.2284381 -0.19077231 0.06515771
657 1.9809551 0.34801632 -0.24127603 -0.32043746 0.48388624 0.29928437 -1.9148821 0.543153 -1.9359791 -0.6705346
484 1.1869714 0.19436263 2.4072561 1.0249615 -1.5223064 -0.32882988 -1.2862555 -1.3030251 -0.9800134 -0.4378054
55 0.33134145 -2.130931 -0.771503 -0.7362617 1.4894277 -0.35708126 -0.22380725 -1.8001926 -2.2099383 -0.9043168
633 2.320307 0.03641737 -0.30006254 -0.73660046 1.0372881 1.2088777 -1.2910987 -1.4188731 0.8462027 -0.55008423
643 0.97198254 -2.154773 -0.6492873 -0.4952637 0.8783852 -0.87582356 -0.12440255 -0.39656866 -1.5656475 -1.253352
461 0.7042917 -0.364134 -0.03449321 2.242683 -0.0810259 -1.1267345 -0.09150431 -2.0697095 -1.7577891 1.1391091
1144 1.5196263 1.2026155 1.475295 0.1478909 1.7592477 -0.20659712 -0.98838025 -1.640841 -1.0805484 2.3115785
624 1.8550285 -0.121184684 -0.14027871 -0.3989086 1.0733764 -0.24310437 -2.0808477 0.6007432 -2.4328125 0.36079213
1149 1.9580742 0.3020652 -1.3089988 0.51957697 -0.4151148 0.64794934 -1.7679645 -1.7921244 0.11339838 0.18212858
119 1.6239432 -1.8826845 -0.5847856 1.0159314 -1.7733893 1.6319301 1.3447877 -2.0549774 -0.552948 0.80433476
901 1.1006175 -0.0973308 0.064621985 -0.8190131 0.64100444 -1.7851204 0.83505535 -0.066579536 -1.5348862 -1.6561984
20 0.3538701 -2.2463548 -0.7998021 -0.8441411 1.658241 -0.34809932 -0.29351172 -1.9687631 -2.3472404 -0.932178
1122 0.72918034 0.4296403 0.53716016 -2.9178853 -0.44390842 -0.6475108 0.67479223 -2.0677247 -0.5351017 1.6172163
327 1.2029783 1.9710501 -1.5329611 -1.448509 -1.1298434 0.9827581 0.92104673 -1.4545591 -2.2600362 0.6953933
146 1.4957612 1.1473299 1.4764239 0.12262114 1.7643297 -0.22174934 -0.9986164 -1.5982567 -1.0315815 2.2564666
36 2.0487335 1.7846295 -0.35361034 -0.65551007 0.048258238 0.3412927 0.4891309 -0.074585944 -0.7245846 -1.2771528
383 0.7759773 1.3455758 0.19490711 -2.1738343 -0.5381145 0.77609074 0.815755 -1.8076526 -1.9065443 0.49685234
387 0.7806069 1.3379519 0.24805681 -2.1783137 -0.5089818 0.76109403 0.790337 -1.774074 -1.8513199 0.5123934
1147 1.7895265 -1.0240983 -1.3247185 0.7814396 -0.07764958 1.5715953 2.268928 -1.5645052 -0.47835845 0.68965375
521 1.7081294 1.5443262 1.5514762 0.74771386 -0.5294296 0.016008656 0.90892756 -1.7553223 -0.049479302 -2.0936089
936 0.7945354 1.189802 0.41801298 -2.2123652 -0.4367359 0.7298201 0.7637658 -1.7234501 -1.6959026 0.46958172
252 1.8199332 0.30319703 -1.2512059 0.5362173 -0.37460682 0.6312045 -1.6871065 -1.7425708 0.112803794 0.19174922
500 0.69331455 -0.39193434 -0.032462273 2.1901886 -0.12695548 -1.0526491 -0.09406568 -2.0124955 -1.7559216 1.1690748
941 0.64861655 -0.32467028 2.3686914 -0.2590959 1.8547864 -0.0009759557 0.6645517 -2.4331045 -0.12266821 0.44832593
975 1.7754875 -0.94482625 -1.2557188 0.70392823 0.2500548 1.5488256 2.355177 -1.5719826 -0.51091224 0.5319058
431 0.7702491 -0.35751295 -0.14932089 2.2342029 -0.24527279 -0.9071016 -0.2986776 -2.068696 -1.7450978 1.2129499
526 1.5442634 1.1100371 1.715961 1.0939367 -0.39922208 0.2700055 0.05280347 -0.8741309 -0.23459704 -0.74628395
895 1.6091168 -0.99742985 -0.7478812 0.34424785 0.6129029 1.2037318 2.4646792 -1.5464448 -0.18702415 0.02044476
571 1.9300065 -0.055620167 -0.0024190217 -0.30572507 1.2955408 -0.34442276 -2.095338 0.45382324 -2.4971578 0.73372346
439 0.71958417 -0.35013318 -0.19716178 2.07037 -0.34320474 -0.70831794 -0.452392 -1.8949931 -1.6006017 1.0611689
120 1.6432604 -1.9045836 -0.597003 1.0450653 -1.8226918 1.6699038 1.3451612 -2.1182044 -0.53796357 0.8137547
64 0.7652898 -2.4228144 -0.75923055 -0.053249042 1.0191422 -0.8286139 -0.12649156 -1.1801267 -1.5906594 -1.2476717
746 0.37170678 -2.1173625 -0.77164376 -1.1209208 1.8514272 -0.39508748 -0.32746044 -2.1109111 -2.3289504 -1.124042
802 1.7384408 2.4105377 -2.1727579 -1.4244359 -1.3456677 0.933573 1.1246111 -1.4052244 -2.410194 0.8294873
551 2.081402 0.54558104 -0.16959718 -0.3342414 0.30960777 0.4089934 -1.8209152 0.5080495 -1.4859169 -0.8194608
818 0.7741523 1.2892913 0.18306567 -2.14716 -0.5103224 0.75336313 0.79005194 -1.7283987 -1.8713192 0.51023924
432 1.1369711 0.334323 2.1956143 1.1020211 -1.2959034 -0.24559276 -0.990833 -1.0837142 -0.82950425 -0.43433607
599 1.7738433 0.03646982 -0.22560781 -0.4174086 0.7644159 -0.0066497554 -1.9268031 0.6058406 -2.1880355 -0.13878009
714 0.46663094 -2.312187 -0.6393856 -1.7408626 2.097054 -0.4612125 -0.5821156 -2.6047451 -2.6293504 -1.445848
851 1.2072672 0.12112504 -0.013851808 -1.0504318 0.6395909 -1.7458773 0.97269684 0.07380737 -1.5966514 -1.393611
395 0.82974046 1.2015288 0.42613053 -2.2264225 -0.44782212 0.7494941 0.7882728 -1.6836945 -1.6097219 0.512947
637 1.9531522 0.3033659 -0.22094713 -0.3574902 0.46377528 0.31183296 -1.9425831 0.54946274 -1.9080318 -0.6060442
502 0.6832652 -0.33587086 -0.0085884705 2.2181532 -0.053160153 -1.0921166 -0.019833935 -2.0413089 -1.748719 1.1810443
289 1.5783088 -1.1060808 0.7817684 -0.92986083 -1.6817044 -1.3298304 -0.3855983 -1.0098183 0.91891205 -0.6637819
993 0.7707049 -0.49736214 -0.5568752 -1.4057802 -1.4749227 -1.3826499 -0.28263217 -1.9819869 0.41429564 -0.53085774
1181 1.0601645 0.054026634 2.277588 0.831119 -1.5738051 -0.43463922 -1.2767831 -1.2308967 -0.9366661 -0.39635143
1008 0.3734841 1.1665255 0.79223406 0.6344181 -0.11580757 -0.95518774 0.75850064 -1.8842267 -2.3126976 -1.458514
838 0.32995763 1.0833104 0.6479019 0.7079052 -0.030205568 -0.95550364 0.71397173 -1.7791197 -2.1864738 -1.3631272
613 1.8094041 -0.06898475 -0.1740236 -0.4701713 0.8770405 -0.15978438 -2.0300405 0.6121587 -2.4159436 0.13280553
435 0.44224074 0.4929082 0.29061535 1.4211724 0.20315087 -0.8563317 0.50478494 -1.3202622 -1.773797 -0.60240585
1156 1.6785824 1.5919257 1.4953697 0.7462027 -0.49586314 -0.033401676 0.9440196 -1.7506831 -0.099569656 -2.1099164
766 1.033684 -0.8385292 1.3019868 -0.647823 -2.0317788 -0.7075537 -0.8630032 -0.80849034 -0.37583682 -0.9138749
688 1.1056252 -0.35601202 0.075635664 -0.78782034 0.7153633 -1.8350537 0.8245447 -0.22748768 -1.4349445 -1.8212441
69 3.9051743 0.53884476 0.7753964 0.5451046 0.24175929 -2.7461045 2.6018608 2.1111603 -0.6299261 0.120650165
464 1.4322145 0.8400011 1.6489421 1.1827381 -0.48372546 0.22570445 -0.1302126 -0.7746734 -0.30162537 -0.6082016
958 1.7921811 2.3923652 -2.27034 -1.3795005 -1.3351924 0.9593323 1.1345385 -1.4394515 -2.389929 0.8315565
867 2.218516 -1.9854045 0.032082453 0.38901958 -1.3553122 1.0588913 1.0085479 0.018974846 -1.3139255 1.5137848
449 0.38747373 1.2515955 0.9014439 0.5586569 -0.10650072 -0.94243574 0.81183326 -1.9886506 -2.248288 -1.5701532
600 1.8212203 0.02059483 -0.2084715 -0.40281728 0.76451814 -0.018882513 -2.0384185 0.6101038 -2.25239 -0.12620506
70 1.4273548 -1.3896544 -0.7030503 -0.32544237 0.6133472 -1.9137859 0.87289155 -0.7592712 -0.7912877 -2.0306382
379 0.33533236 1.1309767 0.73343205 0.74286497 -0.029065482 -0.96153617 0.7037398 -1.8515612 -2.2769992 -1.4116443
655 1.3468972 0.43757674 -0.055604268 -1.3288546 0.75895655 -1.5388584 0.9293175 0.20999564 -1.745823 -1.0870926
887 4.0587163 0.72930145 -2.1001718 0.21168947 1.3642433 -4.819811 -0.5473683 -1.1603296 1.1412902 1.4038514
508 1.1286794 0.181842 2.3248618 0.9509023 -1.4958869 -0.33882543 -1.2395128 -1.2714783 -0.9396422 -0.44304672
424 0.871506 -0.5516586 -0.50225383 -1.3417637 -1.5417401 -1.408314 -0.32732385 -1.9555342 0.5001582 -0.673434
311 1.6212875 -1.0098668 0.57122374 -0.97086674 -1.7246414 -1.3520626 -0.32244042 -1.1201109 1.0249941 -0.6395363
790 1.0364587 -0.79481894 1.2785227 -0.59523475 -2.0389931 -0.66500354 -0.8996035 -0.7458832 -0.44252434 -0.9869024
423 0.7920411 0.4659862 0.6088043 -2.929389 -0.45699912 -0.5971602 0.71588206 -2.1010718 -0.55966747 1.5922967
992 0.72088015 -0.45823085 -0.50965625 -1.4321601 -1.3552359 -1.3463588 -0.22582409 -1.9375916 0.42682442 -0.3509245
683 1.1363169 -0.36884236 0.05118167 -0.729824 0.73183084 -1.874877 0.7836595 -0.24187979 -1.434313 -1.8666679
669 1.2335105 0.3092067 -0.06354595 -1.1527559 0.7186386 -1.6043397 0.8633665 0.1591983 -1.6441141 -1.2399774
1104 3.2545164 0.17801426 0.733391 0.38948476 -1.3615108 -2.5062718 0.73557 1.3630579 -0.16934049 2.3108711
1037 0.9999454 -2.5359955 -0.88812643 -0.6094107 1.1691929 -0.7887554 -0.11178087 -0.6250843 -2.0385835 -1.2503674
627 1.3767868 0.5145816 -0.06723509 -1.3310161 0.6949185 -1.4401793 0.90725213 0.24079391 -1.7236195 -1.0832236
698 3.0724149 2.5214128 -2.342717 0.4661525 0.96433055 -5.999654 -0.9804953 -1.2357175 -1.442826 2.4967277
898 2.5813491 1.7291198 -0.1430198 -1.1405808 -0.011186234 0.30096355 0.17868748 0.2724886 -1.1003715 -1.576954
504 1.694043 -1.010048 -0.7993824 0.37143204 0.54392993 1.2811694 2.472526 -1.5868351 -0.1556289 0.08654969
1034 0.35649526 1.1682132 0.8046674 0.5661305 -0.11631237 -0.96367776 0.7639855 -1.956549 -2.2448676 -1.5349289
382 0.7816837 1.5208039 -0.38159803 -1.8278409 -0.7331942 0.8696755 0.7816209 -1.6937538 -2.089908 0.5478807
365 0.7962778 1.3300605 0.22440551 -2.21202 -0.5171439 0.7468662 0.74857473 -1.756659 -1.8107947 0.51580584
728 1.6889843 -0.969189 -1.2465942 0.69486403 0.26660043 1.4871966 2.2475977 -1.5389335 -0.48966843 0.55894625
517 1.3658206 0.7627732 1.6859939 1.2239746 -0.64900625 0.18468763 -0.25528166 -0.79335886 -0.34531277 -0.56844056
654 1.9610518 0.3077997 -0.20792635 -0.35217458 0.48839578 0.2890755 -1.9648757 0.5293719 -1.9262974 -0.6692078
858 0.9836904 -2.1388295 -0.6025352 -0.5068705 0.8601744 -0.8236352 -0.16468479 -0.37569982 -1.5002873 -1.235793
90 2.0225244 -0.051426753 -0.36594662 -0.1565487 0.78633326 -0.09978956 -2.31192 0.48563975 -1.7126131 0.5913892
277 0.3641044 1.2535197 0.91586995 0.40593687 -0.18595488 -0.8846754 0.83822817 -1.9383501 -2.0265582 -1.5360274
808 1.9381889 0.26690158 -1.2837046 0.49412483 -0.4061061 0.67122936 -1.7305349 -1.7354974 0.17767568 0.13712429
287 1.3975191 0.87643653 1.6608361 1.1694953 -0.45765176 0.23918581 -0.12490005 -0.79984814 -0.29883894 -0.6201143
837 2.025554 0.36290213 -0.20469856 -0.35049382 0.5170826 0.31932312 -1.9879118 0.5420109 -1.9531946 -0.6174134
51 0.44387007 -2.294359 -0.6010495 -1.7688334 2.0598185 -0.49160177 -0.58403355 -2.6300218 -2.575123 -1.4624964
420 0.4313865 0.5946609 0.32855454 1.4147606 0.15265366 -0.8346587 0.50803816 -1.3721229 -1.8444507 -0.7426939
692 1.1581117 -0.25422943 0.10885223 -0.7600714 0.6823787 -1.8644241 0.8674525 -0.17189555 -1.4533648 -1.7935532
446 1.4885867 1.084045 1.6911291 1.0705761 -0.38462192 0.2802537 0.1029135 -0.8581949 -0.21756653 -0.80444807
544 1.0658103 -1.0423697 0.48162502 0.12668394 1.1821493 0.76454 1.7899233 -1.8677597 0.023095591 -0.35581958
561 0.34786707 1.0836297 0.6852389 0.69329286 -0.077210836 -0.90442914 0.70623136 -1.80735 -2.2204697 -1.3781267
37 0.7557941 -2.4511278 -0.7833385 -0.042711854 1.0458097 -0.8205225 -0.12272365 -1.2220371 -1.6583897 -1.2437954
740 0.3956678 -2.1494455 -0.81003726 -1.2083905 1.8738571 -0.39571926 -0.34436962 -2.1917095 -2.3540306 -1.1512796
1126 0.9643967 -0.5930898 -0.4604044 -1.326067 -1.6724038 -1.4048893 -0.33371696 -1.942155 0.5380772 -0.7481447
553 1.5311725 -0.9866083 -0.6042082 0.3006805 0.7606278 1.1191744 2.3667386 -1.6189432 -0.14746393 -0.10843797
404 1.2734302 1.4632002 0.93180275 0.51932967 -0.5846756 -0.07284701 0.92303485 -1.5971056 -0.45010918 -1.9871953
742 4.273062 1.0485587 0.7376536 1.0411175 0.050674014 -2.896886 2.7574992 2.0888762 -0.76197195 0.17979051
183 3.8887537 0.5247031 0.84199643 0.63519084 0.19073722 -2.8945007 2.5615394 2.1393723 -0.70808566 0.20430526
106 1.3671055 0.8004396 1.3267796 0.37492725 1.6035124 0.0603815 -0.6108138 -1.6609547 -0.48057067 2.0340106
357 1.1544529 0.28953546 2.3562686 1.0769323 -1.4028854 -0.30681124 -1.1615652 -1.2142797 -0.9057354 -0.4394974
852 1.1349537 0.110784456 0.027034653 -0.99442995 0.636223 -1.6431005 0.78303444 0.07762732 -1.5008079 -1.3616697
98 2.0375798 -0.07984531 -0.36810538 -0.17377149 0.76624 -0.087345436 -2.3284845 0.4834463 -1.75842 0.64416426
437 0.87868494 -0.5297181 -0.47218552 -1.3317336 -1.5765822 -1.4075302 -0.32034272 -1.950262 0.49044958 -0.69197726
332 0.38100058 1.2155093 0.9122651 0.41245994 -0.19945927 -0.8893901 0.78587246 -1.8990177 -2.0152123 -1.5589396
398 1.2370465 0.2581201 2.3859289 1.1120859 -1.4442519 -0.30572695 -1.1473714 -1.1876473 -0.92923373 -0.43564162
565 0.7502661 -0.3439442 -0.22385712 2.156243 -0.2830589 -0.8586766 -0.31402388 -2.029012 -1.7027869 1.208662
893 1.6637417 -1.0315624 -0.82050323 0.35033432 0.5302047 1.2449391 2.458478 -1.5383048 -0.16512431 0.0572293
1100 0.80781716 -0.5303233 -0.49326384 -1.3596385 -1.4845663 -1.3846748 -0.2714977 -1.9721528 0.47295308 -0.5417701
470 1.2487088 -1.0059361 0.028300082 0.21149908 1.0563933 0.83926415 1.9740906 -1.6532797 0.093862966 -0.38602486
614 1.779737 -1.057333 -0.98161256 0.44078046 0.3477837 1.3949139 2.4456904 -1.5286902 -0.1751718 0.20250933
832 1.4797039 1.5065949 1.2844306 0.6194908 -0.5804088 -0.056308158 0.95260817 -1.689641 -0.23596053 -1.9939017
906 2.2886944 -0.015973093 -0.7906357 -0.57795256 0.941883 1.1246951 -1.300762 -1.5380342 0.8519157 -0.6480512
539 2.0422509 -2.163952 -0.018019777 0.82718635 -1.5639818 1.045374 1.3766674 -0.5064139 -1.4347141 1.6591371
555 0.30931714 0.8471615 0.50230044 1.0325228 0.01215783 -0.8650039 0.57344764 -1.5198678 -1.943618 -0.98154104
626 2.3921173 1.5971643 -0.08648392 -1.1001638 0.06926347 0.14112088 0.33965346 0.3117147 -1.1813397 -1.5365925
299 1.4971256 2.1793296 -2.0173976 -1.3634174 -1.2672338 0.9264663 1.0385219 -1.4250143 -2.3301477 0.8079546
550 2.0317714 0.37221768 -0.17714098 -0.28854403 0.51915807 0.34397662 -1.9907435 0.5092572 -1.9357173 -0.6958663
344 1.5213082 1.4768895 1.3049552 0.67930675 -0.5045493 -0.041270606 0.88876754 -1.6415269 -0.10029358 -1.9232881
549 2.2248526 0.41929594 -0.20455462 -0.3997951 0.50918436 0.40921563 -2.0611434 0.5224205 -1.8632839 -0.8099922
501 1.1435761 0.37286642 2.078243 1.1610907 -1.1277692 -0.18337053 -0.8994587 -0.95855206 -0.7326526 -0.4097384
474 4.191851 1.0143484 -2.507751 0.7849515 1.91283 -3.8499606 0.92422104 -1.3329529 1.97013 0.44623375
950 2.0348525 1.4599689 -0.12789817 -0.8101241 -0.074864075 0.40712652 -0.1825941 0.21715413 -0.7356256 -1.1484979
843 2.2672758 -0.009925539 -0.71963483 -0.6279269 0.8481771 1.1516914 -1.2833289 -1.5125309 0.863123 -0.64624846
97 3.9764242 0.39184678 0.8958493 0.5182346 0.02606845 -2.8809876 2.5711684 2.2025821 -0.6101798 0.3914818
433 0.69156826 0.33368072 0.5407813 -2.80312 -0.44318286 -0.6642682 0.6095099 -1.9814211 -0.4879828 1.5243998
1087 1.119714 0.2284029 -0.07540045 -1.111924 0.6562869 -1.6359437 0.88602453 0.041105114 -1.615661 -1.2522883
689 1.1303612 -0.43928704 0.06468431 -0.74045604 0.7600063 -1.8651992 0.77731043 -0.20072815 -1.4555475 -1.9090556
777 2.0412903 0.29820836 -1.2888942 0.467341 -0.2132802 0.6613293 -1.7233387 -1.7190892 0.33021727 0.09764417
816 1.2356176 1.452864 1.0047064 0.5240852 -0.58548456 -0.10140353 0.91055375 -1.6180991 -0.4665461 -1.9634936
335 1.6220628 2.2864594 -2.1910594 -1.3673419 -1.36336 0.92339337 1.0955637 -1.4484783 -2.3869007 0.84295833
125 2.044313 1.7473505 -0.44524968 -0.5010006 -0.042220905 0.4250955 0.22381514 -0.035353463 -0.6076106 -1.1495974
298 1.5582097 -1.1345434 0.8110427 -0.8691441 -1.6376642 -1.2984823 -0.45949286 -0.9977551 0.90944207 -0.59444195
835 1.442913 -0.96902937 -0.40126404 0.30216715 0.85795593 1.0297203 2.2361965 -1.6182638 -0.07949053 -0.2640972
575 1.3324624 0.49503937 1.7555115 0.2993227 1.7915977 0.022675196 -0.53481895 -1.8157597 0.10481536 1.4366959
334 0.74352264 1.3205998 0.13617952 -2.0743656 -0.49003413 0.7869187 0.786545 -1.7178773 -1.850385 0.5096904
730 1.4926708 0.95556545 1.1288548 0.08640326 1.5784198 -0.34800315 -1.3990285 -1.226949 -1.1900756 2.0840666
45 1.6321666 1.045866 -0.06293416 -0.9788876 0.47696036 -0.3529954 0.95070064 0.07042968 -1.3036146 -1.3357424
434 1.4686819 1.140499 1.5578483 1.0531387 -0.35639492 0.29477876 0.15028234 -0.91158366 -0.13428335 -0.9417031
316 0.729212 0.35971722 0.5354813 -2.8518252 -0.42905438 -0.67441595 0.67765915 -2.014653 -0.5231816 1.5957733
1157 0.9386157 -0.109788164 2.15352 0.038360696 1.7591578 -0.057657048 0.23584601 -2.0064125 0.16582964 0.7842334
962 0.78102565 0.5529533 0.6136311 -2.7578967 -0.45092732 -0.38247856 0.7067253 -1.8409736 -0.53569674 1.3693106
864 1.6652257 -2.1142006 -0.07380872 0.8460318 -1.6643207 1.1219804 1.5373203 -1.2550149 -0.79182816 1.1896737
615 1.6886458 -1.06433 -0.9591137 0.4348155 0.28816733 1.3415558 2.3504412 -1.4620172 -0.16342428 0.18554842
232 0.74464893 -0.4096705 1.0679257 0.10323946 1.4796088 0.59247166 1.0965425 -2.0753226 -0.13011134 0.20738526
174 1.0469583 -0.8250684 1.2686695 -0.6468721 -2.0734563 -0.68114114 -0.8937218 -0.79014045 -0.4009577 -1.0088018
1036 1.9032409 0.20623448 -0.22693193 -0.38661927 0.59590334 0.15171398 -2.0230384 0.5613706 -2.1549037 -0.46106663
428 1.2226678 1.3932165 0.9186486 0.48096448 -0.6191386 -0.14036253 0.94209456 -1.611483 -0.58147454 -1.9988
968 2.2392864 -0.030134667 0.02171346 -0.7536158 1.0595205 1.1602466 -1.2492446 -1.2558178 0.84001774 -0.45004565
543 1.7100459 1.5279773 1.6429666 0.72021234 -0.44881177 0.06966631 0.8264572 -1.7026014 0.049161278 -1.900983
983 0.7697658 1.1395234 0.4700116 -2.171163 -0.3664402 0.6594036 0.7255329 -1.616125 -1.4997834 0.41236773
759 0.8788004 -2.196925 -0.7986638 0.115045235 0.9087938 -0.93860227 0.04286721 -1.0207324 -1.1047405 -1.1233721
411 0.9432417 -0.57061994 -0.49692327 -1.305732 -1.6120551 -1.4242353 -0.36589435 -1.9697666 0.53634125 -0.7634357
691 1.1914387 -0.39557034 0.13374367 -0.7574088 0.73897207 -1.8866868 0.81735504 -0.2154999 -1.4883577 -1.9179802
483 0.36763033 0.770966 0.43729046 1.1663202 0.0074168188 -0.8364932 0.5376154 -1.4759312 -1.9326812 -0.9457351
560 1.5051191 -0.98223394 -0.64754826 0.32973993 0.66871834 1.1392759 2.3582244 -1.5918974 -0.15037084 -0.06377049
293 1.513037 1.0004534 1.744086 1.1708449 -0.48922157 0.27737132 0.025655106 -0.8536282 -0.25554088 -0.7099452
1118 1.4370404 -0.8093852 -0.8586286 0.5044464 0.6904212 1.317194 2.1569078 -1.6141124 -0.35639617 0.21388263
1045 1.7981569 2.3896654 -2.3093636 -1.3672429 -1.4047314 0.9336173 1.1339535 -1.4566368 -2.394806 0.86205924
1106 0.79475236 -2.40522 -0.7818901 -0.025802378 1.0319864 -0.8691569 -0.1322811 -1.1545856 -1.5028099 -1.2124946
1182 0.4454471 0.64238054 0.34575272 1.3119597 0.08940795 -0.7835997 0.53542113 -1.3365222 -1.8500478 -0.8935166
400 0.40698773 1.1633693 0.919362 0.3357862 -0.29751393 -0.8428942 0.7840779 -1.8538927 -1.7564346 -1.5248023
430 1.0761913 1.2871299 0.843573 0.42933333 -0.5582924 -0.17269777 0.9056147 -1.5590103 -0.559394 -1.8176495
419 0.39564207 0.70814115 0.40470916 1.2555963 0.05979345 -0.8087684 0.51634395 -1.3477544 -1.8940675 -0.9030717
343 0.9804681 1.6750188 -1.1248442 -1.5271156 -1.059978 0.9183928 0.8234305 -1.5159891 -2.2782872 0.65226483
264 0.37262452 1.2652723 0.94063425 0.49949145 -0.13777693 -0.9478774 0.8587492 -1.9965783 -2.1901865 -1.5483602
217 0.84215844 -0.5111959 0.7840607 0.13444874 1.3929546 0.72222865 1.248235 -1.926808 -0.13588151 0.1362447
592 0.7286483 -0.28866318 2.2558713 -0.0999992 1.6947539 -0.09385148 0.42636484 -2.0855813 0.017225357 0.6509936
117 2.158201 1.8363131 -0.42161608 -0.560538 0.002934603 0.4275649 0.37629232 -0.027124621 -0.6925916 -1.2728903
514 0.762274 -0.11554264 -0.45418936 1.5368307 -0.55516636 -0.20718777 -0.7805065 -1.6551487 -1.3458061 0.8400293
1011 1.6910268 1.4926333 1.534245 0.7291463 -0.42212996 0.07489497 0.7568675 -1.5903211 0.08227603 -1.7935706
222 1.3945911 -0.8252483 -0.665597 0.48193222 0.83785135 1.297082 2.0772245 -1.6752863 -0.27546442 0.07886984
830 1.0328078 -1.0494474 0.60350966 0.10178133 1.2262701 0.75023454 1.7244855 -1.9021325 0.024159877 -0.3635885
476 0.40278906 1.2183045 0.8923876 0.29226822 -0.30243272 -0.8106195 0.79534465 -1.8123201 -1.7435669 -1.5049793
619 0.5960746 -0.38519692 2.2184384 -0.25534785 1.7800299 0.12513383 0.77856636 -2.3552647 -0.21789457 0.32840073
126 0.4383709 -2.2135794 -0.84547883 -1.2449621 1.9639004 -0.42389 -0.3679552 -2.2057157 -2.4193282 -1.2194545
319 0.7766022 1.1526319 0.39120266 -2.188281 -0.41258976 0.7120955 0.72603226 -1.6791378 -1.6001167 0.48428792
206 1.5511049 -0.85686094 0.4745458 -0.98028433 -1.6656512 -1.2432239 -0.22890458 -0.95992136 0.93716896 -0.65767056
715 1.696892 1.305967 -0.07212015 -0.86912876 0.32592723 0.06605626 0.7591503 0.01999315 -0.9982344 -1.2739908
926 1.2103251 -0.72961223 -0.1870378 0.4278039 1.0171298 1.1279855 1.8008466 -1.702071 -0.13380767 0.011322514
1136 0.9962833 1.2576668 0.8410648 0.41074488 -0.56816643 -0.23436719 0.91615427 -1.59416 -0.6797245 -1.7855413
410 1.0056072 1.3018384 0.81979865 0.46257484 -0.54639596 -0.17815991 0.8884134 -1.5718188 -0.64186454 -1.7966937
1024 1.029951 -0.8386181 1.2522209 -0.63472265 -1.9944198 -0.66859573 -0.81226575 -0.73919356 -0.41161865 -0.9594974
1074 0.5200066 0.053065177 0.28525227 -2.3641946 -0.36680394 -0.82966334 0.49827793 -1.7820916 -0.288317 1.339859
567 1.4545791 -0.93527037 -0.42092764 0.28652015 0.92423815 1.0347627 2.2500823 -1.6223427 -0.085228264 -0.22595833
845 2.2650313 -0.015078712 -0.7332174 -0.57873356 0.86847657 1.0927761 -1.2574747 -1.4790083 0.81833625 -0.6176291
453 1.0698771 -0.7070726 1.4065846 -0.44760686 -2.3273804 -0.62187415 -1.0983499 -0.98005337 -0.5576198 -1.0581975
426 1.0678242 1.2768162 0.86257905 0.42895904 -0.5599002 -0.19986081 0.95067537 -1.5723455 -0.5337574 -1.8010489
342 0.9035318 1.6617554 -0.93337286 -1.6197984 -0.92060596 0.88220394 0.81532675 -1.6167967 -2.2678826 0.66430575
1097 0.7041028 0.28118813 0.5102015 -2.8367035 -0.45243022 -0.74501026 0.6161509 -2.0096571 -0.49983913 1.5648406
844 2.8722725 2.311346 -2.266878 0.32050604 0.9632748 -5.2603436 -1.2813808 -1.2511272 -0.88706154 1.8430189
141 1.9808313 0.25284493 -1.2459322 0.37036455 -0.15102103 0.68934536 -1.6251853 -1.6422608 0.43488288 0.014294768
929 1.0978584 0.041087154 2.270136 0.8496125 -1.5914117 -0.409891 -1.3292766 -1.2587247 -0.9010139 -0.40618673
318 1.6647359 1.5639447 1.503025 0.7022051 -0.4677601 0.004302317 0.88913155 -1.6985435 -0.052674934 -2.0419917
314 1.7429419 2.346489 -2.2139823 -1.3652185 -1.3794656 0.9560446 1.1085021 -1.4210439 -2.4054918 0.8296248
346 1.6012831 2.2465377 -2.149146 -1.3130177 -1.3204806 0.93748665 1.0496216 -1.4335164 -2.3504798 0.7629967
1197 1.5548726 1.1189861 1.72064 1.1218495 -0.3794595 0.30217782 0.10258771 -0.8885517 -0.24243098 -0.7795092
846 2.2290812 -0.046011873 0.029796278 -0.7410723 1.0707804 1.1476115 -1.1695094 -1.2647519 0.8512235 -0.4381749
385 0.4131464 0.6085075 0.35074428 1.3457077 0.1063295 -0.8140784 0.4870296 -1.3705796 -1.8730961 -0.7863642
30 2.0138173 1.6951115 -0.423333 -0.4898893 -0.026181955 0.46217605 0.17980537 -0.02610514 -0.59729475 -1.119707
324 1.6690439 2.3310485 -2.1408796 -1.3025764 -1.3426636 0.9462126 1.0887382 -1.4273108 -2.2874668 0.81337315
897 2.5782259 1.6433854 -0.13860218 -1.1201313 0.030983109 0.23656243 0.24063584 0.29593557 -1.1607172 -1.6155063
336 1.0059631 1.6915402 -1.1591467 -1.498708 -1.0479071 0.94650126 0.8255382 -1.4947048 -2.2181156 0.5937894
668 2.345994 -1.938891 0.58003205 -0.46593112 -0.9256393 0.99043584 0.20500551 0.5032784 -1.1836491 1.3366438
1185 2.1206484 -0.14023644 0.37023127 -0.74768806 1.0641989 1.062842 -0.992018 -0.9934969 0.8358345 -0.2645628
326 1.4930829 -0.8676873 0.5621843 -0.90675545 -1.5563864 -1.24009 -0.2772241 -0.87871146 0.87266666 -0.67969203
601 2.510205 1.6899164 -0.09919961 -1.1594132 0.10556709 0.14182839 0.39306188 0.32558572 -1.2933413 -1.5712321
1093 1.2627889 -1.0068733 0.9216305 -0.8186671 -1.5815032 -1.0933508 -0.4822999 -0.8164176 0.57896453 -0.7241278
1072 0.4414307 -0.24876298 -0.36733076 -1.7730064 -0.47644827 -1.1657068 0.17875953 -1.7344089 0.08931399 0.85287493
401 0.42345703 0.60460013 0.35355017 1.342326 0.11380303 -0.8488326 0.5275366 -1.3896415 -1.888518 -0.81902534
944 2.2119048 0.09591997 -1.2276697 -0.30721352 0.4898276 0.9619617 -1.3051143 -1.5041741 0.810272 -0.5567435
1018 2.1248307 1.8649005 -0.36446682 -0.637475 0.027805196 0.4062279 0.46512538 -0.06871338 -0.713894 -1.2763401
92 1.9962504 0.20626019 -0.7104652 -0.16811566 0.44654852 0.10163118 -1.7449753 0.61190784 -1.4716429 -0.50265795
671 2.1354103 -1.8532801 0.114509605 0.16355863 -1.2149304 1.0473229 0.721198 0.14669092 -1.176557 1.4595687
940 3.6135108 0.70504355 -2.000481 0.51226115 1.5741559 -4.034674 0.14545743 -1.3395047 1.5997719 0.9525788
589 0.6993374 -0.33961278 -0.20800145 1.9876233 -0.38625112 -0.6071403 -0.4414623 -1.8198763 -1.6132824 1.0201445
219 1.7148114 -1.0808821 -1.2159119 0.82420695 -0.11119754 1.6301259 2.2396362 -1.5650408 -0.49161935 0.6206021
458 2.246555 -0.034931432 -0.43591887 -0.70133454 0.9742521 1.1414261 -1.2292325 -1.4024093 0.837649 -0.59886974
1184 1.9568858 -2.0094092 -0.70609397 1.0694256 -1.0529181 1.689119 1.7484062 -1.8964038 -0.033198338 0.5008058
673 0.9139348 -1.793786 -0.5118554 -0.30188742 0.6557154 -0.91015387 -0.07184484 -0.33120155 -1.1502463 -1.275558
259 1.2811636 -0.9083187 1.2938957 -0.8948245 -2.1074002 -0.86363363 -0.8037333 -0.8219744 -0.10810127 -1.0849051
473 0.945067 -0.5762538 -0.38027623 -1.23158 -1.6577011 -1.4198439 -0.3004278 -1.8461066 0.5749059 -0.81046075
1031 0.43888864 -0.23208944 -0.4041913 -1.669716 -0.50899595 -1.1564134 0.16477188 -1.7009676 0.09165878 0.7606381
663 1.9316301 -0.06937162 -0.19750838 -0.45591572 0.96782744 -0.25414383 -2.162693 0.6609286 -2.4947224 0.26421288
1099 1.0357705 -0.60914296 -0.36237484 -1.2025732 -1.6703995 -1.3406855 -0.33212185 -1.7444888 0.5590652 -0.90208864
73 1.5086595 -1.7530568 -0.58074176 0.9744886 -1.6136508 1.5896592 1.3433919 -1.9926872 -0.493863 0.75930846
452 1.0562092 -0.71101797 1.4278334 -0.50948334 -2.2798305 -0.6057381 -1.0983986 -0.98629487 -0.6072106 -1.0261695
681 1.9247628 -2.1749604 -0.6135822 1.017247 -1.2830825 1.6490065 1.7390784 -1.9221177 -0.1400352 0.62797314
769 1.37339 -1.3482082 -0.713885 -0.31588423 0.59363884 -1.8407717 0.8263785 -0.7528806 -0.8403973 -1.984793
1071 0.95674527 1.7071943 -1.0022935 -1.5599619 -1.0277604 0.93387765 0.79389197 -1.5919709 -2.3500748 0.62709856
963 0.99587715 -1.0321753 0.6582736 0.15067972 1.2661172 0.64603555 1.6538814 -1.8842314 0.055354647 -0.3152839
1073 0.46102938 -0.24611287 -0.5477505 -1.5515945 -0.7880444 -1.1828779 0.0072560403 -1.7489152 0.19150533 0.40912393
652 1.7812878 -0.07665348 -0.19681655 -0.41100115 0.8173024 -0.1382048 -2.015006 0.63926226 -2.3858695 0.11732211
1153 1.4991506 -1.118489 0.83532906 -0.85414547 -1.602658 -1.2733366 -0.41308582 -0.9816101 0.8845749 -0.6587489
1168 3.404671 0.258951 0.32432216 0.39359728 -2.0775175 -2.7710366 0.16903841 0.93901086 0.021430839 2.72798
388 1.4688883 -1.1080313 0.88052297 -0.8357759 -1.5770494 -1.2336427 -0.5054733 -0.92857647 0.79820675 -0.65953994
11 0.44894585 -2.2473505 -0.6278323 -1.767573 2.0991158 -0.49517328 -0.5985899 -2.591874 -2.6114283 -1.4731102
1173 1.3548601 -1.0741545 0.8692388 -0.78877604 -1.529324 -1.1627598 -0.44779035 -0.8093801 0.64140564 -0.6570243
1124 0.73677933 -0.4795839 -0.52597564 -1.3236264 -1.3849908 -1.3388531 -0.25318795 -1.8996106 0.38884726 -0.4378367
412 1.7918453 1.5912203 1.6316339 0.78656185 -0.4991257 0.102577135 0.8528028 -1.7379309 0.017262146 -1.9936717
591 2.73916 1.7259681 -0.08465717 -1.2317419 0.052833814 0.2436562 0.287229 0.29972675 -1.2470247 -1.6548078
112 3.923452 0.65345055 0.75911236 0.7733882 0.21559279 -2.810944 2.6307209 2.0639703 -0.71548104 0.1914207
421 0.6347448 -0.37915397 -0.5496455 -1.5368973 -1.2228316 -1.3382416 -0.122889854 -1.9555023 0.31390202 -0.13653193
641 1.364207 0.5338344 -0.052635282 -1.3645238 0.7637625 -1.5041838 0.90401405 0.23027377 -1.8488332 -1.0587962
611 0.9661244 -2.363489 -0.7548175 -0.59453845 1.0561213 -0.77030754 -0.14002594 -0.5126807 -1.8024282 -1.2657098
1186 2.8462741 1.8882618 -0.13696553 -1.2630535 -0.004109462 0.26475 0.25088772 0.288516 -1.3080163 -1.7510109
651 0.6444801 -0.2629191 2.3238044 -0.2062289 1.8035733 -0.016760224 0.67479396 -2.3416317 -0.10329207 0.42700952
621 1.9114563 -0.11516171 -0.17366129 -0.46312845 0.9839263 -0.2775938 -2.1453648 0.61702514 -2.603995 0.2639279
847 2.1849926 -0.14095984 0.36035138 -0.8281618 1.0821466 1.0622884 -1.0219313 -0.9946399 0.8242281 -0.20571472
804 1.6962538 1.5639155 1.5080477 0.70088315 -0.46870857 0.018150186 0.8268556 -1.7505994 0.01799182 -2.005867
10 0.59172297 -2.3361917 -0.7758447 -0.051536888 1.0519795 -0.67454624 -0.18414415 -1.2853665 -1.7609619 -1.0723617
907 0.8255963 1.1148033 0.50246716 -2.2815058 -0.36084506 0.6045572 0.74978983 -1.6143665 -1.2966473 0.4691418
1048 2.1565096 -0.17697997 0.41596234 -0.79225886 1.0637523 1.0647682 -0.9693317 -0.99662 0.8422983 -0.21280667
189 3.0623283 0.18668227 0.8545089 0.4000584 -0.3920205 -2.4149055 1.9043795 1.7572073 -0.5974447 0.8305864
489 0.7222006 -0.16763698 -0.3757793 1.6096548 -0.48018286 -0.3034197 -0.7054814 -1.6449468 -1.3615265 0.86663425
468 1.1511973 -1.093393 0.40516886 0.18287155 1.1962522 0.8166371 1.8919606 -1.9065161 0.010181104 -0.43684623
270 1.2722074 -1.0290055 1.1542633 -0.8989853 -1.8674918 -0.98958397 -0.66163486 -0.8071727 0.25887543 -0.9428073
1060 0.72073317 -2.4178245 -0.75388414 -0.09163086 1.0311518 -0.7880865 -0.14042054 -1.2293131 -1.7057984 -1.2426807
305 0.9805789 -0.105888344 2.1784077 0.62407416 -1.7533791 -0.47674188 -1.3453804 -1.1839933 -1.0034745 -0.47639906
558 1.353803 0.19537593 1.9010458 0.31208944 1.8632221 0.022466749 -0.27693686 -1.8711642 0.25176713 1.3163847
479 1.0576093 -0.64647776 -0.31415188 -1.2520359 -1.7349094 -1.3796194 -0.3240239 -1.7594867 0.64728117 -0.8714545
1196 1.6244335 1.4266894 1.5611589 0.765828 -0.35434136 0.119129635 0.6877232 -1.474518 0.11558107 -1.6753415
814 0.9773103 -0.649987 1.4753176 -0.31997544 -2.1813316 -0.58906466 -1.1561105 -0.98412806 -0.66455024 -0.9346864
978 1.9558641 0.26261833 -1.2059608 0.34480628 -0.093849115 0.6799673 -1.5893128 -1.6196262 0.48514956 -0.014832028
605 0.95047385 -2.0826542 -0.55984885 -0.42979106 0.8643904 -0.8491503 -0.117185704 -0.41230842 -1.3949533 -1.2661939
1003 2.0815272 -0.02451414 -0.33388638 -0.1641982 0.81912464 -0.1244592 -2.3615887 0.44872898 -1.7051823 0.70624745
552 2.763614 1.8776213 -0.1008966 -1.2414939 0.059018437 0.3264177 0.2677483 0.23255165 -1.2036006 -1.698571
569 0.67216444 -0.33481258 0.020817637 2.1696181 -0.01095179 -1.1210768 0.018629974 -1.9937749 -1.7277942 1.1559057
444 1.9593406 -2.388346 -0.42969337 1.0156494 -1.6179527 1.6490259 1.7326868 -1.9618679 -0.3123994 0.823411
348 1.555637 -1.1495994 0.8354294 -0.92359936 -1.6750994 -1.2998363 -0.4267974 -1.0189934 0.91249627 -0.6378823
77 1.9362019 0.2654354 -1.2342768 0.3796394 -0.10618863 0.6833491 -1.5993161 -1.6060824 0.433868 0.029840602
556 2.3423057 0.2571408 -1.611888 0.041137997 0.090237945 0.94359887 -1.5833858 -1.6262835 0.6762979 -0.28801334
1180 2.1131144 -2.452153 -0.569876 1.0817473 -1.4837781 1.8096068 1.8942285 -2.1033034 -0.23284565 0.7586021
21 1.3562245 -1.1842941 -0.6217148 -0.35310555 0.5633628 -1.8107389 0.8728358 -0.68378025 -0.89547694 -2.0140646
658 0.8779549 -2.438985 -0.85529214 -0.6566432 1.224519 -0.7349582 -0.16205859 -0.67520165 -2.19552 -1.0918812
952 0.9020443 -2.4759889 -0.91024476 -0.6358769 1.2428968 -0.79174596 -0.20642933 -0.67951405 -2.2166963 -1.0710956
48 1.7379037 1.2712854 -0.041187193 -0.88090897 0.3540782 0.017298792 0.7698929 0.042894274 -1.0796609 -1.3239079
265 1.3351407 1.4413271 1.064962 0.5614173 -0.5685422 -0.020103479 0.88505894 -1.5876558 -0.31816575 -1.9487989
603 1.3656021 0.5613457 1.715373 0.2554749 1.734084 0.0070912386 -0.5431555 -1.7849 0.13581671 1.452694
455 1.4630783 -0.93908143 -0.3527384 0.24307927 0.91896415 0.98604435 2.2877574 -1.6006769 -0.048206497 -0.30251828
1127 0.793155 1.0776422 0.49631372 -2.2812796 -0.3489288 0.58480257 0.78595364 -1.5926871 -1.2762027 0.48629186
541 1.2797954 0.10205284 1.9048785 0.26913467 1.7554151 0.0022679449 -0.25690243 -1.8344154 0.2833854 1.2448758
257 1.2955327 -0.99332285 1.2113022 -0.87514997 -2.0465784 -0.86992425 -0.77279997 -0.7892469 0.006755266 -1.0232819
636 2.2017975 -0.04544009 0.020603947 -0.7485995 1.0465146 1.146003 -1.1808549 -1.237176 0.85467356 -0.4162067
1010 1.6564745 1.4327422 1.5780959 0.79039866 -0.36088887 0.15950806 0.6755291 -1.452343 0.105727844 -1.7169511
31 2.021339 1.6807519 -0.4520771 -0.42316425 -0.012000337 0.39742106 0.044914283 -0.0033474357 -0.66693455 -1.1330552
462 0.38699603 0.7911693 0.45375225 1.1840878 -0.0008440113 -0.86294466 0.57478195 -1.4734831 -1.9715252 -0.98106235
888 0.47722197 -0.21910153 -0.17951775 -1.8277602 -0.42459413 -1.096758 0.2781342 -1.6292807 0.08143894 0.97472733
93 0.66496134 -0.45231333 1.1428462 0.08531991 1.425034 0.46455142 0.92726505 -2.0921574 -0.040569242 0.31591874
948 2.2620463 0.010215998 -0.7662753 -0.5542831 0.8733438 1.1202182 -1.2974999 -1.5060139 0.8418812 -0.64298207
228 0.89009696 -0.5135236 -0.49446625 -1.3075867 -1.5881215 -1.3801283 -0.30378404 -1.9054343 0.463464 -0.73743737
770 0.912912 -0.54678965 0.5664837 0.15997034 1.3167772 0.86505675 1.3812782 -1.8539743 -0.11622186 0.07545998
76 1.4719856 0.7759811 0.9161185 0.10180613 1.3944918 -0.33072162 -1.520543 -0.87605435 -1.1601582 1.8313744
341 1.046897 1.7608052 -1.220011 -1.5376353 -1.0971184 0.98209274 0.8391725 -1.5804154 -2.3299313 0.6346387
523 0.4189788 0.4329098 0.25657445 1.5062389 0.24891292 -0.89742595 0.53901535 -1.386649 -1.9092818 -0.5635757
865 1.6847823 -2.1680348 -0.10093896 0.8602333 -1.690869 1.1883105 1.6012706 -1.3203155 -0.79714686 1.1475286
990 0.94680446 -0.5539958 -0.36921024 -1.2400262 -1.6790355 -1.3843768 -0.32914156 -1.8260758 0.5036725 -0.8634102
1041 2.334286 -0.0013341265 -0.74337894 -0.658268 0.8773512 1.1715064 -1.2586972 -1.4868591 0.8186399 -0.65275234
509 0.79447114 -0.03413631 -0.5001799 1.346286 -0.5607583 -0.09775149 -0.88895893 -1.5286679 -1.2288644 0.81222755
894 1.3865106 0.40666145 1.7854476 0.28279403 1.8276609 0.08300137 -0.43231302 -1.7918205 0.20365849 1.3710204
1076 0.7283778 -0.48959848 -0.52547103 -1.4026915 -1.3906147 -1.362383 -0.21938254 -1.934814 0.39212203 -0.39734524
493 0.99924266 -0.6573628 1.4296237 -0.3847404 -2.1580024 -0.5428612 -1.0640596 -0.9641577 -0.5798292 -0.988429
991 0.4438159 -0.16829221 -0.40533012 -1.6980183 -0.5369711 -1.1797717 0.1395926 -1.7011397 0.10660944 0.72882587
161 0.6891971 -2.4355688 -0.7923347 -0.03667057 1.0023978 -0.7406902 -0.15097937 -1.220734 -1.8279806 -1.2239789
200 1.2486392 -0.9689264 1.0609019 -0.7725884 -1.7086104 -1.0253946 -0.56420875 -0.7820877 0.3970293 -0.84486413
649 0.8514501 -2.427069 -0.8604375 -0.5946491 1.2715472 -0.69830674 -0.15943119 -0.7350864 -2.1357763 -1.0424957
680 1.1124872 -0.45140314 0.07699575 -0.684952 0.6985742 -1.8658687 0.79095614 -0.29204828 -1.3743007 -1.9320002
331 0.7245882 -0.1401547 -0.35968933 1.6452132 -0.49825278 -0.26435205 -0.7148213 -1.6722248 -1.3960388 0.8737213
686 1.1561979 0.16695404 0.011240359 -0.97277945 0.67265093 -1.6637521 0.9085199 0.040961538 -1.5690577 -1.3581525
1163 1.4064906 -1.2016714 -0.59487855 -0.431244 0.5614847 -1.8631849 0.93858665 -0.65590525 -0.94560546 -2.0685158
279 1.7460747 0.283469 -1.3191568 0.60762376 -0.57214963 0.58020234 -1.6961496 -1.7412076 -0.15939417 0.24463825
1075 1.5211592 -0.82541525 0.36585423 -1.0292727 -1.7448756 -1.3135628 -0.21251424 -1.1192893 0.95951056 -0.6889413
1137 0.9891967 1.2652885 0.85294825 0.39883822 -0.6114503 -0.26287088 0.93302727 -1.5657185 -0.6939776 -1.7792565
322 0.99985546 -0.08607752 2.1872923 0.64919287 -1.7138759 -0.46999082 -1.321583 -1.2091364 -0.94321024 -0.45436028
528 1.2676175 0.72440374 1.5285223 0.24486946 1.7409993 -0.06860523 -0.665493 -1.5993804 -0.11073235 1.4472635
290 1.5067993 2.1906583 -1.9894327 -1.3547612 -1.2678322 0.92705405 1.0359566 -1.4160993 -2.3254 0.7895134
997 0.84686667 0.61189574 0.612412 -2.8104928 -0.4696265 -0.37488964 0.7174221 -1.8622527 -0.52705973 1.4051896
678 1.9267875 -2.0146906 -0.7224149 1.0246956 -0.99818015 1.7178621 1.7939609 -1.9516722 -0.015039139 0.5216683
853 1.1905669 0.014195702 2.042047 0.25046793 1.7731332 -0.022845605 -0.1014692 -1.9250181 0.3190367 1.0843799
208 1.2905841 -0.9104124 1.2786589 -0.8731679 -2.0525699 -0.87144303 -0.81222534 -0.80838364 -0.07978124 -1.0781524
1055 3.193798 0.074311085 0.867084 0.30297557 -0.651494 -2.4717958 1.7850288 1.8346049 -0.43694496 0.8444938
720 0.6812852 -2.5056417 -0.7782838 -0.067226104 1.0788292 -0.7278263 -0.21028283 -1.3193774 -1.845489 -1.2176806
1016 2.0161364 1.7155533 -0.32942957 -0.71057594 0.08320483 0.35074767 0.57300425 -0.071395315 -0.75454247 -1.3096905
515 1.3460741 0.5074318 1.6452397 0.29018864 1.7661169 -0.020119758 -0.540443 -1.7289333 0.10393776 1.3796889
525 1.2252172 1.4189112 0.90991235 0.49227598 -0.5876655 -0.13113831 0.9353219 -1.6215497 -0.5509389 -1.96474
405 1.6014563 -0.91069406 0.47527465 -0.9816381 -1.7173324 -1.3008051 -0.23757952 -1.1188415 1.0163847 -0.651374
825 2.1638484 -2.4463165 -0.5837657 1.1674985 -1.4785671 1.8681194 1.8205695 -2.17974 -0.15774424 0.70222485
1183 2.3681436 0.27290335 -1.6558486 0.048317574 0.06420466 0.90895015 -1.6777436 -1.6773083 0.566948 -0.25662994
281 0.46365547 -0.22568573 -0.05048621 -1.9323981 -0.34919482 -1.0594467 0.39317983 -1.6633703 -0.025877994 1.1009331
547 2.185707 0.044069078 -0.9690426 -0.452402 0.7010325 1.0509051 -1.2637463 -1.4836769 0.8296221 -0.6468649
533 2.1508079 0.3274245 -1.561691 0.14565149 -0.082029566 0.81823426 -1.6004006 -1.5706761 0.46951884 -0.178543
1083 1.1645625 1.3475652 0.86943626 0.46109107 -0.62436265 -0.17356862 0.984308 -1.6310493 -0.58084255 -1.931154
121 1.3118342 -1.6263973 -0.8150809 -0.17965747 0.60861385 -1.7777134 0.5956965 -0.78186023 -0.7565519 -1.7709829
604 0.94778824 -2.1983004 -0.58890295 -0.48839194 0.9261874 -0.8496672 -0.14603584 -0.41383323 -1.629987 -1.2280874
85 4.011307 0.5631672 0.7874981 0.6099805 0.16809295 -2.8656898 2.6249135 2.1679606 -0.7009974 0.1896804
309 1.5701969 1.1341431 1.7510116 1.1482841 -0.41062766 0.30007786 0.103408426 -0.9155942 -0.2660243 -0.7987393
531 5.3215637 0.9866972 -2.8832114 0.18583424 0.9643545 -1.7643884 2.768968 -1.1209443 2.0299833 1.266126
1105 0.38994285 -2.2034278 -0.8430758 -0.9514528 1.7241292 -0.40641233 -0.29847458 -1.9653699 -2.3092544 -1.0437946
1026 1.9777431 0.2684957 -1.2429321 0.34002137 -0.11352334 0.6373122 -1.6072274 -1.6291273 0.4614457 0.019059686
390 1.9526951 0.33135357 -1.329214 0.36403978 -0.2088663 0.72536415 -1.6766812 -1.6163661 0.27361277 0.013718211
782 1.5986348 1.3333411 1.5909367 0.8615443 -0.47838348 0.23248643 0.42104587 -1.2271031 0.03184409 -1.4271597
107 1.4697133 -0.82398844 -0.9191873 0.54204774 0.664327 1.3444391 2.152981 -1.6653749 -0.41876987 0.24749649
218 1.4886227 -1.0093553 0.7670422 -0.85430795 -1.5855738 -1.2498951 -0.37762251 -0.9071625 0.84702337 -0.6192943
1027 1.6093398 1.2891297 1.5819592 0.94119203 -0.3921408 0.2761105 0.2846117 -1.089151 0.021740703 -1.2005727
735 2.1110003 1.8342527 -0.41039243 -0.5942982 0.011018773 0.4155065 0.4085177 -0.081116 -0.7261878 -1.2686388
805 1.3790472 2.081668 -1.809164 -1.3518242 -1.2231447 0.935147 0.95061 -1.3962154 -2.2837644 0.7391649
612 2.3476095 -0.47640538 0.84783685 -0.9119265 1.1811497 1.0947938 -0.90427357 -0.81045675 0.7958854 0.05768121
638 1.6685296 -1.2253095 -0.9869853 0.6099894 -0.11369905 1.489832 2.096216 -1.4479265 -0.10797276 0.32282558
506 0.7412706 -0.26957625 -0.33701995 1.8492892 -0.41830933 -0.4677237 -0.56906754 -1.7527889 -1.5429868 0.9418173
328 0.825889 1.2972113 0.28789106 -2.2552638 -0.49642423 0.76727194 0.8050266 -1.7978673 -1.8837249 0.4743121
717 1.6096181 1.0870576 -0.05221124 -0.9974824 0.43684864 -0.3388329 0.91305214 0.05021664 -1.3581281 -1.3267232
1094 0.714916 -0.49762002 1.1128209 0.05870902 1.4853916 0.6166597 1.1619198 -2.1192625 -0.14817351 0.151604
1070 0.75115424 1.1733518 0.4132958 -2.179544 -0.37178966 0.6460789 0.7475758 -1.6336553 -1.4955379 0.5061525
360 0.84317976 1.6115017 -0.87683564 -1.5856938 -0.92178863 0.8542306 0.80260265 -1.5511603 -2.3099582 0.6311357
602 2.7448282 1.7980654 -0.09311301 -1.2428685 0.046691332 0.29080436 0.24689384 0.28607944 -1.2136114 -1.6800131
1129 1.0445915 -0.767759 1.320672 -0.6282657 -2.200846 -0.6992818 -0.8993818 -0.8926832 -0.41671017 -1.04358
317 1.7729762 1.6173723 1.6195316 0.7354506 -0.4533875 0.074514516 0.8581279 -1.7552196 0.03684601 -1.9566163
1138 1.1823106 1.4067103 0.8959098 0.45066246 -0.6081431 -0.17533371 0.9772177 -1.6587011 -0.5968047 -1.9535617
739 1.3331431 -0.77568007 -0.1543728 -0.54508704 0.5980033 -1.6569514 1.0656013 -0.36341843 -0.9694377 -2.0347056
559 2.2803137 -0.05682574 -0.6144168 -0.65090024 0.8944041 1.1483362 -1.2400553 -1.4926602 0.84177196 -0.63925236
854 1.1361946 -0.9985575 0.18996066 0.24163127 1.0482911 0.80135596 1.8782566 -1.7227528 0.049378008 -0.36308342
315 0.9197445 1.6325003 -0.91681117 -1.6076866 -0.9685626 0.894833 0.7740337 -1.5592259 -2.2819405 0.64775014
826 0.48474827 -0.26194358 -0.57154256 -1.540114 -0.92565215 -1.2449349 -0.056392062 -1.8543203 0.21927494 0.2358773
576 0.3907484 0.7642369 0.4349042 1.2075003 0.006082637 -0.85723233 0.55500126 -1.4506774 -1.9527202 -1.0016977
889 1.4781098 -0.7914052 0.20808747 -1.0964491 -1.8182251 -1.2837816 -0.20033862 -1.1756341 0.8911737 -0.74302363
300 1.661708 2.2929688 -2.1129856 -1.3301669 -1.3137597 0.9513594 1.1356093 -1.4459991 -2.3155198 0.8088224
741 1.7838234 0.12266746 -0.10170391 0.009131155 0.8875832 -0.13553594 -2.0732415 0.19628893 -1.4195518 0.92469275
573 2.8975449 2.4062452 -2.276218 0.41861224 0.8920228 -5.320825 -1.2541838 -1.3364009 -0.81669253 1.883248
729 1.4881195 0.8502906 1.0240425 0.06747681 1.5033125 -0.30805922 -1.4698722 -1.1150726 -1.162919 1.9922674
40 1.7184349 1.0602623 -0.49917808 -0.16275232 0.034897596 0.3493932 -0.5232107 0.19752744 -0.70680356 -0.922749
577 0.7863169 -0.075264 -0.48067632 1.3667915 -0.5574457 -0.09987552 -0.8633624 -1.5744573 -1.1611502 0.7589703
1145 1.8445625 0.26928887 -1.2787783 0.62160784 -0.48995608 0.6165224 -1.7456554 -1.8245876 0.002162378 0.229687
445 3.8921292 1.0580561 -2.3730276 0.8311761 2.2452438 -4.108897 1.0275586 -1.5880952 1.9486501 0.39344853
736 2.1346502 0.12968172 -0.71381646 -0.1668416 0.51272535 0.10955492 -1.8846616 0.6885177 -1.6066386 -0.45202246
28 2.051047 1.7757938 -0.39024296 -0.51825416 -0.02765472 0.41005772 0.32796264 -0.03902408 -0.6423458 -1.1945642
803 1.6459593 2.2470767 -2.1341608 -1.2836635 -1.3544217 0.93631774 1.1127402 -1.4298161 -2.3516726 0.80739504
1012 2.1902332 -0.07408552 0.03578592 -0.76515824 1.0341253 1.1175882 -1.156134 -1.2152771 0.85949653 -0.4045406
1098 0.7259807 0.653798 0.5805785 -2.4368567 -0.33292195 -0.070796385 0.7595725 -1.5690163 -0.52582985 1.0365703
321 0.5899901 0.18616937 0.40401638 -2.6017258 -0.37801987 -0.79063535 0.5969462 -1.9051914 -0.4108133 1.4794259
1123 0.80063283 1.5197698 -0.4117605 -1.7855567 -0.7253109 0.8551751 0.7705421 -1.6758769 -2.0829413 0.5782593
951 1.4218566 0.5809327 -0.040343452 -1.337029 0.772508 -1.4959031 0.9078486 0.21326758 -1.8243814 -1.0994227
505 5.323777 1.0266277 -2.9528482 0.31610155 0.9808438 -1.7264783 2.7754915 -1.2415004 2.1059804 1.1190075
323 1.7488742 2.3327553 -2.213011 -1.3524848 -1.3537574 0.9291569 1.1409864 -1.3874693 -2.3135903 0.84339166
908 0.6200804 0.23217417 0.4487575 -2.606678 -0.40088972 -0.7168343 0.58220667 -1.885672 -0.38645932 1.4514835
731 2.1094048 0.009288845 -0.7092683 -0.15888312 0.5814985 0.07256936 -2.0773613 0.6888923 -1.6635522 -0.15165117
1154 0.8809401 1.6529499 -0.95783746 -1.5466771 -0.9868102 0.9021483 0.8331753 -1.5675539 -2.2793138 0.61108404
131 1.3662078 0.78084785 1.3481524 0.413661 1.5524491 0.07517099 -0.60761994 -1.6406279 -0.42342603 1.9851028
1053 3.623421 0.13832086 0.96673304 0.25228482 -0.64043385 -2.7258399 2.151199 2.015949 -0.4198116 0.839859
102 4.054244 0.938092 0.7328187 0.95883083 0.076574884 -2.8184783 2.662628 2.0047555 -0.6821386 0.16655527
369 1.0148002 1.7451669 -1.1615765 -1.6164337 -1.0439353 0.94070995 0.87181085 -1.6043118 -2.3707643 0.63695014
732 2.0456812 -0.08048212 -0.6542777 -0.21456872 0.68571186 -0.02681082 -2.1689832 0.6541096 -1.7470062 0.07551457
188 1.551168 -0.99048436 0.7802059 -0.88936347 -1.5895954 -1.2271711 -0.35194582 -0.8312541 0.82003397 -0.7401655
582 1.9532791 0.30964383 -1.4699471 0.57848465 -0.5308663 0.67861015 -1.7962714 -1.7236328 -0.097977705 0.0021120775
656 0.8465029 -2.4621422 -0.8980557 -0.6882215 1.288813 -0.6799911 -0.24364632 -0.74379027 -2.2444704 -1.0530853
726 1.8353391 1.2164038 -0.48000148 -0.18035394 -0.02337085 0.3311912 -0.54097706 0.20972452 -0.713598 -0.9379552
588 2.0637214 1.0143023 -0.19151232 -0.43202737 -0.08100444 0.5482993 -1.2511168 0.35977325 -0.7910482 -0.7300002
363 0.4870867 -0.25388226 -0.2848231 -1.841766 -0.45402735 -1.1659597 0.26243636 -1.6975312 0.07319796 0.94892776
162 0.899385 -2.0686677 -0.802779 0.13910168 0.831027 -1.0262239 0.09569269 -0.9614967 -0.87014925 -1.1386621
196 1.415509 1.0570973 1.2665118 0.054352466 1.6834443 -0.27351218 -1.1272273 -1.4550781 -1.0554138 2.1302729
246 1.4347085 1.0160995 1.5701637 0.8838897 -0.39954543 0.31476298 0.11132988 -0.88332886 -0.0656303 -0.80563533
135 1.9357162 1.6421944 -0.4294983 -0.4067742 0.006761558 0.4141346 -0.031137953 -0.024028186 -0.62147135 -1.1003295
597 0.7015436 -0.11232144 -0.35359746 1.5138603 -0.4703973 -0.2215831 -0.74897385 -1.6276761 -1.3296242 0.8414044
340 1.5057454 1.1862141 1.6653978 1.0718137 -0.3764661 0.26674202 0.13042116 -0.91001797 -0.16977407 -0.8946627
364 0.887215 1.2204232 0.802163 0.40010378 -0.4940111 -0.278223 0.95085335 -1.5646538 -0.7019852 -1.6529087
173 1.2597731 -1.5498147 -0.7910993 -0.16549101 0.63428783 -1.7116871 0.56220543 -0.7688476 -0.7194584 -1.7603425
172 0.8976991 -0.06533829 2.036133 0.7163261 -1.544958 -0.42432266 -1.2625272 -1.1624395 -0.99165297 -0.3229278
274 1.3717089 0.8850953 1.6070423 0.93686485 -0.4710405 0.20515701 -0.04128653 -0.7874689 -0.084525555 -0.7954632
370 2.2195334 -0.026375439 -0.54830295 -0.664134 0.8946059 1.1294316 -1.2402846 -1.4144464 0.81882113 -0.6115171
586 1.0364048 -1.0275071 0.59866387 0.15676524 1.2396932 0.70563227 1.7097042 -1.9022412 0.029572176 -0.35596007
65 2.9980602 -0.0025502155 0.8973631 0.8079811 -1.4516189 -2.8003964 1.0259659 1.4217747 -0.32109657 1.180153
367 1.5034294 -0.7848657 0.330787 -1.0456697 -1.6996851 -1.2580684 -0.20949824 -1.0801485 0.91929 -0.711897
393 1.0216357 -0.6935108 1.3888173 -0.48291403 -2.2378936 -0.6071442 -1.0375844 -0.95839876 -0.5738784 -0.95409256
532 1.8131753 0.27857938 -1.4221616 0.71672225 -0.62629706 0.5995599 -1.7968029 -1.739986 -0.24055424 0.12238828
212 1.2829475 -0.9488801 1.2713879 -0.9093592 -2.0806067 -0.8727181 -0.74772054 -0.8035171 -0.011786356 -1.0651661
487 1.5805614 -0.8585262 0.35007656 -1.0449208 -1.773545 -1.3303579 -0.2210103 -1.1345408 0.9630045 -0.7118533
620 2.3183808 0.29817244 -1.616677 0.09571231 0.0881772 0.9086265 -1.5810494 -1.6129391 0.59285486 -0.1896116
1033 0.47145456 -0.2021779 -0.1250073 -1.843349 -0.37387186 -1.0810543 0.34180722 -1.6404372 0.02847683 0.9779917
138 1.8092607 0.3031357 -1.3250414 0.5933889 -0.5299605 0.60576963 -1.7441406 -1.8036119 -0.03654359 0.21600297
1195 1.7062782 2.3777049 -2.1871703 -1.3809154 -1.3591617 0.95797896 1.0919138 -1.440712 -2.4360633 0.79745215
870 1.3725262 0.54087687 1.7025919 0.32270125 1.7525468 0.03188482 -0.5179006 -1.8120241 0.13588119 1.4392222
460 0.48680797 -0.2636382 -0.5586167 -1.5451666 -0.8918793 -1.2153786 -0.02972602 -1.7835941 0.20658049 0.26862946
361 0.9141159 1.6818641 -0.9164025 -1.6529205 -0.97336763 0.9232012 0.8449177 -1.6086301 -2.3346837 0.64087754
66 0.7966952 -0.4839962 1.0200266 0.0974315 1.465208 0.64556557 1.1556764 -2.102685 -0.08390546 0.20583399
733 2.030279 0.2111229 -0.7195066 -0.16256998 0.4370594 0.13307223 -1.7019371 0.6268937 -1.4191535 -0.5954882
67 1.5943116 0.90702486 -0.01585965 -1.0101484 0.54777306 -0.49434626 1.0158527 0.111039996 -1.338412 -1.3278542
924 1.2651134 -0.95958847 1.2635354 -0.8174514 -2.0934591 -0.8280903 -0.7700236 -0.82736945 -0.07599471 -1.0100931
574 0.3749461 0.9059166 0.49834293 1.0576934 -0.019055584 -0.845034 0.5839534 -1.5055856 -2.0009847 -1.0520325
1077 0.7477697 0.35721093 0.5864777 -2.890903 -0.4652183 -0.6572087 0.6889076 -2.0722888 -0.4881014 1.6026117
490 1.0235387 -0.7349063 1.4380615 -0.4595165 -2.2373466 -0.5847302 -1.003505 -0.9756415 -0.6104853 -1.0220107
17 0.47457162 -2.284341 -0.60299265 -1.8932501 2.1515489 -0.5317106 -0.5505907 -2.6642158 -2.6302361 -1.4477849
945 1.7506481 0.26435816 -1.3403586 0.76748574 -0.66499746 0.55539227 -1.7379811 -1.7224401 -0.327614 0.17151198
841 1.9202468 0.33251405 -1.4612793 0.56471217 -0.4621546 0.6718958 -1.7950819 -1.6938785 -0.040712245 0.035065528
704 0.4872471 -2.2499092 -0.6343764 -1.7875708 2.1525235 -0.48921537 -0.6601084 -2.694455 -2.6854699 -1.5058897
389 0.47351626 -0.22318384 -0.5629973 -1.5137495 -0.81477606 -1.1996447 -0.017640227 -1.7967714 0.19475882 0.31813866
1125 0.82667613 1.5984944 -0.7671541 -1.6741921 -0.8746393 0.8773831 0.86436164 -1.6227149 -2.2950668 0.6391554
827 0.5936102 -0.38671073 -0.54586595 -1.484504 -1.151797 -1.3344468 -0.13627109 -1.9172512 0.27149034 -0.1148857
1128 0.4841388 -0.0857544 0.099397644 -2.0690298 -0.3388748 -0.94294983 0.430202 -1.6641283 -0.095526606 1.1536201
535 0.8236166 0.01067576 -0.52745646 1.2533641 -0.5434033 -0.038717672 -0.95285237 -1.528546 -1.0509161 0.742016
308 1.0690396 1.7737812 -1.345078 -1.4809712 -1.086485 0.9523399 0.8429709 -1.5023483 -2.305069 0.639232
313 1.7195044 2.3864238 -2.2463758 -1.3743976 -1.3598102 0.89012647 1.1551733 -1.4783478 -2.372982 0.86058635
1107 1.4942517 -0.86817557 -0.6617255 0.51503104 0.88778085 1.3624091 2.151157 -1.7786155 -0.2753689 0.0965285
99 2.0364296 -0.13235064 -0.47391176 -0.21982113 0.7728957 -0.09764798 -2.27724 0.6044652 -1.8337117 0.40504828
812 1.6055074 -0.92239666 0.59731674 -0.9705922 -1.6689688 -1.289245 -0.24638584 -0.9584251 0.95512384 -0.69073665
593 2.00174 0.98176956 -0.16959749 -0.39712524 -0.037172295 0.51779014 -1.3064203 0.35709798 -0.7924554 -0.74282604
964 2.175362 -0.026961507 -0.08880082 -0.7710517 1.048774 1.1173763 -1.1597157 -1.2745706 0.84832335 -0.51168
511 1.2800244 0.5753948 1.7844498 1.2438595 -0.8304447 0.05757694 -0.5414496 -0.8071945 -0.5002019 -0.4967296
197 1.1153196 -0.8202323 1.2597106 -0.67994016 -2.1443663 -0.7314609 -0.8267928 -0.8417136 -0.25991917 -1.0280192
368 0.92753994 -0.5901995 1.4560004 -0.21421999 -2.0829353 -0.5529728 -1.1776015 -0.9900042 -0.7051482 -0.8806551
285 1.6218133 0.21085544 -1.3131876 0.63177717 -0.6101446 0.510317 -1.656546 -1.6977093 -0.22328876 0.26766855
358 1.000343 -0.21813358 2.1449637 0.5720341 -1.8002458 -0.53177905 -1.3988414 -1.2500311 -0.99624246 -0.49297047
267 1.6543082 1.3810883 1.5981889 0.8468606 -0.37659544 0.29838687 0.36432147 -1.1966281 0.05641598 -1.2971054
450 0.8028692 -0.0076658274 -0.5004917 1.2182885 -0.488888 -0.035953037 -0.9812518 -1.519118 -1.0663123 0.77239215
1039 0.61895394 -0.34785792 -0.5959269 -1.4821005 -1.2077012 -1.3150047 -0.11894644 -1.9149073 0.28215092 -0.14957055
967 2.2084382 -0.0539391 0.25241256 -0.80126876 1.0731747 1.0456733 -1.1196795 -1.1111144 0.8810146 -0.31964335
46 0.85486555 -0.46488705 0.8328021 0.08983981 1.4131852 0.7434667 1.2193571 -2.030044 -0.07121769 0.17391217
507 0.71776336 -0.19457753 -0.3585296 1.7530106 -0.42945066 -0.41290313 -0.6089735 -1.7324651 -1.4963311 0.903782
442 0.42519033 0.27719793 0.20745957 1.5970244 0.24480392 -0.89698315 0.54430187 -1.4018697 -1.8724457 -0.45064306
891 1.324118 1.4338335 1.068537 0.55828315 -0.5884992 -0.056967184 0.9147953 -1.5983763 -0.431008 -2.02385
554 2.391617 0.19965136 -1.5503955 -0.07561065 0.19008507 0.9384963 -1.558619 -1.6250958 0.7483197 -0.33652616
147 1.7833433 1.41581 -0.1650984 -0.80989295 0.23097435 0.13444915 0.68892634 0.055782747 -0.9187003 -1.2506268
114 1.5475675 0.34371072 0.34524512 0.092152804 1.0266321 -0.24895808 -1.7269799 -0.1970912 -1.1461151 1.3267645
355 0.95361173 -0.57388836 -0.29537436 -1.1693071 -1.6034051 -1.2816459 -0.30688858 -1.6812167 0.541091 -0.8276269
463 2.5016305 -0.5364841 0.94155526 -0.9240297 1.1905663 1.1693019 -0.8939225 -0.8275279 0.7875138 0.025177447
89 1.8906301 0.3934847 -0.72257733 -0.15451016 0.26781243 0.18649739 -1.4643899 0.50554717 -1.2621974 -0.70126164
762 1.0152285 -0.25122315 1.8743396 0.49219206 1.6005154 -0.12097242 -0.09072817 -2.1252415 0.24867886 1.3079664
266 1.6180556 1.3557506 1.6010807 0.873994 -0.42618 0.2789551 0.38113183 -1.1831018 0.045939617 -1.2943401
1080 2.532599 -0.73036426 1.0917265 -0.9622071 1.1400933 1.2046683 -0.738906 -0.6133608 0.67274797 0.21164115
496 1.4511319 -0.7626161 0.165632 -1.0599691 -1.7600921 -1.2287668 -0.21569058 -1.1861223 0.9098875 -0.81007475
998 2.213593 0.19876884 -1.3576974 -0.12515059 0.33313242 0.9304353 -1.3782691 -1.5439242 0.7710578 -0.431713
548 2.2198613 -1.8179779 0.44884074 -0.29069176 -0.9781002 1.034043 0.31668735 0.39576912 -1.129635 1.3527653
417 1.0494839 -0.6546453 1.4415814 -0.47890604 -2.2970672 -0.58242714 -1.0438389 -1.0113713 -0.61633104 -1.0237383
751 1.8542541 0.12917146 -0.10987917 -0.0464904 0.88430876 -0.13032104 -2.09011 0.24449162 -1.4611635 0.92451465
598 2.02059 1.2369388 -0.13221225 -0.55008507 -0.07130629 0.5159913 -0.91246104 0.28880605 -0.63756984 -0.8451613
441 2.3031538 0.24772607 -1.6107556 0.021901997 0.076601066 0.9200463 -1.5709499 -1.6278018 0.6607193 -0.2919163
581 2.0375051 0.552035 -0.18182443 -0.32113126 0.24518834 0.4455862 -1.749452 0.45560208 -1.4476533 -0.76169145
306 1.1778628 0.39537808 1.935829 1.1926081 -1.0058851 -0.10449063 -0.68987584 -0.8627825 -0.62926495 -0.49138057
647 2.0750568 0.53304315 -0.20475492 -0.30347762 0.28062636 0.41996825 -1.8058769 0.5151661 -1.4734313 -0.7680388
938 1.1180356 0.30412725 2.2314513 1.0892609 -1.299079 -0.28360817 -1.0557663 -1.167486 -0.88837796 -0.37046492
820 2.465481 -0.5796349 0.95487225 -0.9382965 1.1779042 1.1501845 -0.79715496 -0.71496373 0.757798 0.08671244
226 1.4746996 -0.81374145 0.2646882 -1.0479498 -1.7065814 -1.2851572 -0.18246947 -1.065362 0.89133924 -0.7089152
909 0.7991673 0.95151013 0.47672454 -2.227803 -0.2524615 0.39854413 0.72898424 -1.4415323 -0.8742667 0.54786175
957 1.3927288 0.79131424 1.5703073 1.0318371 -0.5224352 0.21667944 -0.16349131 -0.7456364 -0.15058894 -0.661626
1040 0.68516356 -0.38898328 0.008031019 2.1562192 0.013371158 -1.1226908 0.019670835 -2.0281534 -1.7108723 1.1742611
684 1.2756864 0.077983946 1.9925226 0.28439754 1.8320719 -0.014856871 -0.17649058 -1.9222964 0.27008542 1.2587891
536 0.54504603 1.1669497 0.8959355 0.29199725 -0.36503324 -0.580003 0.8256003 -1.6607186 -1.1562331 -1.5080317
71 2.8601856 -0.03468844 0.85008574 0.77307504 -1.4521382 -2.702441 0.97088814 1.3239866 -0.33281314 1.161732
96 1.4180812 0.704421 0.74832666 0.104256526 1.2765524 -0.3153476 -1.5474235 -0.76845914 -1.0808686 1.6787688
806 1.6140441 -0.9448272 0.5703246 -1.0029868 -1.7158818 -1.3372874 -0.28368884 -1.1428267 1.0370504 -0.65683526
946 1.7771264 0.28875032 -1.3636547 0.7225705 -0.68219113 0.59280974 -1.7945946 -1.7274166 -0.38033903 0.19103011
371 0.9292207 -0.6671544 1.4261929 -0.33910993 -2.046376 -0.56863326 -1.0631918 -0.8657363 -0.6577645 -0.9146291
935 0.48510176 -0.2229411 -0.48548448 -1.6837823 -0.53673816 -1.182541 0.15612409 -1.7441113 0.13356906 0.7256878
718 1.7368604 0.1326821 -0.08246014 -0.011876177 0.8684395 -0.13093099 -2.029276 0.19133879 -1.3650564 0.93367034
1095 1.7474364 0.30643693 -1.3107182 0.66641074 -0.5565337 0.5382677 -1.7302834 -1.812922 -0.15498546 0.2832978
1006 1.7143487 2.343978 -2.220384 -1.4131005 -1.3813326 0.92356884 1.2087594 -1.483975 -2.3822465 0.87615746
396 2.5836332 -0.7293909 -2.6118512 1.0263109 -1.0256405 -4.626724 -2.8963654 -2.3985322 -1.013797 1.7200392
666 2.0249307 0.5208218 -0.1795336 -0.30331293 0.30106255 0.4141867 -1.7319958 0.46513054 -1.4271958 -0.8279835
307 1.045106 -0.6959416 1.3468409 -0.59386265 -2.1873524 -0.66599166 -0.8718578 -0.9296441 -0.34211951 -1.0552018
5 0.75307035 -2.4993832 -0.80881983 -0.11104958 1.0923296 -0.7835113 -0.114479184 -1.2685792 -1.7334735 -1.2825317
675 0.9479302 -2.5801275 -0.9193589 -0.63305026 1.2354937 -0.7794603 -0.16591302 -0.74982566 -2.1669686 -1.2219961
130 2.0885139 0.12868737 -0.7035147 -0.21350066 0.5505875 0.10265336 -1.9595997 0.653834 -1.6443778 -0.3596274
345 1.7255204 2.3654926 -2.2261431 -1.3636277 -1.3616016 0.9268587 1.1536915 -1.4674507 -2.3921638 0.885966
61 1.2314618 0.52201045 1.2742484 0.4538981 1.4926053 0.07059926 -0.4910199 -1.6289744 -0.22519684 1.8164229
712 1.7774634 0.66403717 -0.57595503 -0.08606417 0.07089971 0.20135613 -1.0262284 0.3653542 -1.0141644 -0.87944466
819 0.7518711 -0.079305954 -0.40024528 1.5114996 -0.5377513 -0.2181361 -0.7796588 -1.5977263 -1.3485715 0.82898796
815 0.5611112 -0.34445187 -0.5598562 -1.5666976 -1.0939705 -1.3272009 -0.07192214 -1.9339648 0.25851762 0.019210571
50 2.657411 0.06863643 0.6743617 0.47664428 -0.8618241 -2.274365 1.299162 1.5554992 -0.5182761 0.7711036
828 1.0568627 -0.5847672 -0.29650885 -1.1686144 -1.684562 -1.3171229 -0.28916293 -1.6755337 0.5768148 -0.94809765
932 1.4353542 0.9346503 1.5721067 0.97639376 -0.45286584 0.26481175 0.020888515 -0.8044199 -0.11044995 -0.7723863
695 0.90294176 -2.190495 -0.63126916 -0.4829257 0.8211772 -0.8951049 -0.20546164 -0.43534794 -1.5379229 -1.1477449
1079 2.572052 -0.8335969 1.1797805 -0.98196834 1.1064751 1.1787684 -0.66851115 -0.54695386 0.6194803 0.24105503
374 2.3753002 -0.54290724 0.88280267 -0.889304 1.1413122 1.1344968 -0.85371935 -0.7403594 0.73653054 0.014062145
255 0.37769186 1.2016965 0.8915586 0.42599672 -0.1937396 -0.88585615 0.7818627 -1.865449 -2.024228 -1.5245936
456 0.4701517 -0.2168814 -0.5131157 -1.647373 -0.7150615 -1.2183208 0.063039355 -1.7735194 0.1664581 0.57694995
339 0.7423501 0.46521917 0.5524336 -2.8852842 -0.4617136 -0.6255437 0.67564875 -2.0419865 -0.5169538 1.5548289
807 0.77805394 0.57206434 0.6224449 -2.7650614 -0.43232483 -0.36466962 0.6866083 -1.7891716 -0.53268385 1.3718266
839 1.776124 0.29008555 -1.4097989 0.7273298 -0.6740942 0.57610327 -1.7938387 -1.7251505 -0.32861486 0.179444
722 0.35268506 -2.1212592 -0.7252707 -0.36823398 1.1437056 -0.40820053 -0.19195485 -1.3747423 -1.8949891 -0.8252696
291 1.6393877 1.4422394 1.5791411 0.7984379 -0.42506024 0.21583515 0.5818365 -1.3434359 0.05944684 -1.4867355
454 1.1483992 -0.59800977 -0.11061153 -1.1341931 -1.7339939 -1.2350378 -0.28775823 -1.4145244 0.65832984 -0.87076336
268 1.353246 0.7044334 1.6889079 1.2106047 -0.6882753 0.17184438 -0.32048744 -0.7790453 -0.40321994 -0.5601052
665 1.7907218 -1.6670151 -0.83638096 0.89976573 -0.66410214 1.7316287 1.8952258 -1.7496216 -0.09149398 0.52872884
570 2.031468 1.2060435 -0.13181515 -0.55046517 -0.08768318 0.50487393 -0.98265487 0.29176578 -0.65759426 -0.81645936
492 1.1563661 -0.64349616 -0.22770044 -1.1500444 -1.7459714 -1.2901609 -0.27137712 -1.6024514 0.6431121 -0.92109007
280 1.6567183 1.3748554 1.5609813 0.8264192 -0.4403653 0.23751627 0.54370177 -1.284854 0.08855844 -1.4340365
667 1.9827839 1.0008433 -0.14612238 -0.39533398 -0.043206636 0.49024633 -1.2933869 0.38197613 -0.76994264 -0.69043374
1029 0.3308534 1.0505186 0.6605392 0.75035113 -0.057169184 -0.9299095 0.7126397 -1.7597617 -2.1693454 -1.2552749
513 0.8903149 -0.22692798 1.9738381 0.47882006 -1.7379291 -0.53309554 -1.3652427 -1.183657 -0.98888946 -0.50221187
905 1.5591487 0.6663711 0.75083554 0.08450729 1.3878984 -0.30781376 -1.612692 -0.72658294 -1.1208819 1.7215959
380 2.5826526 -0.71540153 -2.4632492 0.93358403 -1.0104592 -4.587935 -2.9546938 -2.2280455 -1.0703083 1.9068482
1166 2.614119 -1.3312602 1.6395956 -1.4545546 1.0655175 0.82494956 -0.31296694 -0.13202488 0.17295751 0.29302984
754 0.9013405 0.02864453 1.9448549 0.8558908 -1.478896 -0.3897702 -1.1682953 -1.1023489 -0.9959974 -0.33796304
1046 0.76299506 0.6472083 0.5669922 -2.4688148 -0.36421832 -0.07352398 0.74616045 -1.623993 -0.49623856 1.0781606
362 2.0055513 0.30599236 -1.3166623 0.37101275 -0.17221239 0.7122895 -1.6182959 -1.5624149 0.35590422 -0.018276365
352 2.0385575 0.3410835 -1.5570639 0.32156187 -0.24116468 0.7497251 -1.6526335 -1.537053 0.25696552 -0.10146292
184 0.91176885 -0.7322989 1.3052754 -0.39573398 -1.9069616 -0.5759935 -0.9509934 -0.71312404 -0.62344664 -0.8886874
325 1.2642071 0.58505017 1.7880903 1.2320983 -0.8057179 0.084361 -0.5351527 -0.81161445 -0.49968064 -0.47978777
849 1.0565554 -0.15991504 0.020603703 -0.8610585 0.6819215 -1.7361245 0.8201524 -0.11490184 -1.4222707 -1.5962723
538 2.097098 0.3662638 -1.5909954 0.26244333 -0.25083563 0.75893354 -1.6468958 -1.5908731 0.3482548 -0.0946687
359 1.1511265 1.8949873 -1.4160869 -1.4817977 -1.190572 0.9433438 0.87983567 -1.5004003 -2.325169 0.71603507
81 2.03969 -0.15192847 -0.47435638 -0.22914048 0.7412767 -0.10046766 -2.2177005 0.596533 -1.7823882 0.43525332
1001 1.0802479 -0.5950751 0.019823557 -0.6522797 0.6732289 -1.8767339 0.6862947 -0.29670724 -1.2950497 -1.9183086
848 1.1427528 0.9092365 0.9862638 0.20837478 1.5560788 -0.40747923 -1.0903956 -1.1671901 -0.9557265 1.5856671
457 2.4047875 -0.5672203 0.9426411 -0.92025244 1.1093148 1.0805157 -0.7799512 -0.722264 0.76599544 0.061541088
2 0.69975257 -2.4817138 -0.7878265 -0.07357141 1.0667541 -0.7497291 -0.17823486 -1.2680478 -1.7999672 -1.202854
723 1.1443509 0.38750464 1.3003324 0.43904957 1.3618652 0.059715677 -0.4200852 -1.6050909 -0.106110744 1.6766655
1002 1.4896545 0.33805063 0.32706106 0.07008248 1.0539708 -0.24150619 -1.7474583 -0.17021486 -1.1419008 1.260353
129 1.499522 -0.8183933 -0.77934885 0.5136684 0.8499835 1.3741133 2.1531265 -1.735089 -0.34900466 0.121290535
202 0.90338975 -1.6667008 -0.7720995 0.01225827 0.69182867 -1.2214928 0.25384927 -0.81464535 -0.62556905 -1.2575754
534 1.7385882 -1.0984695 -1.0544736 0.52023417 0.15184008 1.4737756 2.2895162 -1.5013016 -0.17141631 0.26180217
475 1.2840772 -1.0555295 0.9825468 -0.7525013 -1.6596011 -1.0718696 -0.56932735 -0.8621931 0.5226744 -0.7708294
78 2.0292954 0.08081831 -1.1981606 0.16593587 0.15297921 0.70689404 -1.5217022 -1.6308296 0.7544127 -0.18084547
84 2.051591 0.2524505 -1.2541816 0.27969038 -0.009131048 0.7184217 -1.5922035 -1.6834842 0.5865346 -0.123578556
630 2.4912336 -0.81285304 1.1535008 -0.9824658 1.0147668 1.1695048 -0.679925 -0.51606137 0.55802053 0.16601288
151 0.618955 -2.4152281 -0.76147884 -0.09345843 1.0759605 -0.6748778 -0.173905 -1.2834623 -1.8067255 -1.0966994
836 0.7358586 1.1710992 0.8031421 0.3600585 -0.45891628 -0.35662758 0.836967 -1.567697 -0.8328341 -1.6232518
871 1.2297876 -0.25931618 0.12345207 -0.7891269 0.73614544 -1.8836461 0.85735744 -0.17832993 -1.5175658 -1.9519743
227 0.9108777 -0.74580526 1.3070759 -0.4173423 -1.945949 -0.55119556 -0.9121976 -0.74766755 -0.6255372 -0.9231163
436 0.72906667 -0.23558661 -0.33879328 1.7597328 -0.4404788 -0.40752026 -0.5929538 -1.7039851 -1.48462 0.9443006
427 0.49079448 0.417034 0.28361857 1.5835909 0.33652204 -0.92745817 0.5600563 -1.4057504 -1.9524348 -0.51183635
372 1.2490656 -0.61869025 0.005031438 -1.0680306 -1.727393 -1.2103738 -0.2563823 -1.2744844 0.74930954 -0.8172896
499 1.6252767 -0.8811364 0.38651502 -1.0475796 -1.775612 -1.3104833 -0.20596465 -1.1187867 0.9633274 -0.74042165
133 1.8621072 0.86385334 -0.57303625 -0.15956317 0.0940412 0.23465998 -0.9478322 0.35650384 -0.9276706 -0.8987019
68 0.86715657 -2.14338 -0.8520708 0.08170222 0.91465485 -0.97149 0.10644491 -1.0570611 -1.0160925 -1.1264162
774 1.544836 1.155549 1.6183684 0.90152127 -0.39356577 0.30848697 0.111776434 -0.929909 -0.012306248 -0.967097
1043 1.3199291 -0.7199227 -0.10621232 -0.6322691 0.60299325 -1.6469039 1.0552272 -0.31740662 -1.058475 -2.061159
1179 0.4714257 -0.19472659 -0.09933389 -1.8933375 -0.3415485 -1.0765674 0.33571142 -1.6660051 0.026417764 1.0355617
546 1.7545388 0.06942754 0.056363244 -0.13407657 1.3790798 -0.27465633 -1.8875225 0.27286315 -2.083248 0.8631331
856 1.7388026 -1.0786893 -1.0002484 0.53278786 0.11890522 1.4594437 2.3559508 -1.4683024 -0.1856612 0.2941755
194 0.93071264 -2.015092 -0.82272047 0.11167122 0.7804225 -1.0985755 0.10751342 -0.95975834 -0.84544677 -1.2463486
1014 1.4538498 0.61047333 0.6130425 0.10595284 1.2387097 -0.32120815 -1.5855157 -0.5347997 -1.0989959 1.599546
1049 4.8195763 1.3104223 -2.2472563 1.7523654 3.0018315 -4.4513283 2.235602 -2.0604882 2.517266 -0.20778996
863 0.9957424 -1.7689368 -0.51852196 -0.2646958 0.65386504 -1.0158149 -0.056106515 -0.36561593 -1.010426 -1.353662
988 0.7818553 0.8807826 0.48262742 -2.2517273 -0.26663157 0.3034626 0.7510558 -1.4211309 -0.71307236 0.6561765
116 1.871105 0.9470797 -0.5152409 -0.14073022 0.0598299 0.2607523 -0.9296094 0.3401855 -0.9234245 -0.94798523
414 1.2244172 0.19609366 -0.9632639 0.8318064 -0.66778094 0.3483053 -1.3528038 -1.4661578 -0.5350007 0.4053371
931 2.6247892 -1.3562478 1.6235852 -1.4595206 0.9848482 0.8675901 -0.3365545 -0.077548794 0.100999646 0.3282665
312 1.7137343 2.3699253 -2.2816718 -1.3976148 -1.3790462 0.905758 1.2012665 -1.4797835 -2.4050846 0.8839349
356 2.3000855 -0.016063549 -0.6962732 -0.62953293 0.8929337 1.1384635 -1.2982715 -1.5089705 0.87067497 -0.6406259
167 0.680342 -0.38655406 1.2055244 0.0544988 1.4460934 0.44654527 0.8399798 -2.0773823 -0.007787691 0.42909786
22 1.4076337 0.9200441 1.0660211 0.099820204 1.5067117 -0.3466243 -1.2914412 -1.1676596 -1.1205621 2.0086894
145 2.1547859 -1.7624907 0.5762104 0.07103701 -1.1362234 1.2561202 0.6001907 0.109071925 -1.5382463 1.7154145
670 2.0838795 1.2461636 -0.16120699 -0.53260964 -0.044250872 0.51194036 -0.95005333 0.3077252 -0.6596985 -0.83803314
518 1.1460191 0.03731569 2.0334501 0.21902736 1.7784431 -0.012353823 -0.070343964 -1.9270382 0.26007584 1.0872656
1004 1.5517634 1.2271926 1.6152962 0.943159 -0.34125158 0.31689805 0.21441476 -0.9609506 -0.07197782 -1.0070533
764 1.0303323 -0.31978682 1.908651 0.4511074 1.5915892 -0.14144081 -0.14707464 -2.041009 0.31048685 1.2743285
866 1.8130517 -1.7266904 -0.80390435 0.8738624 -0.77547544 1.7016474 1.8409469 -1.7992995 -0.0502123 0.4978386
115 4.039035 1.0159364 0.70087445 0.88802797 0.07308845 -2.7942393 2.6939151 2.0043182 -0.716334 0.19399633
524 1.3035153 0.8812605 0.9466051 0.18390386 1.751649 -0.35812166 -1.2563834 -1.114969 -1.09155 1.7031848
984 1.3105347 0.62353724 1.7689703 1.2505299 -0.82094 0.09154669 -0.47434962 -0.83038574 -0.43483385 -0.5470785
301 0.75830895 -0.059919637 -0.44233072 1.4711237 -0.559527 -0.16198567 -0.8283997 -1.6014473 -1.2760701 0.8481658
916 1.3774394 0.80141807 1.3150065 0.449259 1.5919107 0.04406471 -0.5902556 -1.6395098 -0.46140394 2.0176117
1121 0.80563664 0.48324925 0.6134975 -2.8754454 -0.43909526 -0.48381716 0.7207825 -1.8929745 -0.543629 1.4486585
377 0.7682662 0.6108324 0.5802369 -2.4977593 -0.33408362 -0.080243826 0.76002383 -1.5980806 -0.517896 1.0658888
1132 1.5647643 -1.0425636 0.68594825 -0.8807523 -1.6690898 -1.3036238 -0.3783591 -1.0241008 0.95890135 -0.66744965
876 1.7714982 0.24945547 -1.3636898 0.6193802 -0.5909594 0.54788005 -1.7511584 -1.7580904 -0.14706665 0.27717906
995 1.5391679 1.2733606 1.5621164 0.95898664 -0.29219326 0.2825185 0.3102059 -1.0019112 -0.05774339 -1.1528442
152 1.2519383 0.6724332 1.5932992 1.1011697 -0.5832 0.14887096 -0.28043708 -0.76888216 -0.25301033 -0.56685364
809 1.378364 -1.0506164 0.8201657 -0.84202325 -1.5111476 -1.1623353 -0.4288258 -0.7927663 0.69015396 -0.6321241
381 1.1685659 0.16072021 -0.93508667 0.8799008 -0.6487042 0.28471488 -1.3393366 -1.4335845 -0.67195374 0.46276885
519 0.8742203 -0.008971346 -0.54043466 1.2901852 -0.52224296 -0.0010652102 -0.9998892 -1.4979917 -1.0909218 0.73983455
1101 0.8427188 -0.33349067 1.7901331 0.3906363 -1.7398804 -0.5141676 -1.3224313 -1.0587054 -0.9073876 -0.49512216
236 1.3817611 -1.0366699 0.8874951 -0.78739184 -1.5746061 -1.09311 -0.4438237 -0.84140414 0.69509745 -0.746802
831 2.2271712 -0.08140524 0.06016888 -0.79264534 1.0582848 1.1272892 -1.2074476 -1.212061 0.834844 -0.4242372
229 0.5719844 -0.35190272 -0.53121847 -1.4695848 -1.1531856 -1.3037546 -0.13331039 -1.8769526 0.26865587 -0.07749216
628 1.6962259 0.04747892 0.023353606 -0.13262483 1.3054264 -0.28775275 -1.8485154 0.2954798 -2.0758889 0.8498817
610 1.4159192 0.8704991 0.8078349 0.25237662 1.7646707 -0.3838316 -1.4313979 -1.0960274 -1.2264813 1.7656155
1078 0.87922406 -0.46240446 1.7846222 0.2816377 -1.904667 -0.59439725 -1.3376437 -1.0828747 -0.91416687 -0.57963854
817 0.46767354 1.172298 0.91568506 0.34939662 -0.36304107 -0.6304224 0.79466665 -1.7589194 -1.3000497 -1.4771123
512 1.2112242 0.9456674 1.4230587 0.29494914 1.7167383 -0.2411252 -0.82991886 -1.5347401 -0.5310999 1.5488659
286 0.9438025 -0.6369235 -0.4839751 -1.2563106 -1.6336552 -1.4021741 -0.330186 -1.89499 0.5180251 -0.80395585
333 2.6344109 -1.2691295 -2.3198078 1.4789739 -0.33664337 -5.01936 -2.3713152 -2.778587 -0.8625447 2.1927621
105 2.5165558 -1.8812863 0.6729672 -0.30793795 -1.0431861 1.3680856 0.49882072 0.3770363 -1.624166 1.7096645
886 0.73971015 0.40599275 0.5999074 -2.904891 -0.4472652 -0.6451731 0.6587547 -2.052216 -0.5216988 1.6098646
699 0.8938951 -2.3427022 -0.74680173 -0.46620467 0.9578323 -0.7839078 -0.14615494 -0.54862165 -1.7590185 -1.1201794
136 0.68467915 -0.3713951 1.5795015 0.21168748 1.4028715 0.087234996 0.37965342 -2.073958 0.19261336 0.7306331
795 0.52493113 -0.17531912 -0.084152415 -1.9951396 -0.3406262 -1.0431457 0.3807129 -1.6755677 0.026236888 1.0674304
879 2.524463 -1.8568838 0.6569068 -0.3190172 -0.99808073 1.405366 0.4377852 0.3946332 -1.583033 1.7253727
757 0.86818725 -0.6508595 1.3615917 -0.23716821 -1.8964806 -0.54443777 -1.0657139 -0.78078485 -0.6684637 -0.8122554
243 3.1823466 0.20013255 0.8629239 0.41452512 -0.38102552 -2.4004643 1.9592721 1.8899064 -0.63990396 0.59067315
1050 0.48503682 -0.2735042 -0.5665084 -1.4685025 -0.96682507 -1.1872634 -0.08361814 -1.8093855 0.18071568 0.06969234
118 2.2853982 -1.8057158 0.5738915 -0.015492402 -1.0509225 1.3738708 0.5463275 0.16913494 -1.6083429 1.7204019
753 1.8712206 0.46668604 -0.6466553 -0.14365071 0.14090039 0.19241382 -1.3336444 0.4654623 -1.123631 -0.88003385
169 0.7141872 -0.3665598 -0.46349305 1.6635022 -0.73798066 -0.2758427 -0.5383864 -1.6827914 -1.5388553 0.8817125
772 2.4843538 -1.8012146 0.7114026 -0.43774426 -0.9334568 1.3310764 0.394076 0.43668452 -1.5391754 1.6058395
403 3.751821 0.81844795 -2.1862526 0.6529577 1.7371134 -3.8432136 0.6228263 -1.2833753 1.7324767 0.6086073
799 1.3109448 0.703848 1.6345491 1.1577033 -0.6618209 0.13662586 -0.32126763 -0.8240025 -0.24009871 -0.53725755
1165 0.92713714 -2.1006148 -0.8015853 0.13863657 0.8817648 -1.0766429 0.102008924 -1.047917 -0.87157464 -1.1893816
956 0.86853737 -2.2628245 -0.64189196 -0.5442233 0.9174231 -0.8014785 -0.17507179 -0.49200568 -1.7429948 -1.1183056
568 0.6645103 -0.3596094 0.04423239 2.172694 0.01168408 -1.109215 0.059324406 -1.911443 -1.718698 1.0439233
594 1.443159 0.7594496 0.7085823 0.29024562 1.6565977 -0.35468495 -1.5240996 -0.7685962 -1.33966 1.5753591
247 0.44720495 -0.23166454 -0.43357188 -1.6849964 -0.5228614 -1.2157587 0.114162795 -1.7710028 0.11056923 0.7179508
529 1.1293997 0.9225952 1.2982929 0.30980343 1.63945 -0.26764315 -0.93542284 -1.3900552 -0.6555146 1.5022947
1158 2.430784 0.2529659 -1.6325616 0.03645182 0.11302002 0.9267502 -1.578405 -1.6968379 0.7182316 -0.2571762
320 1.7443104 2.4414608 -2.2482364 -1.4150746 -1.3338935 0.93459284 1.1869457 -1.4964501 -2.3753421 0.8676956
578 1.3904914 0.66047645 0.6727183 0.2839542 1.6063857 -0.40326825 -1.4166976 -0.6823043 -1.3002771 1.5422629
338 1.0366187 0.015030532 -0.931237 0.6825308 -0.63536346 0.25073195 -1.2110862 -1.4005998 -0.4660618 0.3832455
1115 0.7162474 -0.3669542 -0.4750204 1.7064697 -0.7107953 -0.27608716 -0.5756438 -1.6643147 -1.5242729 0.82114446
606 1.6806741 0.2935725 -1.2826477 0.74715716 -0.62625545 0.53818303 -1.7175648 -1.630224 -0.3456824 0.2468674
282 0.7236169 -0.36572093 -0.42132118 1.7840039 -0.61764514 -0.40132368 -0.4994003 -1.6952325 -1.5613779 0.8912881
899 1.2610857 0.8176872 1.5170615 0.22782016 1.7295966 -0.08617623 -0.69748574 -1.6463627 -0.23563825 1.5262662
660 1.3484612 0.3478421 0.24715464 0.09336109 1.3868569 -0.3494833 -1.5028584 -0.08022921 -1.4927156 1.0707027
211 2.1127408 -1.7503524 0.55114585 0.19865109 -1.1675874 1.2698767 0.6974857 0.009780641 -1.5581824 1.7029494
418 1.039355 0.10224943 -0.77568465 0.9224443 -0.58142006 0.21877368 -1.2252269 -1.411727 -0.6460312 0.4677835
149 4.0136733 1.1909509 0.83061725 1.0637152 -0.1821956 -2.7292032 2.6046355 1.7976513 -0.66769916 0.3494678
443 0.5670374 1.0823323 0.7993094 0.32724875 -0.43181142 -0.48587584 0.80549365 -1.5728618 -1.0316508 -1.5145558
937 1.3318616 0.5952158 1.7250988 1.1926267 -0.7738319 0.06303874 -0.48196495 -0.7895991 -0.41659173 -0.48421797
981 1.2288537 0.4358639 1.9039944 1.2481747 -0.9869401 -0.068506755 -0.76477474 -0.91708213 -0.6289714 -0.48853874
123 0.4869325 0.18645604 0.4095488 1.6055266 0.22909412 -0.9161402 0.6107478 -1.2863492 -1.9526846 0.068717375
784 0.53631556 0.06601129 0.2910267 -2.3673759 -0.37257266 -0.80653816 0.48636147 -1.7247003 -0.31492823 1.3428378
95 1.3999738 -1.6085577 -0.8707742 -0.24181475 0.5905777 -1.7955743 0.6783968 -0.80630106 -0.8130576 -1.9626157
87 2.73017 0.014034566 0.80894715 0.71152735 -1.2459393 -2.544447 1.0029991 1.3131704 -0.35071084 0.91007274
283 1.5152078 -0.74031836 0.33235294 -1.0639712 -1.6127944 -1.1683034 -0.19119643 -0.9788017 0.9140544 -0.7384244
1082 0.8690005 -0.53340715 1.5617822 0.05047906 -1.9695338 -0.55970687 -1.2436718 -1.0100291 -0.76446 -0.6701641
503 2.5948253 -1.2033881 1.4996547 -1.184922 0.93873256 1.0613911 -0.5888631 -0.27866858 0.32598346 0.46014243
590 1.0121428 -1.6748484 -0.5785679 -0.25249174 0.6112458 -1.1238954 0.0021943212 -0.45675898 -0.86963516 -1.4201964
376 1.2363405 -0.9196696 1.1945864 -0.80275506 -1.9620149 -0.9003364 -0.75515366 -0.79750484 0.06774633 -0.9758816
1054 0.92016006 -0.5143318 0.71755224 0.16542476 1.4167249 0.7940547 1.3009014 -1.9084754 -0.12072006 0.12322717
1193 2.2968483 -1.7585521 0.5897617 -0.0952091 -1.0124123 1.3370688 0.55147624 0.23296325 -1.499983 1.6350579
1028 0.79091656 1.3155512 0.24706988 -2.1573818 -0.49438605 0.7494044 0.77605706 -1.732552 -1.8028758 0.5155803
796 0.52715683 -0.24758385 -0.07200798 -2.011047 -0.30367598 -1.1071635 0.43036282 -1.6919022 0.027627472 1.0788603
480 2.1563232 -2.053696 -0.010787754 0.61384594 -1.4079413 1.170737 1.1700441 -0.19250956 -1.4335796 1.512964
192 1.7634941 -1.6544533 0.41169846 0.5984866 -1.1854446 1.0937077 0.77235264 -0.23560959 -1.3802215 1.6451937
823 0.46831185 0.21051735 0.19152668 1.6815838 0.3333978 -0.8856422 0.4260624 -1.3882235 -1.7125239 -0.089054085
768 0.7969321 -0.47071368 -0.45591003 1.9216037 -0.70693886 -0.3693352 -0.4256538 -1.7366006 -1.645378 0.9245731
329 0.4891278 -0.2333734 0.11583678 1.9396566 0.15121199 -0.98920363 0.19335377 -1.6318843 -1.6438539 0.6768909
302 1.1320617 0.4770699 1.8057014 1.1861991 -0.9188117 -0.0756268 -0.66668713 -0.96279544 -0.49479 -0.5439548
676 1.968889 1.2797611 -0.17897087 -0.5423696 -0.0652452 0.52958864 -0.77721155 0.2688378 -0.5498377 -0.8261192
187 1.748053 0.6172037 -0.5603296 -0.14962724 0.0013655622 0.31028336 -1.0933182 0.36595654 -0.9952176 -0.89868224
1135 1.0076636 -0.5761691 -0.3542434 -1.1337013 -1.667443 -1.2890484 -0.30162472 -1.6983072 0.5790411 -0.8766183
797 0.47440478 -0.23675637 -0.043533336 -1.9408078 -0.3336478 -1.0956383 0.4122385 -1.6820905 -0.016917657 1.08251
752 2.640901 -1.8576158 0.7284408 -0.5541597 -0.84296185 1.4114693 0.35963675 0.57831556 -1.5335621 1.5346365
258 0.4570738 0.36189893 0.3956315 1.5447019 0.3015218 -1.0273008 0.6071763 -1.3682216 -2.1163049 -0.2949392
310 0.92070234 -0.38042563 1.791685 0.22797796 -1.92485 -0.52620834 -1.3091344 -1.0688543 -0.85471386 -0.5913659
540 1.2417687 0.9510444 1.402086 0.29349184 1.7685406 -0.24780984 -0.8486403 -1.5362893 -0.5781909 1.6121753
263 0.42647743 0.43251595 0.47224584 1.4056488 0.19683722 -1.0100539 0.6169335 -1.3349762 -2.1307921 -0.5052017
467 2.3447332 -1.7014059 1.3769556 -1.4443637 0.22566533 0.83451617 -0.5470223 0.47800416 -0.8294498 0.60154265
913 1.060655 -0.2354405 1.897422 0.5056021 1.6326427 -0.11490122 -0.11944945 -2.0802493 0.25289404 1.3644615
186 1.4857857 -1.0078143 0.8010399 -0.8337403 -1.5711035 -1.2136075 -0.39172563 -0.7990595 0.73314905 -0.72200215
1044 0.7370084 0.31494638 0.48799926 -2.843706 -0.41220856 -0.69680905 0.65559715 -1.9791844 -0.49604362 1.6031663
756 1.0074998 1.2132592 0.90410525 0.5787027 -0.70367044 -0.20534158 0.92915654 -1.5638556 -0.66617554 -1.7666494
522 0.8762752 -0.44751593 1.7066531 0.212692 -1.9266785 -0.57488626 -1.3570683 -1.0600963 -0.88550586 -0.6062895
923 2.2969806 -1.7575376 0.59743214 -0.055457577 -1.0902168 1.3281696 0.54457456 0.21306898 -1.5265818 1.7235523
350 0.46958467 -0.11358121 0.034927815 -2.0111573 -0.3218171 -1.0064672 0.39179927 -1.654487 -0.0064825276 1.0915319
1088 0.7276842 -0.38897854 -0.22317927 2.1316507 -0.30727893 -0.81272835 -0.3011113 -2.0199583 -1.6744635 1.1460662
13 3.5054834 -0.22012733 0.51449174 0.80097437 -2.214739 -2.7663076 0.65409994 1.2324905 0.09911483 1.4777772
996 1.1619952 0.18389034 2.374387 0.960392 -1.4764483 -0.3057156 -1.2507652 -1.2419405 -0.92253476 -0.43756256
1117 2.4778264 -1.7823454 0.6766011 -0.5191997 -0.87664396 1.3551159 0.33675995 0.5136319 -1.5529712 1.5308079
330 2.400204 -1.0995926 -2.2033832 1.2897565 -0.46237174 -4.5788474 -2.3793283 -2.5209463 -0.8475098 1.913423
193 1.7960482 0.66911316 -0.57106334 -0.17373541 0.02739328 0.28488442 -1.0174348 0.3919677 -1.0328859 -0.9366906
210 0.98885006 -0.5993827 -0.30404618 -1.2122769 -1.6595389 -1.324014 -0.29192677 -1.7246906 0.567374 -0.86699975
109 2.4249191 -1.8379034 0.6401715 -0.14530732 -1.0815175 1.3935525 0.58210284 0.2860259 -1.6152923 1.7339413
1113 0.8918406 -0.5999826 -0.49476886 -1.2484009 -1.6184026 -1.414292 -0.3399756 -1.9454215 0.4544765 -0.7810944
792 0.6492364 -0.31504384 -0.032435935 2.1026688 -0.29792267 -0.9892655 0.08094288 -1.8031676 -1.6965438 1.126444
783 0.47853056 -0.0694002 0.12103999 -2.1388662 -0.33268368 -0.9060915 0.45886818 -1.6306319 -0.16544993 1.1577343
1061 2.5058146 -1.7996662 0.7001002 -0.54656166 -0.84035397 1.3387688 0.35840774 0.5484014 -1.4787674 1.5040897
497 1.3167298 -1.09817 1.0168602 -0.7182085 -1.6910738 -1.1385096 -0.60151464 -0.88609165 0.52014065 -0.77510023
294 2.4538755 -1.0565267 1.5124195 -1.1933483 1.037349 0.85976017 -0.41304561 -0.25199062 0.34164217 0.25648654
738 0.6068674 -0.3864974 1.3386978 0.04639515 1.4224035 0.27655703 0.7230419 -2.1854215 0.06731839 0.4943093
27 1.6188605 0.8776807 0.047368392 -1.1073118 0.558914 -0.6699362 1.0288286 0.13123442 -1.4555683 -1.4093598
57 2.6641846 0.18222776 0.7175752 0.48247752 -0.56518435 -2.1563795 1.5237179 1.6217813 -0.53655946 0.4529273
1007 0.7961265 1.533856 -0.27411857 -1.9328635 -0.7217271 0.82692504 0.7925369 -1.661406 -2.085341 0.44746107
690 0.88487816 -1.9754027 -0.5584464 -0.42443982 0.80624664 -0.8442189 -0.11232222 -0.4000139 -1.3013694 -1.1543217
137 0.79071975 -0.48178032 -0.44591632 2.0024204 -0.6776815 -0.48400876 -0.3905954 -1.7938933 -1.6428186 0.9809011
134 1.7439954 -1.6737064 0.43091196 0.5853929 -1.205297 1.1409888 0.73039156 -0.30217698 -1.3810902 1.6558446
679 1.1266192 -1.5206199 -0.4881525 -0.21272984 0.5990566 -1.4050486 0.22120914 -0.4645809 -0.8829939 -1.7107327
164 2.8806534 0.12867346 0.8588561 0.3759551 -0.93166155 -2.1968675 1.3275943 1.4959439 -0.3020881 1.4507287
788 0.7612665 1.1948178 0.40676516 -2.1441662 -0.42034808 0.71531194 0.7452165 -1.6567045 -1.5697381 0.49874172
260 0.5006935 0.35701725 0.40838522 1.6155125 0.35895506 -1.0644507 0.6198355 -1.3941245 -2.1428554 -0.3657149
1035 1.43107 0.8391386 0.81368715 0.29997104 1.701933 -0.4136743 -1.5673809 -1.0185759 -1.2613032 1.7425486
1120 2.4784584 -0.9842982 1.4209696 -1.1710316 1.062471 0.9315836 -0.49382213 -0.41565034 0.47748753 0.14735037
584 0.47551835 0.3839484 0.24913411 1.5308728 0.29882342 -0.87172824 0.50265306 -1.3329464 -1.906639 -0.49333566
43 2.308519 -1.7804673 0.5718195 -0.112115905 -1.0339208 1.3245956 0.5028771 0.26125053 -1.536601 1.7004844
225 0.96013296 -0.71152383 1.4196254 -0.3979579 -2.15265 -0.57477546 -1.0759039 -0.9353342 -0.6334216 -0.93029386
800 0.7106503 0.30137202 0.5150883 -2.7193007 -0.40019763 -0.6911406 0.6565327 -1.9410291 -0.48529044 1.5600886
947 3.8794103 1.0765712 -2.3103898 1.0500363 2.1233094 -3.867702 1.1558104 -1.6338679 1.9999809 0.326598
763 1.6706383 0.73678535 0.031213187 -1.0979433 0.6198219 -0.82018834 1.0636973 0.20183425 -1.43241 -1.4474046
6 0.498629 -2.2288628 -0.5842615 -1.8700883 2.074285 -0.4914301 -0.6812935 -2.6619394 -2.591529 -1.6071947
629 0.97839767 -0.62226135 -0.060581915 -0.54992115 0.63635606 -1.6669523 0.58759195 -0.33378384 -1.1536732 -1.8075624
779 1.061394 1.2349811 0.9199522 0.61266625 -0.735252 -0.16386892 0.924931 -1.5637362 -0.6344045 -1.7981862
425 0.44223404 -0.111216545 0.11948389 1.8376578 0.1816334 -0.9233398 0.2559702 -1.5290648 -1.645057 0.45435405
881 1.1559075 -0.1753783 1.8455603 0.5318814 1.6278466 -0.122416966 -0.24266724 -1.9556651 0.2711552 1.4093924
1063 2.8535283 -1.623194 1.7185619 -1.7106236 0.9491327 0.9146931 -0.31522712 0.07115605 -0.17398961 0.37362382
882 1.8214731 -1.6643891 0.39944217 0.43561468 -1.2110238 1.0667437 0.6998327 -0.14476319 -1.4011315 1.580321
42 1.8265646 -1.6682992 0.48543784 0.39823884 -1.1476393 1.1313194 0.6228752 -0.12538807 -1.4247856 1.6190407
595 1.0418409 -1.6565142 -0.5268463 -0.23355755 0.60401726 -1.1526176 0.0312387 -0.3974156 -0.9041792 -1.4425969
1064 2.6853845 -1.6227416 1.6876256 -1.6451846 0.78781503 0.8522572 -0.25253975 0.20906374 -0.349042 0.42244163
52 2.4556072 -1.8198696 0.6784655 -0.40992057 -0.94876844 1.3297281 0.3906444 0.46359572 -1.5235648 1.612223
