1122 10
1 0.2310319 -0.14113997 0.0920003 0.11652427 0.32679933 0.15364149 0.23960792 0.30305877 -0.30478454 -0.032747366
20 0.27267215 -0.08129044 0.045330256 0.09135959 0.3594717 0.19034983 0.17802964 0.28490284 -0.32491243 -0.023345131
17 0.3479169 -0.059264626 0.13561757 0.15735164 0.3209349 0.14387608 0.19633876 0.2768538 -0.26569316 -0.024413493
5 0.2956817 -0.18170488 0.11646916 0.08187182 0.33924252 0.1391111 0.23919877 0.25004593 -0.30422786 -0.035573024
9 0.27576426 -0.08881609 0.066048115 0.19581892 0.27546537 0.20236228 0.19209343 0.29431736 -0.38373265 0.042578097
18 0.28014517 -0.059321832 0.120961 0.09438432 0.37241927 0.17839693 0.22434512 0.28331208 -0.22134386 -0.09207655
13 0.27637997 -0.087488994 0.06863571 0.15256205 0.36038283 0.07280705 0.23488532 0.3528391 -0.23557176 -0.037472554
7 0.2704919 -0.19320695 -0.03254243 0.13946234 0.34509286 0.18924315 0.14925611 0.29057434 -0.32889298 0.008540746
15 0.28625798 -0.07597163 0.09996828 0.09722909 0.3019682 0.14875685 0.19299382 0.33672625 -0.3254653 -0.04686711
8 0.3164991 -0.114311665 0.09838441 0.103504516 0.36745325 0.09765441 0.2171937 0.2668896 -0.30033973 0.024603736
4 0.25047883 -0.121247545 0.087069035 0.11924939 0.383058 0.12886089 0.15921748 0.27520055 -0.2803865 -0.050027136
0 0.32765624 -0.11296755 0.055884264 0.127873 0.29684234 0.2243148 0.1693903 0.2803182 -0.30620757 -0.046381854
16 0.27065948 -0.16655238 0.072390385 0.13119987 0.36106512 0.1435876 0.18863985 0.29369017 -0.272167 0.028696937
12 0.27281782 -0.09951875 0.118802816 0.1143477 0.32349735 0.1757162 0.257499 0.30464807 -0.27746105 -0.03729265
14 0.23105319 -0.15817614 0.09295955 0.119921565 0.3836178 0.17889972 0.24521829 0.2693974 -0.2475787 0.0062499773
19 0.31531882 -0.14975101 0.13966095 0.11202834 0.3514311 0.20350456 0.16893962 0.23746489 -0.2478978 -0.0016468891
3 0.30001608 -0.16132225 0.11797802 0.14247409 0.3892049 0.15956463 0.16430007 0.26515487 -0.21917564 0.045434102
11 0.19107524 -0.115856364 0.1376218 0.11254258 0.33146742 0.18450421 0.21172333 0.3376618 -0.27403358 -0.05364296
10 0.27189106 -0.11841398 0.043437764 0.12106566 0.36734352 0.11632782 0.17626533 0.328686 -0.28231093 0.025508339
6 0.27655658 -0.104661666 0.08437126 0.14008826 0.30048624 0.10098553 0.1886448 0.34967285 -0.32675448 0.012817405
2 0.25025386 -0.10608994 0.04789553 0.13496777 0.3385263 0.15182434 0.22357512 0.32339025 -0.2699334 -0.119074255
21 0.13163717 -0.2197666 0.44503424 0.20887966 0.34252945 0.0398401 0.03738761 0.08156525 -0.22096263 -0.21245071
160 0.038174305 -0.111248516 0.20576422 0.28249726 0.3690611 0.102274545 -0.09678039 0.24042563 -0.2830223 -0.14457396
68 0.07168071 -0.07811253 0.30309868 0.08532246 0.30426195 0.06447358 0.058754463 0.27155024 -0.38985068 -0.1797543
319 -0.08862096 -0.12037585 0.3309442 0.24339932 0.2595058 0.29608625 0.07808368 0.21745037 -0.37432802 -0.0032568788
270 0.052478585 -0.29511604 0.35671502 0.16611986 0.3887249 0.1925857 0.11042663 0.08995969 -0.16336668 -0.24978425
396 0.19617312 0.0621508 0.23013102 0.3345878 0.44493037 -0.032833096 0.19342926 0.06628011 -0.26539144 -0.10864897
693 0.003487817 -0.015760772 0.35479537 0.28267878 0.37388378 -0.011211969 0.087959 0.24642718 -0.21897933 -0.16892703
362 0.051939208 -0.15252365 0.2977077 0.16076483 0.45844162 0.22310387 -0.11417164 -0.020056939 -0.41705263 0.013477046
812 -0.037596617 -0.22482045 0.198883 0.3320701 0.475745 0.2823924 0.04262716 0.1789329 -0.11843839 0.036050998
848 -0.030486017 -0.293226 0.2858116 0.07757933 0.38949534 0.034619067 -0.070843086 0.26156735 -0.3522378 0.008549888
158 -0.22369955 -0.2769782 0.33583888 0.2195611 0.39686397 0.21476488 0.18198209 0.26859778 -0.1255436 -0.07336551
701 0.042887162 -0.20067988 0.18508224 0.2369192 0.54520696 -0.1274529 -0.07924766 0.13435811 -0.28420344 -0.02863316
954 -0.02675751 0.047226813 0.2321704 0.32866862 0.35041884 -0.037372377 0.16269092 0.19929332 -0.41664642 -0.06963356
1100 -0.065495 -0.11774895 0.17372024 0.23354797 0.47624356 0.07735065 0.031955015 0.24563956 -0.26095575 -0.031789545
289 0.05325452 -0.09114962 0.1954111 0.23633571 0.2207692 -0.027148722 -0.1513819 0.34338093 -0.55207384 -0.077064194
515 0.08617443 -0.2066112 0.38257822 0.20907065 0.34190488 0.19674663 0.006798276 0.25359198 -0.07312278 -0.29728952
48 0.22128427 -0.03634009 0.361042 0.16966116 0.35805798 -0.11036037 -0.17434424 0.293525 -0.2186998 -0.24686223
380 0.06407454 -0.1909749 0.17097186 0.28557506 0.50708574 0.126655 0.049975798 0.0011210392 -0.20566367 -0.20522203
962 -0.037200987 -0.22055689 0.38539225 -0.0026160197 0.22276638 0.094879396 0.10115803 0.3071748 -0.50135905 -0.022539407
96 0.046998877 -0.08213156 0.35286456 0.377897 0.2684147 -0.22814104 -0.015843442 0.3006536 -0.38528576 0.027178984
465 0.1651158 -0.22361414 0.3880296 0.15381835 0.34956524 0.13017188 0.062072165 0.08325909 -0.27617025 0.020728102
209 0.016607314 -0.008222622 0.0852539 0.29858607 0.4473384 0.06336692 -0.12201067 0.35178527 -0.211155 -0.12013043
461 0.0010960912 -0.33669308 0.1433253 0.048345745 0.3724046 0.08619691 -0.042748842 0.27949467 -0.31313857 -0.23915589
171 0.22882946 -0.071011856 0.39652932 0.18858424 0.21987526 -0.01015196 -0.05327865 0.14458193 -0.4555656 -0.13581239
439 0.16178492 -0.09002819 0.26931652 0.41883546 0.34252858 0.24487309 0.046775106 0.052937586 -0.18222554 -0.24291575
436 -0.005205119 -0.056926735 0.22970597 0.34034887 0.36809248 0.18127711 -0.06837432 0.3266341 -0.2143046 -0.04748899
278 0.12655328 -0.04084873 0.5262296 0.36914662 0.2989842 0.09186128 0.2233492 0.21204859 0.02956499 -0.3309776
883 -0.13451298 -0.09701985 0.2565534 0.028664976 0.46783066 0.3646509 0.08669893 0.08757249 -0.46025053 0.014938645
256 0.04831727 0.045871858 0.30963507 0.18508865 0.31696492 0.018581534 -0.028533362 0.33627677 -0.33866227 -0.15371336
320 -0.090976626 -0.09651176 0.28987074 0.0024717147 0.39479297 0.2401486 0.086790636 0.2132085 -0.32096887 -0.23567156
835 0.13352622 -0.013446151 0.35213253 0.10465285 0.39980248 0.31216845 -0.15558665 0.08168803 -0.28774282 -0.19375771
600 -0.16825317 -0.035486504 0.2055803 0.16992506 0.39534867 0.21691456 0.13923727 0.13118154 -0.41389114 -0.2865248
1023 0.025111506 -0.04318146 0.16799949 0.07777012 0.41270536 0.30955595 -0.022579914 0.13315532 -0.3607286 -0.31299135
1058 -0.016662536 -0.038528584 0.29981586 0.36878115 0.4395256 0.22260801 0.13281432 0.15210025 -0.06502824 -0.19186981
550 0.025435066 0.028193831 0.18239981 0.16284679 0.46568742 0.22236824 0.052248124 0.024715688 -0.39347783 -0.20729709
872 0.027545696 -0.19043477 0.14967841 0.17929032 0.40153995 0.12980872 -0.07869793 0.30489978 -0.20457575 -0.24858877
349 -0.09168239 -0.2493163 0.26223475 0.076851524 0.43191242 0.01720358 -0.0465182 0.41686332 -0.18707244 -0.097079374
447 0.012403767 -0.31347945 0.25942272 0.19742644 0.20966327 0.22593386 0.00087334996 0.23353922 -0.389236 -0.13045098
139 0.17070848 -0.20686562 0.27770627 0.23925225 0.500357 -0.021570591 0.1510796 -0.020490222 -0.16356592 -0.2351168
641 0.020972207 -0.1480468 0.15591861 0.14803483 0.5118318 0.00042651469 0.009642083 0.15366474 -0.2524926 -0.38379437
177 0.2223618 0.00813737 0.3764901 0.13743918 0.3218096 0.33853623 0.098045565 0.0036916102 -0.32572317 -0.24023633
948 0.08115476 -0.013071254 0.3408684 0.37544495 0.2615117 0.09173719 -0.17292446 0.287978 -0.3099691 -0.09174259
631 0.06871599 -0.32020643 0.20964746 0.116675586 0.37733188 0.17201933 -0.12205018 0.127037 -0.4157522 0.024733191
337 0.096400425 -0.122850515 0.3134478 0.29715416 0.37213182 0.063083656 0.060589105 0.08829168 -0.25883156 -0.16630995
417 0.105372764 -0.073830225 0.1986751 0.33095872 0.42131865 0.041776698 -0.14500833 0.01570346 -0.46497217 -0.088558316
797 -0.294182 -0.24047218 0.27742228 0.18497103 0.3235009 0.31377465 0.20149605 0.17724307 -0.49708387 0.17797469
995 -0.021215389 0.014011722 0.20405562 0.31533173 0.21323574 0.2622771 0.16177891 0.20366707 -0.39821625 -0.38441542
871 -0.060029224 -0.057837084 0.19748832 0.4694185 0.46260664 0.18467698 0.10665556 0.19607545 -0.10321981 -0.06542509
927 0.18085589 0.15613513 0.25002807 0.12652253 0.5918467 0.10638805 -0.06837297 0.14269243 -0.14380272 -0.24552423
1004 -0.09990694 -0.17001377 0.40316102 0.055234417 0.22378975 -0.0622868 0.33480048 0.32231808 -0.3944184 -0.2460405
983 -0.010777058 -0.0333367 0.3633675 0.17457283 0.30784613 0.22274502 0.08675342 0.00402828 -0.51617795 -0.12543565
597 0.08246806 -0.24528533 0.22135024 0.17000501 0.46742573 0.17723197 -0.034505844 0.1058793 -0.16359073 -0.29633647
760 0.1221346 -0.04219057 0.22438733 0.3051474 0.46924117 0.2602748 -0.16586342 0.12084441 -0.19424208 -0.13074242
626 0.07282762 -0.15123795 0.3881608 0.26824886 0.2090451 0.38215324 -0.113120206 0.29835865 -0.19294043 -0.044018004
864 -0.074530125 -0.05954207 0.27489102 0.20366572 0.53206354 0.053627033 0.0044326433 0.20440862 -0.23119111 -0.05111985
945 0.007717906 -0.204772 0.28269115 0.19236575 0.4454288 -0.019169189 0.020109255 0.12276357 -0.31525904 -0.16915311
482 -0.039039318 -0.17684044 0.26095265 0.31374195 0.38465393 -0.030642489 0.07399705 0.10494702 -0.36629558 -0.1396798
544 0.22149493 -0.19024554 0.28127337 0.17233354 0.4643979 0.16099201 -0.017372994 -0.00047390416 -0.20607229 -0.1939396
474 0.1267083 -0.33385882 0.2951806 0.20858459 0.31613562 0.11559588 -0.070923395 0.037348647 -0.440826 0.062514685
575 0.06500118 -0.029065514 0.30176142 0.25084487 0.26600984 0.18254006 -0.008522959 0.20782065 -0.3729915 -0.118835755
775 0.09687123 0.07990201 0.14404017 0.2694239 0.5310778 0.0775875 0.060566723 0.036750108 -0.32311144 -0.14650269
208 0.30648583 -0.13469657 0.40375137 0.23499234 0.26452655 0.04489379 -0.1866788 0.25290203 -0.23319632 -0.11906955
816 0.07827806 -0.14350681 0.44660002 0.102055855 0.3653248 0.4075876 -0.16093314 0.15225211 -0.22022286 -0.08240457
716 0.24557042 -0.2224827 0.38198957 0.16911061 0.27669072 0.103315726 -0.07912667 -0.03897111 -0.48638338 -0.1297744
478 -0.024080986 -0.100452386 0.028399086 0.24112967 0.42695633 0.026525091 -0.024580851 0.06242872 -0.5356528 -0.24500509
128 0.12059611 0.13949257 0.25484017 0.15245454 0.50923204 0.118070096 -0.0409239 0.21943615 -0.14654802 -0.39590102
910 0.18309827 -0.09619164 0.3977876 0.34906235 0.25830665 0.34848782 -0.047423016 0.14439255 -0.18850686 -0.048563372
1098 -0.18180141 -0.027707672 0.2828821 0.27876744 0.4641442 0.31181026 0.302263 0.11469624 -0.21517386 -0.10408836
484 0.008464637 -0.1045403 0.21941583 0.23164453 0.3706724 0.17840478 0.005360914 0.21833496 -0.34367943 0.037099283
333 0.11305962 -0.071572036 0.51141644 0.38523373 0.017949797 0.2921224 0.0678199 0.3650153 -0.17925473 -0.30654117
833 0.14765015 -0.021610763 0.3073228 0.2507856 0.4001316 -0.025135167 -0.20487687 0.21452157 -0.32736197 0.0062340545
736 0.05264504 -0.023501478 0.2904943 0.22120415 0.23748167 0.09848135 0.17780092 0.21330328 -0.38642454 -0.319324
255 -0.08910469 -0.015559926 0.06258081 0.40566006 0.4146133 0.030823732 0.12303847 0.21894029 -0.35776567 -0.12772329
625 0.18537399 -0.33947435 0.23047024 0.12690675 0.19361648 0.20434777 -0.16269405 0.23711857 -0.36170018 -0.36705208
174 0.12778704 0.035116296 0.24724305 0.22894469 0.50427747 0.15895192 -0.036615126 0.056001537 -0.29313627 -0.011668771
898 0.018342653 -0.23853749 0.17287073 0.33682185 0.3121108 0.14209226 -0.019547785 0.21816531 -0.27223146 -0.13774976
331 0.079307 -0.09958172 0.40341002 0.24903674 0.43357253 0.0066378745 0.080888554 0.088173464 -0.26784584 0.04124939
485 0.04220996 -0.2625155 0.094848834 0.53907907 0.2088702 0.3812414 -0.15283786 0.1971937 -0.35042563 0.13129975
843 0.026912728 -0.22404131 0.016620362 0.48153552 0.20764132 0.22794923 -0.1592883 0.3788242 -0.31043836 -0.18175867
132 0.06570434 -0.0062559852 0.34556603 0.4786534 0.27270913 0.26566663 -0.00468551 0.20616132 -0.10864219 -0.2326731
672 0.038282882 0.1342318 0.18272416 0.112208426 0.41684276 0.04453042 -0.023141919 0.31614518 -0.31278968 -0.3453242
592 0.28033033 0.13925266 0.20493798 0.116082765 0.5015414 0.2837973 -0.12845485 0.07919989 -0.27840522 -0.07950937
304 0.13704713 0.0520375 0.17931128 0.34026265 0.4372215 0.068581834 -0.028181458 0.1500303 -0.33419266 0.033501055
904 0.16617799 -0.19681956 0.35302597 0.06721682 0.37857643 0.10177935 0.0016507531 0.09380578 -0.25668517 -0.3538651
1027 0.13108101 -0.17206539 0.11370188 0.2616105 0.40292442 0.21568768 -0.22607419 0.27178568 -0.1508116 -0.31550434
305 -0.19741303 -0.12156725 0.27169573 0.21315058 0.40824246 0.07193037 0.09436984 0.17544715 -0.40889555 -0.08589942
700 -0.04342338 0.14863011 0.10974301 0.36130333 0.5288818 0.27614018 -0.047138494 0.13807894 -0.20580278 -0.25125942
1044 0.2237763 -0.1516905 0.31797984 0.267157 0.1791224 0.047481928 0.037393518 0.30222195 -0.27195227 -0.23815216
156 0.03329095 -0.22265756 0.12239036 0.26785046 0.36256862 0.1110653 -0.12694147 0.3098136 -0.25637254 -0.23382728
957 0.13338992 -0.28911376 0.32598102 0.18080096 0.26785135 0.09923714 -0.062395703 0.2701872 -0.23687547 -0.17919722
758 0.100262135 -0.07506988 0.2265364 0.116464 0.30919385 0.031128954 0.0013428812 0.15834215 -0.5045056 -0.21011981
953 0.1471964 0.057098355 0.14174914 0.32628006 0.4223658 -0.105669156 -0.19235297 0.33788085 -0.29698616 -0.047016174
635 -0.084031835 -0.13784087 0.17034364 0.36715162 0.37180564 0.123393856 0.14430384 0.15370597 -0.30469662 -0.16672046
149 0.1015172 -0.076791085 0.20988043 0.24030887 0.2903771 0.09901425 0.044190492 0.20595096 -0.3886587 -0.20636015
433 0.19559617 -0.15173446 0.32808882 0.23425803 0.32064182 0.085371725 -0.01014604 0.13851222 -0.29643002 -0.056540888
250 0.034163892 0.03845764 0.26585236 0.31137338 0.35818505 0.32123154 0.051525626 -0.011639312 -0.40228868 -0.14966269
764 0.1070484 -0.2400538 0.26517653 0.1309605 0.23942244 0.1324069 -0.12658918 0.28241897 -0.3188967 -0.40175167
729 0.19478768 -0.015895871 0.4167416 0.21717975 0.46411777 0.2021483 -0.028771358 0.03341932 -0.14466007 -0.13514556
939 0.19129358 -0.19812357 0.081967406 0.26459906 0.28636512 -0.028176513 -0.098706886 0.17516403 -0.42080948 -0.38601944
62 -0.060823422 -0.12035993 0.21174632 0.22709803 0.38714132 0.12667638 0.17460826 0.1331348 -0.3845161 -0.091502585
133 0.0807219 -0.20159796 0.3006108 0.1392008 0.3875091 0.17101014 -0.045624565 0.12998877 -0.25000933 -0.31456596
830 0.19413339 -0.14736576 0.57131714 0.19517493 0.19609714 0.2325002 -0.107267894 0.21426241 -0.2699457 0.013131996
659 0.0014578518 -0.059140693 0.17948969 0.080862544 0.40258005 0.028699014 -0.1534244 0.25489897 -0.48708752 -0.13030231
640 -0.008607264 -0.08711252 0.17810076 0.5041382 0.22622058 0.15129916 -0.027050117 0.25594115 -0.39892536 0.028889846
299 0.11793871 -0.24289148 0.25464612 0.088240966 0.3051646 0.2810053 -0.034207605 0.19195831 -0.31297043 -0.16777304
102 0.14292207 -0.06973882 0.33612233 0.12532842 0.37485635 0.11702866 -0.21841511 0.2653375 -0.25440902 -0.114965916
343 0.14161122 -0.23072867 0.12422831 0.33766082 0.36654794 0.21858428 -0.19859987 0.20218356 -0.15184103 -0.264013
60 0.0033592093 -0.00953236 0.27273694 0.15529555 0.2216339 0.26258576 -0.08163193 0.370621 -0.36995625 -0.21185118
339 0.06835757 -0.022817267 0.36349657 0.07819913 0.37068847 -0.07006342 -0.16507353 0.3179191 -0.36319888 -0.05145102
1002 0.24819082 -0.01502749 0.39877045 0.06282493 0.28581083 0.22868554 -0.01282859 0.102485575 -0.35514402 -0.19552886
412 -0.066118434 -0.1569359 0.14050826 0.17143302 0.3592159 0.056014236 -0.11217274 0.22909547 -0.47319272 -0.20688467
1105 0.09128505 -0.052316774 0.13885616 0.57239515 0.41731015 0.13703245 -0.030531388 0.08829082 -0.19560677 -0.011444807
395 -8.672196e-05 -0.35522923 0.07503526 0.3122877 0.4583357 0.07073682 -0.010811692 0.15867455 -0.2810005 0.067637995
228 -0.05125844 0.0058164797 0.083416596 0.10806856 0.41070276 0.14811419 -0.05846151 0.23198429 -0.4881807 -0.24070488
1035 0.055907317 -0.15110724 0.05133058 0.3356738 0.49239877 0.16537833 -0.30642524 0.23849662 -0.26516753 0.007193277
165 0.121126465 -0.13868515 0.4141216 0.15966365 0.3948097 0.18394817 -0.030127296 0.18573044 -0.11837716 -0.20125073
334 0.1138932 -0.025849074 0.14386147 0.18906474 0.4007202 0.25923267 0.09540434 0.061631307 -0.34333417 -0.33489335
198 0.03899958 0.033424206 0.28437722 0.29767948 0.4713904 0.033524163 0.01770567 0.11273516 -0.27080527 -0.09470442
341 0.053815782 0.018829053 0.3465177 0.17986539 0.42771393 0.030747037 0.06918821 0.116513826 -0.3619644 -0.08653581
403 0.13252644 -0.20130636 0.094625145 0.34464002 0.38249668 0.13772224 0.052922197 0.018613033 -0.29687747 -0.34041873
178 -0.17903586 -0.30080196 0.20102887 0.347494 0.36608824 0.28018087 0.116967514 0.18344343 -0.24593836 -0.026017923
162 0.13495259 -0.07220595 0.40572062 0.32183185 0.31326976 0.10912644 0.12677425 0.08974445 -0.23772383 -0.11466671
966 0.16934802 -0.073474415 0.3874786 0.20163804 0.3302267 0.07144049 -0.17047471 0.13824326 -0.38189486 0.064500645
676 -0.021538075 -0.40060812 0.2327075 0.21592584 0.26612183 -0.012505442 -0.038853645 0.3498637 -0.3030704 -0.15354362
383 0.06351132 -0.17691438 0.38604578 0.22046083 0.3481027 0.13277511 0.07232852 -0.04047782 -0.4093598 -0.11427528
402 0.1083207 -0.14476623 0.35300744 0.27007145 0.2757336 0.09564216 0.07821592 0.33169514 -0.1427558 -0.1732871
420 0.2482628 -0.19979456 0.30605316 0.2350337 0.2692258 0.16506515 6.770583e-05 0.036460735 -0.3617698 -0.19182198
846 -0.13749506 -0.0935629 0.20687202 0.23029837 0.45676988 -0.047478165 0.004691755 0.31778142 -0.31348848 -0.010172797
138 0.1563997 0.038153723 0.34764847 0.12130338 0.4026183 0.025918763 -0.018375749 0.099445626 -0.3026557 -0.36797994
660 -0.06343482 -0.16748655 0.3979875 0.17265856 0.34416083 0.19528133 -0.002787002 0.39536592 -0.113161355 -0.11729995
804 -0.07312336 -0.21027756 0.22361062 0.052761927 0.57742286 0.054097198 0.06550369 0.093422525 -0.240489 -0.21299738
1017 0.015220551 -0.11842397 0.13137405 0.22323562 0.4084427 0.15757428 -0.0572072 0.33047166 -0.24983603 -0.099922605
709 -0.11699761 -0.0208964 0.33313048 0.29984877 0.41050202 0.042448416 0.020520687 0.21610083 -0.34569392 0.017477246
367 0.21945116 -0.05611468 0.10080948 0.25645298 0.50267136 0.07138634 -0.18128188 0.060639497 -0.28691375 -0.27811196
565 -0.09808891 0.013437558 0.019599095 0.3211186 0.4832164 0.016920697 -0.07796905 0.26800796 -0.43016806 -0.056429215
176 0.06161571 -0.016618278 0.23578414 0.16222712 0.39144388 0.06486536 0.05436073 0.12693913 -0.428046 -0.15174758
913 -0.08261812 -0.16283217 0.15994124 0.31942868 0.3519715 0.32680523 0.033385027 0.10408707 -0.38514233 -0.04496103
615 -0.00063942635 -0.03994405 0.31167588 0.28767514 0.27531773 0.016433163 0.12680878 0.32626525 -0.31288743 -0.07863625
443 0.05696594 -0.28000632 0.26702932 0.17238046 0.3278995 0.06662036 0.0076452917 0.2634212 -0.22309509 -0.27279547
197 0.28548506 -0.1740744 0.1701576 0.3337862 0.43830925 0.0055566262 -0.114637 -0.026923353 -0.34156838 -0.114056274
161 0.062976606 -0.10525686 0.38414866 0.090590626 0.34554043 -0.07229152 -0.18321589 0.3067551 -0.33270347 -0.22292504
444 -0.108778425 -0.34522158 0.29525563 0.20073606 0.22715937 0.1466024 0.075708106 0.27124563 -0.43947262 0.026913581
93 0.06578738 0.11148435 0.100895345 0.34259474 0.35955206 0.2641296 -0.056081206 0.1441901 -0.40720522 -0.2989929
488 -0.1764506 0.14568725 0.24368323 0.17086889 0.36195776 0.07907647 0.06756263 0.4631835 -0.3280104 -0.2741426
869 0.10741239 -0.051388558 0.10306072 0.22065742 0.42481124 0.23556928 -0.01048361 0.22292334 -0.22266097 -0.2557378
224 0.061809845 0.013345425 0.30148813 0.32731098 0.38642222 0.0955623 0.1904581 0.09588145 -0.21568248 -0.23682588
559 0.08172079 -0.21775547 0.19857137 0.35210478 0.29831198 -0.12213691 -0.018354475 0.35044238 -0.26317412 -0.13619797
363 -0.03436311 -0.043894827 0.35975808 0.39045343 0.07732041 0.2343924 0.097553715 0.38510004 -0.38801095 0.00014022432
486 0.078596085 -0.06394986 0.3745605 0.12716788 0.37043858 0.12622303 0.121001676 0.17871143 -0.20477247 -0.21032187
747 -0.099072754 0.048420418 0.01889584 0.36809617 0.3873563 0.42073965 0.0043762713 0.2697394 -0.31142324 -0.07649268
892 0.2347905 -0.08795954 0.30882135 0.16958071 0.2792849 0.04222662 0.040259063 0.10191915 -0.3658193 -0.4014162
241 0.18434513 -0.04207556 0.29892445 -0.14717287 0.39740342 0.12666729 0.049814634 0.21923749 -0.32777435 -0.3895404
315 0.13602938 -0.2717324 0.3804342 0.25602195 0.24728797 0.14433818 -0.04098048 0.23610182 -0.21355431 -0.16744031
1040 0.1961058 -0.12660591 0.29143718 0.14175394 0.44091484 -0.025779326 -0.0032473463 0.003980118 -0.33095443 -0.2242504
1111 0.060872797 -0.13280982 0.3186639 0.051352344 0.4091659 0.025026646 -0.064978875 0.30541208 -0.2646341 -0.08711047
87 0.21657573 -0.049331795 0.46686268 0.18735611 0.16934879 0.04378407 -0.22506815 0.29656875 -0.43993595 0.0100901965
967 0.14530419 0.042630102 0.21917747 0.3088231 0.3959187 -0.042026233 0.1170268 0.22794792 -0.18957683 -0.23766607
491 -0.06543772 -0.18818179 0.29543465 0.21854243 0.23259541 -0.069615155 0.11892323 0.3281536 -0.4670366 -0.044263907
217 0.031784948 -0.04764731 0.39326787 0.4689409 0.33992857 0.18323597 0.14359482 0.022029178 -0.2525459 -0.037301045
788 0.09880535 -0.25568393 0.20384055 0.316706 0.3651383 0.09332607 -0.1041665 0.07563055 -0.3379503 -0.14176546
552 -0.058788255 -0.13057922 0.27431768 0.45527998 0.35422206 0.19593213 0.09950983 0.18575026 -0.15903434 -0.11353061
1046 0.14957249 0.039968383 0.41245857 0.14316428 0.49890155 0.16969563 -0.07609079 0.13642521 -0.21410541 0.06529358
40 -0.028458249 0.041505415 0.3562075 0.10506188 0.42636883 0.096771106 0.11574675 0.22832969 -0.34377804 0.08386143
980 -0.021751478 -0.09338702 0.36628032 0.22443429 0.39057633 0.0033688871 -0.1108863 0.4053026 -0.1974708 0.09581306
411 0.06829789 -0.30312362 0.28667647 0.34082976 0.33763328 -0.13656116 -0.00015853808 0.13935976 -0.33244473 -0.11328383
294 0.10100273 -0.058375914 0.31755432 0.15170655 0.4543271 -0.17652361 -0.108721025 0.21172915 -0.3672802 -0.020964429
1031 -0.0948539 -0.23505999 0.2471021 0.29739904 0.37075242 0.0032241435 0.04716405 0.27816606 -0.20706882 -0.2659275
460 0.08161544 0.03378429 0.16438347 0.27375856 0.32517973 0.27268502 0.024447959 0.11714976 -0.39288357 -0.20175162
950 0.18572865 -0.25657904 0.16693568 0.38248402 0.29670715 0.22379947 -0.1189378 0.05813118 -0.3615058 -0.16144319
686 0.06832103 -0.17074995 0.24895222 0.38711637 0.16157804 0.18527842 -0.10265339 0.36455983 -0.25243524 -0.22714183
201 -0.016730143 -0.27451104 0.35295644 0.22754048 0.21336111 0.18957908 0.07832941 0.27315584 -0.2850214 -0.13273641
358 0.05895711 -0.18411109 0.36270553 0.15767282 0.34547704 0.15955202 -0.06869169 0.2364307 -0.2532412 -0.10401584
391 0.12858467 -0.39548707 0.14287879 0.2693307 0.4277128 -0.06600469 -0.17535475 -0.008903176 -0.46761534 -0.015344616
751 0.030615797 -0.14822635 0.2838266 0.23717588 0.24276273 0.0837569 -0.051486213 0.3880237 -0.34960312 0.026151149
799 0.07591878 -0.16707112 0.234693 0.4205849 0.31405154 0.045342185 0.09994305 0.16970111 -0.23471627 -0.08285567
648 -0.10563096 -0.027062034 0.10287129 0.25431526 0.3697516 0.0730123 -0.0057518464 0.27362338 -0.5086624 -0.027743476
249 -0.03012609 -0.2603284 0.45242298 0.1714197 0.18157841 0.22026813 -0.039003212 0.41907418 -0.21708709 -0.056737952
166 0.1593076 -0.2274083 0.42274106 -0.06891296 0.2570923 0.087873936 -0.14817125 0.35720423 -0.26096305 -0.3365915
233 0.019058825 -0.13982545 0.0100839455 0.014671337 0.50595045 0.20993704 -0.28234667 0.25821093 -0.39953974 -0.23050494
408 0.059364155 -0.14324361 0.4995833 0.040136117 0.45292112 0.33888 -0.034285393 0.11712484 -0.15447304 0.058494903
1000 0.07125488 -0.052919522 0.13680217 0.1282912 0.45310557 0.11957451 -0.032484494 0.18953943 -0.33437857 -0.19988641
431 -0.11575814 -0.30519328 0.14286903 0.3133067 0.3969523 -0.016368283 0.013509701 0.3068154 -0.23726651 -0.25694716
441 0.0120572215 -0.21828924 0.3491421 0.27474833 0.36969525 0.26072562 0.00086257554 0.19370781 -0.17527571 -0.021792
754 0.21137917 -0.18791407 0.30142674 0.33512154 0.21365932 0.011385285 0.1169742 0.08468526 -0.36480528 -0.29597926
789 -0.03890123 -0.08168324 0.3252241 0.2438447 0.26672024 0.1531251 0.090923816 0.31384635 -0.2894122 -0.16965003
1052 0.12459837 -0.10948104 0.48161367 0.19869871 0.25732931 0.0897033 -0.04291367 0.2784421 -0.19643807 -0.17281915
624 0.06872526 0.10220374 0.42176846 0.045430448 0.3488418 0.30467236 -0.15528892 0.3570826 -0.21191344 -0.21533054
342 0.09637143 -0.13413696 0.1313474 0.23731686 0.38800764 0.15179905 -0.16792151 0.12606552 -0.45349544 5.5847468e-05
1022 0.15857875 -0.12528014 0.2673908 0.200345 0.398651 -0.120361336 0.115382485 0.09570179 -0.32269004 -0.2892805
988 0.14399956 -0.24566954 0.23101996 0.32043096 0.22992627 0.06149619 -0.05491979 0.25179818 -0.36984074 -0.024389543
94 0.13683045 -0.09879938 0.27114716 0.20756797 0.39174 0.005149757 -0.17653982 0.15555497 -0.3277713 -0.27919847
195 -0.08321563 -0.118472315 0.39555743 0.064501636 0.38723534 0.056227893 -0.0933882 0.32082602 -0.3623139 -0.0063835494
187 0.002911704 -0.23218217 0.38578814 0.13088149 0.210837 0.19092855 0.23112477 0.20160024 -0.34118158 -0.13443382
756 0.14699574 -0.14071377 0.1516691 0.280095 0.3682204 -0.0041074096 0.046735674 0.1246273 -0.3561099 -0.1535134
977 0.18781574 -0.289477 0.32839185 0.12246858 0.37069893 0.14122087 0.019153412 0.02246745 -0.30038297 -0.2129874
290 -0.051269688 -0.122930735 0.35973015 0.04794546 0.34313533 0.26923284 0.03924442 0.20965357 -0.3844574 0.004716008
623 0.2385356 -0.028284121 0.17162082 0.3625222 0.6315263 0.102290794 -0.14187557 0.06184902 0.047329377 -0.25834557
119 -0.014093634 -0.112741195 0.18367593 0.23331559 0.45385727 0.09073481 -0.022387912 0.07573939 -0.41086856 -0.1109348
453 0.0014378148 -0.18754889 0.3278821 0.19594002 0.4881101 -0.028857393 0.11230878 0.13035934 -0.20455876 -0.12325601
1085 0.14003265 -0.14752278 0.03998715 0.41381294 0.30414224 0.16320856 -0.21324462 0.1134647 -0.442058 -0.21842009
260 0.20886035 -0.21210994 0.072097264 0.2474515 0.42931002 -0.009610732 -0.1869298 0.14949581 -0.31616175 -0.12772012
479 0.028999878 -0.13249382 0.36691153 0.25344425 0.3767503 0.19250306 0.047922958 0.25945938 -0.0947124 -0.13345566
1056 -0.070544355 -0.04593388 0.29445124 0.32460222 0.25213584 0.10435911 0.14950092 0.2359143 -0.37198403 -0.17415084
64 0.11592148 -0.2510598 0.28706506 0.26153737 0.41343737 0.089887574 -0.077638544 0.24948344 -0.13989529 0.044773202
1063 0.1319617 -0.15278256 0.28326556 0.37917173 0.22972618 -0.014089637 0.1137976 0.14635439 -0.33795887 -0.26861548
129 -0.14521267 -0.36364502 0.13955384 0.035574026 0.4022965 0.043516975 0.0102701355 0.04506109 -0.67913157 -0.052818
996 0.034393482 -0.003526308 0.48634753 -0.016999055 0.29611638 0.01142258 0.1111685 0.24179693 -0.4244362 -0.19137208
817 -0.08855289 -0.32204667 0.05095105 0.35072386 0.30310944 0.077369705 -0.023875177 0.2718311 -0.3694323 -0.18436918
617 0.07382525 0.0037467538 0.10562043 0.2687555 0.42752308 0.1820512 -0.09521678 0.12797573 -0.457161 -0.058120057
451 -0.04995276 -0.24853739 0.19223753 0.26516283 0.34062374 0.19697692 0.11671749 0.19955994 -0.27053428 -0.18303472
268 0.141931 -0.1009859 -0.0009460959 0.2481793 0.30096155 0.16064548 -0.060034443 0.18337895 -0.4520439 -0.2821688
999 -0.032580048 -0.294744 0.23241766 0.21800135 0.269748 0.062281303 -0.046754707 0.2956412 -0.35025665 -0.20483151
335 0.086229526 -0.12021404 0.29471374 0.006303656 0.24610892 0.06791069 -0.10870784 0.4210287 -0.38789508 -0.18145601
145 -0.01951566 -0.076580666 0.3382857 0.08077936 0.39295316 0.20942393 0.10021223 0.12352072 -0.34724882 -0.17111517
159 0.026963487 -0.0428656 0.27595893 0.42324567 0.2508106 0.33202702 0.052923694 0.27213904 -0.19073509 -0.11259402
1086 0.055828128 -0.18910119 0.10267746 0.2550121 0.2670021 0.046756666 -0.09192687 0.43199694 -0.26863378 -0.26831594
416 0.2327051 -0.26180997 0.37628248 0.21155044 0.255278 0.10375819 -0.058710445 0.098861106 -0.3265942 -0.11183197
845 -0.053660452 -0.22539204 0.44438702 0.22601897 0.3815976 -0.118031435 0.06012492 0.3606412 -0.19915265 0.102588184
926 0.0876306 -0.066361055 0.2909984 0.18997572 0.43907574 0.13919528 0.028646974 0.22374976 -0.13300814 -0.19326876
468 -0.09617432 -0.02731738 0.22132859 0.08655343 0.38145962 -0.017101547 0.124631904 0.26346302 -0.44749826 -0.234642
280 0.021311319 0.044750314 0.39631635 0.34115553 0.3356633 0.23689927 0.07683413 0.10169726 -0.28184053 -0.029725363
895 -0.07088176 -0.11075214 0.1852457 0.3137336 0.5229385 -0.0369086 0.06831244 0.19447458 -0.2454838 -0.09340084
815 0.0044179633 -0.1394638 0.2847733 0.17387299 0.31626827 0.05228872 0.072520174 0.31268713 -0.31548086 -0.104139425
494 -0.07165916 -0.047311366 0.22231318 0.11173968 0.5004507 0.0400892 0.079420835 0.1717307 -0.32607937 -0.22531357
798 -0.027665874 -0.07649826 0.13175568 0.29338032 0.32174882 0.054794535 -0.014884213 0.46723887 -0.2769201 -0.022035662
1099 0.104504205 0.106910914 0.39297175 0.30244684 0.24711129 -0.042005397 0.099563606 0.28204915 -0.35851654 -0.063343465
829 0.16211373 -0.16923772 0.55996186 0.16744551 0.21745686 0.033253342 0.04960556 0.2649134 -0.22946121 -0.11315969
272 0.2623871 -0.14146082 0.23538427 0.37409025 0.17973894 0.13979945 -0.057596795 0.12836649 -0.37926123 -0.22807075
673 0.2608253 -0.11170034 0.24151015 0.29242116 0.34651506 0.1309889 -0.090517044 0.21842597 -0.12735814 -0.22764632
318 -0.012082529 -0.25273728 0.29802144 0.21468565 0.3229831 0.21118557 -0.17183632 0.15588519 -0.37836313 -0.06005209
152 -0.18576646 0.06884716 0.20085602 0.06222168 0.52022946 0.22908816 0.04755049 0.2935035 -0.2675388 -0.16761936
1090 0.09055568 -0.050946277 0.46500784 0.15098345 0.19044009 0.1830085 0.13261016 0.20224313 -0.38462558 -0.14141832
992 -0.067198716 -0.090560496 0.20232135 0.1629815 0.38473648 -0.016956009 -0.07910075 0.2807514 -0.44397813 -0.17042181
157 0.04152349 0.019138586 0.20813332 0.3453071 0.44239494 -0.070701934 0.16772676 0.092641704 -0.33735114 -0.10706895
583 0.075430855 -0.13097064 0.33003995 0.27817175 0.27032515 0.07939471 -0.064499475 0.20340753 -0.4067164 -0.048723448
126 0.23977482 0.13953742 0.45735648 0.07239387 0.1789959 0.2662845 -0.14662027 0.34682268 -0.32097736 -0.30572888
1121 -0.06304553 -0.17104879 0.20534214 0.37146917 0.36893505 -0.1319837 -0.0026321139 0.27092057 -0.39741024 0.16826048
361 0.030544812 -0.11385697 0.3089167 0.29282218 0.41787603 0.124178775 -0.022984907 0.24288408 -0.11944918 -0.1456466
1028 0.13033703 0.102969594 0.19272646 0.25321555 0.37638167 -0.009990542 -0.21159096 0.09510178 -0.63353974 0.017427513
936 -0.02271004 0.1450585 0.38461939 0.2095406 0.51311225 -0.12674834 0.085246354 0.29560366 -0.23674929 0.033061657
1009 -0.1102632 -0.37492475 0.2643017 0.14455773 0.4809527 0.036362782 0.07020988 0.13305399 -0.18502732 -0.29519907
194 0.13543342 -0.11633196 0.19053276 0.29061294 0.46836478 0.057284404 -0.06965765 0.08783244 -0.28551418 -0.040978193
27 0.005680073 -0.209736 0.32811865 0.032603674 0.3825406 0.0096243005 0.06591265 0.33100182 -0.18320532 -0.33041066
427 0.0730935 -0.17266677 0.20779559 0.2962946 0.39684132 0.23578812 -0.12137013 0.17137422 -0.23006326 -0.06289249
1113 -0.03892498 -0.11057104 0.2598533 0.22505637 0.52585006 -0.0112630315 -0.13549325 0.23663367 -0.23115551 0.058650624
503 -0.024335302 -0.006183175 0.12942833 0.37735718 0.4077967 0.017767046 0.13591559 0.08743315 -0.4408613 -0.030670434
84 -0.09166067 -0.12874167 0.4085054 0.32959136 0.3570657 0.004103193 0.080732495 0.2013684 -0.24619326 -0.10934975
599 0.1554284 -0.20871781 0.2945439 0.19923937 0.33712354 0.07711966 -0.107794 0.069343224 -0.39811298 -0.11680028
227 0.060732618 -0.021630399 0.2583875 0.2451481 0.46814102 0.037937902 -0.1338666 0.28385356 -0.19673926 0.021301672
832 0.047070526 -0.26481524 0.3907555 0.12564477 0.45815757 0.25497067 -0.056168687 0.32434773 0.05831038 -0.08554476
78 -0.049563967 -0.0078560095 0.26478884 0.2869051 0.34721947 -0.07456112 0.060701065 0.26448786 -0.38951287 -0.024454791
859 0.19207741 -0.15408574 0.17921953 0.51166666 0.31064394 0.15105304 0.060291246 0.07538412 -0.21698807 -0.10701133
612 0.061009657 0.0017672048 0.3657857 0.17939964 0.27024165 0.33357567 0.038387083 0.2504548 -0.27869856 -0.21218286
1057 0.074844874 -0.06312653 0.2547653 0.2548736 0.3797756 0.09240228 -0.11199826 0.21116474 -0.35203463 0.015270362
57 0.17681256 0.032469034 0.36292192 0.08464704 0.3794122 0.20524749 -0.18337181 0.25347546 -0.238169 -0.13828215
979 0.07028867 -0.027694473 0.28159222 0.17200382 0.3623966 0.22165604 -0.07848235 0.14085966 -0.42225987 0.010789465
1012 0.26180944 -0.034059405 0.35418972 0.12176006 0.31599587 0.058549877 0.024187664 0.31164968 -0.15197445 -0.19503534
164 0.11696065 0.13420707 0.065545194 0.5285239 0.3515845 0.06623212 0.08471 0.331763 -0.120963745 -0.3214251
932 0.115738094 -0.22268364 0.30890894 -0.033917822 0.37925965 0.18006669 -0.19112659 0.17160739 -0.35965323 -0.23377377
557 0.07930859 -0.06523905 0.41274685 0.30988252 0.3457902 0.17253458 0.10689663 0.15516192 -0.15817145 -0.19159655
587 0.07436843 0.010309808 0.42020363 0.078421906 0.22203247 -0.14191288 0.13516201 0.20698713 -0.5474962 -0.21396507
972 -0.0064730584 -0.2142864 0.17350857 0.33858877 0.37285864 0.269983 -0.09220841 0.18054718 -0.2093382 -0.20861764
1102 0.08995517 -0.18062225 0.4842537 0.074777454 0.31105667 0.18320505 -0.044740956 0.23116875 -0.26098514 0.025202787
712 0.23448175 -0.21696429 0.18140095 0.17940147 0.29857734 0.14968497 -0.23010764 0.2517481 -0.3218044 -0.16915745
535 -0.20890525 -0.10125691 0.33432126 0.098961815 0.45421475 -0.07762009 0.09557376 0.19685692 -0.4970681 0.13816985
181 0.11263695 0.086544394 0.43377528 0.22633037 0.4200738 0.017551363 -0.0125960065 0.072780244 -0.34627554 -0.06853241
633 0.0708581 0.1841685 0.11886721 0.21307951 0.57891583 0.06792759 -0.21795867 0.30198553 -0.21927796 -0.060253527
426 0.13275102 -0.033776753 0.13491288 0.3836595 0.40023515 0.14196308 -0.09125927 0.10124074 -0.28153104 -0.22082832
445 0.16812348 -0.20230374 0.2379038 0.2941158 0.22118717 -0.019466938 -0.15778805 0.31043786 -0.35130942 -0.15940931
539 -0.14202648 0.07426763 0.11561138 0.30112594 0.47994533 0.13560319 0.05068568 0.42301622 -0.14515734 -0.11448746
190 0.088579044 0.050846387 0.25332174 0.3459095 0.4240282 0.02246016 0.0054278295 0.21300092 -0.21251707 -0.08160013
75 -0.114385135 -0.04831382 0.3096036 0.050533105 0.5241709 0.005616027 0.018027626 0.22781879 -0.22427937 -0.27711904
418 0.06402708 -0.050022367 0.21400417 0.3962162 0.5271438 0.06426398 -0.016285386 0.010942133 -0.2406199 -0.022998743
32 0.08473674 -0.15201084 0.262268 0.18328686 0.32673013 0.04450344 -0.019922119 0.24538176 -0.28618017 -0.24141838
329 0.19828616 -0.16743542 0.40089914 0.20416185 0.36296055 0.07080347 0.13595426 0.051442087 -0.2147717 -0.120698094
734 -0.0288955 -0.15522945 0.23072533 0.11986216 0.4588501 0.05617013 0.09154103 0.13445523 -0.32544455 -0.239388
369 0.21722238 -0.011565151 0.32949558 0.32639655 0.31540662 0.08602987 -0.11607637 0.2708468 -0.198696 -0.14452985
662 -0.030263362 -0.23969671 0.21730036 0.22216778 0.5179301 -0.03560178 -0.043081462 0.23443754 -0.23849276 0.04190094
752 0.4085712 -0.13025165 0.4261734 0.254339 0.21316062 0.28387812 -0.12624511 -0.014038722 -0.29258418 -0.21114719
1103 -0.01555894 -0.18445918 0.29093313 0.2425394 0.4678645 0.27946222 0.14965446 -0.026675474 -0.20276178 -0.19719933
76 0.0025129505 0.017829936 0.37218037 0.14651011 0.2931321 0.3315595 0.17397018 0.22908887 -0.21584333 -0.30310634
567 0.028541481 0.05102217 0.33083802 0.34517935 0.23689574 0.018832125 -0.010946816 0.3098527 -0.39245668 -0.062385272
578 0.066101775 -0.23468512 0.2587948 0.17683518 0.25551754 0.042703755 -0.17190364 0.3462815 -0.4103618 0.032230385
332 0.08828221 -0.15163755 0.2998359 0.06906733 0.37205794 0.20881943 -0.13144444 0.11141857 -0.43603832 -0.095034786
1047 0.117332265 -0.21864028 0.2964449 0.043522734 0.17989998 0.027055675 0.017513419 0.50484324 -0.2114317 -0.46101815
917 0.13448136 -0.11312541 0.2887083 0.2634058 0.2559338 0.1658461 0.01613148 0.051928803 -0.5030221 -0.0054228366
517 0.089323215 -0.09956944 0.22745776 0.15708755 0.28550392 0.14043602 -0.051146574 0.32114685 -0.35711634 -0.21397339
753 -0.077536635 -0.10534355 0.27746916 0.08708009 0.46151567 0.09990259 0.0572732 0.2788094 -0.1641413 -0.3912211
663 0.19846936 -0.11340134 0.20603867 0.1710932 0.32664385 0.12655047 -0.2593618 0.22876316 -0.38913625 -0.124821745
853 0.032189842 -0.03514071 0.2488528 0.17788617 0.36847365 0.0031555253 -0.05192327 0.333838 -0.29526117 -0.16127114
959 0.1463392 0.01224296 0.27748796 0.24131729 0.41409755 0.13100007 -0.28707126 0.25645307 -0.26294133 -0.04627708
1119 -0.009971999 -0.022197489 0.2793692 0.32011166 0.38714924 0.13262643 0.04105428 0.2400973 -0.24752823 -0.05213512
466 0.10238979 0.09030262 0.310146 0.3518612 0.38107365 0.10406172 0.13441117 0.04031508 -0.2765013 -0.235922
669 0.12331254 -0.11395509 0.52932554 0.1790798 0.12022511 0.14119858 -0.02589244 0.29896107 -0.35952643 -0.11715614
909 0.010166314 -0.117774226 0.27124527 0.25118855 0.32069904 0.19733995 -0.0013208545 0.2613998 -0.2336799 -0.15764092
67 0.109901756 -0.23799185 0.31910393 0.16287957 0.47865188 0.119480565 -0.082076594 0.035947777 -0.31614304 0.026154844
785 0.17382231 0.07860049 0.21405652 0.29024273 0.43449128 0.12830591 0.047011517 0.04687067 -0.2791027 -0.3005401
497 0.110435784 -0.18164968 0.3362399 0.30991325 0.3070838 0.16436136 0.06486582 0.15665706 -0.15731305 -0.24284224
116 0.040499162 -0.22775291 0.3347666 0.28724644 0.28171512 0.18412949 0.100497745 0.16457129 -0.24661395 -0.13202353
717 0.09119506 -0.16334128 0.23012447 0.1814718 0.39783943 0.098068714 -0.13342209 0.34983546 -0.14613698 -0.1644611
650 0.22046965 -0.1350482 0.36446577 0.25152782 0.4175953 -0.11455153 -0.13978365 0.090376094 -0.25807536 -0.15235105
831 0.010490459 -0.07495954 0.14576463 0.12457747 0.44027698 -0.16218577 -0.18532361 0.3133361 -0.36687037 -0.31185508
196 0.013296745 -0.09439808 0.09475301 0.22341333 0.52929026 0.009660471 -0.031098219 0.13505636 -0.31748804 -0.17139317
564 -0.10938989 -0.035957273 0.22677104 0.028987745 0.5181254 -0.16009864 0.1983758 0.270151 -0.34179002 -0.20199832
106 0.09133064 -0.079138 0.2091 0.41669777 0.30630052 0.3264643 -0.0060246605 0.18690859 -0.19232343 -0.19739334
79 0.074270956 -0.19325507 0.29428157 0.05511573 0.32788718 0.2088141 0.03892321 0.17465097 -0.26582664 -0.46491534
976 0.02603105 -0.08008203 0.099487744 0.3216445 0.5709263 -0.04593144 0.024946388 0.07604141 -0.2437589 -0.18398732
849 0.2247411 -0.17956649 0.3139282 0.38897485 0.2836717 -0.1511775 -0.013929553 0.11018503 -0.31892547 -0.12756115
1069 0.09636367 -0.21813764 0.24691395 0.258837 0.45685837 0.22573034 -0.09899678 0.14458767 -0.11612599 -0.041353874
938 0.047825173 0.08972088 0.3204073 0.25646892 0.40393245 0.11691958 0.046140656 0.2523591 -0.17275047 -0.20209242
1020 -0.035129532 -0.01008502 0.2527903 0.21657118 0.34655014 0.42396587 0.06502839 0.1784984 -0.30060542 -0.08070909
508 0.056894306 -0.2816084 0.18074326 0.11029829 0.50944746 0.2953071 0.018174486 0.08121193 -0.2078954 -0.06252663
573 0.075582534 -0.1008826 0.30262247 0.39617088 0.1732807 0.1998574 -0.09385979 0.39172602 -0.2261621 -0.13783926
941 0.0064095277 -0.27517524 0.12768105 0.20648547 0.2926601 0.10253827 -0.17736153 0.36288586 -0.33848616 -0.15127197
733 0.023456533 -0.120592535 0.23552229 0.32699788 0.31449172 0.1760979 -0.07036512 0.2512099 -0.30183017 -0.018478278
531 0.054907687 -0.023951361 0.30708787 0.054997683 0.52621 0.23128913 0.039527223 0.09281659 -0.20731679 -0.15383574
286 0.024896128 -0.033155687 0.20302229 0.20449753 0.4266007 0.10122282 0.02027622 0.18889983 -0.32450223 -0.06896297
562 0.09444525 0.038832046 0.42685696 -0.012088109 0.38432992 0.05801696 -0.0050876513 0.15947585 -0.4150994 -0.22985011
45 0.16740075 -0.17983176 0.3055114 0.25743213 0.4267308 0.19398084 -0.0055753035 0.13632491 -0.10537045 -0.08054122
437 0.07475334 -0.051178053 0.17007545 0.1581245 0.4262372 0.06841672 -0.097895734 0.24742875 -0.34193957 -0.18425757
899 0.29870978 -0.11979988 0.34018412 0.3143221 0.1378878 -0.19266385 -0.12201663 0.33566663 -0.33433163 -0.26206315
528 0.11472699 -0.014517669 0.21950074 0.3093297 0.20217381 0.13198222 -0.021843243 0.38319924 -0.28564247 -0.2587824
273 0.097017154 0.028347395 0.27646846 0.28926486 0.43500948 -0.0017876083 0.080935195 0.28011155 -0.1530368 -0.12901185
231 0.034727003 -0.23943368 0.20463018 0.15361328 0.34315926 0.08412429 -0.1791775 0.3106042 -0.31344104 -0.2446745
311 0.13156563 -0.17362434 0.39248872 0.25122246 0.24826309 0.22824995 0.052382067 0.22007908 -0.1994276 -0.16683832
66 0.1048301 -0.057492424 0.2872671 0.30614674 0.23102054 0.2008832 -0.015007715 0.16052994 -0.41539162 -0.10239718
1038 -0.13026395 -0.29232252 0.36114964 0.14884473 0.36767718 0.16113843 0.04429976 0.29075524 -0.21051133 -0.057766564
245 0.014658685 0.111154266 0.21570599 0.28295323 0.3822355 0.032282382 0.032098416 0.18617105 -0.43955037 -0.052291162
770 0.29127383 0.10304729 0.18780564 0.12251526 0.28607363 0.1089812 -0.12909682 0.17423797 -0.47527027 -0.4168792
415 0.10743017 -0.20924951 0.38666338 0.13254747 0.33986703 0.07467437 -0.2677615 0.30136356 -0.269309 -0.053516563
638 0.181804 -0.05320275 0.25055513 0.11107068 0.51326376 0.13230978 0.07437209 0.028276414 -0.21153367 -0.25303388
807 0.1709717 -0.094279684 0.3244597 0.24273838 0.3717222 0.10112836 -0.09117421 0.119399644 -0.27764606 -0.098956816
140 -0.08401245 -0.079247594 0.12895977 0.32507443 0.43872333 -0.022546994 -0.0029057816 0.23054475 -0.34118348 -0.015426739
671 -0.017743455 -0.1915102 0.18167198 0.3576442 0.43409684 0.22314142 -0.05180356 0.2060557 -0.12086244 -0.21521504
1092 0.043742113 -0.2747327 0.30958265 0.20582171 0.3541113 0.0238778 0.086545914 0.17213376 -0.29512665 -0.06515983
718 0.020982092 -0.3199963 0.3575532 0.23897916 0.14654008 0.06627415 0.1375375 0.30621523 -0.29779112 -0.24164832
188 0.18616872 -0.033116773 0.28948396 0.24170713 0.31614116 0.11445751 0.13930553 0.16838974 -0.22587365 -0.21850905
874 0.1376305 0.08183104 0.16609794 0.27716568 0.43865913 0.16965659 -0.23676518 0.25817886 -0.27763063 -0.0074154707
572 0.008202312 -0.19870245 0.054046724 0.04713455 0.56561744 0.09396799 -0.060108457 0.0068076937 -0.45488292 -0.23274773
919 0.07324332 -0.031037688 0.5853702 0.13625382 0.24666241 0.13382587 0.031578515 0.3587711 -0.153767 -0.19194658
792 0.16690324 -0.17607248 0.4273287 0.16828437 0.37418744 0.05693128 0.07024052 0.068151735 -0.3511445 0.08418244
907 0.19415326 -0.11467014 0.20693275 0.2884251 0.46693116 0.09762557 -0.12854896 0.2451565 -0.09091249 -0.09200786
136 0.019808296 -0.07358274 0.29868275 0.060681283 0.29689354 0.21164419 -0.0031203385 0.20692232 -0.43047693 -0.17180473
163 0.13595064 -0.054572888 0.06998894 0.2992828 0.4640899 0.031567413 -0.13669527 0.26584533 -0.19519822 -0.21616085
185 0.17268851 -0.12711757 0.2023343 0.2367753 0.48775 -0.1430346 -0.10299832 0.15676297 -0.20222639 -0.37218505
828 0.16665687 0.06121244 0.377557 0.38797972 0.30184105 0.29027748 0.17710282 0.042211734 -0.22332156 -0.1375132
1026 0.1376099 -0.01626626 0.23906532 0.065380566 0.52024615 0.049422834 -0.053950574 0.13162817 -0.2711779 -0.17238638
235 0.23509306 -0.08917491 0.4193746 0.21498545 0.31183887 -0.10031655 0.030411337 0.22648591 -0.23924688 -0.11489918
762 0.14527795 -0.13415703 0.44192886 0.06590377 0.2551455 0.18283293 -0.043956023 0.17403336 -0.4017504 -0.086653024
285 0.03534059 -0.18276343 0.22156996 0.1358753 0.49744332 0.1301678 -0.027008656 -0.06319174 -0.45882082 -0.06319561
590 0.0021974787 -0.14066315 0.38630626 0.22149242 0.4707558 0.06412939 -0.14924431 0.32764253 -0.07507122 0.03555512
742 -0.11877803 -0.15879148 0.3635267 0.113342054 0.60693103 -0.0011080172 0.08201787 0.11430723 -0.24083868 0.020812403
454 0.091073535 -0.075833015 0.40958986 0.23413701 0.34916997 0.09428392 -0.057499304 0.23551588 -0.24055555 0.06906769
726 -0.039552446 -0.4020418 0.15459989 0.18646619 0.24556607 0.010509866 -0.17909683 0.34631756 -0.44827422 -0.15247025
326 0.0055507286 -0.16839768 0.17122151 0.4111658 0.2604695 0.044064663 -0.14528205 0.2863503 -0.41440615 0.0016943625
413 -0.0103711635 0.04769918 0.20181423 0.40675074 0.21748269 0.26868528 0.062438026 0.09735787 -0.5561154 -0.06113917
137 -0.022994729 -0.13145936 0.34657308 0.28315303 0.36946797 0.1695459 -0.022653552 0.1995595 -0.25918728 -0.034227215
475 0.14586003 -0.11158366 0.27945372 0.26810774 0.3924106 0.014375181 -0.12898299 0.104975104 -0.36338726 -0.024665207
28 -0.16253263 0.025389561 0.23153184 0.2883071 0.64007574 0.09025663 0.09238089 0.110522464 -0.14493822 -0.15381473
1067 -0.07189582 -0.12898031 0.321201 0.16045523 0.55084413 0.060351662 0.026677852 -0.037282567 -0.3602541 -0.10807544
781 -0.09349938 -0.2611827 0.14875697 0.3544832 0.22058561 0.18273546 0.16526489 0.24735242 -0.37354168 -0.13143289
404 -0.09603814 -0.15490906 0.2539728 0.21119158 0.3289032 -0.03906061 0.06991358 0.3755696 -0.37281966 0.025595356
585 -0.015971517 -0.18752587 0.22286811 0.26955336 0.36648875 0.0642028 -0.06225232 0.20239371 -0.35235053 -0.108975396
942 -0.05485609 0.052563064 0.3299249 0.2987534 0.28722462 0.13816601 -0.0019461453 0.38984066 -0.22306164 -0.18840368
1082 -0.11875372 -0.2367903 0.45482475 0.18206885 0.4051358 0.077980734 0.20420018 0.11851222 -0.22881301 -0.062347196
994 -0.19551049 -0.3633906 0.20729683 0.1835478 0.38721335 0.20861305 0.11714888 0.30609313 -0.17304721 -0.21408704
293 0.14737152 -0.06298212 0.3314624 0.19631565 0.35678253 0.14939792 -0.162113 0.16129702 -0.31126663 -0.05510903
636 0.24557829 -0.063835114 0.50469106 0.10878969 0.34973088 0.14474663 0.21435602 -0.018808773 -0.22242422 -0.33689877
741 -0.0016161354 0.123073064 0.30324814 0.24957544 0.30235067 0.18081939 -0.031365808 0.3246399 -0.3709306 -0.0042873872
230 -0.06633404 -0.2643432 0.09602333 0.21661833 0.48379025 0.10577309 0.13752374 0.018364698 -0.33332905 -0.19936435
495 -0.033782136 -0.019327402 0.37839252 0.099216506 0.38295695 0.24931769 0.15907194 0.17042835 -0.24149579 -0.26976994
265 0.087959275 -0.10343693 0.44472703 0.113439515 0.24375959 0.20757021 -0.009303376 0.3030195 -0.2764572 -0.1416741
1032 0.1372441 -0.011137278 0.31573567 0.066236146 0.45934817 -0.21132345 -0.008394367 0.24219829 -0.24311581 -0.2848746
563 0.04100192 -0.35000828 0.23223327 0.37970072 0.4478964 -0.09409823 -0.0023632944 0.122053064 -0.15796134 -0.15227434
707 -0.049065243 -0.022651069 0.34083122 0.1039101 0.49331725 0.2170548 0.008160568 0.19379188 -0.25218523 -0.03767503
714 0.10584837 -0.02664865 0.2803302 0.31937823 0.40434703 0.026624002 -0.051325202 0.26409817 -0.22289155 0.030564023
254 0.010615807 -0.33906665 0.27624676 0.24495232 0.39795196 -0.17570478 0.0063511143 0.11801743 -0.4122296 0.04318765
206 0.17319451 -0.0032436224 0.16711439 0.41630858 0.33365235 0.24209888 -0.09320248 0.057423566 -0.3742815 -0.07734042
98 0.04459982 -0.10516191 0.35074988 0.20090313 0.33927757 0.03672351 -0.05259142 0.22439024 -0.34239495 -0.038049478
786 0.19970821 -0.15734632 0.40010276 0.040356856 0.32698822 -0.022943553 0.09566682 0.127963 -0.3789203 -0.072792724
684 0.13004848 -0.05984481 0.3130298 0.28863722 0.31843287 -0.027541868 -0.08125519 0.30440077 -0.212968 -0.13551094
746 0.0014833561 0.089369595 0.22165121 0.22608621 0.48373622 0.18721236 0.010240171 0.13899451 -0.26979038 -0.197629
111 -0.0042561637 0.21479166 0.10005687 0.31847265 0.47192237 0.12600629 -0.013823613 0.29602954 -0.31260213 -0.074376546
480 -0.18217275 0.015669461 0.23647854 0.2371482 0.40382993 0.3409773 -0.020673348 0.299231 -0.3024066 0.031392206
170 0.21840827 -0.059536096 0.2872472 0.33025363 0.46958447 0.06516326 -0.14672503 0.17934316 -0.073184475 -0.14424486
44 0.13233782 -0.0739615 0.10440528 0.23690669 0.40555626 0.09935134 0.06770538 0.19914007 -0.19259189 -0.50804675
964 0.12897508 -0.011933081 0.31053466 0.28668082 0.27881008 -0.0134113645 -0.00066986296 0.17049791 -0.36257008 -0.2579936
477 -0.074415796 0.017508743 0.20759475 0.13396046 0.4916178 0.16016732 -0.028076077 0.2860725 -0.22853507 -0.22049004
306 0.045978628 -0.14015396 0.2349692 0.4647669 0.2711766 0.14235763 -0.074740574 0.2421985 -0.29131642 0.07659254
354 0.10773094 0.11025059 0.242337 0.35968006 0.2222484 0.13723898 -0.04065194 0.33379906 -0.364589 -0.21492065
525 0.052680094 -0.1378519 0.24939115 0.27648094 0.1280758 0.25095618 0.002568099 0.29849464 -0.43532446 -0.16976583
975 0.07608362 -0.051313523 0.4083156 0.3653998 0.30741927 0.114623494 -0.08570189 0.34919176 -0.1522053 0.116682865
353 0.09513527 -0.022512706 0.58747977 0.2098031 0.2768435 -0.08038761 0.108074725 0.32296145 -0.16456662 -0.08240574
229 0.006209215 -0.11478299 0.18874723 0.3727978 0.46496052 -0.09219193 0.075477324 0.13177465 -0.28199103 -0.13018084
1114 -0.00036667148 -0.30884227 0.28597575 0.109440885 0.32124072 0.013464047 0.00787434 0.21792303 -0.34629387 -0.24144033
275 0.22030902 0.078680165 0.36133176 0.31554443 0.42973787 -0.1212487 0.092367135 0.09226929 -0.18909481 -0.2901101
1066 -0.024340056 0.0536203 0.20330188 0.16181654 0.46406406 0.11377757 0.010268061 0.21098205 -0.3085773 -0.20636348
340 -0.10775748 0.13022631 0.21813253 0.37079993 0.17934562 0.029612299 0.17668343 0.37915388 -0.49812067 -0.052982107
534 -0.03706225 -0.15389767 -0.0011901702 0.33089304 0.39789253 0.16821255 -0.050713193 0.17679957 -0.38310322 -0.25750658
50 -0.039887883 -0.3011711 0.2536014 0.2710575 0.50302994 -0.022927506 0.11434112 0.046302967 -0.22216932 -0.22845644
1076 0.027081193 -0.026646392 0.20579173 0.21539499 0.33388478 0.37687168 -0.023165347 0.110886045 -0.46929333 0.020059107
26 0.005739191 -0.2796384 0.39117068 0.19029619 0.4250874 -0.06638039 0.08565603 0.13773914 -0.17979206 -0.25197908
836 -0.05716285 -0.06832594 0.17378373 0.16207878 0.39472342 0.026775183 -0.09487349 0.24075836 -0.4487127 -0.22666281
920 0.1756141 -0.1601543 0.16867727 0.39562973 0.24198866 0.33455905 -0.13159418 0.10612665 -0.3633707 -0.071050584
661 0.06263464 -0.1603135 0.18170974 0.14548172 0.31512734 0.12710586 -0.20249264 0.3874464 -0.24994701 -0.36398768
743 0.009988599 -0.256901 0.24998315 0.17585202 0.38613635 0.18340829 -0.019718045 0.1535648 -0.3073022 -0.07976997
154 0.021071706 -0.05267557 0.32264966 0.24368149 0.3960913 0.13916145 0.095380254 0.22142209 -0.15928188 -0.16493261
708 -0.1123639 -0.2543029 0.042125013 0.22653808 0.3866751 0.075739555 -0.103992626 0.26211244 -0.43426952 -0.11174742
357 0.048266027 0.07775023 0.31707093 0.3226111 0.3330018 0.034152087 0.13299042 0.26178798 -0.29992148 -0.02138571
325 0.062328275 -0.051451176 0.27686635 0.17679821 0.41939637 0.15159272 -0.07787738 0.16314548 -0.2643477 -0.21394557
1039 0.1251541 -0.020928942 0.27432442 0.25679946 0.2902354 0.2848939 -0.01185073 0.15559386 -0.3154508 -0.24570972
766 0.115663856 -0.047351915 0.1877268 0.28106928 0.28442797 0.11557177 -0.07376516 0.26091513 -0.36573198 -0.20287892
252 0.029100195 -0.0632399 0.09361749 0.19303766 0.47485003 0.098387934 -0.13654205 0.15051325 -0.40226465 -0.15746118
851 -0.14849536 -0.15398346 0.1222216 0.038532 0.44272396 0.021748919 0.09729682 0.13409626 -0.5548704 -0.20067029
802 0.0013582684 -0.08290924 0.0846529 0.29581398 0.5308897 0.17752531 -0.015872575 0.10912051 -0.27162865 -0.06323454
963 0.045762103 0.11512123 0.24426712 0.3465256 0.3841937 0.0436313 0.1456389 0.23988019 -0.22414841 -0.26162583
313 -0.0030511545 -0.075626776 0.3955975 0.34893048 0.459222 -0.0069009825 0.038554102 0.1615167 -0.15572912 0.018203562
1120 0.14884649 -0.09781538 0.5276276 0.18941316 0.4260976 0.15704215 0.08661661 -0.09710193 -0.29187772 -0.014277548
434 -0.056630347 -0.21218579 0.17484835 0.2762147 0.4231824 -0.036072843 0.046191 0.2767264 -0.24814506 -0.118147306
588 0.019580418 0.07130251 0.4130647 0.026051031 0.37336785 0.007208381 -0.053418007 0.3807316 -0.3035398 -0.20535262
779 -0.094194435 0.014814389 0.23804994 0.27255222 0.527993 -0.04151333 0.1488023 0.16946687 -0.2849528 0.008157522
739 0.043050412 -0.116904214 0.29640216 0.19369279 0.3438993 0.15411697 0.004112821 0.30506423 -0.19348255 -0.09558855
430 0.17022276 -0.23732735 0.23112519 0.48440114 0.32379287 0.10212433 -0.17244147 0.04602469 -0.26940188 -0.095484324
271 0.0091329 -0.09120617 0.3076596 0.25235122 0.33038092 -0.04785269 0.0100492295 0.28482664 -0.34970984 -0.11562412
748 0.115864635 -0.15001431 0.3320526 0.1363425 0.46267754 -0.03589861 0.011255576 -0.024729453 -0.40621513 -0.078359686
905 0.17281 -0.31113195 0.025635026 0.33229974 0.47892198 0.12438783 -0.16463502 -0.05951326 -0.34492612 -0.18040708
212 -0.035324246 -0.18704495 0.21451502 0.33547348 0.47169513 -0.086145274 0.14598112 0.046566762 -0.28800005 -0.19918145
678 0.24237983 0.010095644 0.2913106 0.2833483 0.41409147 -0.10929226 0.025895182 0.22931272 -0.1443073 -0.22016856
220 -0.074497946 -0.13512975 0.31889483 0.08424184 0.31430107 -0.031926062 0.011136261 0.31892982 -0.47948456 -0.012647013
594 0.15197104 0.2202212 0.42153814 0.25376895 0.24378887 0.2076375 -0.03587483 0.19876055 -0.3435487 -0.2856051
1034 0.1713518 -0.025380058 0.16797434 0.35604775 0.36226356 0.30415654 -0.09772275 0.036784843 -0.33424535 -0.17047323
347 0.12242746 0.07217655 0.29774782 0.3007348 0.29089406 0.05673797 -0.081103206 0.21070576 -0.42095244 -0.090060405
110 0.15041119 -0.18691808 0.21742241 0.23226462 0.5411366 0.084841155 -0.18183339 0.13329524 -0.1404609 -0.011297216
634 -0.09782598 -0.2994971 0.17923038 0.10856879 0.4554315 -0.0066022915 0.04030105 0.18318404 -0.37037084 -0.15832277
499 0.093610376 -0.029096674 0.25767475 0.27481037 0.46078718 0.28229526 0.08141026 0.23147012 0.011846388 -0.09903561
261 -0.07050134 -0.07202569 0.16141461 0.36484727 0.42654958 0.18510352 -0.0321953 0.28615907 -0.2407337 0.10726522
470 0.022380058 0.055131048 0.18381162 0.15858606 0.50518686 0.2703347 -0.08191536 0.30466723 -0.14620043 -0.15944323
471 -0.00023073796 -0.06912304 0.31656817 0.26340526 0.48260996 0.37768316 -0.082287535 0.14495887 -0.10973671 -0.06777607
240 0.21869214 -0.2223262 0.24925269 0.20738596 0.21605931 0.0049873814 -0.1341264 0.28120705 -0.3226158 -0.24619697
598 -0.05156774 -0.2950344 0.43462858 0.1951392 0.35836673 0.079936445 -0.05689008 0.3203634 -0.15650836 0.019820035
725 0.1867723 -0.20932055 0.4386704 0.19444874 0.2992967 0.0021622896 0.02167746 0.14975476 -0.23285821 -0.13066821
956 0.040939987 -0.12083094 0.20629464 0.23498362 0.11016735 0.17755735 -0.1112016 0.46592036 -0.42334676 -0.17865647
649 0.10114498 -0.07093561 0.2913354 0.06651444 0.5419388 0.17737062 -0.12923968 0.11015153 -0.20109765 -0.12706178
1080 0.08678055 -0.027274543 0.34965068 0.29751518 0.40725443 0.06708051 -0.0037762416 0.2758021 -0.09850985 -0.16192542
771 -0.0060293917 -0.4699129 0.31397083 0.15805942 0.1778634 0.13481173 -0.034181677 0.23864485 -0.45324633 -0.014844669
496 0.26649013 0.03783606 0.48968565 0.22101197 0.2153073 0.08344135 -0.039176974 0.19719517 -0.25698668 -0.30364996
242 -0.00025902907 -0.24751328 0.2783764 0.21503125 0.4243239 -0.0028691797 0.09750137 0.05495446 -0.4095628 0.07274858
803 -0.002755994 -0.07616164 0.17774722 0.29030833 0.32146767 0.1384692 -0.043593436 0.17125338 -0.40072045 -0.24238335
715 -0.096600816 -0.19905654 0.29254094 0.14262263 0.49715695 0.19776058 0.10931965 0.14395308 -0.21433625 -0.045106567
25 0.00511971 0.10885472 0.23392347 0.32252645 0.30193052 0.4367626 0.054049 0.35705107 -0.16806893 -0.06768019
783 -0.088330045 -0.15254797 0.31610674 0.2556688 0.28965753 0.20082135 0.04014306 0.23795962 -0.3379212 -0.0730982
616 0.12969664 -0.2295748 0.35633758 0.021014875 0.4029344 0.119633056 -0.099061385 0.14984709 -0.31669718 0.0023204838
215 -0.004260568 -0.25838876 0.3462424 0.1897172 0.34800047 0.015512751 0.011158831 0.14484091 -0.37495303 -0.01407693
390 0.2763778 -0.04600168 0.22766162 0.29053006 0.3867961 0.11174495 -0.012563265 0.004576222 -0.28825325 -0.23168646
706 0.12858316 -0.006125165 0.20654851 0.33284542 0.35164544 -0.09991873 -0.24714456 0.40214685 -0.25968394 -0.15440565
30 -0.09854119 -0.17691474 0.077802874 0.2761288 0.50866294 -0.048319723 0.08370073 0.2500883 -0.17295296 -0.35022047
123 0.07408041 0.03979187 0.050322887 0.50619906 0.55157703 0.15266329 -0.14098983 0.19509879 -0.04304664 -0.21472614
450 -0.013888171 0.0070417486 0.16947307 0.4539335 0.3488232 0.068057284 0.122802205 0.09794642 -0.45529917 0.054443322
814 -0.12418256 -0.3648987 0.23588026 0.30000588 0.3766183 0.16535465 0.14085966 0.10471629 -0.27778766 -0.06966406
993 0.00034016068 -0.07825609 0.25869426 0.048766915 0.61373705 0.30083635 -0.022154838 0.024809768 -0.26383367 0.050250143
205 -0.011172712 -0.22786556 0.30476382 0.29437903 0.35125777 0.13305478 0.042832352 0.039787523 -0.4198925 0.07973694
85 0.09507297 0.0396022 0.15908599 0.4133272 0.28274918 0.13867632 0.007757631 0.19282061 -0.3866781 -0.16681473
59 0.13757823 0.029396923 0.17325254 0.3275898 0.45495117 -0.05055625 0.12159793 0.045363452 -0.35734972 -0.13460642
234 -0.08093164 -0.13371141 0.2997613 0.0810658 0.41993123 -0.046366982 0.15188521 0.22211762 -0.33285198 -0.17791057
328 0.08451647 0.07169811 0.3691272 0.28809133 0.49500445 0.049941253 0.008302726 0.16866729 -0.13352877 -0.09249631
74 0.13684103 -0.009365628 0.22991477 0.056563582 0.4841539 0.14697655 -0.075583406 -0.0038355635 -0.435994 -0.27048987
637 0.12124196 -0.13715048 0.2716137 0.27365887 0.5189659 0.071982324 0.084292956 0.071007095 -0.062324073 -0.29430807
606 0.060286313 -0.17752822 0.3306697 0.21979481 0.37087622 0.12796716 -0.06731037 0.15724127 -0.23083806 -0.2759418
368 0.01782845 0.14263329 0.37221146 -0.034455076 0.4821968 -0.041454975 -0.02565004 0.2736406 -0.33261946 -0.1567865
448 0.09783585 -0.006734788 0.11395295 0.45639998 0.48767263 0.0046599843 0.09676277 0.1453483 -0.122634545 -0.31116915
639 0.10983357 -0.046265066 0.27077684 0.40196833 0.26681644 0.12345192 -0.15645175 0.37995753 -0.16697201 -0.18350539
105 -0.03479372 -0.08397957 0.3399179 0.123004034 0.33149052 -0.047697075 0.1757749 0.30086553 -0.32128575 -0.16196336
316 -0.061111268 -0.04171016 0.40269643 0.26255 0.4311644 0.19390196 0.10949117 0.12413206 -0.26037386 0.11494588
805 -0.030135628 -0.08401208 0.47154245 0.14428246 0.27258116 0.050783247 0.079517774 0.31188655 -0.32645318 -0.021813715
989 0.106506914 -0.07395022 0.26436403 0.31283262 0.4706547 0.036016233 -0.073894694 0.22950098 -0.07480796 -0.14659157
931 -0.012281251 0.05663289 0.31667623 0.044412553 0.5288921 0.2807509 -0.1011865 0.15991774 -0.26211935 -0.16062164
819 0.23369767 0.023060966 0.08550553 0.47509903 0.26715165 0.073187925 -0.030426499 0.16677135 -0.36542726 -0.17756772
422 0.038883787 -0.049786557 0.21855341 0.36855948 0.2517772 0.029501505 -0.01355989 0.35325348 -0.31206372 -0.13420461
682 0.08618631 -0.13835774 0.23246098 0.237308 0.46906656 0.014165213 0.05049599 0.17657402 -0.16175088 -0.17102505
949 -0.18239191 -0.1614171 0.2044912 0.2264802 0.39829764 0.22565635 0.032506123 0.33727482 -0.21859716 -0.17290851
409 0.12808496 0.07710483 0.336008 0.15126999 0.41327432 -0.01026575 -0.043782733 0.20718658 -0.31780857 -0.1565061
336 0.031977486 -0.24494572 0.22358558 0.24259159 0.27354562 0.08632922 -0.016434388 0.33838433 -0.29099113 -0.112970285
516 -0.014652614 -0.17555857 0.26246232 0.16469584 0.35805923 0.1584548 -0.07342257 0.20541464 -0.34849727 -0.17872299
109 0.13910285 -0.06446441 0.61894995 0.14289095 0.23939876 -0.02179692 -0.058499414 0.42950097 -0.13490807 -0.08725822
826 0.1901417 -0.030032827 0.32338753 0.25532594 0.43008012 0.15801968 0.053837493 0.06610878 -0.14764443 -0.23572305
97 0.10393413 -0.025935901 0.17154296 0.26385868 0.40084606 0.0679682 -0.011189809 0.19114453 -0.28333127 -0.20679004
103 0.0699385 0.068258286 0.125303 0.13983405 0.51095396 0.16231902 0.043488055 0.08461075 -0.3337246 -0.2691703
533 0.011428837 -0.32514232 0.119749784 0.3548456 0.42800006 0.1631477 -0.12830068 0.104499996 -0.28764817 -0.036708914
607 0.15102568 -0.06780095 0.30262142 0.08411542 0.326222 0.25820574 -0.063091345 0.09034664 -0.5365233 0.09422907
89 0.050265048 0.110657044 0.13121566 0.35657632 0.34812692 0.12148483 -0.2295235 0.3928985 -0.31036648 -0.047273345
473 0.030084103 -0.19656591 0.13190107 0.28695145 0.2831377 0.21259126 -0.11800162 0.38112682 -0.26558897 -0.10720656
875 -0.011619356 -0.0720336 0.30191296 0.09162928 0.2786781 0.2077767 -0.026168574 0.20805196 -0.4661739 -0.23954073
903 0.11941068 -0.2224048 0.1855551 0.43742454 0.16846201 0.06277746 -0.03259715 0.2603922 -0.3701279 -0.158941
901 -0.012988268 -0.06071087 0.14644 0.22091325 0.43907198 0.3357929 -0.054215368 0.19849388 -0.22190468 -0.25731435
118 0.065689266 -0.06532949 0.05157586 0.3388859 0.37307772 -0.04077254 -0.073642634 0.23315091 -0.40927264 -0.21692662
276 -0.018924095 0.025404561 0.31904855 0.16786152 0.46236643 0.23171636 0.0747471 0.2449272 -0.16887642 -0.122320555
955 0.15212953 0.04059074 0.257575 0.28032705 0.5676618 0.12279572 -0.104687765 0.06547504 -0.1867771 0.078581415
191 -0.02165339 -0.15109064 0.2344869 0.34149057 0.29866478 0.10410702 -0.007361921 0.2621104 -0.3332647 -0.17115553
1021 -0.0015329653 -0.28380656 0.2345259 0.079020806 0.5637451 0.17502467 -0.021814976 0.08587553 -0.21100064 -0.063140094
511 0.23363638 -0.03105041 0.16671018 0.10269312 0.37252203 0.22836934 -0.27520192 0.19998577 -0.3991368 -0.19924651
438 0.087567426 -0.114758395 0.19413565 0.26729462 0.25337875 0.15405348 0.0048498344 0.31703332 -0.36354694 0.060108665
810 0.07717682 0.03524418 0.22173814 0.17045572 0.4262094 -0.18803243 -0.007566797 0.30359444 -0.34303862 -0.24986064
553 0.21363762 0.032101285 0.31133798 0.32835388 0.3899931 0.025424263 -0.15998176 0.1651191 -0.35328156 0.1856683
737 0.14624108 -0.07796086 0.3720404 0.2920695 0.42621052 -0.10920621 -0.19639754 0.30460957 -0.109171286 -0.17375977
406 0.16560936 0.10176117 0.1143398 0.40906808 0.36203402 0.38932562 -0.026893098 0.03582641 -0.33105674 -0.16974463
808 0.09086836 -0.3194782 0.22584908 0.20622784 0.31118488 -0.012529163 -0.1776596 0.31909472 -0.32241106 -0.09427554
1072 -0.102014005 -0.086535126 0.24281757 0.18737654 0.38295108 0.16491406 0.18624583 0.2591112 -0.30088687 -0.11548606
668 0.039631683 0.06431433 0.2637054 0.084801614 0.46963912 0.009493523 -0.00302168 0.23246558 -0.37621367 -0.058455706
323 0.00031055158 -0.0005800881 0.32209846 0.18803303 0.36461157 -0.092540115 0.080374785 0.2595986 -0.38360077 -0.08135035
548 0.05917626 0.08270394 0.28968745 0.32485834 0.37359083 0.107326254 -0.13867018 0.24330385 -0.33999947 0.056798786
90 0.20585977 4.0745515e-05 0.50278324 0.1138548 0.2733359 -0.021582613 -0.017652584 0.2059497 -0.39910734 -0.10474056
400 0.06947694 -0.01861642 0.30897632 0.2363058 0.21927308 -0.05593828 -0.022723462 0.4602526 -0.30992925 -0.10320686
61 0.018489437 -0.11533423 0.17868578 0.13091236 0.53104866 0.021189352 -0.15069623 0.0225038 -0.545606 0.11240982
677 0.04362367 -0.18044406 0.23734125 0.2111072 0.33366168 0.07048248 0.0093425 0.2325485 -0.34558284 -0.17842916
23 0.00975984 -0.14144108 0.14665692 0.13161102 0.48711658 0.20841327 -0.13351929 0.25331718 -0.23718338 -0.17474313
100 -0.0684372 -0.09717101 0.14045961 0.32570857 0.44970256 0.25211865 -0.027945638 0.28125364 -0.13229616 -0.106917106
394 -0.052962787 -0.06051755 0.05575699 0.24345471 0.51422125 0.030169463 -0.1097013 0.33064467 -0.22136717 -0.14281671
455 -0.025508717 -0.12804115 0.27469102 0.084841065 0.24759789 -0.0749754 0.02075747 0.32958066 -0.52580297 -0.13048132
458 0.085851476 -0.14644854 0.28058207 0.27158386 0.32554972 0.077853635 0.009119507 0.1971163 -0.28163463 -0.1611202
1064 0.029839082 -0.030896213 0.2661477 0.14670677 0.57202125 0.046597436 0.11459939 0.09555507 -0.20444739 -0.175518
214 0.091850705 -0.13553715 0.17643256 0.3452434 0.3839312 0.08112678 0.08029692 0.15419863 -0.2179375 -0.12956825
863 0.053693984 -0.015684139 0.37915468 0.28656277 0.30728835 0.06924083 -0.12218402 0.26445043 -0.30916113 -0.051874008
915 0.042784635 0.019365843 0.27353257 0.107789695 0.37916622 0.12661582 -0.08849726 0.30602956 -0.35137254 -0.038320854
604 0.062956594 -0.07849112 0.105805755 0.4534043 0.23359327 0.3162891 0.16814034 0.13312067 -0.3326932 -0.21436277
153 0.111035764 -0.22544277 0.19872658 0.4634006 0.31006172 0.04891148 0.096793056 0.03637634 -0.28286716 -0.2165381
1018 -0.02287181 -0.22391883 0.27068675 0.21115214 0.2627178 0.21153764 0.077470064 0.27518284 -0.23732038 -0.3407579
69 -0.026020937 0.04324207 0.16210905 0.24968311 0.5753573 0.103011824 -0.094156556 0.21145596 -0.23842233 -0.073525965
322 0.087724 -0.1490119 0.33387682 0.28780356 0.44507432 0.06438778 0.014095083 0.11274187 -0.19428246 -0.009892259
372 -0.053165127 -0.1577925 0.19261241 0.25651065 0.47007942 0.18430188 -0.009520137 0.09467992 -0.34574813 -0.04146594
795 -0.061302822 -0.10656748 0.09505267 0.42754546 0.33910897 0.060447656 0.051483456 0.21300681 -0.36674595 -0.07463261
974 0.07847595 -0.18133582 0.3151142 0.22957404 0.4604437 0.019711504 -0.12259754 0.1334303 -0.24659261 -0.114780396
730 -0.061611503 -0.17612158 0.16184103 0.39425692 0.32815105 -0.07413013 -0.027711693 0.19993427 -0.4216132 -0.12812978
654 0.08489869 -0.17661953 0.0025054768 0.27434075 0.34369424 0.23745915 -0.010182094 0.03526799 -0.53114784 -0.14847076
861 0.25904784 -0.09360395 0.29217237 0.3653234 0.38213566 -0.056655996 -0.054266382 0.0277909 -0.36363092 -0.018053627
414 0.101674944 -0.2820226 0.32074288 0.2988095 0.17374976 0.20039642 -0.08929944 0.38273516 -0.19443427 -0.13397907
524 -0.026803033 -0.020148214 0.4094531 0.27836016 0.42659256 -0.027384393 0.081033744 0.24678548 -0.22332871 0.09029999
744 0.20569625 -0.11577676 0.17353587 0.22792478 0.35460117 0.068169944 -0.035750046 0.028963063 -0.44675952 -0.2247648
33 0.026047118 0.005385398 0.28799236 0.13885202 0.41084564 0.2896192 0.04054553 0.13917439 -0.3236481 -0.12926064
81 -0.017713284 -0.029639501 0.12688111 0.43836737 0.3874146 0.105652004 0.052070823 0.16635777 -0.34960294 -0.027785081
37 -0.07610314 -0.11550592 0.2624897 0.24933366 0.38413242 -0.1698841 0.13261768 0.06457476 -0.5563681 -0.14248523
825 -0.037208486 -0.20475629 0.29400527 0.33685368 0.2831224 0.1126997 0.035394087 0.23187101 -0.26680973 -0.15322755
796 -0.022854354 -0.1767546 0.27783832 0.49531186 0.3594607 0.14709175 0.056031205 0.16396135 -0.18027662 0.006939957
568 0.07750363 -0.22683218 0.26322687 0.49295986 0.39911714 0.2479415 0.19447036 -0.060537696 -0.10950988 -0.17509425
822 0.106575005 -0.16581066 0.21693212 0.2692935 0.34830585 0.16953605 -0.07431641 0.1954564 -0.24734485 -0.21704139
593 -0.100707196 -0.38103318 0.16867426 0.23719798 0.28210315 -0.06505935 0.06444231 0.42405963 -0.2704781 -0.17776643
540 0.034144748 -0.32406294 0.23852877 0.14518885 0.52816534 0.08680886 0.09632259 0.047255915 -0.22268233 -0.110859536
1051 0.066106126 -0.039723407 0.06044202 0.28686798 0.36368516 0.074706994 -0.08822099 0.3815981 -0.2755078 -0.15879478
247 -0.026196562 -0.34227023 0.28611654 0.30332297 0.40950692 0.12235626 0.0669171 0.23045555 -0.06841747 -0.05672158
1071 0.34906852 0.0018163379 0.46323004 0.3551479 0.33780423 0.105592124 -0.007816609 0.09742428 -0.12763049 -0.07082974
251 0.08929815 -0.078496546 0.36458388 0.23605427 0.2335376 0.11317134 0.087532155 0.2958303 -0.303037 -0.070193745
279 0.08480097 -0.0393968 0.17012903 0.16383038 0.37708172 0.24913533 -0.27472845 0.24000342 -0.3941056 -0.089143775
501 -0.004343169 -0.08754736 0.27975583 0.1982085 0.33226323 0.13322212 0.12499626 0.021464536 -0.51343197 -0.14548653
108 0.054057363 -0.19679183 0.2461732 0.20358099 0.4261811 0.09499298 -0.016613431 0.07661807 -0.2871103 -0.33722836
386 -0.0056324066 -0.028268915 0.34649342 0.13821767 0.43196705 0.04501985 0.028519282 0.2296034 -0.23018523 -0.20709243
258 0.0005740029 -0.059827685 0.21256502 0.317072 0.46219036 0.024568098 0.010711972 0.16068639 -0.25371236 -0.17047939
167 0.21423434 -0.30106452 0.32691252 0.10489131 0.398462 0.35891315 -0.32190183 0.10856313 -0.18208383 -0.18211053
608 0.25336576 -0.19471002 0.28834742 -0.019500528 0.40367353 0.101358876 -0.26112193 0.24290223 -0.22887287 -0.37716013
601 0.044263717 -0.20233715 0.1917477 0.1999934 0.24730404 0.24770625 -0.07992898 0.21107025 -0.39673093 -0.22532986
504 0.046023894 -0.19477165 0.4289176 0.045878556 0.63455284 -0.17676046 0.18302622 0.011479531 -0.16813466 -0.07522404
449 0.10188978 -0.034993827 0.3311471 0.2167045 0.3357684 0.09251789 0.028624019 0.18535264 -0.32244286 -0.08110695
613 0.003847294 -0.2622194 0.20212224 0.17326167 0.44031638 0.18243872 0.071077526 0.114561565 -0.25061703 -0.21316533
203 0.059218172 -0.15215705 0.29502702 0.28568932 0.36080927 -0.017493473 -0.056526605 0.2978328 -0.21289708 -0.08169628
464 -0.069750965 -0.15177642 0.2255213 0.1378779 0.5074694 0.19666624 0.16585404 0.053027503 -0.32914576 -0.105932586
1104 0.0846387 0.09036969 0.29195112 0.12304557 0.36940026 0.012475156 0.08266151 0.22071138 -0.33971798 -0.35140467
1042 -0.1603638 -0.053276293 0.26059434 0.3748474 0.17679833 0.102344945 0.25031647 0.2898065 -0.45876095 -0.11350942
658 0.021312496 -0.11339452 0.2508264 0.09331653 0.47610304 -0.0291288 -0.013020587 0.23574239 -0.24394663 -0.22557077
243 0.1499757 -0.25336066 0.4402238 0.24376377 0.33864674 0.1542833 0.17747186 0.10544219 -0.10746267 -0.13391368
1068 -0.00929656 -0.17294082 0.17521472 0.27735227 0.32612813 0.023652153 -0.08050598 0.21191452 -0.4444952 -0.11097462
627 0.17537647 -0.15751332 0.29257303 0.08225057 0.27125025 0.29479957 -0.05583103 0.14552851 -0.35119444 -0.2744371
389 -0.078440726 -0.1851012 0.32857734 0.17533135 0.3183998 0.11613462 0.09443006 0.18740427 -0.37468293 -0.14493822
296 -0.00032294943 0.067467734 0.5086977 0.3452399 0.08600722 0.26977876 0.062482093 0.4007033 -0.25701565 -0.16907915
576 -0.024887279 -0.009897676 0.50380695 0.15989996 0.33737114 0.07760301 0.07235474 0.19979015 -0.36229655 0.08652009
73 0.09728433 -0.05835606 0.16109008 0.40881786 0.24461181 0.19548972 0.098294795 0.07528088 -0.4242079 -0.17285357
423 -0.010138459 -0.097292416 0.34926826 0.2688163 0.22386976 0.14234665 -0.012664215 0.3139622 -0.34970152 0.011277312
199 0.13138886 -0.15927851 0.19524454 0.28497216 0.28635788 0.15824614 -0.098819345 0.23363177 -0.318263 -0.1833646
410 0.115117565 -0.26037133 0.31339163 -0.0009469175 0.23186667 0.22322789 -0.28600788 0.41837075 -0.31929177 -0.18021393
965 0.049342416 -0.11334042 0.34910354 0.32335266 0.29662806 0.015731754 0.12890723 0.2601293 -0.14863902 -0.34489238
591 0.16113655 0.08454259 0.026742408 0.35211673 0.5376841 0.019654 -0.07330926 0.23090215 -0.22675651 -0.07393942
719 0.07022774 -0.107637934 0.29286543 0.08330031 0.34673676 0.16209055 0.013989768 0.37980258 -0.172413 -0.26326028
970 0.08400996 -0.16632554 0.31554046 0.40384978 0.23110381 0.105576076 0.047550008 0.37728044 -0.20080824 0.103363745
947 0.31758732 -0.21196632 0.37616318 0.34314683 0.23095551 0.06588181 -0.021399254 0.041988604 -0.28229627 -0.25085136
527 0.10665119 -0.18584405 0.33960634 0.14761952 0.3323516 0.09011937 -0.08281915 0.20490912 -0.3056951 -0.13504939
755 0.112117596 -0.21862473 0.1363139 0.21530177 0.3302449 0.1304191 -0.03941891 0.07522611 -0.48459375 -0.10136973
378 0.14615259 -0.044871107 0.2293558 0.2959409 0.29124838 0.10104998 -0.041092895 0.14887168 -0.45866212 -0.025793718
632 -0.01042663 -0.141772 0.3311472 0.08644567 0.39383116 0.097435765 -0.14477503 0.29039738 -0.28824428 -0.15155055
365 0.08922373 -0.0880805 0.3581333 0.10158009 0.2844165 -0.07447797 -0.058962878 0.28022757 -0.47428638 -0.087389246
204 -0.012575657 -0.088543415 0.27190077 0.42345655 0.3975787 0.0049543907 0.15315308 0.008009159 -0.2637415 -0.3407035
1107 0.08794725 -0.10285007 0.20348738 0.21151778 0.6348733 0.1261608 -0.07748625 0.17521052 -0.016444903 -0.08429618
509 0.106347874 -0.17142797 0.04732956 0.39163864 0.3155973 0.2161997 -0.16296355 0.21506049 -0.32298464 -0.15774338
405 0.06725954 0.034368306 0.15850452 0.28363258 0.41753325 0.17903338 -0.0010821228 0.14993133 -0.23707463 -0.40720704
173 0.028906573 -0.0053157676 0.1907816 0.22074908 0.3787037 0.31053874 0.0066441186 0.20288527 -0.2672385 -0.27108178
713 0.00067200605 -0.2803944 0.12335442 0.17844956 0.44396758 0.09539167 0.1311243 0.13037215 -0.33480808 -0.13089645
801 0.1944948 -0.027342586 0.39166114 0.2971331 0.2909102 -0.0020122787 -0.043033075 0.30204377 -0.19025688 -0.0436744
867 -0.037510604 -0.27632388 0.41689855 0.06453456 0.2164569 0.070808925 -0.023891533 0.36096406 -0.41460732 -0.045703784
262 0.053333487 0.08378386 0.3188873 0.28067297 0.22666568 -0.11493556 0.20208585 0.26877365 -0.42033997 -0.2558596
688 0.083769396 -0.009903728 0.3035602 0.19271179 0.5872578 0.08332657 -0.109227285 0.1449338 -0.14395839 -0.033558898
838 0.016248414 -0.0808238 0.37271902 0.29660097 0.43548432 0.072224416 -0.13474175 0.25126496 -0.13419795 -0.08498572
1010 0.0143213095 -0.1560815 0.23362888 0.22457525 0.31274045 0.06605281 0.14515585 0.106275916 -0.4368895 -0.19897027
302 0.09302306 -0.06993155 0.16047834 0.32957888 0.2653615 0.12040078 -0.14854722 0.33195183 -0.33774355 -0.1300351
82 0.03572873 -0.08552507 0.2870085 0.08229879 0.4690083 0.19296263 -0.02658887 0.1397548 -0.22434849 -0.26778942
435 -0.033093113 -0.0916347 0.24878365 0.31229377 0.399756 0.20112108 -0.029399103 0.19399749 -0.20825744 -0.15719162
86 -0.14317451 -0.20961738 0.15500498 0.2175496 0.2716216 0.0731431 0.02071122 0.3812423 -0.38709852 -0.22717257
127 0.065148205 -0.18766965 0.3242911 0.22022039 0.46666852 -0.030593278 -0.10601795 0.32336235 -0.09695871 0.009653237
327 -0.03707582 -0.03319872 0.4529295 0.3103257 0.36405215 -0.15262988 0.231013 0.19122279 -0.29861036 -0.07305329
52 0.1866931 -0.16850162 0.3162251 0.24134511 0.42615247 -0.08777076 0.0799084 0.096219204 -0.1802634 -0.12826902
774 0.067278415 -0.02184143 0.31435817 0.011373451 0.4358357 0.12991992 -0.21681727 0.4435688 -0.13076653 -0.26279607
371 0.009691918 -0.033353593 0.24874878 0.112141326 0.42211226 0.22242953 0.035112567 0.27699706 -0.24570118 -0.14676437
543 -0.0041367183 -0.17310496 0.08944802 0.26881346 0.36050585 0.32572478 -0.039576594 0.2267307 -0.26539242 -0.2570097
655 0.06522072 -0.22612275 0.31618914 0.11108532 0.30869848 0.038046908 -0.23788162 0.38382795 -0.33075336 -0.067169026
382 -0.0013199496 -0.09104064 0.37034374 0.1271411 0.5118752 0.25051236 -0.09791151 0.22361495 -0.0896351 -0.15379992
46 -0.0057771215 -0.052982487 0.24978954 0.37911326 0.30236903 0.029304514 0.09108412 0.3360497 -0.19466117 -0.17207931
763 0.074033715 0.027395166 0.3527911 0.063553736 0.37754604 0.18868273 0.05622772 0.16642822 -0.3629549 -0.070946135
577 -0.055399954 -0.22851315 0.21130748 0.36877427 0.4473865 0.051363397 -0.035694692 0.05358942 -0.32891628 -0.06522142
925 -0.009417859 -0.06178817 0.4126257 -0.016509186 0.39234075 0.3775174 0.048123106 0.2615543 -0.13947023 -0.18766138
570 0.1594659 -0.011618577 0.19941354 0.1330272 0.6020421 0.09229176 0.07148061 0.059048124 -0.11813058 -0.36463392
476 0.19700103 -0.056356356 0.32869774 0.45311284 0.19065084 0.13397391 -0.07670938 0.27890778 -0.25243255 -0.040641353
664 0.1741617 -0.061875604 0.3503272 0.19416939 0.2676321 0.06163636 0.091878176 0.120145425 -0.427489 -0.19172087
151 0.02351029 -0.12663552 0.28706205 0.24982575 0.44105238 -0.01869339 -0.04590353 0.3219818 -0.17972587 0.010645888
699 0.21901509 -0.1372797 0.096035965 0.41694522 0.37580103 0.18831193 -0.18481502 0.15903133 -0.21937513 -0.2400191
239 0.15770508 0.09871945 0.1329824 0.34380192 0.6027605 0.08245594 -0.21588318 0.2037723 -0.062013265 -0.11910326
114 -0.10159906 -0.062740386 0.35101882 0.22702564 0.45131648 0.124605305 0.08888837 0.076562166 -0.2818363 -0.18699385
506 0.12126458 -0.38285536 0.32795027 0.2523196 0.25019854 0.04847516 0.13538273 0.23725964 -0.23045991 -0.032904435
1109 0.13900673 -0.200789 0.2060403 0.20500378 0.23489201 0.1301712 -0.09829386 0.14062944 -0.49272338 -0.26267833
858 0.067214064 -0.106012315 0.30082726 0.030801475 0.47422716 0.26367703 -0.17529924 0.18980178 -0.30746883 0.061399467
897 -0.06749211 -0.16125187 0.029604036 0.1349697 0.45952994 -0.009975179 -0.13132648 0.30005056 -0.3748643 -0.2584694
218 0.25632742 0.10939071 0.3119965 0.35616565 0.27458063 0.3218084 0.03395582 0.17647213 -0.18861285 -0.16835736
446 0.09165485 -0.0639535 0.31562576 0.18606894 0.2254462 0.062186692 0.08693906 0.19459386 -0.45114046 -0.15509896
1075 0.1841571 -0.08992788 0.1776291 0.538629 0.25050777 -0.021746773 -0.15489644 0.18412289 -0.3446202 -0.13987751
521 0.036019366 -0.11676982 0.22456999 0.1974638 0.43864736 0.13805158 -0.013121187 0.26812968 -0.11917468 -0.2574171
998 -0.13140838 -0.09065692 0.12971982 0.41093403 0.39983696 0.047117908 0.025156198 0.20039743 -0.32997623 -0.19846809
236 0.272715 -0.24815138 0.34600648 0.2978289 0.30742192 0.06739428 -0.0020307878 0.23072402 -0.12760325 -0.011950786
510 0.16500969 0.011556362 0.35064474 0.28903836 0.30227816 0.11712237 -0.09433861 0.17070802 -0.38101262 0.059044518
135 0.14232342 0.071927354 0.25114998 0.22165097 0.39779896 0.092351295 0.047094118 0.274174 -0.23879813 -0.09937237
1061 0.13245726 -0.07412513 0.26326114 0.2888447 0.24158742 0.1581403 -0.021621061 0.13515759 -0.40647602 -0.2854967
22 0.2023042 -0.10991508 0.3772633 0.23115857 0.3453288 -0.018830493 0.069817714 0.14667058 -0.21442942 -0.26383114
765 -0.03929589 -0.22846337 0.23638561 0.18505505 0.3900375 0.00604235 0.047690548 0.056570336 -0.49105006 -0.10697198
827 0.028447479 -0.06908106 0.25480244 0.32951057 0.29332766 0.027521808 0.055362687 0.33128697 -0.23042352 -0.23641348
346 0.10291538 -0.13364922 0.41145188 0.05759181 0.3683734 0.16335078 -0.0908649 0.17951982 -0.30937794 -0.045165583
213 0.06079645 0.10904139 0.33374718 0.19205411 0.41588822 -0.031554326 0.115694486 0.37120575 -0.19349602 -0.04236677
728 0.1479468 -0.07354451 0.44601986 0.33371744 0.23684776 0.2041779 -0.054656588 0.25942072 -0.20634487 0.04500596
356 0.0058496906 0.09044661 0.35264185 0.42012846 0.46216497 0.17761606 0.1936597 -0.03485357 -0.20963328 -0.2238032
143 -0.0014649646 -0.2820973 0.17362468 0.21039172 0.29033098 -0.08701974 0.1489947 0.22002381 -0.38753596 -0.31043726
579 0.24542381 -0.3154785 0.29021192 0.1525534 0.38719425 -0.008371031 -0.1645039 0.23481745 -0.1458549 -0.14720589
821 0.08931615 -0.24930865 0.14710681 0.35576534 0.4883463 -0.09750957 -0.05160763 -0.028354509 -0.34802884 -0.12614623
1077 0.06795077 -0.08319862 0.17925864 0.29167265 0.40489516 0.086763054 -0.029580979 0.33867034 -0.10196928 -0.34874305
512 0.0572297 0.11493109 0.30976036 0.19875686 0.21697897 0.064487904 -0.11132748 0.39771023 -0.49915442 -0.051312957
519 0.058741983 -0.33114588 0.30838206 0.39892274 0.27589813 0.33887452 0.050188337 0.10991388 -0.17385778 0.008845622
618 0.043561835 -0.34047687 0.29183197 0.12676378 0.4673552 0.19150038 0.013986633 0.13330214 -0.18340375 0.030119427
1060 -0.07744632 -0.094625354 0.3380943 0.27125508 0.23936161 0.26857054 0.10640725 0.36188388 -0.23942378 -0.090663575
840 -0.07882542 -0.12712269 0.26961008 0.15990621 0.3224716 0.23249894 0.09312974 0.30939752 -0.28946406 -0.100542136
377 0.15432163 0.16612163 0.3381342 -0.025994295 0.6273759 0.16242667 -0.12935603 0.18070732 -0.11667093 -0.27108842
155 0.14372918 -0.043825995 0.34522405 0.21593328 0.38230136 0.1990749 -0.018827563 0.072582945 -0.36790413 0.07947657
1016 0.05933743 -0.096090324 0.23856045 0.24142268 0.46003258 0.155433 0.04361226 0.185459 -0.10986469 -0.24421464
104 0.04984121 -0.025797183 0.28106207 0.102612525 0.39892542 0.10329477 0.03922584 0.30198538 -0.24570285 -0.21350503
642 -0.034556516 -0.13578966 0.2363302 0.3845785 0.26204282 0.101245925 -0.18073598 0.31090298 -0.37941152 -0.07879778
513 0.16311432 -0.16782753 0.15986216 0.305391 0.3613217 0.046675213 -0.120465286 0.18620643 -0.23253538 -0.37185255
881 0.09557569 -0.44607553 0.26433802 0.21442758 0.4108031 0.084172726 0.071658276 0.085464224 -0.16388199 -0.13488206
653 0.29955727 -0.14097159 0.23387338 0.4068913 0.1880615 0.20417216 0.09173487 0.013511701 -0.3006266 -0.33611208
680 0.0989364 -0.10225353 0.15878089 0.18248121 0.5320085 0.06932457 -0.12829372 0.14722522 -0.26690608 -0.097844966
221 0.12106733 -0.20365687 0.3870921 0.09665225 0.35780907 -0.16434656 0.0114036 0.3290706 -0.22950564 -0.10836113
873 -0.0691068 0.11196371 0.13859542 0.19060494 0.59164655 0.049103204 -0.1504285 0.2068601 -0.41656736 0.11264353
55 -0.07041719 -0.23241454 0.264096 0.2206507 0.38074866 0.21163733 0.10190494 0.26074988 -0.15594602 -0.1511488
182 0.033598293 0.09120392 0.35824862 0.30578187 0.26900244 0.20794268 -0.012781239 0.2311645 -0.37232885 0.011366958
1065 0.104455575 -0.15671097 0.22643211 0.30803883 0.3925585 0.21877787 -0.11562347 0.13111398 -0.25183606 -0.04284162
359 0.10822136 -0.01726377 0.37549093 0.11736589 0.32119486 0.20666449 0.096531115 0.058440875 -0.44830373 -0.106230274
189 0.13055252 -0.03065778 0.31601733 0.124573074 0.2720953 0.051458444 -0.079644926 0.22220434 -0.4717143 -0.10405784
99 0.08265028 -0.09666692 0.3630372 0.23474419 0.40635374 -0.025845334 -0.023711354 0.20197184 -0.19777456 -0.24008824
580 0.06852564 -0.118144296 0.37263626 0.18518937 0.32740283 0.17395635 -0.14501241 0.2564811 -0.31030095 0.025442239
216 -0.06595907 -0.31854203 0.30659992 0.39543283 0.28470495 0.2433678 0.04520522 0.24358664 -0.24525133 0.17519666
355 0.015572362 -0.16117871 0.29401603 0.10108772 0.49755967 0.17328139 0.10597137 -0.050650198 -0.30278495 -0.27282196
986 0.21030368 -0.17154483 0.5348655 0.058968335 0.23665993 0.031289663 0.28384864 -0.051003035 -0.4250873 -0.26117295
928 0.034418855 0.14840175 0.2734763 0.06055979 0.55216354 0.09411678 -0.035257332 0.14760317 -0.3166771 -0.12776174
146 0.07610577 0.054306846 0.1724302 0.31500417 0.40056705 -0.00669828 -0.06538877 0.0969688 -0.4940763 -0.17363125
1078 0.025637742 -0.098909445 0.17289442 0.15569393 0.32426733 0.29603985 -0.010979007 0.15256804 -0.43813157 -0.23323871
428 0.07083467 -0.07361416 0.080647536 0.13131568 0.49570316 0.18214345 0.08245541 0.058612097 -0.3390736 -0.3225729
1101 -0.0524213 -0.02856419 0.31989482 0.2917075 0.43403628 -0.004820556 0.060487255 0.33283773 -0.13110098 0.011323041
731 0.03383671 -0.013419816 0.10747294 0.44319046 0.36570522 -0.12467813 0.13792577 0.18473738 -0.3584503 -0.1378117
968 0.038477384 -0.07832647 0.28843403 0.3227429 0.3013933 0.11558338 0.1562951 0.08224182 -0.37647817 -0.21240675
596 0.040799692 -0.16690312 0.3745783 0.21587329 0.15742365 0.11028874 -0.00934104 0.20182346 -0.5370823 0.009074282
122 -0.06253831 0.116554864 0.19944191 0.16836417 0.44626182 -0.0028503272 0.09006266 0.25739715 -0.44335437 -0.065874495
407 0.09074093 -0.030286847 0.22126916 0.31477347 0.38410768 0.08932592 0.037489112 0.15590647 -0.22310525 -0.35187376
211 0.017206386 -0.0269552 0.22137496 0.17392477 0.5080294 0.05030617 0.011431421 0.18179333 -0.22113764 -0.2139787
1055 -0.045453712 -0.1599203 0.3603426 0.2020851 0.39214176 -0.042227425 0.23349091 0.1286103 -0.3108694 -0.1718719
131 0.166454 -0.18027154 0.34429434 0.30801618 0.2286801 0.36534393 -0.07940135 0.2044583 -0.18150204 -0.1277415
295 0.20329449 0.0891757 0.5497744 0.16170226 0.20336929 0.14828826 0.02168565 0.19373666 -0.3457847 -0.19686277
586 0.14430536 -0.19592407 0.20981026 0.38391092 0.29970667 0.026928294 -0.05956209 0.3090685 -0.18924333 -0.13260427
120 -0.17485099 0.15698193 0.15494265 0.0056831394 0.57913184 0.15005438 0.054052316 0.3205092 -0.3117107 -0.1692645
670 0.0110642165 -0.05509436 0.25629494 0.1904722 0.37154752 0.016207088 -0.028624974 0.15884025 -0.48979488 -0.109210275
1093 0.008260831 -0.10453856 0.36094674 0.13460457 0.32232845 -0.058170922 -0.0701402 0.28666624 -0.4372014 0.050944373
619 0.031179067 -0.110176615 0.21065204 0.18515913 0.41451147 0.21980262 0.085327886 0.12842704 -0.26221898 -0.24528478
39 0.028982652 -0.0903188 0.39338496 0.3275708 0.24876809 0.14985095 0.101157516 0.17086914 -0.32446834 -0.09195628
868 -0.10757815 -0.19456306 0.38644058 0.18014659 0.3940601 0.3705628 -0.01311197 0.20117901 -0.1964201 0.029551527
1045 0.15082219 -0.21554233 0.08659975 0.52848446 0.12790407 0.26390055 -0.011423166 0.18271227 -0.3513744 -0.21168709
778 0.21154228 0.039072927 0.4324044 0.27003267 0.42505416 -0.07169427 0.075337805 0.022887152 -0.27635354 -0.11338112
985 0.24797581 -0.12820551 0.2368016 0.25585827 0.33660433 0.095232226 -0.09022953 0.11808149 -0.30562916 -0.22262362
1117 0.123737894 -0.24193685 0.23821853 0.09648399 0.4896779 0.06122046 0.043463167 0.19395056 -0.10407586 -0.30720273
125 0.103578426 -0.18932213 0.5120562 0.1288938 0.2056006 -0.077012956 0.13271874 0.2550785 -0.30901262 -0.22116522
705 0.11710745 -0.15741852 0.3483966 0.36984256 0.2585822 -0.0017244404 -0.07983433 0.36594775 -0.13685012 -0.19913904
839 0.14026295 -0.08352044 0.1388059 0.30700365 0.36286205 -0.10490916 -0.1056337 0.13266622 -0.5015214 -0.15835184
876 0.07061003 -0.117002256 0.33902907 0.31674695 0.33796015 0.15910646 -0.0127796 0.3065159 -0.066507466 -0.29191566
551 0.09478195 -0.14186573 0.2491148 0.3877226 0.41097596 0.123595946 -0.0064004236 0.18653764 -0.065299615 -0.19869055
113 0.053749904 -0.059635762 0.30803618 0.21051918 0.21227069 0.1286295 -0.03654105 0.23101822 -0.3803971 -0.391989
179 -0.07965619 -0.14454499 0.24108851 0.24728245 0.39714184 0.2197563 -0.05345618 0.21790995 -0.27098814 -0.07872953
683 0.124268085 0.02314116 0.1342037 0.45813498 0.1553994 -0.1029369 0.06348933 0.33447826 -0.44788417 -0.25749716
581 0.24296115 0.10118166 0.4035105 0.10647297 0.5276157 0.07124759 -0.1875484 0.05619391 -0.22955798 -0.1526633
554 0.053680755 -0.09097466 0.16455986 0.2723848 0.46658587 0.08891165 -0.024941614 0.16508839 -0.23024464 -0.15140404
1095 0.14998022 -0.056876317 0.37765273 0.17640497 0.35197347 0.09401443 0.13280813 0.14864036 -0.22434941 -0.19239213
338 0.015263622 -0.033944998 0.35262904 0.09169444 0.274833 0.34197778 0.02302837 0.16619664 -0.40832838 -0.20176908
1084 0.09942277 -0.011345356 0.2258934 0.28605402 0.25037006 0.13195558 0.12124522 0.26798078 -0.296403 -0.31564924
1003 0.014960208 -0.15370299 0.54523385 0.06441482 0.3693209 0.15692832 0.10451315 0.19318934 -0.17593147 -0.12044555
184 0.16704035 -0.2715557 0.1481693 0.38503984 0.39092135 0.01870033 -0.06724036 0.05691272 -0.28157347 -0.12077435
71 0.063912615 0.051646788 0.33733505 0.205909 0.50508755 0.075200185 0.11878662 0.0027000655 -0.2598423 -0.13419922
117 0.06269787 -0.12608263 0.17111602 0.38887843 0.2918559 -0.020552197 -0.10554863 0.3017628 -0.33579114 -0.18832351
997 -0.09004265 -0.14962068 0.41315138 0.04553021 0.38675883 0.34666708 0.0054254495 0.2015617 -0.2887632 -0.07561921
101 0.054821618 -0.1603401 0.27350253 0.13849068 0.31822848 0.13223092 -0.105896495 0.18002436 -0.43263745 -0.12403677
1083 0.03824199 -0.18069631 0.03574764 0.43828514 0.43853855 -0.030742817 0.11730005 0.16177294 -0.21946855 -0.1547571
51 0.1943701 -0.08565143 0.38729876 0.19144177 0.2308829 0.10969354 -0.0042025386 0.2091389 -0.28012612 -0.36140054
621 -0.07128448 -0.034587357 0.06722917 0.3262718 0.32214242 0.016176047 -0.12909725 0.36050615 -0.44903797 -0.16837128
791 -0.094321996 -0.13207279 0.17765865 0.4151526 0.31409308 0.2756487 0.046094906 0.29465 -0.16996269 -0.20279458
457 0.019148758 -0.07625876 0.37468207 0.44060764 0.26465932 0.20207506 0.17350245 0.20067528 -0.16199261 -0.052344415
880 0.17123099 -0.09801102 0.2519559 0.2734256 0.48586792 0.17588565 -0.009224528 0.13445096 -0.02076423 -0.2817336
1062 0.03217423 -0.2607098 0.27290696 0.060273726 0.29397982 0.057029985 -0.025367105 0.25820324 -0.3898875 -0.29813185
168 -0.011932157 -0.14694723 0.29483882 0.22832546 0.28530934 -0.17207316 0.12875842 0.29500985 -0.35059097 -0.20162849
1115 0.17508176 -0.18170542 0.3037172 0.24559435 0.4501257 -0.016488291 -0.004431616 0.06771639 -0.2178278 -0.1310769
472 0.01491084 -0.24410509 0.3339049 0.33824316 0.33330488 -0.01188078 0.06208265 0.2806662 -0.10958798 -0.24615082
467 0.09832908 -0.107504085 0.13457716 0.45562312 0.30010194 -0.094841264 0.033779643 0.23440018 -0.24711415 -0.40850896
300 0.09924331 -0.16586146 0.19482626 0.2024606 0.30743796 0.3811792 -0.22057465 0.11876993 -0.44528905 -0.030857934
1036 0.06329217 -0.15523125 0.37293386 0.26580667 0.26569158 0.046579458 0.04454255 0.15494455 -0.37873104 -0.08470562
961 0.10562771 0.006244738 0.2825453 0.13562058 0.523348 0.047415074 -0.06276672 0.26948607 -0.1843318 -0.0583431
425 0.29906803 -0.025277536 0.22897042 0.19276766 0.2946967 0.05671741 -0.14309041 0.26616964 -0.3091809 -0.22664872
629 0.07006354 -0.21157117 0.24814706 0.22841896 0.37087893 0.11066371 0.0016043972 0.22811519 -0.22907193 -0.12415108
324 0.057816405 0.027754778 0.46511906 0.19876075 0.32821238 0.30762357 -0.04159295 0.17042635 -0.2947683 -0.023999875
42 0.017485617 -0.091327295 0.104656875 0.35642418 0.41340196 0.22310571 0.05093753 0.17609267 -0.21785577 -0.19227505
253 0.05337546 -0.11166742 0.203312 0.27284 0.49096793 0.116802275 0.04441728 0.13811137 -0.2118594 0.013752287
990 0.120582834 -0.20258224 0.22697525 0.34037167 0.44165632 0.2014592 -0.04913529 0.14311305 -0.0703834 -0.19538507
483 -0.0050384006 -0.072615705 0.3953108 0.15082808 0.34327725 0.22015414 0.19565141 0.06859175 -0.34604356 -0.18735129
602 0.17679605 -0.03926416 0.2024433 0.40077573 0.306076 0.021768063 -0.05195612 0.24038394 -0.2597702 -0.19478434
537 0.08866562 -0.044865016 0.37719846 0.026433796 0.2965222 0.31961146 0.043291103 0.17646696 -0.3361988 -0.25357315
645 0.00020026382 -0.17420773 0.16197285 0.058931362 0.4265099 -0.00018880566 -0.012842581 0.31854242 -0.28911576 -0.3303166
860 0.18054584 0.11127979 0.28176826 0.24669942 0.3942741 0.009976595 -0.03554035 0.14227666 -0.3657739 -0.20767039
54 -0.019063998 0.055634253 0.35479888 0.1594101 0.44462377 0.19484073 0.143669 0.1776837 -0.23673871 -0.1384147
651 -0.1464484 -0.17322306 0.06240729 0.29977158 0.28359705 0.17244853 0.1163079 0.3406544 -0.4021047 -0.1331511
866 0.06523879 -0.19190569 0.20030804 0.01276901 0.47688922 0.0013421236 -0.06535564 0.2791853 -0.25387037 -0.311636
675 0.045435492 -0.11475008 0.39339978 0.3162292 0.42233565 0.06891923 -0.044672433 0.07599794 -0.2864526 0.08140072
896 0.03866399 0.04047547 0.34330103 0.11086424 0.44539088 0.053244386 0.066520125 0.018542996 -0.46438625 -0.0900396
854 0.13711058 -0.056326684 0.07904234 0.4108415 0.4787587 0.17093036 -0.11640021 -0.04180947 -0.31731138 -0.15999584
889 0.11799985 -0.08780977 0.1652508 0.27874428 0.48976785 0.057278495 -0.18414399 0.2907534 -0.12600891 -0.05633021
291 0.069535136 0.09464181 0.34586397 0.11309723 0.47963944 0.11317473 -0.12464134 0.18432422 -0.32093424 0.0014024501
657 0.10857432 -0.09349746 0.2748761 0.383445 0.34740114 0.12676556 0.11406662 0.13542253 -0.20269822 -0.07418235
630 0.09086268 0.05701765 0.32798168 0.10198285 0.3302294 0.06420802 0.101035744 0.14800568 -0.39418718 -0.31600836
723 0.086513504 0.13009141 0.37937757 0.20383674 0.47661573 0.12979145 0.012153694 0.25297663 -0.1585819 0.0042785294
244 0.07446911 0.08102217 0.27398482 0.36386618 0.42460948 -0.082191244 0.10905594 0.15029317 -0.29797298 -0.0139442
1106 -0.20765284 -0.13341841 0.54797673 0.010024863 0.42876786 0.18621373 0.31902826 0.24788722 -0.157466 0.03298438
1091 -0.023209358 0.06728719 0.29673603 0.22362362 0.3116283 0.2219331 0.045606628 0.3510622 -0.3174686 -0.0052822237
710 0.07677237 -0.17854789 0.4121314 -0.030339776 0.38700983 0.120484374 -0.12910192 0.11300289 -0.4004843 -0.21163523
852 0.08427278 0.02300767 0.1145178 0.30454817 0.3638323 0.25002578 -0.12270153 0.29489788 -0.26915097 -0.090459146
847 0.1700378 -0.06866115 0.27689514 0.3165695 0.26897335 -0.0033140557 -0.14021705 0.22755359 -0.4164452 0.05196289
374 0.17726661 -0.13450716 0.2995521 0.18082134 0.20998576 0.06343563 -0.19447616 0.36703837 -0.36885062 -0.09947262
704 0.06706012 -0.08647147 0.2765344 0.2134207 0.40902492 0.14938451 -0.11807974 0.2882447 -0.20975576 -0.06318487
308 -0.034087148 -0.0687458 0.15716334 0.37977517 0.37785614 -0.0069483756 0.030761234 0.21409565 -0.3508086 -0.12153641
773 -0.20519012 -0.035213396 0.18817344 0.3316214 0.43069494 0.22194396 0.09082793 0.24001436 -0.23091155 -0.14828949
922 0.054104753 -0.057429783 0.306976 0.19281045 0.2239377 -0.0064986814 -0.03913583 0.25517514 -0.50354916 -0.17162715
1108 0.15277481 -0.16407095 0.2781243 0.06479587 0.4853985 0.18943131 -0.15191571 0.09525602 -0.27977178 -0.13274212
392 0.02158002 -0.19027129 0.21121167 0.2092857 0.49198225 0.08982555 -0.16579558 0.23759682 -0.19594637 -0.06624149
878 0.1277127 -0.122205384 0.20507063 0.13114122 0.36343086 0.1271839 -0.13141647 0.35193735 -0.2462256 -0.14775567
222 0.12624003 -0.30911326 0.3809833 0.29453555 0.36961648 0.024280922 -0.071639545 0.14232314 -0.16585758 0.0018874903
934 0.11644491 -0.168367 0.40931326 0.25300005 0.16173783 0.13507661 -0.23389554 0.53840727 -0.17930183 -0.0521482
777 0.05771932 -0.07347641 0.2824243 0.1947237 0.2965134 0.21945441 0.01831341 0.15674669 -0.4415686 -0.17182888
646 0.16540593 -0.23223375 0.34997934 0.32084635 0.42628673 -0.08878406 0.03749358 -0.013246115 -0.25600442 -0.14147165
1073 0.14552042 -0.12717284 0.284723 0.24387643 0.3106408 -0.022930574 -0.18342122 0.3394488 -0.23245889 -0.22221091
1089 0.008235288 -0.21907334 0.33993277 0.254061 0.10173534 0.017827686 0.058257047 0.28594795 -0.46684048 -0.3054045
855 0.15150289 0.04328801 0.14467408 0.3477977 0.41473728 0.29712477 -0.08780724 0.12989444 -0.2970998 -0.009096673
940 0.17262882 -0.18989809 0.3241958 0.22685577 0.4484959 -0.007771794 0.015426065 0.1164926 -0.13490182 -0.13700397
526 0.059472 -0.14070344 0.15947393 0.35085854 0.40145102 0.15990703 0.0018482017 0.03480709 -0.40477052 0.019118037
1041 -0.005306859 0.10201372 0.33573171 0.3437366 0.2685657 0.2000861 -0.006479105 0.27646643 -0.30920687 -0.08254969
574 -0.09282946 -0.16336276 0.23725346 0.33874512 0.33246765 0.057272837 0.062124528 0.2437699 -0.2977353 -0.07967702
419 0.13578705 -0.021809757 0.33335477 0.27430657 0.44819245 0.11086124 -0.025719315 0.11046023 -0.20560534 -0.053082474
56 0.12517117 -0.14713381 0.15112181 0.37441197 0.34685948 0.09053243 -0.2734996 0.32236403 -0.19770718 -0.15535332
514 0.13016956 0.053906955 0.43909472 0.39404157 0.26212656 -0.06101349 -0.035217717 0.3117898 -0.2539074 -0.026672652
856 0.20424116 -0.12542826 0.47667995 0.13041385 0.4943666 -0.16839781 0.23204522 -0.011469017 -0.19310188 -0.1705029
314 -0.04464586 -0.3490477 0.21239506 0.32160237 0.38378656 0.258763 -0.04900034 0.13214307 -0.1851825 -0.18314423
1025 0.09775835 -0.1318945 0.28812423 0.25425786 0.32791516 0.2959777 0.07619264 0.01185144 -0.30868664 -0.26367098
571 -0.02150165 -0.12989816 0.31703788 0.21940656 0.3861834 0.2026753 0.15278667 0.10179173 -0.28117338 -0.1058533
584 -0.079501666 -0.099461794 0.39300925 0.1826594 0.38261327 0.36700693 0.038305175 0.2306969 -0.14480296 -0.14095281
850 0.02532176 -0.16283761 0.3381176 0.11517003 0.29461747 0.23647629 0.07824636 0.13321443 -0.38198936 -0.11898833
518 0.04151714 -0.033851992 0.4641007 0.20904343 0.27643546 0.08383953 0.15057154 0.18546914 -0.32709283 -0.13664202
610 0.0700321 -0.18543802 0.3182942 0.09279338 0.14914124 0.20942903 -0.0002097715 0.28059423 -0.44316092 -0.2737335
92 -0.17016466 -0.18588832 0.24991798 0.23727427 0.3774457 0.22259724 0.2320255 0.14196816 -0.30041754 -0.2596509
274 0.10096556 -0.21691084 0.2154532 0.25858012 0.3934295 0.1567256 -0.01051847 0.12693076 -0.21047556 -0.29241383
77 -0.16878179 -0.10413311 0.17066233 0.01268972 0.5069593 0.29645815 0.039794274 0.35832343 -0.23237486 -0.03191627
442 -0.0019100105 -0.26291254 0.2967611 0.30991048 0.36181706 -0.13544287 0.026212962 0.10332986 -0.38615283 -0.10063026
844 0.2217019 -0.012416177 0.36021775 0.47747034 0.21183574 0.051987793 0.14707945 0.21150438 -0.1438738 -0.30007142
115 0.051089402 -0.24672621 0.34115058 0.15935898 0.3787595 0.1831259 -0.05418503 0.20206848 -0.12267561 -0.27230033
982 0.07725354 0.04213013 0.30100614 0.24612428 0.31544617 0.1359118 -0.020410588 0.17813517 -0.41623405 -0.036970437
373 0.17774217 0.018447295 0.12039198 0.2810279 0.39684647 0.17410871 -0.09696197 0.13520052 -0.294619 -0.24670927
351 0.07255265 -0.25265095 0.2571399 0.16147387 0.46184635 -0.14918135 -0.100642785 0.20334549 -0.28397384 -0.17663527
385 0.010924349 0.029203635 0.26260754 0.23847654 0.46794626 -0.011343924 0.07534674 0.18681444 -0.22909391 -0.22767133
1007 -0.025393538 -0.08868314 0.13586964 0.07786557 0.39752218 0.238491 0.064146005 0.19354677 -0.32947087 -0.33917573
921 0.024916835 0.042894896 0.45257267 0.22728534 0.27054635 0.17332216 0.25934175 0.23991813 -0.21372584 -0.2308773
787 0.14256255 -0.1004905 0.29992616 0.24360098 0.23803216 0.27959788 -0.10805241 0.23087625 -0.34742764 -0.08793439
63 0.06368138 -0.20263715 0.37705535 0.12915124 0.26724946 0.25093722 -0.04260579 0.21483077 -0.2486128 -0.29586455
172 0.13613535 -0.12741692 0.35585594 0.33007297 0.14207165 0.36759126 0.057243362 0.21533647 -0.26190558 -0.14129345
685 -0.015495661 0.044973936 0.13430813 0.13947785 0.44547793 0.3593601 -0.02999928 0.2798269 -0.24180251 -0.26821062
1037 0.076705426 -0.31447864 0.30830097 0.22292916 0.4658378 -0.03228166 -0.08361537 0.20022535 -0.10494836 -0.18530293
732 0.15669231 0.09056597 0.35740498 0.2237599 0.23762763 -0.13168 0.082464695 0.25802705 -0.44165632 -0.1934179
582 0.08015943 -0.131353 0.3048413 0.26953217 0.26124713 0.06907754 -0.03756978 0.25462648 -0.38126624 0.04533476
298 0.14161614 -0.16158088 0.4075662 0.16341533 0.38107574 -0.04709999 0.048091054 0.12015861 -0.25234637 -0.21206313
666 -0.0059681404 -0.17590798 0.29869905 0.24500313 0.6093122 -0.064996265 0.10712096 0.147844 -0.034974143 -0.07099403
679 0.19125172 -0.15207851 0.3002039 0.2168721 0.27101707 -0.015691984 -0.12526418 0.1958349 -0.35288247 -0.3430602
912 -0.07576189 -0.085055135 0.35960203 0.2704602 0.29977006 0.26807624 0.028495576 0.33119717 -0.16627927 -0.1753064
759 0.07834369 -0.14498214 0.33693627 0.22002237 0.31978053 -0.0856673 0.07315395 0.21736203 -0.31374142 -0.26396844
175 0.11459849 0.04602117 0.16925824 0.41757548 0.40389973 0.13726224 0.017274322 0.13256118 -0.17121895 -0.39422134
793 0.14769948 -0.11156351 0.33857498 0.4171698 0.257098 0.17886475 -0.11659554 0.20819736 -0.25511009 0.052810945
376 0.07865692 -0.18683976 0.1613599 0.45093784 0.36887935 -0.014225554 -0.03822242 0.18677267 -0.26931834 -0.035337385
720 -0.02453699 -0.040986184 0.075572975 0.5305477 0.468192 0.07247747 0.093307406 0.13937435 -0.1581008 -0.2860832
813 -0.114663795 0.037610188 0.41178238 0.104619086 0.32191017 0.43499762 -0.06782591 0.4395719 -0.14985082 -0.089405626
193 0.10510832 -0.18205498 0.22319713 0.29238892 0.41111523 0.052742697 -0.12182591 0.0322606 -0.43955693 0.053780902
886 0.14392032 -0.14283973 0.28513828 0.3789995 0.124828495 0.31301942 0.045281705 0.15773457 -0.33575633 -0.33381113
865 0.049077652 -0.110850506 0.31816438 0.22149295 0.46766073 -0.08068497 0.09973773 0.17052554 -0.20457561 -0.112255335
259 0.1938499 -0.19121385 0.36664334 0.15668291 0.3218511 0.0343441 -0.058250867 0.09762161 -0.36715695 -0.2505927
918 0.021130007 -0.034532547 0.22627248 0.28189895 0.3480561 0.07066022 0.074915595 0.16232426 -0.32882735 -0.2784125
282 0.14679836 -0.043363083 0.37026268 0.2628902 0.43800294 -0.023694148 0.100181065 0.10840595 -0.17126599 -0.11903819
257 0.031243721 -0.37189165 0.32513562 0.21499906 0.5177359 0.28941354 -0.077360444 0.1139786 -0.004874678 -0.08102031
281 0.1258659 -0.010941706 0.25003687 0.2098042 0.46360874 0.20152408 -0.101191066 0.06676866 -0.30663884 -0.07163135
505 0.03904774 -0.09860201 0.17819157 0.27456096 0.29731074 0.15826587 0.02843892 0.20657559 -0.37969056 -0.16264415
36 0.07127799 -0.18365559 0.36408743 0.28804767 0.14910582 0.16910572 0.122981645 0.22884315 -0.30809516 -0.32482827
1053 0.116109334 -0.0326995 0.3986424 0.18205778 0.30755094 0.10707729 -0.01286423 0.27486673 -0.21230216 -0.24670868
