1122 10
157 0.1857098 -0.6813864 -0.31878015 2.3442922 1.2937231 1.4692322 -1.7326288 -0.48542076 0.32361016 0.7486277
148 0.14868857 -0.6887021 -0.3126831 2.434718 1.3249737 1.4984953 -1.7323213 -0.4685183 0.2753614 0.77853763
289 1.1628908 -1.4087055 -0.8637123 0.5346435 -1.2541443 2.4523582 1.1128094 1.4069597 1.4006076 1.8534272
242 1.1762381 -1.3381945 -0.8747881 0.5318853 -1.235473 2.4086983 1.0899149 1.3893139 1.4186103 1.9004018
813 -0.7102414 0.2535801 -0.67511714 1.3325638 0.792222 1.160585 1.1571803 1.6374105 1.112653 -0.98155624
190 0.39224684 0.37992427 0.31995264 1.9242817 0.47972527 0.9651975 1.1543795 -2.3282053 2.0044422 -1.1371982
824 1.1799282 -1.4464002 -0.8717485 0.5499007 -1.37042 2.5066712 1.128045 1.4041044 1.4459325 1.8872391
378 1.2115823 -1.4061477 -0.81811607 0.479248 -1.2706538 2.4614916 1.1855934 1.4048798 1.4368999 1.8970298
328 1.1704991 -1.4025913 -0.85676104 0.49089658 -1.3120553 2.3878021 1.13019 1.3645242 1.4103304 1.811941
203 1.1171144 -1.3527243 -0.9492366 0.5542542 -1.0872155 2.3604653 1.1221918 1.4615251 1.4074806 1.8472704
83 3.207526 -1.7389807 -0.631447 0.7276492 2.2723532 1.2028807 1.4191275 -1.094661 1.0139215 1.3324915
220 -0.34917712 -0.4633076 -0.9819667 2.8803968 0.5544504 1.7149026 -1.4089907 -0.31664813 1.1802623 1.0589904
278 1.1285889 -1.3066204 -0.93886536 0.55879086 -1.1219991 2.4364486 1.1327538 1.4123167 1.3560466 1.862341
762 0.38999715 0.296736 0.3105031 1.8547367 0.533341 0.890235 1.0968306 -2.3150985 1.9443374 -1.0114344
383 -0.35558015 -0.40768695 -0.95138437 2.8114903 0.49703604 1.7682731 -1.4071847 -0.34047803 1.1994836 1.0326178
286 1.1311697 -1.3676714 -0.9195811 0.55508685 -1.1096234 2.407926 1.0958073 1.4310052 1.3676693 1.9120187
374 -0.65557736 0.22774866 -0.683215 1.2907742 0.760504 1.1166437 1.1594222 1.6278713 1.1034116 -0.99271405
842 -0.6394936 0.2638276 -0.67280835 1.2730811 0.7681503 1.1009423 1.1560374 1.6331416 1.098835 -1.0051324
243 1.1850497 -1.3719383 -0.97698003 0.60785544 -1.1119936 2.4841838 1.1462557 1.4569675 1.4383823 1.9305768
994 -0.6672294 0.2450985 -0.6987111 1.3436702 0.785176 1.2154132 1.1969272 1.6936018 1.1073127 -1.0226424
505 0.38679785 0.25977784 0.27296388 1.847975 0.5286138 0.8653326 1.0987164 -2.2592907 1.8781779 -0.991869
7 -0.73662835 0.15634568 -0.6850458 1.4237776 0.7421982 1.3319657 1.2089597 1.6406531 0.8917479 -1.0656221
252 -0.3433394 -0.44462353 -0.97658026 2.819368 0.5622822 1.6734878 -1.3934807 -0.35452238 1.1602554 1.0542775
227 1.5840759 -0.0015122334 0.43320417 0.5076295 -0.55259013 0.38448134 -1.3903351 2.8559437 0.6360987 0.8021606
416 2.132209 -0.5581736 -0.17692204 0.12103625 2.298519 1.4194473 0.577751 -0.55862105 -0.2692655 0.63216233
67 -0.6917337 0.19902216 -0.7125881 1.3031678 0.74196297 1.2499297 1.193879 1.6384103 1.077743 -0.9357861
1113 0.37605962 0.26805997 0.2528595 1.8710301 0.53056175 0.89183676 1.0717148 -2.2863088 1.9326733 -1.0131698
530 -0.8144513 0.11799833 -0.675303 1.4180808 0.70791465 1.3818821 1.1811734 1.6409854 0.9145733 -1.0601988
1095 -0.6831647 0.19022022 -0.68333405 1.2923917 0.7563297 1.1970499 1.1889724 1.6529007 1.0804424 -1.0074435
267 1.3838904 1.1810489 -0.57814693 1.4384865 -0.42473838 2.6450741 -0.5486782 0.8204976 -0.2757254 -0.28252587
953 4.48936 0.6556358 0.66512173 -0.39407414 0.92957187 1.7718699 1.3972713 2.2496164 -0.029609878 1.1664717
14 -0.7273893 0.19250947 -0.69749117 1.3622029 0.7776172 1.2363163 1.216373 1.6531613 1.057229 -0.96354544
777 1.827611 0.6374895 3.2881136 2.4924157 -2.401978 0.91022485 -1.024393 1.4408171 -1.0355395 -2.2672405
724 4.5077252 0.6708892 0.60565114 -0.27931905 0.9784068 1.8399411 1.4889451 2.2540739 -0.14125341 1.2955658
271 1.2039464 0.9852772 -0.878278 1.4916284 -0.65942204 3.0285914 -0.36949354 1.1880888 -0.087770104 -0.10726152
965 1.2466992 0.97631717 -0.8950447 1.4254634 -0.6188667 3.0097058 -0.3714373 1.1443948 -0.07364798 -0.09235926
185 1.575646 0.008207906 0.4361169 0.47731176 -0.5329709 0.38118178 -1.3612278 2.8029213 0.6647985 0.7897162
742 1.817673 0.64571524 3.3358698 2.4583077 -2.4015439 1.0251766 -0.97944397 1.4831351 -1.1011847 -2.3116
198 0.034461405 -0.47036722 -0.7511061 2.1078782 0.09120329 1.3905096 -1.5081736 -0.22422314 0.6072756 0.18224427
221 1.1781718 -0.49084303 0.55162334 1.5230275 -1.2309462 1.0458052 -2.2711575 0.1718065 0.92314065 -3.097606
224 1.5915489 -0.0122165475 0.43321034 0.50976324 -0.5737395 0.39181727 -1.3732684 2.902537 0.6903576 0.80527025
321 1.0814803 -0.43747362 0.5300724 1.5076616 -1.2201278 1.0473046 -2.17766 0.17104565 0.97577995 -3.0198596
251 1.5941283 -0.011670004 0.42941993 0.5077508 -0.5328444 0.3881367 -1.3798517 2.8445537 0.65060824 0.8149173
825 1.2721344 1.0263916 -0.87167186 1.4586818 -0.6608693 3.0808764 -0.36954004 1.1742681 -0.12934548 -0.12897697
93 -0.7926422 0.14275728 -0.65380067 1.409828 0.76371187 1.3983967 1.2368426 1.6348926 0.8575369 -1.0636973
1086 -0.77852213 0.1760986 -0.68864995 1.4355898 0.76936966 1.3788284 1.2539843 1.719876 1.0434291 -1.0580724
297 1.2848065 1.044267 -0.8642749 1.446205 -0.6825857 3.098889 -0.39145753 1.1582608 -0.080100544 -0.16189499
263 1.5548719 -0.023082275 0.41601366 0.5047254 -0.5264824 0.37247828 -1.3820076 2.81133 0.66802216 0.8007312
80 0.9517349 -0.4211582 -1.1979471 1.0149145 -0.16704433 1.7420838 0.48719928 1.4404407 1.3073812 1.6417614
24 1.5680522 0.005465965 0.43254787 0.49317396 -0.5315967 0.40175542 -1.4033225 2.849144 0.64110315 0.7950984
291 1.6105067 0.0137726925 0.42605463 0.48210526 -0.52792513 0.3849319 -1.4337257 2.8420196 0.6458658 0.79170734
1098 1.1513963 -0.46887317 0.57925105 1.5158762 -1.2583467 1.0791487 -2.2589514 0.21483809 0.95036644 -3.109504
128 1.5801281 -0.010581919 0.41897425 0.46796182 -0.5264977 0.39139885 -1.3923482 2.832315 0.65270114 0.7849056
233 1.5645285 -0.009098214 0.421948 0.49946553 -0.5150593 0.4021098 -1.3805214 2.810197 0.643754 0.78801197
588 1.2757396 2.317885 0.30026385 1.0968784 -0.0638745 1.6077746 -0.17375067 0.45557147 0.67965806 -0.70035833
634 -0.77135116 0.1493243 -0.71154183 1.4724828 0.7538438 1.3585751 1.223536 1.7071993 0.9778021 -1.0640347
284 -0.85968715 -2.1825871 0.55141044 0.2114323 2.0389757 1.4909811 -0.7107 1.269481 0.19696504 0.044960804
256 1.5360867 -0.0076044537 0.40034348 0.55613047 -0.53850234 0.3434587 -1.3371235 2.751901 0.6594773 0.76681757
187 1.5101748 0.022872722 0.44502217 0.50186217 -0.51117253 0.38376924 -1.392032 2.7718375 0.6552049 0.7773833
280 -0.8629251 -2.236346 0.5991189 0.1845329 2.0941315 1.5007747 -0.6671308 1.3246658 0.21631315 0.019798607
39 4.5454187 0.7434602 0.6066856 -0.34901294 0.94115734 1.9058365 1.5611113 2.200485 -0.055269122 1.2244836
245 1.5539385 -0.0039309477 0.40485027 0.48243073 -0.56680137 0.38216466 -1.3314251 2.8018558 0.6563857 0.78804064
178 1.5692816 -0.005494218 0.42201713 0.50163096 -0.5490557 0.40750882 -1.3802277 2.804678 0.6639463 0.7975541
904 1.1247354 -0.47035155 0.49955186 1.5203879 -1.1994219 1.0557761 -2.2152336 0.17583418 0.9091316 -3.0371406
366 1.1449921 -0.44327477 0.52374077 1.4811785 -1.2211877 1.0824256 -2.1998801 0.16939718 0.9383817 -3.0680368
293 -0.8388211 -2.1902804 0.5796489 0.15207264 2.1021254 1.4855572 -0.6796878 1.2973408 0.23523887 0.021015419
315 1.0220051 -0.4351214 -1.2605518 1.0906944 -0.16237491 1.8034213 0.46444744 1.5381643 1.3663623 1.7396125
94 -0.40825793 2.12411 3.2872179 0.82891697 1.6928691 1.3245258 0.111929074 1.574422 0.12917733 -1.7051765
122 3.3853989 -1.4753131 -0.64661974 0.10440186 1.2499149 1.0642211 0.4631857 0.14419255 -0.37914625 -0.60840446
238 1.521894 -0.03514796 0.41933575 0.48305145 -0.52023244 0.37061465 -1.3568897 2.7482576 0.6523916 0.7440354
276 1.5556214 -0.0007352783 0.4181142 0.49330086 -0.5105657 0.39129925 -1.3703419 2.8087018 0.651467 0.79612994
214 1.5982447 0.008644197 0.42489785 0.48339176 -0.57610494 0.39383247 -1.3557256 2.8616085 0.6579014 0.799532
554 1.2551119 2.2527378 0.28987968 1.020944 -0.0786244 1.6134866 -0.14903843 0.49210155 0.6799563 -0.73281604
236 1.1268933 -0.48253313 0.524452 1.5092895 -1.2032101 1.0581894 -2.2098935 0.17527805 0.91660994 -3.0187337
412 1.5746626 -0.028779725 0.43014562 0.5326165 -0.5672199 0.41311637 -1.3870416 2.8756297 0.6583655 0.79652333
194 1.1009427 -0.41455755 0.5275625 1.4331263 -1.1631033 1.0401778 -2.2011728 0.17203104 0.97207105 -2.9916708
217 0.419519 0.20589119 0.23025312 1.9158192 0.49487054 0.7827347 1.0590134 -2.2422101 1.8159882 -0.88233477
425 4.6698823 -1.4189223 -0.54432565 0.17820433 2.8593736 1.4501514 0.92349935 -0.23950176 1.3080057 2.1307797
873 4.1103334 0.24697603 0.21133845 -0.059192643 3.3504152 0.6981963 0.562225 1.3022238 1.834467 1.3172019
755 0.95313144 -0.38279477 -1.2307817 1.0929455 -0.1583886 1.7854406 0.4206619 1.49352 1.3277991 1.6612108
71 3.3886292 -1.4884274 -0.6363088 0.11505333 1.2594075 1.0650706 0.4742732 0.085002996 -0.36478603 -0.58561605
396 4.1364756 0.44712144 0.5295168 -0.35134068 1.262261 1.5840598 1.1119494 1.8471018 -0.16056661 1.1424186
303 0.96760786 -0.45683414 -1.2153127 1.0347192 -0.19885948 1.7373413 0.47593266 1.4218388 1.276355 1.6553843
282 3.4376247 -0.9314154 -1.1246288 -0.069692194 0.41197848 1.689469 0.4526108 -0.08460889 0.2713147 -1.941604
337 1.6627923 0.0036757633 0.44346425 0.5284421 -0.60561043 0.44043362 -1.4082881 2.9456375 0.6755288 0.83414686
593 4.148998 0.17382859 0.20666218 -0.061615743 3.3878999 0.71053946 0.67387676 1.3085468 1.779253 1.3513975
437 3.4809537 -0.9691867 -1.1182711 -0.06693749 0.3938383 1.7426903 0.4460513 -0.1253095 0.26457986 -1.9596294
350 1.6338284 -0.003765108 0.4200812 0.5320474 -0.56457543 0.40863836 -1.3874451 2.914595 0.6735253 0.8163429
101 1.6271722 0.5168747 1.0727003 4.60594 1.4294564 -1.4020545 -0.10000197 1.4893503 1.0981976 -0.31348604
449 3.4778519 -0.9583109 -1.1405152 -0.07905953 0.44149506 1.7379391 0.45717242 -0.119662 0.26958638 -1.9558058
384 1.6592195 0.008174214 0.44757134 0.52123505 -0.60900867 0.4227542 -1.3949766 2.9086735 0.67723227 0.8148888
496 1.722181 0.4872203 1.1425282 4.62486 1.4655836 -1.4379331 -0.15995151 1.4869044 1.0597253 -0.34105438
511 1.7081392 0.47081408 1.1394132 4.7303557 1.3459744 -1.4478465 -0.15746793 1.5012295 1.0571296 -0.34309956
296 0.06745964 -0.20897277 -1.0549173 2.7428195 -0.15188372 1.6950698 -1.6427002 -0.15665488 0.938334 0.41626832
132 1.075668 2.1872208 0.20040561 1.0860685 -0.15946293 1.7691386 -0.16112688 0.45107386 0.739098 -0.48775712
594 4.2393603 0.14944403 0.17055692 -0.12823714 3.3814135 0.73582494 0.67980343 1.3427911 1.8205372 1.3976554
405 1.7065321 0.49248856 1.0866904 4.6617665 1.3921946 -1.4253205 -0.14552808 1.5070424 1.0974134 -0.35559922
892 4.2278633 0.11938646 0.17870028 -0.08536153 3.4784894 0.7708567 0.6490903 1.2725586 1.8094407 1.4264348
369 1.7225109 0.5169413 1.1233568 4.710003 1.3960751 -1.421754 -0.13252117 1.5090077 1.0406027 -0.3726107
918 1.0733286 0.4313429 1.6541833 -2.4011443 1.619174 2.110517 0.51077 1.5379112 2.758255 -1.939911
706 -0.41349798 2.119462 3.2634175 0.8097837 1.6955467 1.3859446 0.16176304 1.6079116 0.11987172 -1.7261926
161 1.6949139 0.51617223 1.1450824 4.625557 1.3260671 -1.4079903 -0.1332015 1.475481 1.0213203 -0.3650157
409 1.6228468 -0.0069022225 0.42499152 0.5311346 -0.6056217 0.4254989 -1.4039251 2.9193294 0.6933347 0.84138876
327 0.10440776 -0.2171831 -1.0713799 2.7859719 -0.12586626 1.6861246 -1.6119387 -0.1678012 0.9310254 0.4049099
308 1.6512154 0.539112 1.1222315 4.5398245 1.229193 -1.3186972 -0.13481577 1.4734368 0.8794943 -0.40115237
673 1.6887071 0.5004772 1.0719094 4.5697865 1.4310973 -1.4453684 -0.12059547 1.4936476 1.1090142 -0.2900695
444 1.6785904 0.47333837 1.0622633 4.5673943 1.414946 -1.4441172 -0.13974276 1.4573581 1.0808634 -0.3040426
413 4.569166 -0.868162 -0.547463 -0.34854388 1.5204625 2.3125956 0.45684558 -1.1053724 -0.2784152 -1.6127697
834 1.6531671 0.5509612 1.1250571 4.4599996 1.2241204 -1.3355464 -0.08533511 1.4935248 0.8701575 -0.40370357
266 0.077503346 -0.22075748 -1.0861219 2.7373862 -0.14816841 1.7171829 -1.6383258 -0.070303276 0.9148614 0.39652792
216 1.182043 -0.4605406 0.527269 1.5302048 -1.3224415 1.1084288 -2.183429 0.18618141 0.97414374 -3.167191
863 1.2557136 2.276726 0.30350843 1.0070897 -0.10919748 1.6721189 -0.097988844 0.5101654 0.70432615 -0.7410492
151 0.69884336 -1.1585479 1.0405217 0.7814785 -0.88796127 -0.8182087 1.1294307 -0.2741413 2.941381 -0.9567513
62 0.63285935 -1.1312958 1.0483242 0.7965485 -0.88043064 -0.86461335 1.1174812 -0.23885106 2.8858984 -0.9351311
898 1.7161487 0.50726664 1.12757 4.6563253 1.469538 -1.4460473 -0.12452288 1.5349478 1.1001503 -0.30682787
475 1.6509926 0.51960254 1.1721901 4.6002164 1.3225111 -1.4030856 -0.11198865 1.4989332 1.0054535 -0.33870924
1094 1.6968296 0.50867355 1.1320581 4.619235 1.2221844 -1.3410236 -0.14382105 1.4902519 0.837707 -0.44024137
38 1.7058353 0.54218316 1.1430795 4.6436687 1.3721352 -1.3910459 -0.1637243 1.4726964 1.0099643 -0.31757727
403 1.1658957 -0.463334 0.5646485 1.532699 -1.3791384 1.1356388 -2.181892 0.17801704 1.0346926 -3.2069018
422 0.09078389 -0.23789096 -1.0450858 2.7943056 -0.12793621 1.7189443 -1.6904248 -0.113356315 0.901821 0.40964207
859 1.7208644 0.56131756 1.1340296 4.6349154 1.4019036 -1.3988197 -0.121010035 1.5229608 1.0614476 -0.35478467
795 0.65960294 -1.119555 1.0852364 0.84753317 -0.9014219 -0.8646514 1.1197248 -0.25161797 2.9268293 -0.97278696
206 0.5981647 -1.1761173 1.0755138 0.7907817 -0.91584235 -0.8230207 1.135044 -0.22214988 2.9436042 -0.95648223
385 0.09077345 1.1183918 0.99864906 -0.35901988 -0.11582319 1.897955 -0.7734472 -0.2769654 3.040032 0.5093809
306 1.1912657 -0.4958666 0.53381395 1.5009526 -1.3215909 1.0902175 -2.1886728 0.18429704 0.97602123 -3.1629777
875 3.1468146 -1.7679274 -0.5871768 0.78884083 2.1147356 1.1846673 1.5923069 -1.1310629 1.0768493 1.373499
167 -1.4829867 -1.5021462 0.21767959 2.1352 0.7785625 -0.18610074 -1.5650334 3.5181339 4.0810413 -0.22151266
995 1.7024112 0.59070754 1.1512728 4.569247 1.2276361 -1.3335105 -0.10246613 1.5257915 0.8846451 -0.39721075
64 0.2759378 -3.455502 3.3737316 3.4017305 -0.40256792 -0.74153847 0.83070606 0.3147412 0.5167489 0.37686986
451 1.2295723 -0.47417784 0.5191149 1.5726427 -1.3417947 1.093385 -2.1792169 0.19306844 0.9616901 -3.1725883
89 0.64245933 -1.0825912 1.0176284 0.7952361 -0.8699389 -0.8148466 1.1114615 -0.22528426 2.8508995 -0.9346353
299 1.7206981 0.5730661 1.187611 4.653599 1.2260476 -1.3379209 -0.12598565 1.5085714 0.8481253 -0.4154198
880 0.61688834 -1.1062557 1.0564176 0.8164017 -0.8734367 -0.8231764 1.0606923 -0.24509022 2.8571732 -0.96003306
1064 3.6094046 -1.0047759 -1.1693887 -0.15271683 0.43220383 1.9522902 0.5210825 -0.21777205 0.36533836 -2.0337486
391 -1.4633747 -1.5913374 0.23725499 2.2186067 0.7276909 -0.19413804 -1.61279 3.622689 4.1202474 -0.26594582
172 0.10678719 0.98454124 1.0965047 -0.3262635 -0.323836 1.4440478 -0.87659305 -0.06837515 2.6836345 -0.042524043
1029 -1.600161 -1.533748 0.40309823 2.2548287 0.7322023 -0.20577033 -1.5001105 3.565418 4.3449183 -0.34810984
748 -1.6559039 -1.5203887 0.36317545 2.395822 0.84100693 -0.19661799 -1.5609707 3.6536353 4.4193263 -0.33432052
572 0.6723875 -1.0980741 1.0136812 0.7485258 -0.80819756 -0.8393787 1.0771079 -0.24637769 2.8210957 -0.9193444
388 0.8384786 -2.4265177 1.5421275 2.3933344 2.084203 -0.88028413 -1.3978434 1.0349265 0.9613161 1.6567038
695 0.60960853 -1.0956163 1.0295126 0.8487735 -0.8340645 -0.8674708 1.1080719 -0.26868308 2.9060845 -0.9546087
407 1.2064493 -0.44644636 0.58316195 1.5275738 -1.3639163 1.089333 -2.185937 0.20972697 0.88781655 -3.1572511
652 -0.7638457 -2.5453427 1.3810586 -0.48534495 1.4060272 2.3351974 -3.357341 0.6618281 1.7239567 -2.6471248
899 1.1055613 0.5004875 1.6554625 -2.41937 1.6265225 2.1712613 0.5334017 1.5779455 2.81206 -1.9168444
810 0.45924988 0.41784754 0.35425276 1.9482603 0.41974056 1.009603 1.219676 -2.3494549 2.038066 -1.197914
807 1.1918943 -0.50788176 0.57643265 1.5244439 -1.339211 1.0968204 -2.2149684 0.20534842 0.9131931 -3.135045
1078 -0.87262934 -2.6276026 1.4774579 -0.54664963 1.3908675 2.3825266 -3.446823 0.7308603 1.8587147 -2.665015
1001 3.6580539 -1.0540541 -1.1470388 -0.14341465 0.39713687 1.9275743 0.46804494 -0.20207177 0.33807275 -1.996299
146 0.6242688 -1.0981305 1.037582 0.8636412 -0.9002739 -0.8508603 1.1078048 -0.2350316 2.922118 -0.9447816
534 -0.8738397 -2.600608 1.377237 -0.42386863 1.4149839 2.3690987 -3.476416 0.7485255 1.8628978 -2.6961052
565 0.84291977 -2.0838718 1.6751913 0.97199833 -0.01006368 0.9462998 3.2629776 -0.5765766 0.6591047 -2.1966648
1073 0.6475464 -1.1147977 1.0340322 0.81280255 -0.8681329 -0.8740682 1.1198382 -0.21724041 2.8661723 -0.9334758
279 0.3437782 0.17089385 0.22758077 1.8815948 0.53541017 0.73299915 0.9934669 -2.1384246 1.7661694 -0.799815
659 -1.0930625 0.13087788 -0.3858487 2.021494 0.6713834 2.221382 1.0944065 1.4254817 0.15293351 -1.1704596
57 -1.0881639 0.052454725 -0.4009857 1.9014598 0.7194068 2.1839461 1.0907549 1.4324467 0.13507892 -1.1600028
1067 -1.1342857 0.05162721 -0.36238852 1.9762162 0.7722967 2.2280293 1.0843115 1.4754226 0.102877684 -1.2098382
353 1.1866349 -0.49813062 0.55750555 1.4947215 -1.3388487 1.0330505 -2.1476808 0.17007843 0.95215315 -3.0961568
127 -0.76247203 -2.648884 1.4232794 -0.52378994 1.4838554 2.3549185 -3.4821646 0.7043971 1.8954352 -2.7311869
454 3.5022843 -0.9605958 -1.1237206 -0.12417059 0.40596983 1.7557415 0.48821145 -0.13151425 0.27243438 -1.9034914
640 1.1210936 1.0752602 -0.8863688 1.3465776 -0.54822224 2.8227184 -0.32495004 1.0385467 0.06223563 -0.12602401
1066 1.2411424 -0.5250334 0.5965677 1.5497543 -1.3248239 1.0511328 -2.2373104 0.24168923 0.95831275 -3.1821616
351 0.13593553 -0.21065953 -1.088914 2.8284924 -0.08775783 1.7055451 -1.6228148 -0.11550006 0.9012949 0.45571434
273 0.10042901 -0.176311 -1.0952773 2.801455 -0.099965885 1.7031683 -1.6767172 -0.08757689 0.8964512 0.43109405
34 0.7366039 0.50508666 1.866619 2.789763 -0.7775436 0.5389432 -0.19772044 1.1024418 -0.97297376 -0.60614866
41 0.6586923 -1.1386006 1.0378932 0.80163616 -0.8505951 -0.84998107 1.1289928 -0.27661124 2.928468 -0.90810394
745 3.6422236 -1.0334294 -1.13692 -0.13760951 0.44270653 1.9107349 0.5020322 -0.17627542 0.34110782 -2.0438423
591 -1.4739832 -1.5723737 0.30465162 2.2082186 0.9270505 -0.22124748 -1.7165009 3.6414897 4.2315283 -0.19907993
476 1.169381 1.0403208 -0.8287586 1.3327196 -0.5128625 2.8068914 -0.36507148 0.983559 -0.038903292 -0.23070647
543 2.9264257 0.37635773 0.81330633 1.811852 0.41500872 1.3882669 -0.2191746 -0.43463555 -1.2824074 -2.372887
371 0.094851606 -0.19026206 -1.0697453 2.7736945 -0.12994277 1.6890913 -1.6050537 -0.10858687 0.8909064 0.43140095
983 -1.1107751 0.018872092 -0.3771279 1.9361367 0.7502396 2.1965108 1.0645391 1.4308965 0.09600495 -1.2710426
485 -1.0821415 -0.005315919 -0.3509983 1.9744458 0.71495295 2.2159746 1.0252309 1.4061896 0.000995001 -1.1267774
931 -1.089687 -0.0273591 -0.41101754 1.902402 0.7536418 2.1250894 1.0441707 1.4447688 0.09907963 -1.2027062
596 0.9967383 2.1236184 0.13971697 1.0423017 -0.07132165 1.6116252 -0.036665313 0.45424217 0.80387336 -0.4158254
1023 0.55927277 0.4452907 0.4678402 2.020836 0.39303815 1.0648808 1.2763634 -2.5196397 2.0807235 -1.2517066
678 -0.61912477 2.064833 3.3318427 0.81150603 1.8681766 1.4878466 0.1619333 1.657435 0.26443878 -1.6204517
79 0.8500956 -1.9990224 1.7071649 0.9985448 0.0027757909 0.9660595 3.2418988 -0.5786128 0.61124766 -2.0891836
967 -0.78118014 -2.1086798 0.30377218 0.20710495 2.200395 1.5571527 -0.37161642 1.4322196 0.21749201 0.44164696
209 -0.11633798 0.47115433 3.7577322 0.86320126 2.2127347 0.9818851 2.4347153 1.6775498 0.09249057 0.032975458
241 -0.2881693 -0.7365117 0.26366967 1.3822398 2.346785 1.3937697 -1.9356885 -0.82083637 2.3305805 -2.475804
1090 -1.0989064 0.049736153 -0.40087527 1.9892868 0.76045877 2.1696532 1.0780228 1.4315244 0.11884378 -1.2299889
976 0.8876739 -2.0940259 1.6586276 0.99129784 0.009964051 0.93014836 3.297657 -0.5355934 0.6494227 -2.1847029
153 0.8663888 -2.0388446 1.6535287 0.9909477 0.039528836 0.8964394 3.2122085 -0.53779715 0.65566796 -2.1952977
932 0.5021888 0.4145691 0.42868528 1.9417223 0.38709912 1.0856746 1.2122982 -2.4084861 2.0177464 -1.2396967
721 2.886749 0.36131576 0.80531704 1.7998356 0.3635345 1.3587977 -0.20546597 -0.43661648 -1.2650231 -2.3736544
1037 -1.0507197 0.024953427 -0.3908099 1.9456005 0.7161699 2.1675491 1.0942835 1.3923385 0.08909763 -1.2443813
897 0.80459255 -1.9783783 1.6869384 1.0066109 -0.04647715 0.94526726 3.212543 -0.584671 0.6376538 -2.1413631
330 0.043968204 -0.2446151 -1.0721762 2.7080226 -0.12838928 1.6435194 -1.5994015 -0.11545824 0.90362775 0.37797406
428 0.9365131 -0.36107987 -1.0612242 0.9705643 -0.30642733 1.65604 0.49263358 1.2927158 1.2144957 1.6077062
893 0.51313174 0.42034405 0.42653677 2.0137186 0.4000333 1.0546776 1.2352959 -2.4459074 2.0306933 -1.2079569
331 -0.31400394 -0.8682848 0.2766155 1.5530307 2.6375492 1.5224903 -2.1300998 -0.83096105 2.479023 -2.5738404
231 -0.059808526 0.38408005 3.8460393 0.8944802 2.2248373 0.9911284 2.364927 1.6907383 -0.013704456 0.06810072
415 0.43710008 1.1943971 -0.705194 1.0899378 -0.044463485 1.986043 0.4501333 0.7570877 1.2552452 0.6196201
254 0.8483196 -2.1115365 1.6863598 1.0201 0.03102359 0.910706 3.2977598 -0.5679595 0.66742325 -2.2068448
942 0.6172296 -1.1084646 1.0409224 0.8488452 -0.8747357 -0.8909211 1.070182 -0.2195151 2.959187 -1.0070558
885 3.6436214 -1.0068753 -1.127327 -0.13176791 0.4196436 1.9138582 0.45951536 -0.1899798 0.3446055 -2.0283453
420 -0.27873522 -0.84202194 0.2626216 1.6195064 2.6644518 1.5248086 -2.0982647 -0.90266025 2.5078294 -2.584533
679 -0.6143612 2.014486 3.2202353 0.80139035 1.7964023 1.4829285 0.22917926 1.64957 0.19811341 -1.5896804
567 0.28536353 -0.39877832 -1.3817263 0.52309895 0.74791336 2.2098305 0.12798636 1.4797132 1.2920109 1.0010483
102 0.93429375 -0.88922906 -1.0563041 0.76327205 -0.6308626 2.014912 0.77951306 1.298527 1.2397398 1.7691885
1060 -1.1784253 -1.2297632 0.28956237 0.47457138 5.0443163 2.4112575 1.2180381 2.3623931 0.9855765 -0.13896845
903 3.6731758 -1.0354337 -1.1455345 -0.093853965 0.39218912 1.8802195 0.4826305 -0.172616 0.31647244 -2.0218308
1079 0.23475508 1.0506989 0.8708449 -0.30124435 -0.0596668 1.8017157 -0.60365033 -0.26875013 2.6515698 0.8193978
259 -0.5557194 1.9897025 3.1756907 0.7565334 1.7767297 1.408329 0.2558875 1.6458344 0.14696902 -1.5368829
18 0.45645276 1.20768 -0.71221066 1.0882156 -0.023144161 1.9884883 0.52812594 0.6956697 1.2689363 0.6115997
112 1.129909 0.6054162 1.6581136 3.5865722 -1.5226321 0.7774941 0.14900878 2.1847572 -0.87722766 -1.00886
582 0.4645238 1.1527699 -0.7221494 1.0879322 -0.016964527 1.9535843 0.48974696 0.7192719 1.2417426 0.64389
97 -0.33505377 2.0938854 3.2809453 0.8612135 1.5809151 1.2433052 0.1110385 1.5641975 0.071171135 -1.7388495
570 0.24058716 1.0129577 0.82941574 -0.31062862 -0.07259907 1.8121921 -0.5985724 -0.26080954 2.6418176 0.8665747
517 0.7218913 0.40629268 2.0852363 2.6968167 -0.9071363 0.9768597 -0.20800349 1.4371926 -1.3063247 -0.9515435
447 -0.01631272 -0.28201085 -1.0189258 2.6181848 -0.09390645 1.6406002 -1.6534553 -0.20899314 0.95779335 0.41214505
831 -1.1227986 0.08084584 -0.41598058 2.0294988 0.7820633 2.2394679 1.0941592 1.4534671 0.13383722 -1.2565064
274 -0.13947836 0.42849803 3.6847541 0.8784959 2.0954835 0.90948045 2.330783 1.6675676 0.026294172 0.0032117355
1083 3.6673691 -1.0484079 -1.1526438 -0.12936923 0.4721781 1.8739989 0.49281514 -0.20926443 0.36471108 -2.0235798
365 -0.05036378 -0.2633094 -0.98592806 2.6766193 -0.10644779 1.6503018 -1.6546713 -0.24282221 0.9917955 0.39299357
644 3.6677327 -1.0475805 -1.1673799 -0.11883902 0.4160028 1.936521 0.517403 -0.1856413 0.34162596 -2.0517893
1040 -1.1197593 -1.2751259 0.24329226 0.37287232 4.8308806 2.3312838 1.3230048 2.2565267 0.9036175 -0.16586135
51 0.5265825 0.44583675 0.41859698 1.9995006 0.4078616 1.0098195 1.2312471 -2.426813 2.0230007 -1.222366
302 -1.5793248 -1.5448523 0.48462376 2.3590639 0.8382679 -0.2921358 -1.61008 3.6134498 4.43479 -0.33974424
63 0.5120196 0.4551382 0.38941503 1.9806049 0.39102188 0.9958018 1.2252016 -2.3530161 2.0258 -1.2087246
828 -0.28013864 -0.77773273 0.19128007 1.5568539 2.6402507 1.5406908 -2.095476 -0.8507267 2.5098803 -2.5491486
22 0.5134108 0.45036334 0.41131508 2.0290706 0.34172913 1.0476403 1.1939269 -2.47548 2.0413446 -1.2658851
523 0.07398615 1.1671824 1.1963927 -0.36065322 -0.20593148 1.8614876 -0.96964544 -0.29496202 3.217325 0.18780842
460 0.85075057 -2.077762 1.6528678 1.0074538 0.03327067 0.90167415 3.2397394 -0.5645553 0.64847463 -2.2020743
968 -0.119151674 0.4684506 3.7401178 0.8955913 2.1697268 0.94990027 2.3839283 1.7272038 -0.0067508314 -0.0020524904
604 -0.7595862 -2.591015 1.3561332 -0.4605295 1.474442 2.3261871 -3.4882708 0.7826567 1.8636509 -2.7786748
843 1.1574737 0.4780417 1.7296587 -2.4387686 1.6629544 2.1495788 0.50283784 1.5488707 2.8379176 -1.9656918
774 0.7305921 -0.43077055 0.46445087 1.1945488 -0.8183989 0.8920992 -1.9946283 0.029222643 0.81801504 -2.430547
59 1.0653585 0.6785603 1.6253731 3.6045191 -1.5044883 0.82528424 0.21608682 2.1631517 -0.8347391 -0.9046667
463 2.7272658 -1.2356008 0.010775858 -0.08737026 1.1689277 0.77181435 0.9847076 -0.20412104 0.1582917 0.6406884
949 1.0593779 -0.46076268 -1.2350734 1.0840746 -0.1771017 1.7473876 0.45444697 1.4814113 1.3392032 1.7107317
786 -0.80364037 -2.0914903 0.36177582 0.25251147 2.1583526 1.5253975 -0.421547 1.3787571 0.19970705 0.4118545
364 -0.88609004 -2.213962 0.678341 0.1435626 2.018738 1.5013107 -0.801871 1.2093719 0.18911009 -0.1352941
1054 2.3055804 -0.62496567 -0.15646143 0.25413328 2.3613143 1.4716537 0.7085193 -0.5827688 -0.36572152 0.73499167
68 0.9967972 -1.9694266 -1.5361091 0.8674049 -0.41715097 3.022781 1.2974256 2.088033 0.2585354 0.9857995
160 0.24113847 -3.881163 -0.74265623 -0.3656695 0.6311533 3.4678295 2.2999704 1.7745934 -0.07162309 -2.7642918
171 0.8692687 -2.047023 1.6442353 0.9939629 -0.0030456504 0.9024367 3.268239 -0.4991899 0.7017563 -2.1983542
348 0.30861527 0.17995031 0.19594172 1.8549349 0.55684674 0.78917164 1.0348843 -2.1243675 1.7728349 -0.8399233
219 1.3679829 1.2973217 -0.3165484 1.3994805 -0.17075643 2.2049587 -0.5614446 0.56818366 -0.30231723 -0.27148905
359 -0.85603124 -2.2405555 0.6676643 0.16955481 2.0508208 1.4909852 -0.8355298 1.2354877 0.21095636 -0.13412502
177 1.0041546 -1.8883749 -1.5738931 0.79485047 -0.36794895 2.9398 1.2379655 1.9838942 0.3625634 1.0210295
202 0.8364865 -2.028331 1.56715 0.99141455 0.0024245973 0.8784014 3.241346 -0.5575074 0.649332 -2.1332016
655 0.4896173 0.4277735 0.4232153 1.9588693 0.40611035 1.0356091 1.1836376 -2.3995025 2.0060847 -1.212215
1103 -0.45426962 -1.2756605 2.406252 -0.14942184 -0.39516068 2.5680606 -0.43159384 -0.0054863044 -0.038758766 -2.0794785
424 -0.06358051 -0.30172032 -0.9875963 2.632693 -0.008613714 1.6367036 -1.6532669 -0.19818732 0.92966247 0.4223571
482 -0.33567446 -0.76681757 0.18722984 1.560818 2.6179862 1.4919106 -1.9850978 -0.7726768 2.4615638 -2.480728
620 3.7022753 -1.0237243 -1.1300869 -0.1162142 0.3859657 1.9136977 0.48826128 -0.17330395 0.35003772 -2.0209506
639 0.74377537 0.40306258 2.0990665 2.6583252 -0.8768836 0.91968185 -0.21981832 1.4628099 -1.3337988 -0.89381254
343 0.33947754 0.11182777 0.17986132 1.860455 0.5779974 0.76437753 1.0351245 -2.1833377 1.8129272 -0.7824356
139 0.06532762 -0.78504634 0.6055076 0.86424863 0.24150018 0.5922243 -1.6337638 -0.4237257 1.041568 -2.0063386
552 0.75397605 0.48603368 2.0308938 2.8029299 -0.9018522 0.8190514 -0.2475604 1.3217824 -1.2304592 -0.8675474
688 -0.63970494 2.0577033 3.2771885 0.7798238 1.8103973 1.5330553 0.22326717 1.6831335 0.24236527 -1.6088154
234 0.85928017 -2.0875602 1.7100941 1.0025532 -0.010640156 0.9200428 3.295853 -0.57109606 0.7148471 -2.2144225
577 0.13199942 -0.76039815 0.6275931 0.8651812 0.018874746 0.64732146 -1.7316241 -0.34889668 0.980376 -2.0389047
535 2.9614582 0.44342571 0.7904847 1.8583086 0.39757878 1.3821522 -0.1666757 -0.47881612 -1.2406648 -2.3891048
488 0.24050066 -3.825521 -0.76994514 -0.41252252 0.5921044 3.426835 2.3057938 1.7618871 0.01279657 -2.6153905
270 -0.27349198 -0.82740635 0.20444131 1.5804763 2.65267 1.4929246 -2.0935168 -0.8732559 2.5263503 -2.5434096
750 1.1141555 0.49387285 1.6746266 -2.3830442 1.63721 2.1048362 0.48821947 1.5055774 2.7462738 -1.9134727
155 1.0017633 -0.9077018 -1.078437 0.7288674 -0.70318854 2.064496 0.79108274 1.3993188 1.3389603 1.7883244
344 -0.014706554 -0.2951692 -0.98680925 2.6601663 -0.07528856 1.6593417 -1.6690965 -0.2075595 0.9597009 0.41203746
181 -1.1098509 -1.1780869 0.17281692 0.41318586 4.750258 2.325917 1.272288 2.3083954 0.9810755 -0.0015485487
730 -1.0929289 -0.059202023 -0.3276967 1.9847115 0.59632266 2.2019038 1.0582509 1.3987921 -0.08099894 -0.9890893
5 1.1187936 0.61849105 1.6823059 3.644466 -1.5639629 0.8109316 0.1211987 2.272416 -0.8701701 -1.0940534
697 0.32295015 0.1335605 0.20171621 1.8344169 0.5585956 0.7427982 1.0088432 -2.094603 1.7659026 -0.8441276
1016 3.7272673 -1.0438282 -1.1892389 -0.121600784 0.4611616 1.9509559 0.5208856 -0.17552608 0.35079738 -2.1117783
158 -1.0531695 0.08076912 -0.41061342 1.8836745 0.71777177 2.0474699 1.0344858 1.3993942 0.16380665 -1.2056867
261 0.8457244 -1.9284759 1.6135142 0.99265593 -0.08366801 0.9416308 3.2274415 -0.5661014 0.6384115 -2.1088717
541 -1.1074587 -0.031320732 -0.35178 2.049735 0.63135946 2.2246492 1.0103246 1.4232004 -0.096545674 -1.0384494
300 0.34537354 0.16292003 0.17303559 1.8322611 0.5522751 0.7863225 1.0519803 -2.151539 1.7929988 -0.83899975
393 -0.8840469 -2.254787 0.7104313 0.1911394 2.1055076 1.5209509 -0.8438942 1.2331154 0.19659601 -0.12624978
109 0.075533 1.1564223 1.1466047 -0.33325234 -0.18011267 1.8363012 -0.88877386 -0.29975358 3.087091 0.30040693
218 0.057029556 1.1745896 1.1467233 -0.31687164 -0.1446773 1.8872235 -0.9294499 -0.27445737 3.1545885 0.2962279
53 0.2059299 1.0353866 0.8472072 -0.31526095 -0.10431384 1.8722146 -0.57996494 -0.25975624 2.6696703 0.8057628
1056 -0.14543913 0.46603018 3.692192 0.8832736 2.1942687 0.979261 2.3619623 1.7261306 -0.003961126 -0.07367807
464 -0.83706594 -2.2237248 0.64577657 0.13866399 2.0220413 1.480433 -0.7956192 1.2638004 0.18019107 -0.14879686
832 -0.7768639 -2.1093726 0.30938217 0.23471844 2.190464 1.549666 -0.40232152 1.4434581 0.23585615 0.44052425
483 1.7464814 0.5083143 1.0916883 4.7696176 1.3892391 -1.4711556 -0.124899395 1.5670156 1.0875154 -0.3282488
741 -0.60406923 2.1201978 3.225778 0.76786786 1.8282552 1.508853 0.15180147 1.6638368 0.25276625 -1.6167402
48 1.4162484 1.3331189 -0.33819428 1.419173 -0.1376166 2.270857 -0.5768563 0.524823 -0.2698937 -0.2742033
166 -0.15848608 0.44678536 3.6738226 0.9159688 2.1466749 0.9518161 2.4247885 1.7741174 0.0011567336 -0.12731145
458 -0.4122362 -0.3637712 -1.016704 2.863486 0.378945 1.776146 -1.3561641 -0.28867885 1.2610396 1.0882037
551 0.27535638 -0.30645686 -1.39809 0.54417306 0.718748 2.2586348 0.23538412 1.593824 1.2604744 0.95606446
319 -0.2949812 -0.85187966 0.24082512 1.5733123 2.6834877 1.5157766 -2.0751212 -0.85068375 2.5331805 -2.5889654
544 0.25305045 -2.5733256 1.8097655 2.3999338 2.1792235 0.84247917 -1.3431712 -0.17381568 0.27049056 2.6388557
729 2.9522884 0.43793315 0.8046955 1.8273095 0.38049695 1.3845519 -0.22080144 -0.4095052 -1.2237482 -2.3914294
747 0.33491418 0.17110653 0.19219701 1.9055301 0.557631 0.7918283 1.074855 -2.2178497 1.8520823 -0.89496326
704 -1.0112 -1.1603131 0.10491232 0.4827208 5.103922 2.353939 1.4678197 2.3547995 0.9672566 -0.16254418
943 1.1246662 0.45726144 1.660541 -2.3914518 1.5909474 2.102276 0.45745885 1.5670264 2.7657938 -1.9800472
754 -0.55460536 1.9386518 3.129093 0.7438094 1.719907 1.383878 0.27478617 1.6494726 0.12993759 -1.5350864
492 0.71674436 0.7615771 3.2265387 0.76129216 0.9179641 3.8474026 1.4029418 -1.1059921 -1.154048 0.79263115
135 -1.0794334 -1.1730326 0.13305499 0.44857886 4.877559 2.399644 1.3654552 2.3355293 0.9594848 -0.12303363
518 2.6579463 -0.8056527 0.122815795 -0.35783347 2.2975965 0.6484385 0.30023313 -0.086614564 0.7735085 0.7146212
338 1.104511 0.41453204 1.7037969 -2.3631513 1.6298345 2.1131256 0.4887971 1.4990437 2.72744 -1.9433436
164 2.7212956 0.49629903 0.63585806 -0.05366021 1.4350556 0.2097194 0.74776417 0.50577086 1.3730596 1.1079612
905 -0.5568936 2.0017476 3.1359193 0.77679294 1.7736766 1.3584347 0.32175094 1.6150031 0.17387033 -1.5659075
211 0.54127985 1.4884572 -0.4337094 0.962566 -0.1733448 1.8955872 0.36102694 0.5722426 1.0724914 0.14291935
140 -0.7958577 -2.0895894 0.29047078 0.22850046 2.2025495 1.5533063 -0.37114197 1.4345038 0.21959773 0.401069
887 0.11432221 0.9499095 1.0910757 -0.37773982 -0.37363395 1.4039408 -0.8187761 0.015697943 2.6655307 -0.11679246
469 0.45377332 -0.41215277 -1.5243621 0.5034254 0.68528885 2.0754383 0.24309492 1.2758975 1.2870442 0.8581168
1014 1.2287606 1.3054143 -0.62933123 1.4741355 -0.45210728 2.6083035 -0.46979716 0.7191056 -0.08464242 -0.33398134
467 2.6408844 -0.76858854 0.16501337 -0.39701524 2.2735085 0.6507856 0.36415654 -0.100821145 0.7740188 0.736164
820 1.128382 0.460644 1.6728123 -2.3882194 1.6329792 2.072332 0.4736371 1.51832 2.7852693 -1.8936255
260 0.3302543 1.0237646 0.7599635 -0.2572337 -0.014815854 1.8553188 -0.48029125 -0.23407093 2.4672973 1.0131816
871 1.158954 2.0472689 0.1695582 1.0801132 -0.31081557 1.8099976 -0.3165307 0.474794 0.52715 -0.44889522
355 -0.83494073 -2.2297966 0.6948796 0.12731674 2.050423 1.4733583 -0.80285037 1.217566 0.20899738 -0.1763835
229 0.6681414 0.7528272 3.2120917 0.75285095 0.8792842 3.8044436 1.4471651 -1.1167923 -1.1737143 0.81703144
372 2.8248203 0.48114848 0.6947062 -0.027571809 1.4561143 0.19284773 0.7902525 0.4640479 1.4885154 1.152936
281 1.1106257 0.50677437 1.6679143 -2.348184 1.6170826 2.06757 0.49590525 1.5254234 2.7502675 -1.9289806
1105 -0.6048641 2.049406 3.2614288 0.8634645 1.8398752 1.3948382 0.234554 1.655878 0.24750805 -1.5857035
690 -1.0850968 0.07378068 -0.43615294 1.9842489 0.7538861 2.1538064 1.1069471 1.4333346 0.20545082 -1.2384372
212 -0.045360878 -0.2712994 -0.9867695 2.626388 -0.103467144 1.6778827 -1.6516783 -0.19544765 0.95629007 0.39028412
162 1.1059643 -1.2316997 1.0564703 -0.6423054 -0.531216 0.42439902 -0.2635396 -0.25847548 1.7346718 -0.15814759
20 0.465345 -0.43256488 -1.5668736 0.5127449 0.76601344 2.1467607 0.28864935 1.3031862 1.2987967 0.8471471
833 0.32470205 0.14392467 0.18520887 1.8816597 0.58320284 0.8095789 1.060122 -2.2146597 1.8398336 -0.8848712
480 0.07519715 0.9838825 -0.9238306 1.8057915 -1.0399817 4.527309 -0.684125 1.9249395 1.6952199 1.3327214
368 0.07515355 0.986663 -0.99338174 1.7994756 -1.0495231 4.565456 -0.6915971 1.9095292 1.778286 1.3091226
197 0.015236104 0.9202388 -0.99163574 1.7619196 -0.949098 4.424229 -0.7199543 1.9240377 1.8218539 1.3940103
1028 1.1356401 0.4759868 1.6565679 -2.3955245 1.6486405 2.088714 0.50443405 1.5099925 2.7714198 -1.9024622
235 -0.091463864 -0.8155343 0.6578259 0.8261122 1.1553205 0.5445769 -1.3908156 -0.69807 1.4479312 -2.0061212
433 -0.87960005 -2.2319655 0.67319965 0.14161192 2.0394213 1.5051318 -0.7945107 1.2303948 0.20258279 -0.15444353
1061 0.22980598 -2.469752 1.7835511 2.3396738 2.1667912 0.81793344 -1.289003 -0.15989342 0.25783566 2.5905948
419 -0.031805925 -0.28018633 -1.0181053 2.6318436 -0.13706912 1.6727413 -1.6224114 -0.21619517 0.98493665 0.4067219
793 0.94072324 0.14406931 1.9611101 0.6192148 -0.093310796 1.7599655 0.48104125 -1.4378684 -0.26019445 0.99828506
782 0.095268406 1.1291996 1.149778 -0.35794038 -0.19251442 1.8187851 -0.9235737 -0.2760839 3.1294525 0.22783859
381 0.28915745 -3.4030886 3.348792 3.4450946 -0.35083959 -0.82268584 0.8965528 0.378793 0.53640217 0.28559932
143 0.49898875 -0.2732038 5.073405 0.30983165 2.09454 0.9851297 1.0126945 1.4643127 -0.19808166 0.5305919
616 0.24748366 -2.5343037 1.7778628 2.3852124 2.2238393 0.80132514 -1.2877811 -0.13669081 0.26041678 2.567523
115 0.30817032 1.0224619 0.74085736 -0.2844437 -0.028562924 1.8167828 -0.5234825 -0.24741597 2.5150063 0.9661508
733 0.7273104 0.53396314 2.0252964 3.0473752 -0.9030057 0.6502954 -0.19660906 1.2426734 -1.0375657 -0.82939655
502 -0.43835774 -1.3039372 2.431893 -0.18412344 -0.44755086 2.6203275 -0.4560178 -0.037438456 -0.057737898 -2.1247082
740 0.8555982 -2.329696 1.3183222 2.5603006 2.0984926 -0.9931302 -1.2272222 1.0800526 0.9353274 1.3990939
82 -0.53261876 2.1000497 3.232458 0.81585157 1.8336971 1.4452845 0.26009607 1.6809952 0.15769507 -1.5986983
585 0.30184087 -2.5481293 1.8102254 2.4496424 2.2437603 0.8363655 -1.3182293 -0.15850964 0.20100082 2.6331415
43 -1.6456548 -1.6350355 1.8329437 2.3673248 -1.7725089 4.1712713 -1.005736 -1.1339242 0.8594442 0.96302736
759 0.32450598 -3.4402895 3.3497815 3.3574822 -0.3073173 -0.8275761 0.9171882 0.3100074 0.5702813 0.34135637
356 0.0075156623 -0.9677336 0.74658906 0.90150946 0.4307966 0.65459347 -1.7203243 -0.5722326 1.1280938 -2.1049545
636 1.1518432 2.1170483 0.09376912 1.1672635 -0.20224805 1.8258077 -0.32929623 0.52582985 0.5393203 -0.48848322
984 0.77068853 0.51024413 1.9852707 2.9822476 -0.8263949 0.6478354 -0.25925976 1.2378262 -1.0466924 -0.7949641
159 0.38009152 -0.933757 1.1272746 0.8159236 -0.829688 -0.91666824 1.0016254 0.06555234 2.7510583 -1.0119143
304 0.13503334 0.9184509 1.0604252 -0.3665647 -0.38726792 1.3434538 -0.83227843 -0.027652739 2.6031935 -0.15449424
545 0.88278955 0.10208819 1.9183239 0.9117816 -0.15841642 1.4737164 0.38392708 -1.5306135 -0.13938166 1.0450922
877 -1.6599257 -1.6750119 1.8397794 2.4116468 -1.7574401 4.222695 -0.97533244 -1.1134427 0.8077848 0.9521925
402 0.0403105 1.0806762 1.0658602 -0.3543607 -0.11425917 1.8645177 -0.8759096 -0.28153884 3.054948 0.31170806
717 0.7369867 0.72039014 3.2045345 0.77569455 0.9516624 3.9099765 1.4417218 -1.1248384 -1.2224385 0.8195279
822 0.059797946 0.9432851 -1.0026492 1.8364992 -0.9349076 4.583828 -0.90955853 1.9983597 1.8396564 1.4482505
883 0.3220925 0.15257885 0.18168294 1.8451235 0.5666836 0.78114736 1.0597391 -2.1656432 1.800289 -0.86357754
84 1.090461 -1.2897699 -0.81858397 0.48026446 -1.188325 2.2989693 1.0490365 1.3230525 1.2421619 1.7391616
414 0.3094548 1.0275143 0.76152086 -0.31390595 -0.04409056 1.7437614 -0.52889067 -0.22105977 2.4361672 0.9495599
507 0.31247532 -3.4587626 3.344619 3.3833508 -0.24288158 -0.8554625 0.883781 0.3170096 0.5625196 0.2942263
30 -1.618935 -1.6456028 1.836006 2.3477817 -1.7889915 4.139463 -1.0121908 -1.1068025 0.8598627 0.93403125
1055 0.32004943 -0.8881776 1.1480865 0.83389246 -0.902056 -0.86653477 1.0043235 0.13304622 2.6770463 -1.0534741
945 1.1598889 0.46941748 1.6715615 -2.338196 1.6532567 2.0714006 0.48474595 1.5215634 2.7479503 -1.9069597
239 -0.4587394 -1.2704238 2.4348264 -0.16506988 -0.40543675 2.5841491 -0.45388097 -0.011184436 -0.021345856 -2.1174812
944 0.7768036 0.78174514 3.1887057 0.7369931 0.94886154 3.7502944 1.419836 -1.1386824 -1.142255 0.8232948
796 0.07757079 1.1473333 1.1334326 -0.35651988 -0.15714404 1.8059986 -0.95062476 -0.28281054 3.1301434 0.2694345
852 0.17497759 0.9096126 1.0453736 -0.30573472 -0.4397113 1.2302564 -0.7736893 0.08258602 2.4881113 -0.24002197
12 -1.6256876 -1.6557125 1.8206556 2.3978157 -1.7704803 4.151849 -0.9711672 -1.14655 0.8381557 0.9373801
470 -0.0020528464 -1.3061548 0.17510708 0.45318246 0.54933715 0.9833802 -1.203677 -0.10702863 0.14419156 -0.2526687
862 -0.6155959 2.0185583 3.1178598 0.78105813 1.8381013 1.4192437 0.29667735 1.6571528 0.2086708 -1.5415348
928 0.50815606 -0.26882806 5.0723414 0.3308412 2.1205485 1.0101055 1.0176624 1.4834926 -0.2475532 0.49432918
61 -1.642762 -1.6437135 1.8087258 2.4065382 -1.8135656 4.1994743 -1.052429 -1.1506518 0.8846168 0.94458973
52 1.1475886 -1.2214441 1.0588622 -0.65888214 -0.5134901 0.4067671 -0.2820696 -0.26692873 1.7517773 -0.12097614
675 0.07971238 1.1254318 1.1206163 -0.35786515 -0.16754675 1.8674012 -0.93402076 -0.29266572 3.1210783 0.21738118
666 -1.6572964 -1.6118988 1.770151 2.3650858 -1.7454553 4.1176753 -0.92471224 -1.0630991 0.7965068 0.8811917
1000 0.07959986 1.1343929 1.0608675 -0.38468072 -0.14168967 1.8913914 -0.8601878 -0.28466883 3.0967865 0.34227678
812 0.2973253 1.0164096 0.7623514 -0.27137178 -0.022541791 1.8035995 -0.50878096 -0.21311253 2.4689693 0.9304567
373 1.1171103 0.52211493 1.6561043 -2.3737075 1.6559702 2.1160333 0.52239144 1.5705633 2.8091905 -1.9605652
775 0.42746302 -0.2505429 5.027229 0.36437723 2.0850558 1.000683 1.0099384 1.4616194 -0.19457385 0.53134406
1092 0.24156398 -2.517224 1.774327 2.4710329 2.2037914 0.85181445 -1.2504987 -0.19388948 0.25051808 2.6161294
1065 -0.84343565 -2.216612 0.6729726 0.20414941 2.0439892 1.4748582 -0.7737169 1.2256676 0.18892524 -0.12859778
1042 0.053491462 1.1426138 1.0860348 -0.3422887 -0.1620452 1.9184564 -0.8841406 -0.28599584 3.1080852 0.35197306
87 0.555859 -0.24497175 4.9872446 0.3169047 2.106803 0.9626682 0.9944686 1.4695143 -0.21983427 0.51735187
769 -0.81148154 -2.4591298 1.3971791 -0.5217051 1.497533 2.3246045 -3.2990294 0.756723 1.6971189 -2.64013
1045 -0.42849422 -1.400811 2.3083558 -0.17039295 -0.45179808 2.6072752 -0.4073877 -0.052226547 -0.094173975 -2.1392357
1047 0.21748978 -2.583048 1.8065954 2.4462595 2.2298796 0.83767146 -1.2178776 -0.17981553 0.27121922 2.6563237
497 0.7492799 0.68359053 3.1752825 0.72885585 0.8804842 3.788371 1.4024366 -1.1146289 -1.1532438 0.8654505
395 0.04746482 1.1246773 1.0863734 -0.37431276 -0.1423379 1.9077111 -0.8374963 -0.29118896 3.0788946 0.36448392
1010 0.0860318 1.130011 1.1503211 -0.3825219 -0.20441113 1.8386277 -0.8906978 -0.29811805 3.1194792 0.2008478
118 -0.8281241 -2.4212809 1.4554313 -0.47711605 1.5523913 2.1616297 -3.140911 0.82228655 1.5408307 -2.5106008
246 -0.044040237 -0.9609185 0.73576516 0.91146487 0.497494 0.617308 -1.6745455 -0.5692001 1.1370032 -2.0808456
1057 -1.6881336 -1.663627 1.8302485 2.4284806 -1.8016374 4.2481294 -0.9935129 -1.1250299 0.81400204 0.9680931
583 0.5111522 -0.2497518 4.931295 0.29156357 2.0058506 0.9342131 0.92988575 1.3717773 -0.16155139 0.5381058
1044 -0.40734506 -1.3396472 2.2935746 -0.2526925 -0.41532585 2.5701363 -0.4284668 -0.07121162 -0.0036994 -2.0765023
248 3.1089427 -0.6163632 0.077198125 -0.6186579 2.354474 1.476453 1.2418982 -0.07289802 1.3769009 1.5619141
494 1.0416167 0.45196405 1.550997 -2.2906337 1.5602124 2.0415711 0.524279 1.5001519 2.6965322 -1.8136228
864 1.0404431 0.4610475 1.5398442 -2.2857788 1.5630322 2.0521135 0.51292837 1.513213 2.7143157 -1.8491389
189 4.1832776 -0.9673207 -0.4667533 -0.24732977 1.5205675 1.9068747 0.3644204 -1.2008739 -0.16934896 -1.195075
459 1.3156445 -1.1014688 1.4389871 -0.8683775 -0.51322454 0.54807794 -0.45165643 -0.25168857 1.9015446 -0.18183118
1058 1.0923041 0.4876971 1.6659721 -2.384038 1.6639882 2.13083 0.49349254 1.5700318 2.8176312 -1.8999279
213 0.12952016 0.96072346 1.0952531 -0.32072303 -0.39947557 1.4017558 -0.8590736 0.014195785 2.649751 -0.12957399
431 0.7179926 0.7071902 3.0826342 0.67028445 0.83428186 3.6723733 1.3256456 -1.1226808 -1.1202387 0.8310513
473 -0.028142396 0.24219956 3.477318 0.45906118 1.7725143 0.92033255 1.9740252 1.4089884 -0.02863293 0.18972237
963 -0.47012702 -1.3522646 2.3468876 -0.16699813 -0.42480507 2.6147985 -0.45165753 -0.039062113 -0.09687619 -2.0990245
182 0.66544425 0.7197641 3.13453 0.7922852 0.9146632 3.7280757 1.3811524 -1.0989356 -1.1473567 0.864174
342 -1.6914167 -1.6198398 1.6634563 2.358261 -1.6958507 4.103343 -0.7982739 -0.9569787 0.68916917 0.8027141
758 0.71416247 0.6807457 3.076922 0.6551562 0.8508972 3.6539798 1.3639065 -1.0900352 -1.0766587 0.815665
708 2.8021095 0.44345483 0.7459016 1.8163813 0.40161976 1.3204987 -0.18273231 -0.38835397 -1.203505 -2.292548
718 4.44911 -0.7865072 -0.501676 -0.3078667 1.7352723 2.0780077 0.29111996 -1.2648803 -0.17671312 -1.3735
389 0.51577336 -0.28369376 5.104401 0.35861656 2.2091873 0.97218776 1.0018593 1.4946413 -0.14460985 0.5302234
362 1.335714 -1.0959518 1.460997 -0.8689592 -0.5215921 0.5279256 -0.437849 -0.23352006 1.9302329 -0.1870113
739 0.9138685 0.10584331 1.9772319 1.0116186 -0.18443835 1.5363842 0.34903216 -1.6007363 -0.15111753 1.0290812
988 -1.6656855 -1.6388695 1.6637342 2.3303173 -1.7148689 4.053841 -0.8149047 -0.8995747 0.6381133 0.8406969
1 -0.2970898 -1.3198746 1.9762802 -0.19987573 -0.24344583 2.2703032 -0.3174388 -0.07897929 -0.12217702 -2.0705147
901 2.9637527 0.56821585 0.713148 1.8750596 0.36675805 1.4197834 -0.17644267 -0.44685924 -1.1718885 -2.3778138
651 0.508051 0.44421324 0.44069642 2.1003146 0.40211502 1.1072792 1.3018461 -2.493291 2.0930135 -1.3206468
436 0.26489124 -2.502051 1.7556404 2.4302459 2.2802591 0.814122 -1.3079596 -0.16064623 0.27330822 2.5908723
265 -1.6607078 -1.6009818 1.6936122 2.3559802 -1.6633116 4.0119705 -0.8183288 -0.9168718 0.60731983 0.88179183
455 -0.41954866 -1.2435232 2.3866649 -0.16737963 -0.40535495 2.5881422 -0.5062542 -0.04909197 -0.034635726 -2.1198318
776 1.0143297 -1.670131 1.0584266 -0.39104998 -0.70697343 0.24960054 0.21171936 -0.34126174 2.1429772 -0.07372193
982 1.117187 0.33703354 2.037653 2.420543 -0.9359239 0.97187614 -0.24015047 1.413018 -1.4680845 -0.73957527
1008 2.203674 0.39676353 2.138068 0.6544226 0.21797456 1.0693854 -0.6726117 -1.3364612 0.13907206 1.0871174
806 1.0035743 -1.7979572 1.1870232 -0.28919008 -0.73335946 0.2066186 0.43950585 -0.3777459 2.3543684 -0.05742318
207 -1.7200682 -1.6551563 1.8398027 2.4538298 -1.7397795 4.2476 -0.9552464 -1.0751454 0.73766756 0.91555065
515 1.1796088 -1.4132818 -0.80863076 0.48137406 -1.3900042 2.4910116 1.192419 1.4377002 1.413977 1.8717332
305 1.2858157 -1.0902616 1.442281 -0.873279 -0.4816826 0.5184706 -0.4477359 -0.25605437 1.8783125 -0.16312377
955 1.3229556 -1.1002859 1.4523326 -0.88520986 -0.51148117 0.5508856 -0.451482 -0.25347614 1.9111899 -0.1807672
735 3.0498443 0.60199136 1.2200202 -0.29986015 1.4229382 0.42145413 0.91533947 0.80635506 1.5823886 1.4247149
195 0.2832769 1.0703812 0.74625003 -0.27521905 -0.01847415 1.8840717 -0.50839704 -0.22967945 2.484326 0.96105134
1072 0.71650887 0.680307 3.0710423 0.6643994 0.9003449 3.6005032 1.3214475 -1.0789254 -1.1122445 0.8075243
819 0.98701656 -2.1963332 3.694702 0.12223754 -1.7976036 0.64410126 -3.1694717 1.6341686 2.377893 0.71590936
439 1.3104031 -1.0983849 1.4143736 -0.8584262 -0.5055697 0.5386889 -0.4391603 -0.24755554 1.892074 -0.21359558
501 3.7254958 -1.0741315 -1.1868311 -0.09885286 0.42454273 1.9280446 0.46839085 -0.15732914 0.32316113 -2.0826054
50 3.010551 0.6055098 1.2190268 -0.26171392 1.327726 0.4119794 0.93745875 0.80764997 1.580218 1.4127938
210 3.1465502 -0.91781807 -0.10278996 -0.43911812 2.5924299 1.5180612 1.216316 -0.45668224 1.2189766 1.4329937
941 0.32853666 1.0636249 0.7697756 -0.27407587 -0.020490017 1.8392423 -0.5217727 -0.25710917 2.5043287 0.9806507
818 1.3128955 -1.0712341 1.5039257 -0.89792836 -0.5075754 0.5889805 -0.4139667 -0.24129121 1.9080355 -0.15456966
847 0.7369678 -0.4121382 0.4461022 1.2163259 -0.80532616 0.8804501 -2.047726 0.020450938 0.8385332 -2.4640625
845 2.8610287 0.45257473 0.7608892 1.8406272 0.3968813 1.3846668 -0.13593407 -0.44561175 -1.2282007 -2.3859262
728 3.6274202 -1.0386779 -1.171759 -0.112183526 0.42264727 1.9049413 0.46984464 -0.14437136 0.33619308 -2.0483432
1005 0.7110067 -0.34063715 0.3743505 1.1390859 -0.75221014 0.8199163 -1.9069436 0.02964804 0.84520626 -2.3385758
1100 2.8754206 0.47132513 0.72687614 1.9353383 0.39742875 1.377725 -0.03929848 -0.48439103 -1.2454449 -2.368844
325 2.8116605 -0.9837595 -0.29712567 0.33272025 1.4719988 0.71410924 0.77402824 -0.40181607 0.09006621 0.46463877
830 4.7871428 -1.406034 -0.5411093 0.23712087 2.946368 1.5879987 0.9919612 -0.19041105 1.2216433 2.2204654
564 3.6177044 -0.97019815 -1.1309247 -0.13174298 0.4049157 1.8504847 0.48587376 -0.16992795 0.34684116 -2.0218637
1027 2.3187914 -3.7636275 0.84736514 -0.8400173 1.82555 -0.57325983 -2.5611966 1.5138271 2.8513033 -3.2590148
49 -0.016738568 -1.4232268 0.21863219 0.536722 0.62687546 1.0284171 -1.273038 -0.16453157 0.1350127 -0.19971663
392 0.22536068 -4.027794 -0.7197155 -0.38255784 0.74436367 3.6000974 2.4815445 1.8586279 -0.13830838 -2.6621363
621 3.616028 -1.556627 -0.7438216 0.12406357 1.283945 1.160306 0.50485 0.09901038 -0.3771312 -0.8228581
1053 1.1420941 0.38966122 2.1231859 2.5152764 -1.0005713 0.9691582 -0.22395183 1.4267961 -1.469744 -0.69337815
141 -0.83515275 -2.0749018 0.32781592 0.23082627 2.1994567 1.4856834 -0.43596786 1.4021236 0.27100098 0.46097037
608 0.4422824 -0.22903018 5.06555 0.39216533 2.1245794 1.0110328 1.0259004 1.407454 -0.17222703 0.59995675
921 1.0036722 -2.228658 3.7537358 0.138206 -1.8114488 0.6074114 -3.1843586 1.6540399 2.4235342 0.7329714
247 4.179829 0.7000567 0.5863748 -0.3082123 0.98260623 1.6439669 1.3806239 2.1100361 0.044380758 1.1761059
223 1.0170423 -1.7975507 1.1485056 -0.3003989 -0.7327916 0.21058077 0.37072688 -0.3847428 2.3662593 -0.0769228
145 2.1578438 0.12430068 0.75927603 0.540387 -0.34891707 0.36266345 -0.51803637 0.9864573 -0.58150786 -1.4440929
201 -0.7959892 -2.0662732 0.31163797 0.25114495 2.165116 1.5537179 -0.39268512 1.4492711 0.22414976 0.45922726
1046 1.0954106 0.5579157 1.6404473 -2.3721893 1.6057086 2.11645 0.46988493 1.5280313 2.8419883 -1.926667
962 1.2788804 -1.0952129 1.4336567 -0.8658366 -0.5207997 0.5702556 -0.43031943 -0.25323066 1.9003366 -0.16708203
763 3.0713527 -1.4133617 -0.051658075 -0.018448783 1.2017665 0.91157407 1.3268638 -0.27635884 0.15249778 0.59386814
814 1.3029926 -1.1137302 1.4100271 -0.83752084 -0.501229 0.56722426 -0.40773216 -0.233457 1.8591183 -0.17083935
481 0.23873161 -2.5890515 1.8153087 2.4874246 2.282725 0.8542186 -1.2821159 -0.16077307 0.25241092 2.6486678
829 4.752085 -1.3741624 -0.57772785 0.18781313 2.9016013 1.6291014 0.98450625 -0.24621986 1.2214068 2.2332869
939 0.74182934 0.73951983 3.2216926 0.6987997 0.88955855 3.7840586 1.397651 -1.1318198 -1.1505817 0.83014077
1081 1.0099992 -1.7376046 1.1320027 -0.26287553 -0.739037 0.13512513 0.4549617 -0.39156994 2.3578558 -0.070229344
974 2.653617 -0.8414349 0.09432614 -0.31042847 2.3846302 0.7396141 0.34790218 -0.21622327 0.72766745 0.7586428
624 2.7429836 -0.922453 -0.33215055 0.26452833 1.4406437 0.6931209 0.70039976 -0.35614565 0.0897357 0.4121377
349 0.80805886 -1.848429 1.5654774 1.0157057 -0.11500885 0.96422476 3.1586947 -0.6094047 0.5884335 -2.0105069
445 2.8019829 -0.90023726 -0.3160867 0.32462814 1.5011812 0.7219048 0.701863 -0.42707634 0.095383696 0.46341142
906 0.84779817 -2.5271993 1.6720407 2.169233 2.0139365 -0.76335835 -1.4778138 0.96312624 1.0403799 1.7765388
589 0.3104013 -3.4363422 3.418002 3.3281207 -0.4377025 -0.70008653 0.83544266 0.3317285 0.5127766 0.37051755
183 0.84333897 -2.6338556 1.6851023 2.2874973 2.048194 -0.8121094 -1.478783 1.0361854 1.0084192 1.7449929
272 1.0358827 -1.7835965 1.1347153 -0.27526954 -0.74018157 0.21309248 0.4177659 -0.4033882 2.3350575 -0.08404933
352 3.2611814 -0.8805583 -0.05348965 -0.48055565 2.5384636 1.5732216 1.2447748 -0.44526917 1.2629201 1.5253019
199 -0.012922496 -1.4067934 0.230065 0.5368574 0.629031 1.0079232 -1.3274904 -0.19719389 0.17203577 -0.254515
442 0.8830667 -2.5829027 1.6805689 2.258468 2.039899 -0.78134334 -1.4761503 0.9421955 1.0613868 1.8151667
682 -4.3968554e-05 -1.4474738 0.24094619 0.4754603 0.6363164 1.0069635 -1.3059915 -0.17515802 0.15751912 -0.23543498
668 -0.775319 -2.0562582 0.31624097 0.24149823 2.1706648 1.5091394 -0.41581696 1.4403905 0.22392496 0.418462
619 -0.7958726 -2.1569858 0.6102566 0.10372859 1.9048702 1.3984516 -0.8303353 1.1223778 0.2008578 -0.14876522
601 -0.7884786 -2.1690612 0.5968551 0.11747865 1.8952558 1.4151856 -0.83034295 1.0447681 0.1640085 -0.19629458
1110 0.36394733 -0.8838667 1.1068717 0.92438155 -0.874511 -0.90041625 0.984761 0.06837665 2.737743 -1.0681734
450 2.4202142 -3.6747906 0.8210718 -0.93135107 1.7303208 -0.49145296 -2.6031063 1.5518525 2.7752547 -3.1605263
912 -0.041316543 -1.0291135 0.83579075 0.99084526 0.5369206 0.6759683 -1.7539201 -0.6576021 1.1201186 -2.1853843
803 2.9765546 0.5170462 0.8139231 1.9562796 0.40937066 1.4163646 -0.14726579 -0.43398714 -1.2675788 -2.4173286
686 0.47633696 -0.20691907 5.141699 0.3821386 2.1149178 1.0659541 1.003082 1.4214073 -0.20045398 0.586423
878 1.3072963 -1.0421765 1.4653333 -0.86128616 -0.5290309 0.54984874 -0.45477787 -0.230952 1.8901088 -0.2242036
309 0.9668594 -2.2328439 3.7283225 0.10847194 -1.7945777 0.62891716 -3.1520896 1.6383712 2.4018087 0.71595454
448 -0.1059363 -1.0516902 0.8150458 0.90941906 0.64278775 0.6886727 -1.7091149 -0.61547923 1.1903648 -2.1940088
170 3.1004047 0.6422129 1.2215916 -0.30939564 1.3824631 0.4960773 0.9438272 0.7846438 1.574433 1.4806372
617 1.3312474 -1.1236608 1.486072 -0.8678464 -0.50644153 0.5702473 -0.46722728 -0.24327177 1.9144698 -0.16907556
184 -0.14852682 -1.4408455 0.26729843 0.24801306 0.7132726 0.9922092 -1.1699617 -0.02657656 0.24140824 -0.21069075
354 0.74096155 0.7137324 3.1964884 0.653905 0.88402665 3.7834575 1.3978537 -1.1500801 -1.1227043 0.88374114
108 -0.47197312 -1.249476 2.3939857 -0.17447595 -0.43004334 2.6429567 -0.44727454 -0.036704015 -0.0437572 -2.090043
86 0.16292529 0.9396182 1.0695885 -0.33560407 -0.44168484 1.279586 -0.8456162 0.11170552 2.526891 -0.28042012
609 1.0916914 0.24353556 2.2557502 1.4536463 -0.46027356 1.5055274 0.40248555 -1.9205134 0.069135115 0.9458321
322 -0.016718794 -1.4418527 0.20947139 0.54961836 0.6502273 1.0265682 -1.3005248 -0.15315624 0.16723758 -0.1933163
382 0.94087887 -2.198554 3.6755 0.15124568 -1.7597209 0.60742563 -3.1140418 1.6029031 2.3745203 0.6840536
487 -0.101198584 -1.0723984 0.8372732 0.96601135 0.61134213 0.70884013 -1.75887 -0.6575668 1.195963 -2.2194152
956 0.96632886 -2.1937163 3.7276077 0.1431469 -1.8194965 0.6516032 -3.1341374 1.6375188 2.3431447 0.668773
512 0.30179292 -3.5405583 3.5083623 3.4317322 -0.4783794 -0.6834821 0.79104286 0.3289067 0.49293473 0.4176776
1108 2.7104073 -0.8514352 0.11885488 -0.34030306 2.3556173 0.7196455 0.38759637 -0.20664038 0.78056484 0.80631834
849 3.6783268 -1.0044911 -1.1384097 -0.14832711 0.44205832 1.9087033 0.50632876 -0.20406449 0.39214742 -2.0483286
853 2.6036217 -0.8365277 0.13033696 -0.3068591 2.3240385 0.6870246 0.35711142 -0.22343569 0.749323 0.7336103
884 2.667056 -0.8132766 0.16753866 -0.339974 2.3206637 0.7038835 0.39038354 -0.27409384 0.7492777 0.71076614
1041 2.2472746 -3.7117217 0.881191 -0.8481611 1.8933098 -0.46862546 -2.6174233 1.5183982 2.7872884 -3.3131354
727 -0.79106057 -2.196341 0.65664136 0.141559 1.983555 1.4434432 -0.82861483 1.115942 0.1928472 -0.15936294
791 0.9109346 -2.147372 3.650073 0.17960408 -1.7698749 0.6140664 -3.1515098 1.6503907 2.3335054 0.65454245
484 1.3070885 -1.0711277 1.4362898 -0.880632 -0.4986536 0.5777949 -0.43028516 -0.25461122 1.9095662 -0.1842851
513 -0.024619702 -1.2052642 0.19483039 0.52861595 0.54649156 0.9855451 -1.2536865 -0.19254157 0.12090179 -0.2164523
989 1.0596323 -1.7097527 1.0665193 -0.34101343 -0.7226218 0.23685373 0.29298562 -0.35716322 2.2187622 -0.11282194
935 0.9685612 -2.1854818 3.718311 0.15207753 -1.709795 0.6113096 -3.212841 1.6533124 2.37394 0.67866015
398 0.9912933 -1.7593639 1.1923203 -0.29599422 -0.74886155 0.16714397 0.4394539 -0.37041077 2.3665657 -0.08514364
277 0.22576447 -3.8833325 -0.6377262 -0.44088605 0.7582606 3.4838305 2.2756627 1.7785579 -0.14560093 -2.6846445
907 3.111732 -1.4040111 -0.06336102 -0.02148934 1.2762047 0.94222313 1.2297184 -0.23466802 0.13724256 0.61192274
1052 -0.2488257 -1.2968073 1.9786702 -0.17402859 -0.22099106 2.2794647 -0.35858858 -0.08210757 -0.22415292 -2.0775707
950 1.1673269 -1.3925594 -0.83466125 0.54032975 -1.4006059 2.4499967 1.1179017 1.4246373 1.4503565 1.8835471
60 -0.94166476 -2.5000308 0.36173356 0.10172826 2.5091681 1.5189699 -0.16893451 1.920845 1.1052008 0.89352125
10 0.8826794 0.80593306 -0.9432045 1.2063185 -0.5863479 2.7842853 -0.16973089 1.0847814 0.2130865 0.13102907
549 1.0250791 -1.6944387 1.1288644 -0.2699546 -0.7369276 0.09278097 0.40668002 -0.34982148 2.3595743 -0.07723308
930 1.0403745 -1.808179 1.1484872 -0.32832798 -0.7390468 0.28422943 0.36183304 -0.37585592 2.3261297 -0.051183116
888 0.19374482 -3.9471118 -0.7055898 -0.4069473 0.7724351 3.4878473 2.2802787 1.7892257 -0.15262668 -2.6304102
797 2.2621908 0.41090426 2.142734 0.63854045 0.18966906 1.0711948 -0.6796375 -1.2980152 0.15340108 1.099506
147 3.3499575 -0.90445787 -1.1217719 -0.041608438 0.43689972 1.6302904 0.4206487 -0.063654155 0.23046191 -1.8334247
1087 3.1333568 -1.4047958 -0.08840031 -0.041559555 1.2661369 0.9643493 1.3249813 -0.22942899 0.16294014 0.5911849
531 0.76672226 0.73251665 3.22065 0.6858126 0.8829661 3.7762542 1.3938537 -1.1166846 -1.1170143 0.8194399
610 1.08675 0.26395285 2.1712348 1.439186 -0.48070306 1.4730372 0.45163321 -1.8899171 0.095807396 0.9383905
597 3.8871667 0.1840055 1.0694225 1.4978397 0.69179285 0.124114536 -0.81017715 0.6117087 -0.7245406 -2.4495926
290 0.7359275 -1.288236 1.008066 0.5379784 -0.8345496 -0.6519105 1.0188869 -0.412551 2.7791998 -0.68014395
1038 0.9623355 -2.2202249 3.6918204 0.11378359 -1.7306521 0.616014 -3.1048284 1.6137972 2.3796704 0.6914587
671 0.9209108 -2.16483 3.6418593 0.11955855 -1.7165793 0.63849944 -3.0562522 1.531394 2.3262541 0.66026527
326 0.20530736 -3.977459 -0.678128 -0.48330352 0.8142119 3.5423563 2.238606 1.8318837 -0.167154 -2.741359
992 0.882817 -2.15965 1.7758291 0.99222285 0.11429204 0.90260154 3.3011436 -0.54152864 0.7248022 -2.3070602
954 1.0033236 -2.1541264 3.6755915 0.17841119 -1.7580322 0.64613307 -3.218007 1.6306577 2.3897002 0.74340385
1075 3.0802977 -1.372623 -0.022322688 -0.02243379 1.1589026 0.893736 1.2391038 -0.18031104 0.14049679 0.5132425
314 0.2630346 -2.5791667 1.7803531 2.462495 2.28049 0.8316611 -1.263995 -0.19877557 0.23669481 2.6219769
347 1.126055 -1.262619 0.96721303 -0.577197 -0.51253897 0.40924942 -0.2228877 -0.31064278 1.7423931 -0.15378109
110 0.98502713 -2.1800587 3.75072 0.11714202 -1.7473735 0.61153126 -3.1701105 1.6559577 2.362813 0.6616148
479 1.0123954 -1.758862 1.1568989 -0.27355963 -0.7599792 0.19375165 0.40865165 -0.37859985 2.359924 -0.08297774
73 0.45986748 1.1275446 -0.68324643 1.0412003 -0.09519932 1.9455776 0.47192484 0.7718321 1.1501217 0.64674526
432 1.6590009 -0.008718527 0.40064842 0.5602978 -0.5739163 0.44683254 -1.4529872 2.9797416 0.67815447 0.8580313
360 0.72829926 -1.2688874 0.97123384 0.5463937 -0.79620695 -0.6825005 1.0164762 -0.33190927 2.654742 -0.6806929
1099 0.93549025 -2.1719975 3.7187977 0.1205509 -1.8067615 0.67574686 -3.1701093 1.6074272 2.3906033 0.60911745
116 3.067118 0.66812444 1.2402601 -0.29432106 1.3429065 0.48822165 0.9104958 0.8091991 1.5635614 1.4568545
358 2.2927349 0.3481893 2.169642 0.7485002 0.22141255 1.018712 -0.68597656 -1.3441721 0.10603532 1.1427263
980 0.6936691 -1.2784839 1.025527 0.49385905 -0.81909543 -0.6368299 1.0312289 -0.40581623 2.7318718 -0.6083786
709 3.0206165 -1.3717778 -0.103802525 -0.003240691 1.192551 0.90114045 1.2187653 -0.21018618 0.12486491 0.52942055
560 0.85162014 -2.60634 1.7050567 2.228241 2.0760427 -0.71616936 -1.4875085 0.9119766 1.0084978 1.8060675
370 2.2828474 0.39520845 2.1840072 0.8554525 0.1721305 0.9693125 -0.6327751 -1.3859841 0.2483712 1.0665332
649 0.934299 -0.22589086 -1.1546664 1.2489195 -0.18535122 1.7121698 0.36643726 1.4309899 1.3330802 1.705788
625 2.2539842 0.42586637 2.0789533 0.72719127 0.22906655 1.022794 -0.6721371 -1.3535776 0.18581684 1.1308798
676 0.9206057 -2.1838849 3.629729 0.12957962 -1.7191832 0.6249699 -3.0904088 1.5306908 2.4000628 0.7245974
911 0.13218316 0.9764163 1.0732416 -0.29576164 -0.39993832 1.3547475 -0.8647623 0.002823509 2.644382 -0.18515219
376 0.3022544 -3.4744947 3.346749 3.4403539 -0.15711536 -0.8758267 0.9360251 0.30818954 0.59517974 0.31107438
154 0.8726973 -0.07246544 1.1876804 1.6638253 -0.83414656 0.43745372 -0.23174196 1.449442 -0.8569598 -1.0834854
1039 0.87779933 -2.1513908 1.7286257 1.010918 0.07133242 0.8939847 3.3282695 -0.5698362 0.74795085 -2.3082047
320 1.0591065 -1.7854533 1.1602159 -0.26586485 -0.78153235 0.16825375 0.43018198 -0.41406944 2.4399958 -0.073227115
715 0.010552713 -0.92505425 0.72595197 0.9367197 0.4211038 0.6541349 -1.6893536 -0.5642835 1.1370295 -2.1664655
1068 2.3098376 -3.708561 0.8127963 -0.89722836 1.8887092 -0.46698135 -2.5966573 1.3966391 2.8346465 -3.2624583
471 2.3259828 -0.91450715 0.06617547 -0.20109563 1.9185915 0.7103233 0.4934911 -0.38975942 0.48876396 0.7331549
533 1.3934052 -1.0925118 1.5631526 -0.91774046 -0.5147352 0.6131464 -0.46977815 -0.24855404 1.9578149 -0.19222157
772 0.271794 -1.2628208 0.04360377 2.1214778 1.8019764 1.4057221 -1.8190426 -0.52598757 0.051553685 0.5669368
386 0.28629708 -3.5209806 3.3918393 3.4794946 -0.20517845 -0.87722653 0.9473983 0.3063369 0.59740764 0.2857338
121 -0.77252734 -2.0266747 0.488765 0.13312002 1.8365816 1.349023 -0.68801564 1.0722847 0.18012343 -0.040443152
58 0.9369047 -2.1865647 3.651689 0.14207923 -1.744451 0.6384158 -3.1794024 1.5559287 2.4198847 0.68961096
702 0.24677683 -3.9102483 -0.7227693 -0.4167254 0.71793574 3.4298303 2.2864876 1.713109 -0.1363452 -2.6891487
627 0.90227944 -2.6181374 1.6947728 2.1964457 2.084314 -0.7768821 -1.5098904 0.9502017 1.051878 1.8377734
179 -0.7357392 -2.0257318 0.4863375 0.09273152 1.8359848 1.3411787 -0.6376599 1.0718626 0.14159958 -0.055954736
124 0.83977497 -0.04726539 1.2072637 1.6990105 -0.8478551 0.41367194 -0.20690466 1.3764133 -0.8628629 -1.0420578
1118 0.2894404 -1.1628703 0.0039768736 2.1023338 1.76089 1.3494327 -1.7933912 -0.5789455 0.084101476 0.46043533
225 0.29312885 -3.399357 3.3671434 3.3239264 -0.4272163 -0.70885557 0.7980998 0.32883364 0.5244706 0.41502392
120 0.99332845 -1.7207086 -1.4984934 0.8451778 -0.18815568 2.8435626 1.3546093 2.156762 0.31245792 1.0227963
703 0.5281683 -0.25852412 5.2268476 0.33971548 2.1872957 1.0121082 1.0116879 1.4591309 -0.13825068 0.56881946
773 -0.05301349 0.3971388 3.5013144 0.45259675 1.7756354 0.8903621 1.9071537 1.4728256 -0.074476235 -0.04073416
28 3.1212142 0.6946872 1.215673 -0.27904704 1.3750893 0.4797829 0.92108935 0.7712371 1.5795479 1.5259279
345 0.8153348 -1.8491414 1.627965 0.9928508 -0.06320526 0.9944855 3.1011217 -0.6194454 0.55640537 -2.0209644
578 -0.124057844 0.4359326 3.5380516 0.4497755 1.7664093 0.88455796 1.8406802 1.4955479 -0.04420494 -0.12957592
924 0.28229535 -3.347865 3.3168023 3.2579694 -0.39097688 -0.7174256 0.7610739 0.3133105 0.52640617 0.41203204
176 0.25475255 -2.5195158 1.7897031 2.44183 2.248347 0.8567917 -1.2780452 -0.17700106 0.24927025 2.577228
687 0.013353472 -1.3707066 0.24062718 0.5374664 0.67216957 1.0493587 -1.3409364 -0.20528258 0.14460815 -0.21296588
1031 0.24747322 -3.401041 3.3965485 3.3063502 -0.37325943 -0.6904685 0.77997947 0.26828542 0.5140299 0.35390207
222 2.2798655 -3.6135757 0.73142695 -0.8870763 1.9251229 -0.43692645 -2.5206127 1.3801181 2.7586894 -3.183935
973 2.2185345 0.4172303 2.1609447 0.818157 0.2002488 1.0154546 -0.60544926 -1.4447718 0.27336654 1.0992899
857 1.0268557 -2.1952555 3.8064692 0.07913019 -1.7721678 0.6217876 -3.179815 1.6193045 2.4607089 0.76328915
25 0.811495 -0.07914593 1.1774111 1.6712971 -0.7828569 0.36204723 -0.21686354 1.3830471 -0.80977744 -1.024239
75 0.84484106 -0.055325758 1.2575492 1.9914268 -0.8498894 0.103071555 -0.0017905994 1.3071017 -0.65156466 -0.8301811
1080 0.28349984 -3.4078152 3.3879583 3.257697 -0.4008947 -0.64986616 0.7618291 0.26252952 0.4702301 0.44050545
2 0.7002812 -1.2927893 0.95511097 0.4258082 -0.8002443 -0.57534724 0.983991 -0.39108747 2.6241336 -0.5827293
336 -0.24771032 -0.9701196 1.9807123 0.70046306 -1.4132698 0.17372876 1.9416777 1.83365 2.2443357 -0.40853828
725 0.31525874 -3.4325337 3.3516817 3.292874 -0.4221429 -0.6860515 0.7511066 0.29848307 0.47465318 0.42905828
979 0.28307265 -3.361115 3.3169127 3.2084196 -0.4388812 -0.66223156 0.73713243 0.28095224 0.44275612 0.37658098
1013 0.9306447 -0.25899008 -1.1909915 1.1823988 -0.1692248 1.7019508 0.36657488 1.4051983 1.2628365 1.6454222
1114 0.7687139 0.50104475 2.1628854 2.8757064 -0.89720064 1.0913515 -0.25300482 1.5020785 -1.4380466 -1.0537119
117 1.1226809 0.21804366 2.1432638 1.406028 -0.50347984 1.485293 0.37523448 -1.865087 0.088922195 0.9104082
144 -0.25532284 -0.98091996 2.0434363 0.74356157 -1.3906875 0.22960128 2.0157304 1.9048293 2.274168 -0.32495925
605 2.2986007 -3.5971336 0.78036654 -0.92273676 1.9458379 -0.41531655 -2.5419548 1.3725497 2.7584434 -3.1688828
138 2.263916 0.40545133 2.087695 0.7760771 0.16442145 0.9855133 -0.64248055 -1.3917556 0.19545269 1.0659024
794 1.1225983 0.46418652 1.6206654 -2.403767 1.6175452 2.1215348 0.47890308 1.5604544 2.820173 -1.9687641
204 0.90488166 -2.23989 3.6607106 0.14574301 -1.7671702 0.6765047 -3.138702 1.5093371 2.411202 0.67452204
732 0.9313293 -2.6436768 1.691424 2.20581 2.1135123 -0.7480402 -1.5063236 0.9332808 1.047346 1.8284014
55 0.99589086 -2.2260585 3.7713253 0.07368774 -1.7650931 0.5996532 -3.1570065 1.6151519 2.37324 0.718328
804 0.39693826 -0.90922886 1.1177559 0.7633776 -0.8436237 -0.8760869 0.9606973 0.012940482 2.7093072 -0.97411317
232 2.7799401 -1.4746494 -0.85878515 0.7395034 1.8953391 1.1206061 1.2932951 -1.0643953 0.9623937 0.9151472
438 3.0404854 0.6989187 1.1818306 -0.2273736 1.3789604 0.4154932 0.8961676 0.76182926 1.5301534 1.3823069
91 1.3225865 -1.0556086 1.5640514 -0.89359945 -0.56173265 0.5939972 -0.4750813 -0.25871155 1.9123724 -0.20965959
837 -0.2254753 -0.94763744 2.0158117 0.71664745 -1.3889747 0.1955275 1.9629961 1.880406 2.2527177 -0.30743438
768 -0.06263608 0.34582582 3.5402024 0.4038297 1.7860329 0.8805551 1.8703414 1.502313 -0.08312202 -0.03965366
817 3.057226 0.46301597 0.80667603 1.9491439 0.41332003 1.4396068 -0.2039684 -0.46216756 -1.299697 -2.5021236
508 3.104165 0.6731595 1.1176268 -0.27799326 1.348849 0.47889626 0.91617537 0.78159285 1.5629377 1.4271325
860 0.5723567 -0.39157358 5.2621346 0.34761298 2.2515302 1.0191473 0.9957457 1.5007836 -0.117418304 0.63853437
472 2.211 0.35725203 2.0808613 0.83836013 0.2049415 0.96943957 -0.6571419 -1.3490493 0.22343081 1.0853767
896 1.3637604 -1.0968505 1.5951358 -0.88984853 -0.55513173 0.6149135 -0.480437 -0.28374243 1.9659472 -0.19807552
377 -0.24935141 -0.9410684 2.010863 0.7561635 -1.3708749 0.18905942 1.9755006 1.860622 2.2131763 -0.34316924
1049 3.0802882 0.6320563 1.1916242 -0.25955665 1.376775 0.42235762 0.9747421 0.77762264 1.5113914 1.3654969
15 0.26255193 -3.4424314 3.42432 3.318856 -0.43215528 -0.6284523 0.75027233 0.31077147 0.4137054 0.42564443
503 2.4720728 -3.714472 0.8298715 -0.8810141 1.8804377 -0.48192114 -2.700041 1.4565444 2.7748418 -3.26683
629 -0.021933014 -0.98267174 0.78711027 0.9629785 0.36580864 0.66785127 -1.7112529 -0.52135384 1.0641285 -2.1507616
1003 0.14938726 0.9250053 1.0453302 -0.28845346 -0.44735345 1.3213043 -0.8276195 0.07166813 2.5924315 -0.21750456
783 -0.13470124 -1.5011747 0.28703812 0.25861993 0.7232645 0.996007 -1.2313352 -0.046590146 0.26312387 -0.21631075
680 1.3612556 -1.0819232 1.5630401 -0.89148164 -0.5068643 0.5834838 -0.46115544 -0.24673916 1.9121798 -0.22080326
851 -0.24831629 -0.9642107 2.052493 0.7259185 -1.3887652 0.21197678 2.0064402 1.9094101 2.24283 -0.3331898
180 0.89412844 -0.11143059 1.2402624 1.6027448 -0.7820722 0.38799566 -0.27467474 1.4296196 -0.8879818 -1.0816443
361 1.0842429 -1.2630585 0.966288 -0.6069859 -0.5219651 0.3907891 -0.25281584 -0.25490293 1.697953 -0.13510439
761 0.37875694 1.039161 0.7929551 -0.31087664 -0.032104228 1.8311689 -0.50964904 -0.20947655 2.5734577 1.0561781
226 0.30113766 -3.4426398 3.4146397 3.364619 -0.4021476 -0.7137564 0.7740296 0.29279605 0.44513968 0.40572116
937 0.73622185 -1.2478682 0.9634221 0.395782 -0.77882004 -0.5879415 0.8828235 -0.37170753 2.583896 -0.5882244
490 -0.5116725 -1.6315831 0.41717356 0.030522304 1.2282563 1.0524788 -0.86075777 0.6419746 0.117584944 -0.24468447
269 -0.24203524 -0.92203194 1.9842315 0.6724652 -1.3723676 0.1885415 1.9170967 1.8096162 2.1988883 -0.35684744
295 0.8935131 -2.1366093 1.6533505 0.9834622 0.094579525 0.8714148 3.2390246 -0.54639214 0.68996775 -2.2683759
785 1.4027742 -1.1064954 1.5882938 -0.92794776 -0.5339756 0.60127485 -0.4840379 -0.26713103 2.0091221 -0.1974269
527 1.3718222 -1.0749835 1.5649363 -0.88185084 -0.52487355 0.5819207 -0.48772445 -0.28264955 1.9702795 -0.22849904
465 1.285207 0.27087477 2.4245355 2.0355806 -0.8986748 1.5141172 1.0003277 -2.0690722 0.42927864 0.85746145
287 0.7679117 -1.818521 1.5601625 0.91316456 -0.08619202 1.0028192 3.0607452 -0.5887052 0.52830607 -1.9808317
423 0.87525415 -0.064030424 1.1670731 1.617557 -0.7805651 0.3860886 -0.2752966 1.4394249 -0.82439065 -1.1140084
590 -0.03691416 -0.9451198 0.7196691 0.96173686 0.40881732 0.64087325 -1.7494518 -0.52319145 1.1705251 -2.1416237
72 0.3175893 -3.4551785 3.4539785 3.3332975 -0.39684993 -0.7081549 0.78791285 0.32209945 0.46613407 0.4012936
972 0.82506233 -2.046761 1.6735082 0.92873216 0.09766522 0.8605454 3.172895 -0.51127607 0.6864875 -2.2318892
805 1.069226 -1.263689 0.93066233 -0.60517365 -0.5232191 0.42263934 -0.21048138 -0.22640507 1.7047746 -0.1585446
520 2.400595 -0.51063883 -0.25263235 0.17297451 1.4456626 0.49988335 0.52860516 -0.20085856 0.34581888 0.64323634
311 -0.19561808 -0.97717285 1.9623885 0.73799694 -1.413463 0.14051071 1.9786063 1.8530707 2.240028 -0.3584622
78 0.7816552 -1.8045611 1.628706 1.0316503 -0.06926992 0.93464017 3.064756 -0.6453561 0.55263954 -1.9723654
788 1.0981123 0.437864 1.5409479 -2.3585632 1.582227 2.131486 0.5148324 1.5668756 2.7544577 -1.9188704
1071 0.8027513 -0.01888262 1.8109297 0.3491337 -0.3022065 2.0160806 0.78535557 -1.2372001 -0.37660795 0.40161875
285 -0.25907984 -0.9777851 1.954765 0.7227344 -1.3672123 0.18364027 1.9570434 1.828614 2.2688632 -0.3869737
1051 -0.39743674 -1.3002212 2.3640194 -0.18494025 -0.39389548 2.62083 -0.45712477 -0.08056945 -0.08261954 -2.1755366
90 0.82766193 -1.8097914 1.5882564 0.9437722 -0.0064029563 0.9368367 3.0867164 -0.576228 0.5318046 -1.9596776
188 -0.22549632 -0.981866 1.9533315 0.66764313 -1.3942114 0.14951523 1.9518474 1.8027464 2.2317762 -0.38011068
268 1.0711396 0.2169557 2.1743865 1.390364 -0.42645895 1.5123842 0.33456996 -1.8708521 0.02489963 0.9097652
340 -0.21518652 -0.9417656 2.0164723 0.650744 -1.3984503 0.17667796 1.9335282 1.8666611 2.2742703 -0.32363248
961 0.3777425 1.0083709 0.797545 -0.3187569 -0.03214831 1.8459932 -0.4500944 -0.23050131 2.508177 1.1148865
622 0.9861676 -2.741748 1.7451282 2.287748 2.2218614 -0.78591055 -1.5856515 0.9678523 1.0869839 1.9063337
540 -1.3715047 -1.2374305 0.3839524 1.7941135 -0.49718255 3.0314734 0.7600587 0.9651977 -0.82761544 -0.20633055
390 -0.24060334 -0.9998375 2.030297 0.71134126 -1.3920704 0.21896194 2.0397632 1.9064038 2.2568302 -0.360417
674 0.9399698 -1.7145768 -1.4273385 0.82843626 -0.19049951 2.801218 1.3514749 2.1712 0.24991168 1.0126032
54 1.3879904 0.17669226 2.1905017 2.2752855 -1.1456734 1.3206395 1.2608714 -1.9737761 0.5786506 0.66197914
738 1.7704839 -2.2206516 -1.3015581 0.065178886 -1.0508758 4.232003 2.0683634 2.47373 1.4684365 1.670862
387 -0.11996663 -1.4035958 0.27573135 0.24645841 0.7558067 0.979157 -1.2231928 -0.020368064 0.21758205 -0.23131163
17 -0.23769882 -0.9957061 1.9996871 0.7159749 -1.4081359 0.16743885 1.9787345 1.8873084 2.2793434 -0.37310183
486 1.752463 -2.2699046 -1.3600136 0.14527395 -1.0484284 4.208898 2.1105077 2.4825423 1.394215 1.5816064
986 -0.6269725 2.4134254 3.2052546 0.19855228 0.97116566 2.8765242 2.1819913 2.4055045 0.56049407 -0.7094174
100 -0.40779132 -1.6062626 0.33118328 0.026323933 1.0557097 1.0047725 -0.9285157 0.43886444 0.21301292 -0.19144204
1002 0.3441115 1.0444969 0.77887 -0.28070116 0.0019953968 1.8295072 -0.53334236 -0.20259203 2.5282626 1.078979
324 -0.67071724 2.4243722 3.1994116 0.28136542 0.87222534 2.8765044 2.11857 2.4976563 0.53306925 -0.7021967
334 0.84163654 -1.8159618 1.6108022 0.9523532 -0.06896622 0.98159546 3.0892375 -0.6316086 0.54095906 -2.006904
638 -0.08079079 0.4197855 3.3863766 0.4787421 1.7111928 0.84134656 1.7685099 1.4612006 -0.069490805 -0.09784529
421 0.3961539 1.0346437 0.77857804 -0.2703471 -0.042942923 1.9109145 -0.52335644 -0.21904428 2.5425005 1.1359661
441 2.9331715 -0.27793592 0.22310162 -0.760459 2.051119 1.4350713 1.2975463 0.48511034 1.310626 1.5082397
546 0.8267297 0.7357001 3.158412 0.64660937 0.86596996 3.7088404 1.3696331 -1.1370671 -1.1177039 0.8085794
32 1.3648373 0.14605172 2.159735 2.2968984 -1.1604558 1.331755 1.2776011 -1.9308157 0.5500773 0.6530484
611 2.1860802 -0.8875431 0.090722114 -0.21474029 1.8146126 0.6526264 0.46698844 -0.35157526 0.4433513 0.69010466
16 0.8731443 0.16530637 1.9154922 0.338214 -0.20403191 2.0498748 0.5965027 -1.271456 -0.3414899 0.67348206
595 -0.26314655 -0.9776845 2.088883 0.75623137 -1.416123 0.23362179 2.0356658 1.8974689 2.2638252 -0.36238444
677 1.6878234 -2.3436909 -1.3748693 0.17688023 -1.1301471 4.292384 2.0803838 2.5678887 1.4110373 1.6450988
452 -0.14024334 -1.454575 0.30875495 0.30620903 0.7389941 0.95620763 -1.2208902 -0.055403426 0.2203158 -0.23445448
491 1.3117616 0.30061278 2.3858998 2.1665354 -0.8788117 1.4778022 1.047508 -2.0754116 0.41396254 0.8230463
275 -0.22306329 -1.015276 1.9955671 0.6872196 -1.4239261 0.15898648 1.957033 1.8818127 2.227722 -0.3617684
205 1.328812 0.22213879 2.407172 2.034959 -0.89845073 1.475422 1.0400591 -2.050561 0.4272045 0.86476856
1063 -0.782149 -2.1462402 0.34068558 0.22101936 2.1789691 1.5230901 -0.45231876 1.4591297 0.21777287 0.39078534
406 0.4036392 1.046616 0.786856 -0.31069762 -0.08402633 1.8154176 -0.49777955 -0.20081398 2.580463 1.055261
691 1.3755093 0.27354142 2.467561 2.066354 -0.86799896 1.4929234 0.9709598 -2.115282 0.40662056 0.85364556
357 0.389446 1.0511309 0.80859035 -0.30300424 -0.037913818 1.8505794 -0.54682845 -0.17481612 2.571783 1.0696442
743 -1.2982161 -1.1874973 0.34632918 1.7687657 -0.43356034 2.8662694 0.73652965 0.9995348 -0.8659528 -0.3062869
1004 0.9638061 0.1318762 2.026059 0.6652471 -0.08939908 1.7079096 0.409532 -1.44195 -0.26588768 0.9902718
427 -1.35695 -1.1906344 0.3948616 1.7431003 -0.46786088 2.8788304 0.7200167 1.0110979 -0.85340863 -0.26042455
410 0.29398242 -2.647226 1.8453388 2.5211577 2.3144262 0.8415113 -1.3506194 -0.15671098 0.25795722 2.6823504
46 0.79551965 -1.2907797 0.9471731 0.32238987 -0.76194876 -0.5219384 0.836167 -0.42200726 2.5747573 -0.55650264
556 -0.26015612 -1.026709 2.09218 0.7955662 -1.4269706 0.22650176 2.0689096 1.9848596 2.3261778 -0.41600206
645 -0.899203 -2.686566 0.36452672 0.011729997 2.5817485 1.6475827 -0.24004592 1.9500607 1.0987908 0.85998744
430 1.6715981 -0.31460828 0.05159671 3.037695 -2.2248251 0.53446436 2.8442817 -0.59235585 1.9612552 -0.32264337
457 0.2774508 -2.5957525 1.850457 2.430191 2.2742186 0.8325753 -1.3451037 -0.18499652 0.22645536 2.6306388
915 -0.2737783 -1.0092291 2.094518 0.75466335 -1.4183793 0.19277127 2.0926402 1.9764297 2.348214 -0.39222515
191 1.3573221 -1.0857263 1.6144369 -0.899582 -0.5266372 0.59877557 -0.47019926 -0.27825594 1.9760702 -0.20407987
363 -1.3037822 -1.1828914 0.35679656 1.7129991 -0.46904933 2.8101647 0.72869605 0.9894896 -0.8494675 -0.21212229
528 -1.3175287 -1.2373956 0.42244926 1.7260573 -0.5423022 2.8395433 0.7120071 0.927558 -0.7832211 -0.21636435
948 1.5246223 -0.24809527 2.2669847 3.3866248 -0.9809601 -0.9716957 0.10218488 1.9504317 0.17176054 -0.39079833
889 0.69927627 0.7539127 3.109806 0.7872578 0.9123952 3.7536683 1.3713307 -1.1316234 -1.1902057 0.77377594
307 -0.46344993 -1.064002 2.4706707 -0.12675793 -0.35244593 2.4225519 -0.47928873 0.075590804 0.036698844 -2.0161362
510 -0.23816659 -1.0506049 2.0943217 0.7192013 -1.4280167 0.22232425 2.0144856 1.8849559 2.3904953 -0.3305755
215 0.7729885 -1.8034471 1.6049956 0.9825752 -0.044562414 0.95810544 3.0695157 -0.64629966 0.54296845 -2.0051618
547 -0.23930904 -1.0314249 2.0624235 0.75438887 -1.4193256 0.204244 2.0202034 1.9175328 2.3330529 -0.33851826
542 -0.6700601 2.411299 3.14166 0.11549525 0.85815924 2.8745081 2.0789936 2.3854692 0.57138646 -0.63207704
1091 -0.7942382 -2.1835797 0.3686864 0.26364005 2.2603302 1.598933 -0.462059 1.428959 0.21362521 0.44056717
131 0.6698057 0.78682244 3.195907 0.84387755 0.9484165 3.7791178 1.4076498 -1.0803926 -1.2226137 0.80498445
720 1.0785376 0.42776284 1.5361614 -2.3463774 1.5549424 2.121858 0.4730628 1.5432801 2.7477634 -1.9328092
35 -0.5599419 -1.7002436 0.36797538 0.05295073 1.2544589 1.093726 -0.74264765 0.6638778 0.19356823 -0.07216335
615 0.92902124 0.118696585 1.9741744 0.3389107 -0.26666364 2.1950772 0.66411376 -1.2591162 -0.38224426 0.60631055
339 0.16467334 -3.2919934 -0.7264453 -0.33918154 0.6019948 2.9969723 2.1513581 1.6716101 0.30521616 -2.518044
999 0.18119147 0.90853506 1.0523576 -0.28274736 -0.4419255 1.2216171 -0.8381485 0.08024347 2.5059052 -0.27649444
1021 1.1387929 -1.2595605 0.98909366 -0.62692994 -0.5291854 0.45791477 -0.27996528 -0.2520815 1.7171994 -0.16353756
526 -1.6557968 -1.5381163 1.86466 2.3672693 -1.737598 4.1069818 -1.0104767 -1.0912347 0.8420219 0.94669557
19 0.36759523 0.015279552 0.22493674 1.8845322 0.6424533 0.3472879 0.85220987 -1.8378178 1.5540764 -0.48992294
736 1.448152 0.20815934 2.380789 2.363859 -1.0997853 1.4319454 1.265751 -2.055931 0.55717087 0.7732513
134 0.6571715 -1.1750711 1.2717379 0.61106163 -0.08217958 0.887678 2.0825617 -0.5811348 0.08121871 -1.2735367
712 0.6212926 0.8322392 3.2093275 0.7681788 0.91001546 3.7948456 1.4102948 -1.075197 -1.1661348 0.74475044
346 1.1279054 0.19580555 2.191977 1.3565971 -0.44003102 1.5594971 0.31565258 -1.9130261 0.047542725 0.9166156
152 1.4409074 -0.34915006 1.8132832 3.0521586 -0.75619715 -1.0158336 0.18240236 1.6550529 0.14386632 -0.33296844
981 1.3730798 -1.0693318 1.5707129 -0.9119979 -0.5312044 0.6018336 -0.48742342 -0.26891935 1.9890349 -0.22230135
196 -1.3138043 -1.1955013 0.35792682 1.6789936 -0.40679297 2.8279831 0.7141639 0.940017 -0.80547386 -0.2461454
66 1.1468389 0.6848804 1.6137357 3.51428 -1.508029 0.77922815 0.18404068 2.0893219 -0.81571686 -0.99731594
411 -0.0819352 -1.4665451 0.28977206 0.25907984 0.7453457 0.94900453 -1.2166375 -0.017571598 0.23274133 -0.1895096
574 0.049388546 0.4440608 -1.3298076 1.4764886 -0.33310893 2.4797661 -0.020736719 1.9639138 1.0353317 0.4464349
95 0.8828394 0.1420563 1.9402397 0.38179174 -0.2413416 2.1349766 0.650246 -1.3218194 -0.34760413 0.7140868
98 1.0540178 -0.13460715 1.4696981 2.5289454 -0.96967965 -0.26358598 0.2590857 1.5396012 -0.39781436 -0.74108267
69 -0.7053962 2.3074074 3.1631184 0.17298655 0.8622158 2.8733752 2.127027 2.366964 0.5679683 -0.6756625
37 1.307447 1.3987323 1.2630651 0.71461207 2.0741081 -0.044018894 0.16462353 1.5256735 1.2783397 -2.9144995
553 1.3527387 0.23254599 2.4351647 2.1466901 -0.9277831 1.4877995 1.0389178 -2.1027234 0.46535608 0.8338278
866 1.422937 -1.1209637 1.6304985 -0.95689154 -0.5219973 0.6411189 -0.49661434 -0.25447735 2.029542 -0.18992141
856 0.61569583 0.78238696 3.2007558 0.80318654 0.8579903 3.7962394 1.3674408 -1.1096834 -1.1558715 0.81145144
874 0.91976905 0.13870095 2.025713 0.32445997 -0.25138628 2.19436 0.6367598 -1.3130462 -0.32726178 0.67186314
255 2.257722 -0.7343208 -0.28657436 0.31063405 2.2480726 1.2972897 0.587378 -0.581221 -0.33526576 0.6714109
919 1.3735509 0.20392838 2.4384654 2.1661296 -0.91410196 1.3928252 1.0205282 -2.1060433 0.49985605 0.8576792
133 0.88803726 -0.023786003 1.8705107 0.32892132 -0.31931818 2.0948172 0.7981734 -1.1961948 -0.34501734 0.4123714
329 -0.11007249 1.9666523 3.3991005 0.83076286 1.3798445 1.1233602 0.0015569062 1.5256262 -0.12151243 -1.8219377
1107 -1.3731558 -1.2999642 0.46250367 1.7923582 -0.4898349 2.9479237 0.74644315 0.9919288 -0.892303 -0.23517479
522 -0.7000737 2.3363874 3.2041864 0.13194937 0.9260334 2.8428345 2.066779 2.4391115 0.6752548 -0.6211485
925 0.9882824 0.31132832 1.8780422 2.2949684 -0.91556686 0.95452625 -0.29730245 1.3949093 -1.3718313 -0.74830204
105 1.0403686 0.7136763 1.5484353 3.4304228 -1.4244673 0.76088315 0.15704595 2.049805 -0.71412194 -0.7615469
0 0.9495525 0.14909892 2.0910268 0.37424573 -0.2481918 2.2253458 0.66458994 -1.393039 -0.30967078 0.69341564
434 1.6061021 -0.38532835 0.06466739 2.9772916 -2.1673229 0.44388306 2.7874823 -0.5840507 1.962129 -0.2867236
244 0.83945143 -0.018675214 1.9092239 0.36703762 -0.2619073 2.1334202 0.8035584 -1.2340157 -0.40816283 0.4662452
1048 -0.70185745 2.3627865 3.2550519 0.2834389 1.0149263 2.8393903 2.1467888 2.419888 0.5205417 -0.68507
710 0.15121716 -3.4911559 -0.72635764 -0.37299445 0.68445003 3.0119736 2.2377207 1.7529726 0.38198164 -2.672529
947 0.94735056 -0.15265074 0.9866693 1.2766052 -0.7044859 0.4270091 -0.36725572 1.3377846 -0.80133957 -1.1382381
123 0.13257575 0.80252314 0.97448987 -0.25886485 -0.40293324 1.1365484 -0.8184032 0.06411799 2.3082998 -0.287953
1022 1.1423007 -1.2621776 0.9899611 -0.6493312 -0.54405797 0.45065814 -0.24883269 -0.27955273 1.7496471 -0.1677855
443 1.5638975 -0.42179462 1.0845369 2.9193485 -0.08449958 -0.986863 0.1525422 1.0221272 0.30519214 0.083162986
113 0.3849939 -0.029647944 0.22132549 1.9197061 0.652518 0.38663843 0.8732315 -1.907753 1.5495539 -0.48319027
613 0.08353733 0.50015414 -1.2916373 1.4682425 -0.33594534 2.5373137 -0.05548376 1.9096131 0.97500896 0.40873662
418 1.1074778 0.18745439 2.1812015 1.3350667 -0.41449788 1.5484414 0.30351683 -1.9127226 0.012153046 0.94349855
77 -1.1921316 -1.0341078 0.62047976 1.673032 -0.6651272 2.5243297 0.5135555 0.5456012 -0.7170006 -0.056745857
1069 -0.5096245 -1.1516182 2.5750353 -0.13120914 -0.3476532 2.5281203 -0.45859715 0.042641632 0.04930959 -2.0722778
26 0.023822332 0.43132022 -1.2414566 1.4181914 -0.27414253 2.3793125 -0.031910405 1.8420926 0.98917484 0.47450516
1062 1.1122153 -1.2402347 1.0086002 -0.65635866 -0.51250696 0.42401546 -0.27717727 -0.2787822 1.7512355 -0.14389043
934 1.0418683 -1.9586012 -1.602142 0.8067872 -0.39715034 3.0394456 1.292669 1.9859214 0.3020541 0.93112737
575 2.9960885 -1.269998 -0.51022756 0.18937421 1.429685 0.84920156 0.71948 -0.07558761 -0.085065715 0.01174242
408 0.91528684 -0.06885319 0.9453172 1.210789 -0.7027201 0.41167971 -0.30319268 1.3031238 -0.7455429 -1.1103321
1120 1.1579962 -1.4459155 -0.8999892 0.62427264 -1.2477882 2.5332992 1.2113957 1.4595574 1.44369 1.9458774
1115 2.2063756 0.31748575 2.1515443 0.76331073 0.18984811 0.9989503 -0.60766053 -1.3986548 0.20128629 1.1257931
88 0.41203132 0.0121464925 0.19301249 1.9984564 0.6886577 0.32384717 0.82554567 -1.9131879 1.5739192 -0.5168866
257 0.21557586 -2.519938 1.8092486 2.4170504 2.2341034 0.829804 -1.2894309 -0.18250556 0.35531148 2.630429
839 3.3605728 -0.9442425 -1.0285006 0.042524327 0.42749554 1.3839091 0.23422554 0.043045048 0.013386722 -1.761674
1111 2.997285 -1.0930976 -0.30430308 0.28396243 1.521538 0.791362 0.7784349 -0.40135917 0.046317086 0.37043095
623 0.045217395 0.4331447 -1.3019874 1.47052 -0.34574288 2.5030744 -0.037432324 1.9267339 1.0803018 0.4633843
694 0.91954243 -0.13782792 1.0003806 1.1790948 -0.7118393 0.39961612 -0.31701657 1.3337942 -0.78739333 -1.1411554
790 0.9073641 -2.7650867 1.8359603 2.2660887 2.126986 -0.74332494 -1.5734333 0.891989 1.0931231 1.998593
1007 3.3447206 -0.9699017 -1.0291821 0.054798137 0.5069078 1.3421118 0.33617586 -0.0067947744 0.019687004 -1.7307523
908 0.0001648814 -1.3977525 0.24772273 0.58838385 0.60715264 1.0241905 -1.3212427 -0.18991998 0.098618194 -0.20629856
926 1.1131954 1.1838729 -1.5167166 2.0158174 -1.1907283 3.4689164 -0.3847757 1.7731864 1.2862962 0.18141064
1097 3.3594894 -1.0145563 -1.0350616 0.116079085 0.45478445 1.3236678 0.30623785 0.06901388 -0.054908328 -1.7454859
661 -0.24404359 -0.78154165 0.45331573 1.0691135 1.9210458 0.8892148 -1.4607275 -0.74886227 1.8951764 -2.230003
835 1.1440794 -1.2787861 0.9893128 -0.63617307 -0.522974 0.44044816 -0.27576986 -0.26558703 1.7710878 -0.15660211
1093 -0.2556778 -0.9962652 2.1065722 0.76260495 -1.4058943 0.22725222 2.0564144 1.9926022 2.3680108 -0.39549792
808 0.9344181 -0.16554174 1.0086635 1.259563 -0.7910719 0.3752351 -0.33404416 1.4102813 -0.7746176 -1.1730473
107 -0.18692598 0.4856175 3.4600244 0.5065074 1.6881235 0.8816664 1.784344 1.5190941 -0.03827397 -0.2311634
966 1.1118461 0.2302105 2.226545 1.3886963 -0.4359887 1.595827 0.321636 -1.9600067 0.040019095 0.9552296
855 3.1240616 -1.3786893 -0.04310931 -0.00017597796 1.2274017 0.921892 1.304431 -0.2034644 0.14114372 0.55985254
1119 -0.2698605 -1.0240139 2.1586773 0.7913572 -1.4480789 0.22336732 2.1242054 1.9844373 2.3904967 -0.33656374
940 -1.365246 -1.2332469 0.38189462 1.8003783 -0.5328174 2.9525917 0.7890711 0.9625795 -0.82431215 -0.25954556
192 -1.2748606 -1.2041066 0.5527689 1.8234633 -0.6454054 2.855812 0.66120356 0.8338398 -0.904452 -0.11893128
722 -0.058949105 -1.1223857 0.07547501 0.52386856 0.4585713 0.99767244 -1.1308169 -0.18145934 0.11375852 -0.26423824
760 0.06963351 -1.3993183 0.24173845 0.61915326 0.64712125 1.0225687 -1.364972 -0.21113436 0.14844728 -0.14450552
397 0.83445865 -0.078313075 1.2686946 1.8604878 -0.82116777 0.19402653 -0.043507393 1.320295 -0.75048906 -0.89608335
881 -0.27286518 -1.0396597 2.1129243 0.7799781 -1.4217511 0.21711847 2.080328 1.9761465 2.3807433 -0.30592775
1035 -0.24952869 -1.029561 2.1183417 0.7631714 -1.459867 0.2086031 2.1023314 1.982887 2.4089475 -0.36747754
581 1.0366203 -0.1172143 1.4807547 2.4667068 -0.96204776 -0.2758457 0.2879119 1.4996647 -0.39792955 -0.7126783
802 0.9102997 0.064209685 1.9855536 0.8346407 0.0002752278 1.5317973 0.35026264 -1.5447326 -0.16292073 1.1298368
731 1.1683521 1.2483451 -1.6117009 2.0301445 -1.176581 3.6318495 -0.37903097 1.8718143 1.4037422 0.23672462
149 -0.3754215 -1.5563374 0.33648628 0.083648026 0.95810324 0.97787094 -1.0061157 0.30889177 0.25882173 -0.15366161
1034 3.2558818 -0.9445197 -1.0286578 0.014372469 0.44921467 1.3483359 0.30664876 0.024908995 0.023970034 -1.685415
770 -0.22290422 -0.8449159 0.46643472 1.0778235 1.9110582 0.9311349 -1.4837389 -0.7749494 1.9589767 -2.3238275
23 0.5601437 0.47984722 0.510162 2.0806248 0.39171472 1.1122494 1.3329114 -2.57387 2.1379178 -1.3746258
175 0.7790707 -2.0750792 1.3916614 2.8129573 2.1550767 -1.1130472 -1.0864537 1.0824519 0.9511003 1.1499591
103 0.82394284 -0.05491829 1.2650253 1.8803362 -0.86053365 0.2414805 -0.07330574 1.3112537 -0.780129 -0.89195347
744 3.022953 -1.0692908 -0.33171913 0.36478278 1.6079605 0.7892614 0.78278077 -0.4679459 0.08058893 0.42119455
495 -0.05423573 1.9616474 3.246994 0.82766825 1.3357558 1.0728103 -0.040701874 1.4306271 -0.03750978 -1.757755
909 1.0962573 0.18377993 2.1457927 1.303737 -0.40479288 1.543859 0.30687207 -1.8857872 0.038835935 0.9538075
920 0.200524 -1.0661925 -0.09018952 2.2338638 1.6799881 1.4619006 -1.8296342 -0.5142552 0.1652664 0.63238615
566 1.0584735 -0.15145561 1.4903525 2.5552886 -1.0242211 -0.34330454 0.3312385 1.527727 -0.35205567 -0.69360524
1089 0.89971226 0.09461403 1.8996879 0.75970787 -0.045133416 1.5306677 0.39431715 -1.4494771 -0.14970185 1.0537288
844 4.1146493 0.28235367 0.30014855 -0.4130011 1.6835096 1.5453433 1.1232921 1.774645 0.08831328 1.0964509
641 2.0222354 0.3425192 1.9564763 0.8489972 0.17594492 0.8641158 -0.52977437 -1.3923557 0.29652357 0.9856007
253 0.7625353 -2.0875149 1.2352685 2.8088195 2.076966 -1.0941416 -0.95727503 1.0370077 0.9081779 1.1754984
662 0.8921535 0.072259106 1.9907357 0.83582354 -0.033274468 1.5708184 0.41472337 -1.5017964 -0.19096123 1.1103301
478 -0.05551901 -1.1297525 0.11051635 0.48746142 0.45477098 1.0113952 -1.1255578 -0.11776305 0.10328902 -0.3003453
923 1.4341843 -0.18240066 2.3643434 3.3426447 -1.0523354 -0.89188164 0.12703598 1.9539022 0.06900788 -0.39365578
3 -0.4952974 -0.4031058 -0.025986766 1.0008807 1.4098449 0.7508831 -1.2823607 -0.53003496 2.2227204 -1.1961856
637 0.47911054 0.93869585 -0.036308464 0.8523492 1.3126162 0.10153816 0.026953474 0.96190155 1.3731081 -1.9518896
435 -0.045881607 1.8729976 3.2785828 0.81639665 1.2876451 1.1188834 0.017259289 1.4025044 -0.15540548 -1.8028748
316 0.27689484 -0.88068974 1.2389296 0.7700738 -0.8645403 -0.85342336 0.9883561 0.21393897 2.6993272 -1.0073311
262 1.7507036 1.9956257 0.0033831135 1.6776859 0.42152002 1.0654964 -1.1195016 0.580415 0.4577182 -0.1738091
312 3.3722758 -1.002907 -1.0481703 0.036446963 0.4670161 1.3859621 0.35481268 0.026411844 -0.021351568 -1.7291609
587 2.0192885 0.33597675 1.9910249 0.8288909 0.22385743 0.82959104 -0.56169593 -1.3433709 0.28510967 1.0069119
493 -0.2524948 -0.8233509 0.47061804 1.0392404 1.955844 0.890307 -1.471353 -0.74303436 1.867214 -2.233673
978 1.0545233 -0.122613356 1.4985124 2.6635432 -0.96931726 -0.3113955 0.4102501 1.5835766 -0.3473871 -0.66757476
756 -0.06629854 1.9488802 3.3893845 0.84710556 1.3819301 1.1184359 -0.03280325 1.485835 -0.122569084 -1.8007027
861 1.5281129 -0.42891958 0.9940069 2.9424102 -0.16855302 -0.9559167 0.11420635 0.974818 0.29535246 0.06565702
700 -0.11763503 0.40547153 3.5395188 0.84840995 2.1182697 0.8781556 2.2419672 1.5464936 0.06358532 0.074327804
684 3.2257879 -0.95607525 -0.9688759 0.037892226 0.4802881 1.2869377 0.2769388 0.010078485 0.022526706 -1.6618103
663 4.4881325 -0.78506243 -0.62676036 -0.29708678 1.3749405 2.2507582 0.39572036 -1.0099576 -0.17671557 -1.7503668
895 0.9228885 0.087949894 2.0459874 0.8182626 0.0050930376 1.564891 0.3428521 -1.5764354 -0.14973928 1.1855327
838 0.91837204 0.12267394 2.0491 0.8082824 -0.009269386 1.5663848 0.37296236 -1.5047429 -0.18937312 1.1519696
558 2.7675872 0.39541936 0.35066888 0.058366977 1.6221126 0.11068219 0.6258262 0.40870887 1.4406316 1.027099
4 0.3896022 -0.22992252 4.883421 0.2778385 2.021822 1.059193 1.0326375 1.3785764 -0.19197537 0.49041203
936 0.7136385 -2.1207254 1.3623937 2.8772402 2.0824103 -1.0642434 -1.0927755 1.0484537 0.8687948 1.1409597
957 0.16978775 0.86472857 1.0308188 -0.27730668 -0.46570924 1.1978694 -0.843015 0.09388018 2.387691 -0.34865373
313 -0.28612247 0.4048139 -0.51626384 1.1552632 1.0601027 0.3222298 0.65661174 1.2531484 1.4125518 -1.1703756
1085 3.7186651 0.050943594 1.0028068 1.4771559 0.57419026 0.06323306 -0.8052184 0.47996414 -0.73754054 -2.3268704
692 1.474944 -0.15425453 2.383207 3.3124893 -1.0540279 -0.9648929 0.1133215 1.9543309 0.12821525 -0.37712932
711 0.6029882 1.4614773 0.6861551 -0.5472788 -0.06678749 1.9111414 -0.55072236 0.119749956 3.3740284 0.56441265
283 0.7663895 -2.1473107 1.3717151 2.89243 2.168005 -1.0897723 -1.0991404 1.0586131 0.85603535 1.1584892
399 0.27789643 -3.3563979 3.259096 3.3003519 -0.15304205 -0.8739588 0.98928666 0.3142011 0.6529175 0.31863484
964 0.2840781 -3.3670077 3.2780328 3.4312353 -0.13820952 -0.9203939 0.95405036 0.27671307 0.62941474 0.29992673
910 -0.078511335 1.9197491 3.330057 0.8054468 1.346102 1.1362535 -0.05325228 1.4601305 -0.103060864 -1.7902272
404 0.27563742 -3.4144692 3.3119242 3.3532307 -0.16898096 -0.91156864 0.95692575 0.26464158 0.6428393 0.30488965
827 0.74775994 -0.1338327 -1.0026424 1.0535823 -0.21663283 1.5789582 0.3586485 1.1701473 1.0581336 1.4712973
380 -0.32390094 0.38145036 -0.508742 1.0872405 1.0161238 0.31232366 0.68530154 1.2291132 1.3714337 -1.1205254
1096 0.2890081 -3.4440553 3.3460963 3.4066772 -0.20901968 -0.8863197 0.9034827 0.28367543 0.6733369 0.34443623
292 3.555541 1.5556731 1.0880255 -0.16137646 1.2548864 0.7054869 1.1989754 1.744652 2.12661 1.2326752
477 1.6519431 -0.4007997 0.00237283 3.0524306 -2.2961283 0.51506704 2.912623 -0.55145 2.0379694 -0.35750806
779 -0.15906388 0.40180132 3.5961165 0.8605468 2.2213914 0.99809927 2.3966484 1.6702913 0.09447214 0.11796861
869 0.21899241 -2.5116148 1.7553948 2.3403578 2.1244452 0.7616823 -1.185146 -0.12426943 0.2331887 2.5812566
125 1.6746253 1.960552 0.030125339 1.5943375 0.33474147 1.0289925 -1.1013684 0.5486038 0.42916095 -0.1324475
249 3.518362 1.466471 1.0619836 -0.14549872 1.1679263 0.72033274 1.2339559 1.762731 2.045842 1.2311574
332 1.4000117 1.4316624 1.4456449 0.6120608 2.1552298 0.028986398 0.06271413 1.5521958 1.2151405 -3.1314075
537 1.062279 -0.12984668 1.5091102 2.6366556 -0.9847131 -0.3278513 0.37617448 1.5644642 -0.3593546 -0.67796177
854 0.59161335 1.396937 0.64171565 -0.5360904 -0.13403499 1.8632301 -0.5649404 0.13172361 3.317326 0.5428793
514 -0.091920815 1.9485426 3.346934 0.83725035 1.315635 1.1441271 -0.018191634 1.4892387 -0.097765185 -1.7607534
294 1.5374883 1.4417862 1.548731 0.61183035 2.2406898 0.11825414 0.07204746 1.6397705 1.298903 -3.2138467
111 0.17222868 0.833857 0.97414786 -0.27756393 -0.41571522 1.1384891 -0.783405 0.06463425 2.3163395 -0.3089444
606 0.8514412 -0.13077244 1.0951588 1.5558442 -0.77930313 0.40912333 -0.24806656 1.4250783 -0.83369166 -1.0729799
751 1.506828 1.4667163 1.5577446 0.76412565 2.2744312 0.014352959 0.13918377 1.6534681 1.2721897 -3.299657
757 1.7024652 1.9446111 -0.0027930383 1.6015873 0.36123362 1.0913852 -1.0601368 0.54108995 0.3861617 -0.11501898
106 -0.2180216 0.46101135 -0.5018432 1.2544954 1.1615154 0.2398725 0.52445364 1.2228727 1.4391555 -1.4106648
446 0.57595664 1.3849263 0.6783745 -0.5473343 -0.08807046 1.8858988 -0.54642004 0.04242558 3.2785058 0.6072588
264 -0.052553847 -1.304738 1.5498234 0.0867356 -0.05832942 2.0134337 -0.12533224 -0.06388253 -0.3290925 -2.337257
683 3.2613885 -0.95480955 -1.0242631 0.045370046 0.38309586 1.3805891 0.28061026 0.017041836 0.0094937375 -1.7399989
846 2.8040824 0.45478854 0.49928638 0.04299955 1.6342016 0.12758829 0.6521002 0.38427445 1.5586057 1.1344727
1077 0.54044294 -1.3172244 0.1666957 1.8400315 1.5112826 0.944116 -1.7801412 -0.7013173 0.10862886 -0.06612811
664 2.7721405 0.40029198 0.32898518 0.048067406 1.6804645 0.19783148 0.63137084 0.38748395 1.4975489 1.1120579
996 1.4984771 1.4480717 1.5766044 0.5764448 2.2475693 0.14520371 0.09610679 1.6655347 1.3121977 -3.2087495
787 0.55326056 0.9178205 -0.006692681 0.8787553 1.3113176 0.03854691 0.0021549156 0.97187513 1.3843821 -1.9595735
532 3.6041734 0.1981944 0.8938037 1.3791258 0.67494476 0.08413104 -0.72961944 0.56716484 -0.6322575 -2.2555256
714 0.6483229 1.3789958 0.6167285 -0.53846127 -0.103506975 1.8636601 -0.56165236 0.15973236 3.260895 0.6122013
975 2.5122354 -0.7541514 -0.2962431 0.21056376 1.4445412 0.66886336 0.667929 -0.39344448 0.2024622 0.5574109
603 3.6682587 0.19905779 0.9817844 1.3937862 0.6860304 0.1460967 -0.85952586 0.5472956 -0.73047096 -2.229652
174 0.49748492 0.9308256 -0.0067118667 0.85522157 1.2532288 0.06120927 0.050251357 0.92543155 1.3780926 -1.9286762
642 1.1520736 -0.08951017 1.6406639 2.681447 -1.0550702 -0.3023218 0.34851032 1.5882372 -0.39277366 -0.6850995
764 1.6737477 -0.38022226 -0.052814655 3.1591556 -2.3606887 0.57208174 3.0100386 -0.4906282 2.1830325 -0.27094036
150 2.5407693 0.11682783 0.19901417 0.0023783653 1.5211971 0.21309471 0.41502854 0.15449758 1.103034 0.92681223
1084 1.1171533 -0.18457873 1.5709422 2.6111948 -1.0097284 -0.3656015 0.38494515 1.6138479 -0.36015385 -0.7261199
474 1.7288164 2.0527036 0.035592053 1.6279601 0.33149424 1.0931395 -1.0945249 0.5487253 0.5059066 -0.0968642
716 1.6011765 -0.34193274 -0.02840396 3.0765226 -2.2096217 0.49637413 2.9379957 -0.48640007 2.0545933 -0.31946108
186 2.4395137 0.15339217 0.1606072 -0.0073206755 1.5738904 0.25625023 0.43661088 0.15268394 1.1200196 0.9447836
1011 2.1855812 0.07911604 0.91262317 0.53646475 -0.3087233 0.4054848 -0.63174164 1.1464949 -0.6759232 -1.553638
173 4.026768 -1.0967318 -0.55839616 0.11018195 2.621623 1.2768459 0.86004543 -0.1860752 1.268387 1.8892967
1102 1.7846508 1.9836959 -0.024178313 1.6218805 0.42589733 1.0676827 -1.0789651 0.59101135 0.40413257 -0.14864404
900 -0.31091186 0.35792515 -0.4900045 1.0373465 1.0354388 0.34658146 0.7694492 1.2420645 1.3481935 -1.0982234
42 2.0635002 0.3512503 1.8919427 0.8115424 0.21614635 0.8630167 -0.5818802 -1.3572824 0.33131883 0.99799675
119 0.40179166 -0.04871909 0.24720763 1.9274241 0.71235186 0.21007662 0.7405635 -1.8456645 1.4644152 -0.42090672
985 -0.14880392 0.5464187 -0.49522215 1.2713182 1.2523233 0.19394852 0.43584877 1.2652466 1.5236703 -1.5799718
696 0.73804647 -2.1654525 1.4565026 2.8755085 2.146628 -1.0563711 -1.1207131 1.0242344 0.90764594 1.1363072
771 3.755896 0.09504635 1.007843 1.3978624 0.5522309 0.06646176 -0.7465549 0.62708133 -0.6881319 -2.269535
96 0.9613144 -0.14151302 0.9930459 1.2544631 -0.75315416 0.42272753 -0.3395022 1.3735304 -0.79663926 -1.1819594
6 -0.34505454 -1.504574 0.362322 0.093945146 0.9402729 0.97695345 -1.0167795 0.29838789 0.1819123 -0.20563611
27 1.4079974 1.4805697 1.4644527 0.63037044 2.225595 0.06868734 0.15546793 1.5948217 1.2467434 -3.104519
970 1.4804149 1.5131162 1.5441533 0.6747767 2.2458727 0.11133558 0.14018328 1.6786945 1.252568 -3.2486918
882 0.7569058 -2.090139 1.3169276 2.885072 2.1187384 -1.0701141 -1.0377916 1.1357822 0.8373051 1.1722612
99 1.4697868 1.4985673 1.5382622 0.66743004 2.263468 0.0984067 0.14926189 1.7291498 1.2494177 -3.1814642
1101 0.66310954 -1.3325396 0.17585428 1.9206349 1.5016735 0.9221835 -1.7801752 -0.7227381 0.030042611 -0.08316177
1019 0.43905357 0.002172776 0.22662765 1.8979341 0.6420119 0.2684884 0.75214976 -1.7676693 1.4294245 -0.42116424
317 0.1444164 0.7502489 -0.40039545 1.2407147 1.2770605 0.119049296 0.19131446 1.1972879 1.4711239 -1.8164647
946 0.25501394 -3.3457153 3.244521 3.3029115 -0.16286382 -0.86826074 0.9020404 0.31236127 0.6238123 0.3110475
1009 -0.7353412 -2.0208943 0.23895015 0.23520686 2.32634 1.5649738 -0.31890798 1.5048137 0.23546247 0.5065087
375 4.0424695 -1.0234288 -0.5327236 0.10535668 2.6035626 1.2060121 0.7946856 -0.15426688 1.3079628 1.9098827
952 1.6406829 -0.35853344 -0.026045403 3.1298609 -2.2944906 0.6167572 2.9286816 -0.5149808 2.0619314 -0.34011722
997 3.596312 -1.0292872 -1.1367147 -0.10909179 0.40114376 1.8537028 0.50862896 -0.1702086 0.37131378 -1.9792839
886 -0.062175255 0.6544711 -0.45702687 1.3669342 1.3022914 0.18054587 0.2890114 1.2695167 1.5274833 -1.8126032
559 1.6124396 -0.32385874 -0.076705866 3.1017692 -2.2615795 0.56405073 2.9200075 -0.48635 2.076873 -0.2898425
809 1.5461543 -0.406579 1.0369126 2.8802745 -0.009269766 -0.9412376 0.16062307 1.0374438 0.2942812 0.25962394
237 1.481542 -0.35823733 1.3746607 2.9139423 -0.449375 -0.9215992 0.1443744 1.2250357 0.10968622 -0.0859122
801 -0.34484783 -1.5548754 0.32160896 0.013761473 0.960991 1.0617666 -0.97206104 0.35687 0.233214 -0.16892669
1018 1.3506104 2.1031544 0.34317645 1.0178366 -0.14100637 1.5058148 -0.19404043 0.46225172 0.46566153 -0.817991
815 0.28406242 -3.3631616 3.2805195 3.37871 -0.23426166 -0.85444915 0.93387246 0.338955 0.6181139 0.25637013
525 2.5333686 -0.77720374 0.12312864 -0.34730685 2.2359965 0.66215163 0.32343554 -0.09904222 0.76586944 0.74779415
367 1.4785107 1.4924976 1.5375088 0.67982113 2.2668474 0.059996985 0.13499667 1.6630261 1.235217 -3.217482
1015 0.5029567 0.9266422 0.023057383 0.78598833 1.255642 0.06226095 0.029830785 0.90806276 1.340083 -1.8673584
288 0.18364903 0.82852143 -0.25991306 1.1643646 1.3223412 0.09699335 0.13712953 1.1278015 1.481424 -1.9240471
379 0.21681717 -0.84872717 1.227035 0.7626594 -0.8662294 -0.8753369 0.93720496 0.1867587 2.6378005 -0.94747746
562 -0.13185382 0.56989247 -0.48964033 1.3598508 1.2867959 0.17824946 0.34270644 1.3279837 1.5099016 -1.7112627
401 -0.22451298 -0.79262716 0.47970998 0.98188573 1.6476424 0.7620764 -1.3870466 -0.78768814 1.8310713 -2.1433954
841 0.09191868 0.69069374 -0.38083142 1.2685511 1.2844311 0.08806857 0.1951016 1.1870195 1.4710346 -1.8486042
142 -0.15570654 0.49687725 -0.4994043 1.296697 1.18179 0.15998228 0.42609224 1.2643261 1.5263029 -1.5437162
45 0.9618566 -0.14998686 1.006376 1.2624639 -0.7181059 0.38878044 -0.35926718 1.3728813 -0.7853967 -1.1514854
969 0.16904269 0.80470943 -0.26742542 1.1576726 1.3187264 0.076731846 0.13282986 1.1247654 1.464287 -1.8832655
1033 -0.08442352 0.5968954 -0.425178 1.368982 1.303004 0.09745393 0.31798732 1.2745955 1.505619 -1.7261368
539 -0.031216556 0.31227586 -1.3062383 1.3534443 -0.1821594 2.319922 0.05758068 1.8408486 1.0383035 0.5708149
938 -1.4278417 -2.6163416 -0.11248173 0.9991069 3.0277286 2.7419832 -0.9952038 1.8999512 0.4362751 0.46899632
959 -0.020108914 -1.1147951 0.08499365 0.53280085 0.3978231 1.0056872 -1.1252509 -0.14099532 0.12670735 -0.26117513
902 0.2086632 -0.8617077 1.3038466 0.6943313 -0.873503 -0.8465478 0.9667727 0.24583134 2.740966 -0.93659824
