98 10
91 0.7714032 -0.052061647 0.44490165 -0.20044884 0.11081603 -0.850323 -0.44144198 1.4196001 0.4551134 0.28691253
53 0.86353534 -0.12564193 0.49667668 -0.270486 0.15065263 -0.8968454 -0.49937463 1.4439107 0.47017053 0.28134686
73 0.87692714 0.063877225 0.43817997 -0.30642766 0.081808746 -0.8277771 -0.37223402 1.4685503 0.45799112 0.2859383
95 0.8763887 0.004436154 0.30935156 -0.24537314 0.11967006 -0.84773177 -0.42207006 1.5733525 0.41416916 0.25451058
75 0.80894 -0.0067888764 0.41086257 -0.14934579 0.08666615 -0.8208494 -0.42413923 1.4999219 0.40297517 0.26762894
99 0.84461033 -0.042584933 0.42228532 -0.33994392 0.11431943 -0.83630186 -0.41303292 1.48799 0.4995522 0.2939576
44 0.7594751 0.0035715362 0.46529683 -0.27867734 0.036572177 -0.7268837 -0.390595 1.5597368 0.4678342 0.25528413
23 0.832726 0.05360649 0.43675923 -0.3768796 0.06244559 -0.8382426 -0.3679252 1.4174322 0.39538047 0.28347978
76 0.84309524 0.066033885 0.4643644 -0.30434853 0.10335994 -0.8090656 -0.43867758 1.5645434 0.41671225 0.22556844
68 0.7686663 0.041831713 0.4437614 -0.25331956 0.12999222 -0.861845 -0.4862956 1.4421955 0.42996827 0.3046788
64 0.017923111 -0.1949851 -0.73488903 0.04584906 2.2526693 0.59307146 0.16804871 0.6807829 0.6733875 1.0743966
87 0.045253936 -0.3300872 -0.75298965 -0.09141085 2.1021683 0.52001256 0.09533985 0.6877921 0.6903822 0.997111
34 0.07352304 -0.22907785 -0.74943805 -0.07839173 2.1604164 0.44567963 0.15502414 0.63852966 0.7617249 1.069314
7 0.11267823 -0.33753422 -0.726541 -0.049186602 2.2059371 0.4733906 0.23259188 0.56886476 0.7100209 1.153451
26 0.0481719 -0.23552662 -0.7343714 -0.03098652 2.312022 0.5496043 0.18008946 0.6758218 0.6989183 1.1983489
6 1.2609043 0.06846709 0.7001437 0.19879958 0.3933382 -0.46490258 0.34484985 0.39612234 -0.5655522 -0.0896452
47 1.2661631 0.057666488 0.65964633 0.16769671 0.4718007 -0.5001885 0.3614348 0.3766459 -0.6111515 -0.23344932
3 1.2684295 0.060776953 0.6809929 0.103144415 0.42684752 -0.59628165 0.36486045 0.27088133 -0.5115925 -0.1731613
69 0.81081665 -0.003910782 0.47947365 -0.1648081 0.10912767 -0.8161361 -0.35251284 1.385332 0.35973722 0.29251105
77 1.282477 0.10628009 0.6363117 0.069487035 0.51579434 -0.55905026 0.31715822 0.24950998 -0.59786165 -0.1607144
52 1.2173516 0.08677007 0.59449124 0.091480605 0.42037097 -0.5404322 0.31313667 0.33368656 -0.5717694 -0.19811493
51 1.1789018 0.16267702 0.6140681 0.23097733 0.40814704 -0.49839744 0.27863473 0.3548286 -0.52254426 -0.14513858
55 1.2906257 0.05827868 0.6947248 0.1624149 0.43139848 -0.48537216 0.44116047 0.30321833 -0.56008416 -0.17716686
20 1.28847 0.15564513 0.6310126 0.12234806 0.48942754 -0.6300464 0.29523298 0.31485513 -0.60262984 -0.1526851
35 1.3308659 0.07577679 0.71266645 0.17750005 0.48426226 -0.47437006 0.39627847 0.2860461 -0.65061444 -0.20860007
84 1.2937427 0.020638665 0.70372367 0.11403931 0.5493006 -0.45686638 0.44576058 0.26865366 -0.6857836 -0.2148991
5 1.1828976 0.12426574 0.55583304 0.10336959 0.38108334 -0.51169014 0.25016797 0.3523399 -0.5000329 -0.2165756
31 1.3284715 0.10744755 0.6457819 0.21400334 0.39059782 -0.5848773 0.28297153 0.35278633 -0.51160526 -0.17546761
82 0.78183186 0.048882216 0.4679695 -0.36790645 0.12231744 -0.87712765 -0.4317622 1.5696552 0.43533686 0.27562752
40 0.07382354 -0.2952407 -0.81158704 0.01967876 2.2532108 0.59297276 0.12362592 0.7077909 0.7266885 1.0154134
0 1.2587821 0.071447656 0.7699527 0.09283212 0.32255897 -0.401925 0.5184073 0.37115934 -0.5251174 -0.030048316
8 1.266644 0.040961288 0.6919338 0.17555963 0.35615548 -0.4038219 0.5710519 0.2205015 -0.44479176 -0.1325513
90 1.2674341 0.041599605 0.73182374 0.16233684 0.38024002 -0.45190188 0.575386 0.29486272 -0.51498955 -0.0729808
97 -1.1365943 0.08335202 1.516181 0.5890758 3.0374355 0.42206007 -0.37353763 0.63220954 -0.27011493 -1.3882635
61 -1.1918833 0.27286845 1.6230177 0.34042782 3.1178718 0.74220777 -0.27335277 0.7446353 -0.6510135 -1.2423098
27 -1.1691992 0.4059814 1.6815503 0.6426608 3.244418 0.6644099 -0.46868747 0.6416814 -0.373629 -1.334503
32 -1.1874527 0.26265773 1.7251809 0.5190091 3.167512 0.6721788 -0.521184 0.7549604 -0.44131267 -1.43938
2 0.11180401 -0.30154702 -0.77175665 0.08598279 2.1820948 0.45862505 0.16831928 0.6499057 0.68087107 1.0545465
89 -1.1732032 0.15290642 1.5319927 0.5148786 3.0814998 0.5667563 -0.34285802 0.68101805 -0.3876791 -1.3531679
11 -0.06342521 -0.31412438 -0.73747504 0.051138036 2.2997372 0.5819223 0.22863325 0.7997251 0.6153654 1.0452871
22 0.8321365 0.019375563 0.44685268 -0.26487097 0.06838714 -0.84888333 -0.4226661 1.523316 0.51035154 0.21545553
24 1.1280318 0.038773406 0.9776696 0.08194841 0.26448062 -0.2290059 0.82607836 0.30213687 -0.3706464 0.15879703
67 1.2079126 0.116844684 0.85170156 0.052529518 0.29403895 -0.26987895 0.9175006 0.25575086 -0.4400715 0.226246
38 1.2686121 0.00072192465 0.8762903 0.044439618 0.33265662 -0.2460597 0.8407711 0.28760293 -0.47061735 0.04483751
78 0.7116042 0.03623617 0.39077947 -0.3136737 0.14755976 -0.8841685 -0.44219095 1.5185503 0.44686958 0.22299106
29 1.2187527 0.042649645 0.842164 0.014070929 0.30149692 -0.23251085 0.8341329 0.3225511 -0.47188947 0.12570977
83 0.78107816 -0.053231925 0.25634214 -0.7447809 0.305602 0.31049743 1.3276196 0.8672498 0.7673452 -1.3326406
88 1.2324704 -0.0034378343 0.91607594 0.011460187 0.32754642 -0.29780045 0.81268984 0.35122275 -0.5484272 0.12022496
58 0.76947737 -0.038038835 0.31294054 -0.6634606 0.32174838 0.3352926 1.3342911 0.74732697 0.92195445 -1.3597325
28 1.2510904 0.032478493 0.907906 -0.0011445406 0.3140343 -0.26157197 0.9149693 0.31696966 -0.4996598 0.12241793
98 0.9014406 -0.18805023 0.17708397 -0.70411986 0.34939468 0.3266936 1.2614164 0.7157377 0.72800016 -1.4589573
59 1.1368041 1.799523 -0.37905744 0.019171683 1.0663688 1.4136752 -0.40507466 0.28038922 0.4608412 0.27624676
63 1.2122219 -0.023836512 0.5255393 0.085847616 0.4347763 -0.64706475 -0.011244893 0.37672266 -0.4499456 -0.17279956
81 0.8975092 2.0836582 -0.26716986 -0.13950707 1.1533693 1.1577743 -0.21765722 0.35945258 0.87869066 0.5560958
86 1.1950005 1.8526247 -0.40811658 0.047766637 0.99356735 1.4550241 -0.14330311 0.29451564 0.44158816 0.2283677
56 1.1462955 0.1086147 0.5772245 0.009261815 0.35471326 -0.7553499 0.071673356 0.40493375 -0.32211766 -0.15150696
12 1.2019175 0.0921976 0.459304 0.10576556 0.33001286 -0.68347245 0.075165816 0.43744424 -0.29479262 -0.16997695
50 0.88873506 2.0285778 -0.16414377 -0.232793 1.0541087 1.1549168 -0.27228147 0.28686 0.9097083 0.46965685
48 1.2212883 0.034843277 0.6396387 0.088238984 0.36825818 -0.6528659 0.10546876 0.43804055 -0.4197282 -0.094251595
72 0.91555995 -0.19400999 0.31295383 -0.8157525 0.32756317 0.41202632 1.115837 0.6576044 0.96776766 -1.4769912
93 0.9860544 -0.17321028 0.29359862 -0.72390044 0.30326128 0.50704753 1.0102364 0.79288495 0.79813784 -1.5637368
62 1.4953426 -0.35386407 0.4948868 -0.01208109 0.89986193 1.3040168 -0.64838654 -0.3693135 1.8194207 -0.2907572
42 1.5475669 -0.4024826 0.55037856 0.048364248 0.8081234 1.4128435 -0.6320884 -0.37640637 1.7092957 -0.18009147
39 0.3415157 0.6890036 -0.8148233 0.32867536 2.1644154 -0.7599245 -0.16141441 -0.33488008 1.2354013 0.18030232
17 1.4402957 -0.22306554 0.52287406 0.09617309 0.83378744 1.2937355 -0.80103546 -0.30016142 1.7656595 -0.2296766
30 0.5144057 0.65876585 -0.8973558 0.28512642 2.139476 -0.6149686 -0.17267586 -0.34712583 1.1818631 0.22537307
54 0.8768075 1.9433037 -0.3306306 -0.04677564 1.0132183 1.0068707 -0.2290546 0.27068958 0.83492374 0.39103645
45 0.47732317 0.5615689 -0.7989018 0.35018846 2.0407012 -0.77508146 -0.2506631 -0.46359706 1.3095573 0.28406408
15 0.9161225 -0.029134005 0.33542153 -0.5843131 0.2477185 0.32479888 1.4104215 0.7259698 0.5932495 -1.2728834
36 0.80628955 -0.059727214 0.31397748 -0.55574554 0.25804007 0.20215686 1.2568204 0.6920604 0.65104026 -1.2748463
85 1.1351472 -0.009175603 0.9125523 0.054328978 0.25948048 -0.21851052 0.9660769 0.24098592 -0.3638502 0.09888037
33 0.9567966 1.8530905 -0.25411746 -0.03987328 1.0413184 1.3640908 -0.26896587 0.36624867 0.59663665 0.4668996
80 1.005414 0.008438656 1.1268373 -0.19534302 0.22941491 -0.32311276 1.0176502 0.0151966605 -0.04775147 -0.0065639545
16 0.3336366 0.4850324 -0.8679548 0.37096003 2.1625965 -0.83962214 -0.21941979 -0.2933403 1.2907284 0.25565392
1 0.38280275 0.62556744 -0.8408927 0.28881884 1.9548414 -0.6997742 -0.1410877 -0.35453406 1.1865896 0.30153945
66 1.3435841 -0.504235 0.4783967 -0.05593285 0.6632837 1.2390796 -0.65424407 -0.23228352 1.8020613 -0.31414032
57 0.87075794 -0.06623681 1.0586258 -0.19847386 0.30646536 -0.48498684 1.0502665 0.123899885 0.059449825 0.08565445
37 0.75658697 -0.047722872 0.3003572 -0.75281394 0.3081165 0.2226702 1.453544 0.7040632 0.6105561 -1.2156376
41 0.79398745 0.0066851797 0.36925614 -0.59718883 0.32546905 0.23728584 1.4010222 0.5468598 0.6305246 -1.1671879
71 1.1204093 -0.9855702 1.1455498 -1.1601652 0.7323164 1.2355388 0.004193415 -0.18572599 1.2761191 -0.2890009
14 0.9997872 -0.060339093 1.1592022 -0.15052849 0.21317747 -0.43921047 1.1293721 -0.11155719 0.25361228 -0.09171739
65 1.0020196 -1.0827546 0.9803838 -1.3520461 0.83321136 1.1130593 -0.047589898 -0.060370564 1.0036052 -0.5658751
74 1.0056415 -0.09067831 1.101757 -0.2512566 0.29195738 -0.35560468 1.1540035 -0.11367727 0.09991474 -0.014298087
18 -0.6191128 -0.6467796 1.722013 2.178661 1.1150854 1.2792354 0.15843226 1.0934731 1.7809805 0.07778987
96 0.98976773 -0.43953285 0.4297761 -1.1061829 0.38941634 0.46908695 0.69930637 0.52120405 1.0725565 -1.3764912
13 -1.5362124 0.6249146 2.102031 -0.0068440773 2.7014937 0.732911 -0.4472863 0.6291024 0.92781454 -1.0816174
25 -1.5845829 0.74509656 2.307753 -0.16001736 2.87269 0.78402793 -0.19482662 0.46933165 0.8821196 -1.0464873
92 0.95904124 -0.45567068 0.5008754 -1.0753478 0.48255602 0.55069965 0.445753 0.34426743 1.1899581 -1.2990087
21 -0.6620431 -0.5764044 1.8653976 2.098587 1.0446452 1.3769422 0.3154667 1.1526282 1.6500024 0.2471835
79 0.421382 0.07235341 -1.1776083 2.2638361 1.8684888 0.32825893 0.2950074 0.75177014 0.6156492 -0.4126523
46 0.92825097 -0.48081568 0.56815195 -1.1635032 0.48574352 0.66666025 0.22695266 0.32270694 1.1375577 -1.1815388
49 1.2919781 -0.5539778 0.5278876 -0.029625315 0.76736695 1.2246257 -0.60192734 -0.28065756 1.6636608 -0.14644364
43 1.1323175 1.4731029 -0.24617383 -0.049712077 0.9457313 1.533665 -0.45534763 0.17368485 0.6413426 0.2945769
10 0.5259361 -0.208546 -1.2474517 2.476775 1.8746994 0.29569715 0.32355818 0.8359535 0.85262686 -0.39095166
9 0.038006917 1.9988588 0.50994086 0.03041443 1.3604715 0.42529356 0.28550234 -0.2364618 1.1067559 0.96677107
4 0.050568108 1.9920805 0.536408 0.08238667 1.2615134 0.35094345 0.30252594 -0.26563817 1.0401118 0.9223408
94 -0.8469818 -0.38860145 1.7196032 2.091411 1.314253 0.96604806 0.24544068 1.0223244 1.7071825 0.008150341
70 1.1258398 -0.9084475 0.717319 -0.4772806 0.685326 1.0934546 -0.32092845 -0.32011923 1.2530687 -0.31695163
