999 10
533 0.77091724 -0.37043363 1.5375468 0.7178991 0.9222426 -0.04045958 -0.9620625 -0.18196853 0.6865237 3.022521
589 0.7498524 -0.38888294 1.5742054 0.66291416 0.9631235 -0.06455011 -1.0173975 -0.21674848 0.69163203 3.086342
737 0.78257406 -0.3713206 1.5543625 0.67923486 0.91093314 -0.05800867 -0.98900247 -0.20332035 0.71628475 3.108303
328 -0.040652733 1.6695298 -0.6863895 1.5432887 1.3345853 1.2658213 -4.329353 0.3497353 0.6625328 1.813685
524 -0.045671973 1.6210104 -0.7155309 1.6131289 1.4326216 1.2246705 -4.4048324 0.38095158 0.6844131 1.8443986
343 -0.0047484636 1.6115434 -0.6770653 1.5778136 1.3711939 1.2325752 -4.4282017 0.34275028 0.6893013 1.7862103
783 0.8369175 -0.40215668 1.6486793 0.65038204 1.0456487 0.023681099 -1.0668348 -0.13577646 0.6927728 3.2705128
244 0.00849552 1.6045423 -0.75226164 1.5602373 1.4497037 1.2758896 -4.4549747 0.31080854 0.77134377 1.8795551
813 1.0624123 4.864597 -0.8155563 4.683689 -2.2772057 1.0546179 -0.9959131 -0.20498483 -3.2789454 1.0898664
613 0.029600268 1.6382891 -0.685785 1.5411601 1.3221402 1.3008183 -4.416821 0.3918876 0.6984471 1.8275633
67 0.65530515 2.3073611 1.5234503 0.98185587 0.3428457 -1.2716409 1.0657365 -0.77112883 -1.2361153 1.3717161
121 0.10593147 -2.4356973 1.5835242 1.5636932 1.0015075 -0.4813115 -2.5118303 -1.5388861 -1.0027425 1.7163911
773 0.8149729 -0.4028528 1.6166145 0.7166072 1.0123949 -0.020382768 -1.0437626 -0.11689302 0.6895175 3.2363117
893 0.7721424 -0.43458965 1.619578 0.6902681 1.0475821 0.056179717 -1.1261592 -0.119987495 0.7022772 3.2608626
237 0.59536314 2.3074203 1.5332171 0.94567925 0.25838357 -1.2873954 1.0464152 -0.7613589 -1.2201358 1.3823286
841 0.6169413 2.3303096 1.542372 0.9210277 0.33662647 -1.2756631 1.0404953 -0.75818473 -1.2389238 1.3454227
767 0.77579445 -0.422132 1.5943233 0.64100236 1.0289592 0.036046468 -1.0659611 -0.079657204 0.66788185 3.2270901
785 1.5345902 -1.9374579 -2.378522 -0.0057016076 -0.017522093 -0.48783174 -2.57731 -5.3291006 -2.0389528 2.4183476
732 0.6834023 2.35699 1.5460144 0.9301719 0.34389293 -1.299433 1.0971222 -0.81718 -1.286716 1.4017047
246 0.7665338 -0.42803386 1.6245799 0.6522619 1.0595497 0.05178518 -1.1231018 -0.118248016 0.6924209 3.275879
24 0.67539626 2.3568118 1.5642235 0.9206488 0.34364203 -1.2680197 1.1280867 -0.84536767 -1.3155019 1.3993773
636 0.7784805 -0.41602036 1.639023 0.71066755 1.0864761 -0.009985619 -1.098587 -0.1144804 0.6927881 3.2775402
7 2.781529 -0.09654735 1.400775 0.1988236 0.8476324 0.16647626 -0.64657366 -1.4893574 0.19755442 1.6293195
846 2.894315 -0.12183575 1.46613 0.17694086 0.8516094 0.069115765 -0.67587715 -1.5439602 0.1963424 1.6473756
320 2.827843 -0.43916574 0.8552904 1.314811 0.867818 -5.1474433 -1.6508934 -6.258654 -0.8022374 2.0387943
402 3.0220895 -0.34023592 0.84797233 1.3694415 0.8765833 -5.231856 -1.4617149 -6.1871395 -0.7920796 2.1022148
953 2.903402 -0.14970839 1.4637082 0.22122927 0.83310336 0.097438395 -0.6512248 -1.5302413 0.20200406 1.7156857
64 2.9326577 -0.13806324 1.4184288 0.21613373 0.8291069 0.10708683 -0.702767 -1.5436988 0.21110734 1.6787741
385 0.049163256 -2.3116794 1.7638546 1.6833619 0.9252087 -0.35405532 -2.695596 -1.408291 -1.1034824 1.5866631
242 3.9909937 0.6293884 0.03799969 3.527442 0.58379614 0.5765496 -5.406446 -0.4073032 0.5936082 0.775498
477 1.4409678 -1.8829691 -2.5209918 0.009719366 0.062219754 -0.45516866 -2.5291042 -5.217368 -2.0429037 2.4345455
517 1.4346306 -1.85754 -2.4670453 -0.04227492 -0.02728397 -0.65569913 -2.5406168 -5.3947973 -1.9622496 2.5666027
170 0.60780054 2.169472 0.76622593 -0.08957492 2.602422 0.15596028 -0.42818573 -1.590299 -1.1087259 0.5190943
469 2.030547 -3.1116586 -0.9950878 3.0579267 0.80884683 -0.74543834 -0.896968 -1.1405919 -3.6495993 1.3712592
391 1.4621459 0.9242922 -1.0307944 0.49001 2.4255378 -1.8025385 -0.5961321 2.0152278 -1.2885325 0.33514684
716 3.686749 -1.6851846 -0.7297841 2.1509218 3.7887652 -5.080706 -2.1858165 -5.88303 -4.386809 -1.2336664
720 2.885852 -0.101055875 1.4463469 0.20398621 0.85567826 0.117679864 -0.67885053 -1.5460522 0.20020288 1.7122272
812 2.824581 -0.107509054 1.4331436 0.16127737 0.83335555 0.12034351 -0.5676484 -1.5180765 0.19154342 1.6639708
115 0.61888057 2.174459 0.7131391 -0.08969425 2.621009 0.11585369 -0.46611923 -1.5578222 -1.1322591 0.4979409
154 3.8198953 -1.6280363 -0.73177093 2.0863445 3.87975 -5.1135697 -2.2147913 -5.814933 -4.324689 -1.2867328
776 1.9949747 -3.1825237 -0.9412191 3.0428822 0.8522404 -0.8788937 -0.9123647 -1.1774211 -3.5847723 1.3743607
58 1.701735 1.4313213 -0.5845234 -0.0818263 -0.49191314 1.9944267 -0.81868047 -0.1428023 -1.353141 0.74187505
859 2.753915 -0.084463716 1.4048467 0.13956608 0.8638041 0.11917216 -0.6138308 -1.473523 0.23936963 1.6510885
618 2.8218818 -0.09184858 1.4638829 0.13710132 0.8652055 0.093976036 -0.68228334 -1.5223496 0.23394118 1.691731
208 0.6511289 2.343738 1.537305 0.9775761 0.27090502 -1.2689956 1.079877 -0.78507924 -1.2801178 1.4171659
604 2.0475595 0.001426849 0.61079097 0.113576986 -1.9963404 -1.809147 -1.7873744 0.037644718 -2.3435018 -1.2059869
26 2.7833748 -0.11418739 1.4076356 0.16975686 0.84253484 0.15509002 -0.58647496 -1.4849005 0.16543512 1.6195831
124 1.7074311 1.44873 -0.62441504 -0.05737848 -0.4914377 2.0007675 -0.8203383 -0.13612229 -1.349792 0.7368204
961 3.8007574 0.6498265 0.036737468 3.488557 0.49935657 0.4996051 -5.342668 -0.39793444 0.6596261 0.84689707
721 1.8511815 0.9086222 0.2877124 -1.0733874 0.78171825 1.6021737 -3.8494606 1.3693104 -0.8196239 -0.0053989193
83 1.7173257 1.4278098 -0.596301 -0.030516539 -0.49909952 1.97531 -0.78720975 -0.13922013 -1.3017385 0.7361069
746 3.806212 0.6998284 0.026539989 3.4748998 0.48210174 0.5138733 -5.43264 -0.3472622 0.6823717 0.82890177
700 0.7390006 2.3580472 1.5635667 0.9408615 0.3061167 -1.2797606 1.1279368 -0.8388074 -1.3090469 1.4061836
158 0.5882854 2.3960152 1.5721064 1.0201378 0.30772167 -1.3779602 1.0278387 -0.755785 -1.2705675 1.4393376
657 2.8863938 -0.10274379 1.4285299 0.15084359 0.89363664 0.08322963 -0.6461377 -1.5196792 0.22905432 1.7154201
936 2.1375697 -0.0040560514 0.6311892 0.07888939 -2.0415812 -1.8493292 -1.8259048 0.01489954 -2.3914084 -1.2515066
98 1.7338488 1.3949448 -0.5925568 -0.05682549 -0.49940303 1.9777365 -0.7847169 -0.12481959 -1.3349955 0.75194156
371 1.4880692 0.93630445 -1.0466417 0.45523524 2.4775207 -1.8482891 -0.6538086 2.0701876 -1.2653217 0.3460202
808 0.9131381 4.882529 -0.84323454 4.8236637 -2.3585083 1.015904 -1.0426636 -0.19906148 -3.04605 1.3103728
828 0.60173494 2.1840549 0.7085777 -0.10149593 2.655187 0.110115305 -0.44968373 -1.5865847 -1.1280855 0.52108747
755 0.5857244 2.1376019 0.69804037 -0.10568562 2.5316148 0.11890252 -0.47420287 -1.5719718 -1.0583571 0.48617524
280 1.6734959 1.4247152 -0.5647276 -0.03412002 -0.53136665 1.9291006 -0.7997977 -0.106533356 -1.2834504 0.73942083
333 1.9672284 -2.9757438 -0.97430074 2.7983878 0.9010425 -0.5974109 -0.6636097 -1.1394801 -3.4767609 1.4077368
217 -0.7566054 2.9312272 -0.23540704 -0.7919038 -0.29083154 -0.7336347 -2.4803886 -0.5204632 -0.38469702 0.117218174
206 1.7899227 1.4774446 -0.6364292 -0.065584555 -0.5016431 2.0372834 -0.8312822 -0.12199456 -1.4021603 0.7589481
628 2.0925019 -0.024555871 0.6305321 0.086617514 -2.0205486 -1.8285615 -1.8228431 0.056290764 -2.3754916 -1.2550471
380 0.056080773 -2.1715333 1.6540084 1.6014537 0.91664606 -0.45045868 -2.5982084 -1.3755357 -0.8648153 1.5583268
99 2.0277066 -0.013702625 0.59197164 0.1259456 -1.9797561 -1.8070796 -1.7684015 0.059832335 -2.3170993 -1.2079396
488 0.2739041 -1.798331 1.0741804 -0.27024746 0.94403756 2.2417955 -0.15738797 2.1115904 -3.8978631 2.570906
445 2.853759 -0.068014614 1.4071543 0.1484428 0.86094815 0.13442437 -0.6326155 -1.5592196 0.20148218 1.6655146
509 -0.1120171 1.5766264 -0.71256953 1.4962722 1.3417534 1.2529588 -4.3968606 0.39800003 0.6937509 1.8402003
327 0.6168369 2.1799393 0.7324505 -0.073297076 2.5907452 0.110075474 -0.42919385 -1.565402 -1.1338847 0.52605057
704 -1.8730321 -0.7202748 -0.8920998 0.83362806 0.9970021 0.5619896 -4.253369 -2.2589645 -2.2211165 0.10144779
106 0.37074232 -1.7902551 1.1232938 -0.24957533 0.95467764 2.1884732 -0.06803224 2.0468948 -3.8616905 2.625009
105 1.7335094 1.462293 -0.5809 -0.049288448 -0.5157119 1.9983594 -0.8174082 -0.14020355 -1.3582788 0.7714811
86 -1.3765146 0.8198137 -0.61896104 1.3680948 1.4517521 -0.072810784 -0.9527513 1.967269 -2.651187 1.143932
10 2.1130579 -3.1840909 -0.89033324 3.0464263 0.81908345 -0.79070306 -0.83585876 -1.2183976 -3.673785 1.3463188
450 1.5018175 0.97344357 -1.00325 0.49295413 2.4410357 -1.8441893 -0.68234223 2.0383527 -1.210267 0.33391467
612 2.1079402 -3.1640124 -0.9505684 3.122472 0.94871193 -0.8566202 -0.78516746 -1.2329897 -3.7802112 1.4363635
145 1.804107 0.91235244 0.28001896 -1.0289786 0.7349884 1.5213964 -3.7105904 1.3189349 -0.73333174 0.0093130525
594 -0.008497765 1.5349977 -0.6297185 1.4841688 1.3030753 1.2225478 -4.3134565 0.325214 0.7384152 1.8369997
710 -1.516851 0.7765221 -0.5338929 1.1844689 1.5017089 -0.27625912 -1.0668997 1.9056777 -2.5025651 0.96647054
127 1.889343 0.9327024 0.29229185 -1.0264946 0.7523028 1.5372535 -3.7539208 1.3593136 -0.7050059 0.034393966
412 1.7423741 1.4454634 -0.5597191 -0.081946075 -0.48725036 2.043668 -0.81999236 -0.13218388 -1.3693544 0.74562263
851 -1.8193804 -0.70230585 -0.8801232 0.8737461 0.8687999 0.55933225 -4.206481 -2.4111931 -2.1648543 0.09307218
688 3.994357 0.7187226 0.12522526 3.5896463 0.3416613 0.381838 -5.2972608 -0.3838441 0.5964031 0.7744874
802 1.8237259 0.9040939 0.30925384 -1.0345129 0.72502553 1.5377474 -3.7372463 1.3406482 -0.72131735 0.043044027
913 -1.8265553 -0.67888093 -0.8666535 0.92191494 0.9139962 0.5030511 -4.1461587 -2.2918532 -2.1965554 0.09346886
750 1.8183126 0.8635429 0.28718543 -0.99544156 0.7355214 1.5102191 -3.666177 1.3116981 -0.7378367 0.013119983
844 0.82435966 0.06640433 -1.9015747 -1.5176009 1.6517992 -0.64260703 0.6295129 -0.3676001 -1.7022057 1.6545714
313 2.1054397 -0.030627731 0.61894506 0.1181128 -2.0277624 -1.827672 -1.8178953 0.0060655796 -2.4277902 -1.2349012
546 1.7620885 -0.095047794 0.3518554 -1.7261064 1.5884175 0.8153329 -2.0577621 1.526657 -1.0183073 0.6516499
520 1.46835 0.97994703 -0.99878067 0.50854135 2.4367607 -1.8046899 -0.6689615 2.0412834 -1.2489537 0.31045085
960 1.8146007 0.907981 0.25951633 -1.0526375 0.71602297 1.5573875 -3.684906 1.3079886 -0.7577254 0.02293574
583 1.7775327 -0.100770086 0.35800195 -1.7303655 1.5974004 0.7893093 -2.0686023 1.5321363 -1.025331 0.65483624
142 2.1144612 0.01694275 0.6552745 0.11710553 -2.0250444 -1.8201777 -1.8054937 0.03472121 -2.4045956 -1.2416294
160 1.4773735 0.9485002 -1.0129896 0.53004825 2.4515896 -1.8197387 -0.66983837 2.0400484 -1.1933768 0.31169933
241 0.8272098 0.14702132 -1.9029135 -1.4325671 1.6677505 -0.66189724 0.65663 -0.3992777 -1.6247257 1.6421593
259 1.443853 0.9057011 -0.9906993 0.47561014 2.3948681 -1.7566066 -0.65682226 2.0146108 -1.2262312 0.3234242
316 1.8358922 0.8961023 0.3132404 -1.0316608 0.7400359 1.5758052 -3.7149534 1.3206315 -0.7661073 0.005892182
550 -1.7983342 -0.6738813 -0.80760634 0.8991402 0.85143244 0.51480603 -4.1692166 -2.319642 -2.0855541 0.09434635
745 0.06827461 -2.2324417 1.6818411 1.6226875 0.8654809 -0.41153547 -2.7094684 -1.3715014 -0.9171372 1.5723716
104 1.7120154 -0.126568 0.3035059 -1.6833792 1.5906686 0.8073115 -2.0804508 1.4995756 -1.001921 0.66210246
239 1.9012792 0.9416339 0.26921737 -1.075959 0.7700346 1.569101 -3.8196702 1.350616 -0.7635753 0.01838038
494 1.487712 0.9455256 -1.0371915 0.47135422 2.4879966 -1.8036479 -0.6426844 2.107216 -1.299466 0.34759125
415 1.498196 0.96204084 -1.0187839 0.50018805 2.4120884 -1.8109617 -0.7082143 2.0739908 -1.2293094 0.3062212
63 -0.70834553 2.9345336 -0.19333427 -0.7768456 -0.2667981 -0.74213344 -2.4796877 -0.5339743 -0.36818585 0.101193205
419 0.6372261 2.3075016 0.7831406 -0.075740665 2.734916 0.12607907 -0.47439834 -1.6579003 -1.1952012 0.57772166
324 1.7738066 1.4635121 -0.65315765 -0.080498815 -0.50241816 2.0373962 -0.7815574 -0.14485767 -1.370877 0.7596268
433 -1.1349477 -1.0876713 -0.59588456 0.7425697 3.818575 1.3888297 -2.8774242 -0.74328893 -2.5850885 0.90700096
829 -1.746688 1.281352 1.4229674 -0.4613669 1.4984076 -0.79242224 -1.3912414 -0.8148061 -2.7580292 -0.18444818
257 -1.7009734 1.1935241 1.3800433 -0.42699435 1.3953117 -0.8007376 -1.3566949 -0.79632187 -2.638772 -0.16167225
761 1.4919333 0.94148797 -1.0566775 0.48661315 2.4537473 -1.8455931 -0.65661186 2.0842316 -1.2651627 0.3285956
250 -0.746939 2.9577763 -0.1961912 -0.7266158 -0.28915337 -0.752413 -2.4446614 -0.51486725 -0.39101055 0.12622263
940 -1.1296632 -1.072606 -0.5329015 0.8072446 3.831106 1.4436147 -2.886062 -0.79652584 -2.609824 0.91845715
336 1.743218 -0.10620259 0.32405308 -1.7077912 1.6106946 0.8377484 -2.0677927 1.5290028 -1.0642234 0.63395345
43 -1.7610863 0.71100485 -0.3449591 1.074227 1.672362 -0.4594932 -1.39847 1.8907655 -2.5001352 0.8133826
714 1.7089843 -0.09771886 0.25799268 -1.6917137 1.5527486 0.87827885 -2.0313792 1.4363685 -1.0548375 0.61345494
693 1.896529 0.95390946 0.2515072 -1.0306438 0.70699984 1.5874206 -3.8088162 1.315997 -0.7703465 -0.0006423968
798 -1.7937412 0.68213326 -0.3645491 1.0127423 1.7131777 -0.5025408 -1.3919623 1.8278998 -2.4517188 0.8301246
864 1.5249555 0.9765119 -1.045649 0.519541 2.4992907 -1.8107444 -0.7205745 2.091167 -1.2817609 0.3204994
71 0.27526224 -1.8121032 1.0565845 -0.2587435 0.8977576 2.1462948 -0.07085166 2.1194348 -3.7685328 2.6049275
156 -1.7755778 0.69839126 -0.3675347 1.0326167 1.7698874 -0.40930188 -1.4321002 1.8944374 -2.494751 0.8216128
238 0.032127257 -2.3564408 1.6632653 1.6463349 0.90995765 -0.48438466 -2.6377296 -1.4501984 -1.0520248 1.6276847
938 -1.7747065 -0.7261644 -0.88671154 0.8407704 0.9193245 0.53052634 -4.1305943 -2.2686 -2.146682 0.091407835
178 1.0465132 -0.5561291 0.6127406 -2.508732 1.3619294 -2.6769195 -0.62414247 0.43422827 -0.60917956 1.5827564
395 0.4198425 -0.19346671 2.14111 1.5138329 1.8618022 -5.5390778 -2.0167656 -5.361472 -4.221046 -1.0327008
214 -1.7151887 1.2189215 1.333493 -0.44613716 1.4216555 -0.8001884 -1.361618 -0.78085816 -2.6630087 -0.14144737
221 0.088296935 -2.333908 1.7108517 1.6274633 0.8546357 -0.38309342 -2.7204146 -1.4288863 -1.0418589 1.6153847
365 -1.8417294 -0.66563314 -0.8390218 0.79579747 0.93796545 0.60698766 -4.2069235 -2.2951143 -2.1479876 0.14258876
747 -1.7115885 0.67965156 -0.33885786 0.9991242 1.6750705 -0.4356976 -1.3954266 1.8670225 -2.424087 0.7922978
216 0.47497758 -0.11655616 2.2029986 1.5140592 1.8519368 -5.461294 -2.0477147 -5.350985 -4.219016 -1.0373433
41 -1.6686264 1.1822377 1.3836143 -0.3879842 1.4362181 -0.7846792 -1.366782 -0.74292445 -2.5956867 -0.16034763
699 0.12758845 -2.2197008 1.6294131 1.6514872 0.91345704 -0.39510557 -2.6866038 -1.394865 -0.89394325 1.5517807
447 2.432042 -2.381491 1.5466167 -1.5809171 3.3638425 -2.1893072 -0.27475786 -1.817941 -3.7688875 0.5622928
224 -1.7280675 0.7367525 -0.34407225 1.0252205 1.6981058 -0.4258241 -1.3473339 1.8300141 -2.4454315 0.7938773
592 -1.6824912 1.1917598 1.3027 -0.4205617 1.4462068 -0.76261145 -1.3641949 -0.79132456 -2.620663 -0.1657119
642 0.5881724 2.3751218 1.4980808 0.98530424 0.30723393 -1.3313664 1.0136904 -0.7142111 -1.1871729 1.4104269
392 -1.5176822 0.6922465 -0.4009699 1.0002694 1.5085536 -0.27829638 -1.1876707 1.8583825 -2.3494737 0.8070767
733 0.5403822 2.3375041 1.5460155 1.0190191 0.28586128 -1.313776 0.9669846 -0.69130975 -1.1885757 1.3547903
698 1.7768835 -0.11379457 0.35965112 -1.7288606 1.5989 0.81269574 -2.0719085 1.5242753 -0.97167134 0.69400394
959 -1.7089896 0.6660848 -0.31701627 1.0417376 1.6654823 -0.4044258 -1.3763242 1.7853756 -2.394324 0.8159112
974 1.134422 -0.12210185 1.7439568 0.8864104 2.2435446 -5.7730446 -1.8476045 -5.8089137 -4.4812717 -1.0554992
454 -0.7356275 2.8916934 -0.17721595 -0.7555487 -0.20782973 -0.7249515 -2.4525259 -0.5508359 -0.45329225 0.04286683
95 1.0892811 -0.5448373 0.6011759 -2.41792 1.3095978 -2.576995 -0.63412243 0.39326686 -0.5488204 1.5271237
857 1.8849357 0.94708544 0.30436683 -1.0532746 0.70146054 1.6219095 -3.8920085 1.3296145 -0.7678767 0.027509509
972 0.51293254 2.2374043 1.4607315 0.95000964 0.25092074 -1.2543944 0.994107 -0.6654191 -1.1306628 1.3640836
114 1.1003683 -0.068139106 1.7464131 0.9689421 2.219784 -5.7699213 -1.8175789 -5.7830076 -4.4318423 -1.0423641
817 -1.5989738 1.3862407 2.9039996 -0.69691765 2.4378233 -3.889857 0.026538601 2.4790838 -1.7432337 2.5030031
455 -0.12501393 1.5807606 -0.022977855 1.0850285 2.507619 -3.1544707 -2.7630765 -0.11470076 -0.32231948 0.87381893
37 -1.6819777 1.1809009 1.3511324 -0.39333743 1.4475806 -0.7571403 -1.3265617 -0.78276163 -2.6426036 -0.16185765
624 1.4856821 1.0062758 -1.0263109 0.499684 2.4768615 -1.8234544 -0.68323135 2.0673947 -1.2404827 0.30929297
167 1.0629632 -0.56587434 0.54690635 -2.424298 1.3026509 -2.5877976 -0.6206672 0.4117301 -0.57638925 1.5250932
348 -1.008519 -1.1340753 -0.48881122 0.77623314 3.8038 1.488099 -2.931299 -0.742024 -2.4613323 0.9718446
80 0.86998403 0.006102653 -1.9317422 -1.5255895 1.6617335 -0.53242844 0.592947 -0.40578946 -1.719361 1.6222509
662 -0.71824485 2.8925688 -0.1748076 -0.73196787 -0.2490665 -0.6975364 -2.444196 -0.50770605 -0.42408723 0.06588948
639 -1.6959476 1.1881454 1.398613 -0.4057112 1.4267166 -0.77136606 -1.3572277 -0.74226487 -2.6591246 -0.18745548
70 0.64953125 2.1307602 0.69438833 -0.07841977 2.4204273 0.13110739 -0.3358289 -1.5610147 -1.0479177 0.48810738
174 2.2069666 0.055734243 1.1433328 -0.008414299 0.96879756 0.2228678 -0.2680327 -1.1291963 0.042925052 1.3919469
545 -1.0521371 -1.1240953 -0.52586555 0.79096705 3.8353207 1.4242467 -2.951227 -0.7817193 -2.4968774 0.97762966
101 1.3347772 2.0688844 0.3837602 -1.3506838 1.0360276 0.4860611 0.4795299 -1.246288 -2.2602575 0.70620483
633 -1.6996878 1.1899111 1.3845569 -0.4173203 1.3603592 -0.7565266 -1.3460208 -0.79341465 -2.6494398 -0.18331735
87 2.2020094 0.061273742 1.1577864 -0.017447662 0.9713748 0.19887519 -0.2504227 -1.184798 0.07161114 1.387016
540 -0.75747687 2.892139 -0.16056941 -0.75335777 -0.22466028 -0.70549726 -2.4621475 -0.52553093 -0.4117887 0.05559255
42 -0.16876003 1.5395974 0.04304644 1.1290562 2.4469745 -3.264694 -2.7558725 -0.11769625 -0.3654847 0.86571074
963 -1.6861179 1.1937727 1.3603458 -0.4481503 1.427091 -0.79333776 -1.399061 -0.7993309 -2.682486 -0.19793534
267 1.4992111 0.9594051 -1.0540552 0.53636354 2.4548922 -1.8360379 -0.6814437 2.0869062 -1.2647166 0.3170429
18 -1.6089619 1.4770811 2.9068537 -0.6500353 2.4047627 -4.006853 -0.031157704 2.5651448 -1.8104148 2.4178305
663 -1.6812328 0.734476 -0.35010657 1.062972 1.6536499 -0.39736912 -1.3548515 1.8668054 -2.450444 0.79483527
992 0.016265897 1.6904824 -0.7663433 1.5967884 1.3549206 1.1585917 -4.4182715 0.3686234 0.76015073 1.8172404
309 -0.7077756 2.894301 -0.17637967 -0.7791347 -0.21733461 -0.7255332 -2.4327419 -0.51645374 -0.4048273 0.05612767
15 -1.6593776 1.1928562 1.3656415 -0.43621892 1.3676181 -0.8021096 -1.324487 -0.7714834 -2.608565 -0.1685115
921 -1.0401226 -1.1083367 -0.56101775 0.73605675 3.813752 1.4830884 -2.88731 -0.76709294 -2.5962937 0.9348038
672 -1.5847998 1.4917583 2.9068034 -0.6277028 2.437259 -3.989062 0.061581597 2.588207 -1.8429374 2.491639
286 2.0396233 -0.039032795 3.689748 -1.8634466 0.7970542 -1.1798635 -3.440306 1.3036907 0.24889867 1.716173
986 -0.08998132 1.6225992 0.0074388324 1.2064515 2.6154628 -3.4584742 -2.785731 -0.13184786 -0.41769776 0.9068725
843 -1.6937916 1.2212813 1.3650488 -0.39098573 1.3931222 -0.76483524 -1.3118379 -0.7811337 -2.6145878 -0.16285814
436 -0.7128429 2.895328 -0.17517962 -0.72640854 -0.2505945 -0.69656897 -2.4084241 -0.5388461 -0.39643168 0.11287404
713 -1.7349943 -0.65574515 -0.835852 0.8930428 0.8226827 0.51658684 -4.153419 -2.3140714 -2.1054108 0.03344727
376 -0.09262439 1.5663707 -0.004940683 1.129543 2.4605544 -3.3266654 -2.760683 -0.10745772 -0.33465582 0.8873398
619 -0.70640516 2.9091797 -0.16970737 -0.7659161 -0.24164039 -0.71589226 -2.4236352 -0.52414495 -0.41610765 0.121331215
57 0.7563598 0.074593715 -1.8373077 -1.356469 1.5641541 -0.6618707 0.6609034 -0.39915347 -1.6078932 1.5882014
367 2.016069 -0.050012548 3.5987601 -1.8347654 0.78652513 -1.2445471 -3.3810976 1.2631278 0.25933215 1.6310525
265 0.593078 2.0761611 0.6794069 -0.10317829 2.5117786 0.10253497 -0.47797352 -1.5182602 -1.0357366 0.4758422
982 2.4350834 -2.4085429 1.612078 -1.6303637 3.3681602 -2.2220535 -0.3676804 -1.7890606 -3.7430174 0.5049499
2 -1.0543778 -1.1445689 -0.49607536 0.73907536 3.9033108 1.4528064 -2.964681 -0.76965064 -2.5677207 0.9499444
763 0.603632 2.2000127 0.68270075 -0.11299949 2.5326364 0.12228305 -0.45502996 -1.602833 -1.0991029 0.48878345
620 -1.7987381 -0.6365811 -0.8458297 0.91869074 0.8188694 0.53417456 -4.2624693 -2.3548434 -2.0937712 0.080345094
569 0.50825876 2.2643614 1.4883432 0.9678685 0.25253478 -1.32534 0.9814064 -0.64533216 -1.1518806 1.352766
152 0.030567538 3.7716212 4.496719 -0.8935703 -0.980443 0.27802575 -0.22375292 -0.65646225 -2.7879908 1.9808458
303 -0.045933384 1.6699749 -0.7326941 1.5787338 1.3414327 1.139771 -4.34279 0.3937152 0.73316795 1.7930472
572 -1.4276067 0.7388441 -0.5545476 1.2359934 1.4501051 -0.16868626 -1.017739 1.907632 -2.4895298 0.9795942
36 -1.7045413 1.238234 1.3959088 -0.40333477 1.398083 -0.82625353 -1.3632154 -0.78231734 -2.6807175 -0.17400047
129 1.0713612 -0.5629672 0.6057841 -2.4144063 1.300984 -2.5731356 -0.6220057 0.39490315 -0.5932987 1.5029699
501 1.5014309 0.9996881 -1.0038837 0.54495263 2.44363 -1.8304297 -0.7394399 2.0798144 -1.2467965 0.29948333
65 2.0278587 -0.02241325 3.5717165 -1.8442869 0.80258006 -1.188773 -3.3902836 1.2574868 0.314643 1.6783339
11 -1.0885273 -1.0761282 -0.5368083 0.7793987 3.8355172 1.4707474 -2.9049733 -0.74615806 -2.5011983 0.89886117
849 0.4935089 2.2811618 1.4993694 0.93867 0.23169053 -1.3043573 0.9175318 -0.6561303 -1.1167235 1.3587316
587 -1.5399673 0.7292501 -0.4612354 1.0875698 1.4622377 -0.21572846 -1.1588497 1.9110012 -2.4633434 0.8673213
399 0.7303526 0.31909686 -1.9095371 -1.2956858 1.4785945 -0.8730762 0.8629333 -0.41634446 -1.5320683 1.7693801
658 1.9047658 -0.9374462 -2.5726352 0.36080092 1.9571931 -0.91363806 -1.3724961 -6.7489843 -3.3831887 1.972956
21 2.4406798 -2.3603072 1.6174357 -1.5830879 3.318836 -2.19458 -0.32332203 -1.7749074 -3.6890862 0.4934742
819 0.78171486 -0.42819944 1.7067215 0.6916308 1.0471919 0.04311832 -1.0759219 -0.15059476 0.68669474 3.372226
274 2.7048542 -1.6449399 -1.6150197 2.0751796 2.3981907 -0.5738221 0.3264262 -3.1110518 -2.4573267 2.657365
874 -1.7231429 1.2446073 1.3987523 -0.42484042 1.4490921 -0.8131393 -1.4060398 -0.8066543 -2.6623144 -0.18930769
997 0.58198553 2.3838232 1.5277989 0.9903863 0.31077772 -1.3157271 0.99942726 -0.7270039 -1.181662 1.3840634
468 -0.14647676 1.6045663 0.047177598 1.2671043 2.6318133 -3.3774214 -2.8209653 -0.13409743 -0.40585497 0.9019366
792 -0.021779338 -0.26952875 -1.0823433 1.294279 -0.7742509 -0.84104633 -4.640824 -3.3744435 -1.976878 -0.49179748
600 1.4921764 0.9815118 -1.024926 0.48892948 2.522081 -1.8073568 -0.66742516 2.091049 -1.2495146 0.35631248
361 1.4208593 0.748452 -0.80224395 0.4427089 0.42357007 0.15342578 0.13850327 0.659574 -4.5973053 -0.2562479
387 2.422413 -2.4652085 1.5671455 -1.5222583 3.3619387 -2.1985884 -0.28156868 -1.782607 -3.7549431 0.5954058
856 -1.6897382 1.1947684 1.3959804 -0.43913794 1.4010147 -0.79701346 -1.3758161 -0.78215235 -2.6194832 -0.14943497
707 -0.71150434 2.9186733 -0.15300955 -0.8084198 -0.23781712 -0.7107562 -2.478507 -0.54713935 -0.41018113 0.101921245
769 0.50599015 2.240536 1.4512502 0.98398465 0.26801655 -1.3188732 0.9542426 -0.6288155 -1.0954769 1.3700225
255 -0.044377774 3.6076982 4.471533 -0.8415063 -0.94667816 0.33984086 -0.21587503 -0.6117198 -2.7319734 2.011862
91 1.051054 -0.5956174 0.61393696 -2.4271913 1.352955 -2.5966568 -0.62233984 0.41703993 -0.5887499 1.5549525
884 1.4753937 0.9657288 -1.0588084 0.47505653 2.48668 -1.8488798 -0.70753735 2.0714 -1.2958871 0.3202376
165 1.8456223 -1.0046911 -2.5257225 0.4571788 1.9355553 -0.8923825 -1.3262471 -6.660323 -3.3411565 2.0285962
590 0.6169285 2.1853428 0.77341694 -0.08835505 2.5571399 0.10906651 -0.38769406 -1.578894 -1.112652 0.54176754
314 1.4435313 0.67553645 -0.81500447 0.45683917 0.45937276 0.0908638 0.13601418 0.5844853 -4.548383 -0.27897713
35 1.3881316 0.7241518 -0.8188312 0.47209877 0.40321615 0.14750285 0.10804686 0.6508504 -4.5573797 -0.2579071
970 -0.7644278 2.9219978 -0.14531739 -0.7663738 -0.25806433 -0.7174295 -2.4695127 -0.5005741 -0.4485904 0.070533745
321 1.8819976 0.9472261 0.31226277 -0.99930155 0.66839576 1.5463734 -3.8784754 1.263325 -0.7313631 -0.012213614
673 -0.7243923 2.9041505 -0.17481077 -0.74169624 -0.25845653 -0.7180556 -2.4092226 -0.5361111 -0.40332118 0.11471592
522 1.3508085 2.1140854 0.40876463 -1.4301149 1.0663385 0.49000785 0.4613716 -1.2853433 -2.3288407 0.72480226
979 -1.6817455 1.347069 -0.94675595 -1.7011783 -0.8574455 -0.7812581 -0.25984082 -1.8949908 -2.6373136 1.6652234
175 1.4422054 0.76206654 -0.84288985 0.4536904 0.44544947 0.11409906 0.08494012 0.6450288 -4.5746875 -0.2928
345 1.9620713 -0.026898101 3.5949938 -1.8286595 0.819005 -1.2086413 -3.3761334 1.2981899 0.282375 1.7247003
922 -0.7390775 2.948864 -0.18779846 -0.7526884 -0.2854894 -0.7279431 -2.5166392 -0.5445063 -0.41302466 0.07842096
355 -1.7081463 1.1881348 1.3350943 -0.40779155 1.4599187 -0.76744956 -1.3513312 -0.73730546 -2.6596527 -0.14417802
117 -1.654888 1.2248665 1.3588406 -0.34112218 1.3668624 -0.7747811 -1.2752429 -0.76663816 -2.583311 -0.17226133
861 1.7676632 -0.08973637 0.35510287 -1.665565 1.4668814 0.663455 -1.8875144 1.4880937 -0.87537605 0.6870992
990 0.5947074 2.1714401 0.7279186 -0.025380116 2.6073897 0.09966699 -0.46481097 -1.5543733 -1.1058543 0.5191987
220 1.983692 -0.018508894 3.5811446 -1.8365407 0.8107345 -1.1914233 -3.366123 1.271285 0.31637752 1.7062012
810 -0.78466594 2.9580357 -0.15720098 -0.7719265 -0.1695678 -0.70278734 -2.5217347 -0.57860804 -0.51746184 0.006916335
116 1.8317367 0.9159994 0.31882 -0.98225385 0.6846166 1.5124037 -3.8837383 1.2858112 -0.6943717 0.017696243
834 0.031023553 -0.3196205 -1.1436757 1.382145 -0.7672279 -0.86019117 -4.7026467 -3.462534 -2.0604842 -0.445804
988 0.6387532 0.28971016 -1.889552 -1.239704 1.5091952 -0.921859 0.86186576 -0.42246994 -1.514978 1.8308667
697 1.0292003 -0.5834932 0.5634062 -2.3981907 1.3392633 -2.5885675 -0.63759094 0.41095498 -0.579094 1.5154109
161 2.4928038 -2.3910291 1.6796178 -1.5025412 3.4070923 -2.3329017 -0.3168872 -1.8359876 -3.742729 0.5366362
580 -0.029553102 -0.22965062 -1.1631521 1.3541082 -0.7718446 -0.9238553 -4.640522 -3.4052868 -1.9906152 -0.41167483
575 1.869818 0.97473085 0.3161459 -0.95995146 0.67367905 1.5190787 -3.8823571 1.28835 -0.681877 0.012724033
137 1.0714321 -0.53548414 0.57385737 -2.388937 1.2870405 -2.5912437 -0.60648406 0.4029605 -0.5632919 1.5529294
428 0.8515915 0.0117008425 -1.8979853 -1.4745266 1.6685203 -0.54193485 0.5577263 -0.40773433 -1.6769298 1.5658486
465 -1.8251585 -0.6612088 -0.8249476 0.91289794 0.89459956 0.52102536 -4.282621 -2.2843018 -2.1218808 0.12982814
147 0.85487115 0.044631325 -1.9267399 -1.4867213 1.6610935 -0.544561 0.5697688 -0.38568875 -1.6779912 1.5697477
300 1.9358594 -1.0062473 -2.481171 0.4657535 2.0192084 -1.1149355 -1.3869351 -6.7763515 -3.2320993 2.015401
530 -0.76354146 2.9058456 -0.15469491 -0.7673737 -0.2537769 -0.7288581 -2.4625213 -0.5559091 -0.41784194 0.0684234
554 -1.712527 1.291779 1.435141 -0.4488111 1.4412541 -0.7919428 -1.4083369 -0.8026597 -2.7047532 -0.17257218
159 2.6850424 2.4673374 -1.0380464 -4.295597 -1.4621104 -1.3628813 -2.9762578 0.035314042 0.56993705 1.6684611
254 0.84138834 2.2868745 1.5721052 0.8924367 0.25467125 -1.2731124 1.2793052 -0.9048664 -1.52225 1.3923101
621 1.7825418 1.4324391 -0.57215476 -0.03585227 -0.47105622 2.0729973 -0.8683744 -0.15333582 -1.3775516 0.742549
59 -1.2792044 0.8668494 -0.6690168 1.4596672 1.3946656 -0.09548511 -0.95405406 1.9628198 -2.5581934 1.1042607
268 1.4508307 0.7232024 -0.7980061 0.4836468 0.44535765 0.17311686 0.080631174 0.61026615 -4.5616736 -0.2833619
382 1.3617921 2.0186443 0.43002853 -1.4393115 1.0539507 0.48799488 0.439764 -1.2182782 -2.262321 0.714891
993 1.2992826 1.9511477 0.39229736 -1.3346931 1.0787835 0.45423615 0.48558536 -1.2132092 -2.2243013 0.7031819
413 0.7014748 0.32820058 -1.8689281 -1.2285922 1.4671634 -0.9365138 0.8529084 -0.42401692 -1.5155506 1.792668
786 0.81059706 -0.030833634 -1.9442677 -1.518578 1.685233 -0.5089891 0.54457253 -0.3991845 -1.7035843 1.5701696
40 3.4858162 -0.09867664 0.6491727 -0.74853975 0.120826855 0.56756115 0.33172214 -1.7313414 -2.1316917 1.166371
202 1.7156975 -0.07971231 0.3030802 -1.6560258 1.5391183 0.7031229 -1.943048 1.4906 -0.9237028 0.65141875
291 1.3080521 2.0216918 0.42109886 -1.3516355 1.037498 0.47111621 0.48545212 -1.2561651 -2.2876077 0.7363111
778 1.7724313 1.4158112 -0.55767536 -0.031785965 -0.4681041 2.0859818 -0.9324216 -0.16952223 -1.3682803 0.7692815
141 1.1968187 2.1184478 0.47254536 -1.2321507 0.96241003 0.43273953 0.4569099 -1.193613 -2.0162795 0.62022334
240 0.6617349 0.30045646 -1.8613403 -1.245021 1.5041386 -0.87786466 0.8210322 -0.41262433 -1.5362903 1.7466733
9 0.818217 -0.41815153 1.6819173 0.70545346 1.0549052 -0.044921853 -1.064507 -0.15813372 0.6901229 3.2904205
847 1.3647442 2.0833898 0.37553954 -1.4371879 1.0871289 0.4533998 0.46345046 -1.2175497 -2.300142 0.71495247
644 1.8741395 0.8985574 0.342008 -0.95199156 0.64616525 1.4780585 -3.9386408 1.2661579 -0.6705446 0.014523642
446 0.0017795555 3.8091874 4.5901484 -0.80379015 -0.938165 0.17507483 -0.14180496 -0.5005717 -2.779821 1.98939
694 0.7841431 2.257995 1.4423312 0.8794722 0.26215354 -1.2187679 1.2434523 -0.8741633 -1.421228 1.3375689
396 0.59156966 2.250965 0.7276236 -0.13093694 2.7000656 0.11704329 -0.46350136 -1.6000369 -1.1666923 0.5500639
185 3.4917445 -0.16877912 0.5053665 -0.73535675 0.11760396 0.4329891 0.26055613 -1.8478541 -2.1310112 1.0085206
668 1.7685539 1.3941618 -0.56604034 0.0018918165 -0.46235645 2.045186 -0.90500265 -0.14329217 -1.3298386 0.77751464
723 0.04603344 -2.385801 1.6938503 1.6674008 0.86534923 -0.5214076 -2.708919 -1.4877065 -1.074867 1.6561776
526 -1.8295001 -0.6768076 -0.8604161 0.8799505 0.8731396 0.5235602 -4.2178383 -2.301301 -2.1326225 0.12400593
45 -1.7889842 -0.6652508 -0.8680246 0.9043215 0.88214195 0.4851685 -4.149817 -2.2372289 -2.0646951 0.105287366
230 -1.0927017 -1.057184 -0.60847557 0.8370376 3.9477763 1.3167458 -2.917335 -0.7609422 -2.513696 0.9125671
459 1.8018835 1.3898286 -0.5376671 0.020772057 -0.47799116 2.0817485 -0.90860766 -0.13720402 -1.361223 0.7766928
565 1.3680116 2.0420742 0.40007132 -1.3637534 1.0584271 0.48266286 0.48444492 -1.2571862 -2.2843397 0.7265201
678 0.39189142 -1.8123581 1.0999665 -0.2264055 0.9041412 2.1103756 -0.06851392 2.1490202 -3.7859921 2.600006
166 0.87334967 0.034400415 -1.969886 -1.5015119 1.7150376 -0.5491886 0.5590739 -0.39363414 -1.7335145 1.5954242
696 -1.5126796 -1.5019879 0.33528683 -2.1918812 -1.4526259 0.643738 -2.0187857 -1.2362165 -3.2420382 1.6841755
811 0.64094067 2.1849113 0.69379145 -0.07245067 2.662588 0.16562735 -0.49855587 -1.6173081 -1.150187 0.4858213
61 1.5366696 -0.13741173 0.28756246 -1.5990977 1.5057657 1.002954 -2.0017529 1.363873 -1.0376921 0.5771652
645 0.05824924 3.6861622 4.6640654 -0.73742247 -0.9755494 0.19062017 -0.21983221 -0.52192295 -2.7728453 1.9269338
933 -0.75278234 2.9320264 -0.16890955 -0.7650045 -0.20323847 -0.7073139 -2.4990532 -0.5434041 -0.46996167 0.03309447
765 0.8309367 2.291484 1.5480593 0.91237205 0.28866267 -1.2361562 1.2314571 -0.89047045 -1.4588072 1.3766743
927 1.070908 -0.5716357 0.5599665 -2.4060338 1.3832631 -2.6470118 -0.62637955 0.41922593 -0.5757469 1.5570642
194 2.4847946 -2.3794208 1.6010059 -1.4678507 3.3643954 -2.3401904 -0.32477316 -1.7679437 -3.6914728 0.57236695
414 0.7895933 -0.42281762 1.6572165 0.7438685 1.1041938 0.013034865 -1.1150951 -0.1456975 0.64666647 3.3110301
989 -1.770016 1.284966 1.4999113 -0.43419942 1.5256768 -0.847815 -1.4518898 -0.81760955 -2.7723963 -0.14659765
211 -1.5150546 0.11341629 0.47630167 -1.8679023 -0.97259384 -0.13303156 -0.7065903 0.3685057 -1.930913 1.6844113
951 -1.642427 1.3491346 -0.9626504 -1.6801426 -0.86988753 -0.8213491 -0.29410636 -1.9159505 -2.5891852 1.6254224
730 -0.037379187 -0.26701558 -1.1008068 1.3346528 -0.69836307 -0.8585469 -4.5702367 -3.3723657 -1.9991108 -0.42165312
472 2.4302328 -2.265051 1.6856315 -1.5535791 3.5034714 -2.2609158 -0.31575742 -1.816767 -3.7887044 0.5133648
637 2.577517 -1.6783254 -1.5708357 2.065677 2.4733398 -0.6057329 0.2633928 -2.8158545 -2.2693102 2.6723545
126 0.854152 -0.03508417 -1.9138094 -1.4857433 1.7018238 -0.46567369 0.5029802 -0.4257693 -1.700832 1.5377437
815 -1.3056724 0.8700357 -0.6785844 1.478755 1.4064649 -0.0721687 -0.9842841 1.9878504 -2.5661616 1.1444902
113 0.8451879 2.2924633 1.5507499 0.86597526 0.2477239 -1.270328 1.2366974 -0.899439 -1.4831927 1.4034313
20 -1.6178701 1.3776429 -0.92328256 -1.6755853 -0.85733813 -0.7785864 -0.23494862 -1.8958791 -2.5793016 1.6284276
562 1.7239425 1.4120723 -0.5317713 -0.0012964016 -0.44019803 2.0593536 -0.87559974 -0.11804588 -1.2938151 0.7707067
386 1.3396245 2.1064084 0.4254803 -1.3954554 1.0990182 0.5486683 0.44818822 -1.2433866 -2.2392352 0.73652107
999 1.0603046 -0.52518857 0.58046275 -2.4217594 1.3783666 -2.6169639 -0.6085733 0.42380333 -0.5666979 1.5301447
130 1.6325315 1.6940634 -1.0105505 0.14203124 -0.65020007 1.7616516 -0.5273082 -0.22518456 -1.2802981 0.93608403
384 -1.6377498 1.3471115 -0.9292285 -1.6704351 -0.8292715 -0.8031794 -0.2648602 -1.9284463 -2.6045966 1.6545335
460 1.4398717 0.68854403 -0.7991629 0.47432548 0.43010813 0.14536335 0.053640723 0.57909405 -4.50129 -0.29692668
75 -1.5460234 -1.452836 0.37951273 -2.178225 -1.4422219 0.6290444 -1.9691076 -1.2235332 -3.1364918 1.6971993
484 1.3839558 2.0575788 0.43763125 -1.4665248 1.0958599 0.4588495 0.46411416 -1.2026081 -2.3595219 0.7215473
341 1.5218587 -0.14923549 0.2716579 -1.6669638 1.5515778 1.0332844 -2.0407803 1.3689812 -1.1149974 0.6181591
891 0.041059732 -2.3724425 1.6762373 1.6748996 0.9481209 -0.45576555 -2.7300358 -1.4908037 -1.0479507 1.6625077
482 0.711904 -0.31255692 1.4400411 0.67032987 0.90657294 -0.008660374 -0.7588504 -0.08851441 0.56078094 2.8022127
779 -1.4984251 -1.4779913 0.32886192 -2.1070232 -1.4211104 0.6143081 -1.9094597 -1.218066 -3.1031995 1.6515608
401 -1.6026026 1.2965686 -0.9267688 -1.6674066 -0.8575377 -0.76272285 -0.27991334 -1.8927274 -2.6173687 1.6220425
692 -0.6291763 2.958863 -0.26809004 -0.752644 -0.3598344 -0.7470939 -2.4339132 -0.4946389 -0.1890722 0.286406
702 -1.5246054 -1.4581057 0.35162908 -2.1508534 -1.4060942 0.6413544 -1.9743574 -1.1913065 -3.1583443 1.6587386
227 2.7127247 -1.6945393 -1.501647 1.9783602 2.3990912 -0.6407594 0.3371816 -2.8007057 -2.2702017 2.588987
947 1.4680043 -1.9687638 -2.5244706 -0.05850781 -0.22351475 -0.38914618 -2.6049283 -5.117698 -2.0966637 2.5363176
437 1.7815973 1.4353955 -0.54022086 -0.027227972 -0.48954946 2.099182 -0.91300714 -0.13156578 -1.381899 0.7615594
751 -1.5028694 -1.5192374 0.32136843 -2.154092 -1.3829315 0.61126256 -1.9820387 -1.2414725 -3.1588004 1.6272609
272 -1.479307 -1.4678336 0.3566699 -2.1253772 -1.4260876 0.6512285 -1.9851648 -1.2362437 -3.1657832 1.6785489
330 -1.5856729 1.3551667 -0.85740185 -1.653909 -0.7830139 -0.7511316 -0.22172372 -1.822307 -2.547392 1.562366
873 0.81130207 2.2364502 1.45798 0.8798793 0.2919105 -1.2315378 1.2661797 -0.880064 -1.5018381 1.3856087
108 1.3934348 0.7452771 -0.84342766 0.4401918 0.46140665 0.1278445 0.12699966 0.62733215 -4.552131 -0.26242363
390 0.08663367 3.766917 4.492437 -0.8120765 -0.774452 0.31204 -0.20104307 -0.49114805 -2.6871545 1.9165323
901 0.37820393 -1.8241451 1.0970584 -0.24448262 0.9972502 2.1077287 -0.019753978 2.1656876 -3.7425888 2.6976755
171 0.81482923 2.2595322 1.5101619 0.9042817 0.24368478 -1.2489158 1.2655432 -0.875255 -1.4680322 1.4150884
404 1.4168842 0.71461195 -0.7858564 0.4544025 0.43489537 0.1314241 0.09342001 0.63669294 -4.503029 -0.27328292
610 -1.5895686 1.3301874 -0.93127835 -1.6670748 -0.7824825 -0.7762395 -0.24323888 -1.8777126 -2.5441217 1.5671035
375 -1.5134221 -1.4781753 0.27051565 -2.1423798 -1.347757 0.61736745 -1.9138769 -1.185205 -3.1424563 1.6395303
77 -1.5774136 1.3578551 -0.8957768 -1.6691415 -0.80953306 -0.7746261 -0.21444608 -1.9088511 -2.575386 1.5791839
207 -1.4657142 -1.4741522 0.3647447 -2.1565607 -1.3845344 0.63791835 -1.9405051 -1.2093606 -3.1189387 1.6224821
298 -1.6638923 0.2877734 0.4754232 -2.029122 -0.9211798 -0.31506774 -0.8042893 0.6018837 -2.004499 1.9462191
503 -1.6672503 0.30359134 0.501491 -2.0325851 -0.93620276 -0.2954955 -0.83490753 0.6284487 -2.0067554 1.978059
458 -1.6803329 0.28673676 0.48670265 -2.053315 -0.9232989 -0.35412073 -0.8122696 0.6175632 -1.9921253 1.9699714
964 0.29518786 -1.833048 1.085497 -0.24267001 0.93074507 2.0287206 -0.033450518 2.1122122 -3.6239357 2.5673587
809 -1.7092407 0.28490958 0.5000946 -2.073262 -0.95159894 -0.37289476 -0.855324 0.6271748 -1.9827386 1.9883662
270 -1.7225763 0.32784602 0.52301794 -2.048394 -0.9234458 -0.37003964 -0.8239485 0.6343301 -2.0223236 2.0249908
47 0.6876304 -1.0369042 0.81599313 -1.3352895 -1.4984223 0.13375884 -0.25649112 -0.7951125 -0.7703257 2.9328868
888 2.6878936 2.4038854 -1.0102868 -4.289131 -1.3900079 -1.2547128 -3.0550604 0.013927887 0.63048416 1.719785
839 -0.21647687 0.3376901 -0.8809049 -0.88393545 -1.0891063 -0.2542269 -0.48694187 0.74616605 -0.35095122 2.8795378
432 -1.6203325 1.4098576 -0.9433248 -1.6361094 -0.83751315 -0.8326321 -0.2573248 -1.9875032 -2.6078105 1.593342
283 0.8501622 -0.02725465 -1.9436249 -1.4825908 1.7265978 -0.50108516 0.53998727 -0.3897143 -1.7386346 1.567849
370 1.3125474 -0.6098565 0.6615617 -2.4810665 1.0825406 -2.6310077 -0.6277344 0.45324603 -0.5371337 1.6395537
34 2.2672527 0.022847768 1.1363708 -0.08005421 0.87824905 0.19609855 -0.2698331 -1.1990956 0.008057234 1.3303653
52 -1.6581042 1.3233767 -0.9441425 -1.6570756 -0.8456887 -0.81525147 -0.25414667 -1.8874363 -2.5707078 1.6523367
218 -1.6988598 0.3094865 0.48138785 -2.016985 -0.9254891 -0.3029002 -0.81267715 0.6398493 -2.0029924 1.9916421
282 1.4235717 0.71680117 -0.7546124 0.5412977 0.42428216 0.15903759 0.098723374 0.60868645 -4.5621777 -0.2732455
364 -0.6474 2.9643445 -0.25261256 -0.74255085 -0.33393958 -0.7234126 -2.451064 -0.5185619 -0.23323765 0.23325208
23 -1.5235239 -1.5053179 0.31793573 -2.0875201 -1.3846436 0.66172683 -1.941447 -1.2444961 -3.1697896 1.6660087
73 1.3505858 -0.573428 0.6868021 -2.475396 1.0427806 -2.620491 -0.58623827 0.45834413 -0.4858272 1.7354296
797 -1.7030511 0.31763896 0.52972806 -2.0704885 -0.92508596 -0.32737592 -0.81935656 0.6292735 -1.9857614 1.9900677
796 -1.4800882 -1.4864926 0.35925412 -2.1559095 -1.3947278 0.6225694 -1.9835068 -1.2503965 -3.1724546 1.6207155
68 1.5694982 -0.13407536 0.81652623 0.037040234 -1.7079675 -1.6150819 -1.307427 0.29288146 -2.109969 -0.9155011
571 0.31127515 -1.836214 1.0707883 -0.24825698 1.0137753 2.086691 -0.0032189141 2.2059188 -3.7763197 2.659631
946 1.1455728 -0.85674775 0.715944 -0.117592946 -2.1905403 -0.80150163 -1.3258256 1.0144417 -1.3329577 0.41224605
383 0.037912365 -0.26247638 -1.149264 1.279688 -0.686471 -0.85786015 -4.6373863 -3.4932044 -1.9856737 -0.41192442
256 -1.4604743 -1.5033712 0.35059366 -2.1784108 -1.3715968 0.6586748 -1.9289389 -1.2907586 -3.1952941 1.6555424
88 -0.34495613 0.6896276 -0.3238817 0.36301425 -0.90161073 -1.086795 0.1861046 0.12912586 -0.5256567 2.362946
157 -1.61108 1.4364964 -0.90843624 -1.6724547 -0.8079233 -0.80848575 -0.2120481 -1.9180132 -2.623792 1.5921317
595 1.7352003 1.6031299 -0.9172013 -0.0171212 -0.6502741 1.8416104 -0.5993544 -0.18299325 -1.3436986 0.8797703
312 1.4236743 0.6881728 -0.8017315 0.4278998 0.46529457 0.12733977 0.121231094 0.66661435 -4.527302 -0.26701114
499 -0.23189759 0.33658725 -0.8354113 -0.8701227 -0.9913949 -0.25365078 -0.4649133 0.7599048 -0.31881133 2.781617
708 -1.0450183 0.5436964 0.3701624 2.9399261 1.1517208 1.2096572 0.4140676 -3.0355327 -2.132646 5.4387016
277 3.6299126 0.0014767352 0.5756379 -0.73864746 0.18084332 0.55340075 0.30274114 -1.8320533 -2.1479585 1.1271946
248 1.3940191 0.771496 -0.824013 0.43976033 0.43130153 0.13852683 0.12679408 0.6333078 -4.5160275 -0.25110492
235 0.9029206 -0.010775082 -1.960221 -1.5374067 1.7402735 -0.50154513 0.5410664 -0.41367778 -1.7506977 1.5717366
925 0.1676967 -0.05164989 -1.1375319 -1.1890216 -1.1432672 -0.072669454 -0.41011518 0.29843572 -0.26797414 3.3133984
346 1.3128341 -1.7620456 -2.4287057 -0.12663677 -0.16049905 -0.35674658 -2.567163 -5.137968 -2.043015 2.465139
134 -1.4895988 -1.4776661 0.38699135 -2.1526783 -1.389581 0.67302835 -1.902091 -1.2179006 -3.1911323 1.6704292
55 0.66548365 -0.9636478 0.7114392 -1.3202541 -1.5108479 0.14725292 -0.26047805 -0.7500876 -0.74678904 2.8920383
491 0.13798147 -0.05392589 -1.1360452 -1.211164 -1.1102947 -0.03580046 -0.37489605 0.29344925 -0.31921795 3.2861636
483 -0.04062919 -2.2897477 1.6854755 1.6188474 0.9291112 -0.52017707 -2.6943126 -1.44985 -1.0580636 1.6261039
966 -0.25642034 0.30185357 -0.8412585 -0.85942596 -1.0388668 -0.27566412 -0.4716147 0.76243836 -0.35386392 2.7536771
373 3.5391634 0.04357586 0.6173584 -0.68535876 0.21591553 0.5045994 0.4150958 -1.7584258 -2.1187289 1.1508124
695 1.7788987 1.4265795 -0.5145081 -0.07486539 -0.4451665 2.0627728 -0.8944965 -0.14333433 -1.3498125 0.75474554
188 0.12564589 -0.08529756 -1.1656524 -1.2319452 -1.1254059 -0.08081401 -0.41911572 0.33152485 -0.26029563 3.392181
90 -0.23107097 0.32852286 -0.9015868 -0.93240064 -1.080807 -0.2503153 -0.47442424 0.7694302 -0.37178603 2.9262168
647 1.5291018 -0.14921384 0.29364264 -1.5813775 1.5372354 1.0282774 -2.0549905 1.3720509 -1.0865847 0.6068176
625 -0.089666985 -0.23387028 -1.1458414 1.3723186 -0.7184979 -0.887099 -4.6280513 -3.4755177 -2.0106463 -0.43896228
276 -0.16333683 0.17285071 -1.0119922 -1.0292306 -1.1359397 -0.19154477 -0.46499935 0.69902676 -0.3686677 3.0795777
294 -1.7018584 0.28284317 0.50148714 -2.0630908 -0.93328404 -0.36535063 -0.8026199 0.591191 -2.0201972 1.975366
226 1.7883843 1.6454873 -0.9371871 0.01800591 -0.6652354 1.8406069 -0.59444076 -0.21579424 -1.4013408 0.8395351
76 1.5588552 -0.12674835 0.74457645 0.05930045 -1.685043 -1.605422 -1.2993191 0.26337004 -2.0493574 -0.92084575
481 3.633897 0.051320743 0.50138116 -0.7250404 0.23261617 0.59474486 0.31733418 -1.8538182 -2.1801987 1.085273
814 0.74187917 -1.1242236 0.8542765 -1.3596183 -1.5680445 0.10012696 -0.26419565 -0.84708625 -0.83501613 2.9834335
743 1.331219 -0.57929647 0.65611035 -2.5000262 1.0830207 -2.6415217 -0.590048 0.4597008 -0.5106087 1.709505
103 1.4336935 0.72244793 -0.815971 0.43289906 0.44230273 0.10459908 0.12456289 0.61708784 -4.5551715 -0.276926
177 1.6443809 0.8431047 -0.8091503 1.4711521 -1.1631079 1.4246137 -1.3281411 0.4475851 -0.9091559 1.2976637
784 0.03712409 -2.3483644 1.6592499 1.6038871 0.9279176 -0.44335195 -2.693283 -1.5339113 -1.071176 1.626875
749 0.0065848622 0.05741728 -1.0752212 -1.1554381 -1.1612931 -0.13139462 -0.44187474 0.5353102 -0.33634597 3.178373
623 0.76612335 -1.0726753 0.9012723 -1.3923607 -1.517353 0.108696185 -0.2862948 -0.8761418 -0.83973145 2.9521885
29 -0.3580053 0.6393699 -0.3201341 0.37206993 -0.92816424 -1.0761741 0.17623937 0.09790134 -0.48733702 2.2320786
79 0.32840535 -1.2547278 1.7953552 2.676485 -0.11840988 1.6727383 0.6211407 0.87158287 -3.0533645 5.2313294
464 0.86414015 -0.030799873 -1.9504272 -1.5173119 1.7092708 -0.5054058 0.53286856 -0.41359556 -1.7396435 1.6004654
197 1.5355779 -0.10166733 0.73431766 0.027369658 -1.646072 -1.5529627 -1.2707902 0.25752744 -2.0432825 -0.89681596
289 1.5690807 -0.13674158 0.72933215 0.028820515 -1.6896074 -1.5803246 -1.2932489 0.27585155 -2.0262764 -0.9063752
806 1.5158931 -0.09607206 0.76249754 0.06472179 -1.700774 -1.6177663 -1.285521 0.26661453 -2.0195174 -0.8927311
325 -1.5274515 -1.4585358 0.35045803 -2.1816254 -1.3955721 0.62701833 -1.9568063 -1.2358214 -3.1389809 1.6365855
800 0.73886853 -1.0983654 0.8961688 -1.4103881 -1.4963965 0.15060605 -0.26784754 -0.8334869 -0.83862233 2.991837
474 -1.7233144 0.31724983 0.51104444 -2.0550349 -0.932673 -0.32166496 -0.8217728 0.6360369 -2.0155797 1.9994652
3 0.70003444 -0.9883477 0.7540233 -1.3536485 -1.5004873 0.1711527 -0.27498832 -0.7631678 -0.7747488 2.8651516
505 2.2822962 0.0628039 0.5377776 0.065006875 -2.0891545 -1.906839 -1.9728832 -0.043562204 -2.4971452 -1.3573185
123 -0.36942783 0.6891752 -0.30220845 0.39093515 -0.88094056 -1.0869858 0.18765059 0.10061532 -0.47653088 2.3299913
162 2.268607 0.05655984 0.53627646 0.07934823 -2.0418603 -1.9024475 -1.9557362 -0.055530593 -2.4390366 -1.3519236
900 -1.7598118 0.30673417 0.54694825 -2.0653167 -0.8968023 -0.35751057 -0.8022403 0.66235346 -1.9790703 2.039706
182 0.6670011 0.3884177 -1.8961315 -1.1889329 1.5026728 -1.0007017 0.92567235 -0.39582604 -1.5546076 1.8830475
425 -1.5215157 -1.5270224 0.33990538 -2.172083 -1.3935463 0.643724 -1.9683343 -1.2531374 -3.2213898 1.6641047
307 -0.39231595 0.6842763 -0.36658376 0.4240806 -0.95316446 -1.1756383 0.19598246 0.13534518 -0.5409086 2.5559137
449 0.7913271 2.268305 1.5236777 0.8800483 0.26304626 -1.2168223 1.2722058 -0.897539 -1.4834074 1.3859459
865 2.246112 0.055298142 0.5070043 0.09628983 -2.0342045 -1.8802222 -1.9401864 -0.059045225 -2.4030092 -1.3144264
969 0.75501347 -1.1116463 0.8498414 -1.3943813 -1.5735412 0.11267378 -0.307476 -0.84626365 -0.8133475 2.9976058
266 -0.39515516 0.6827051 -0.35852343 0.38995388 -0.98930466 -1.1956785 0.1809068 0.11387104 -0.5261704 2.5444777
606 0.36950123 -1.3293741 1.7384146 2.6692002 -0.20704487 1.6925344 0.5573665 0.80730414 -3.0863547 5.1421876
368 1.9643128 -0.1470469 0.5138406 -1.4765354 1.0005878 0.060327623 -1.5042363 1.461374 -0.3740945 0.97849005
403 3.5019178 -0.08762825 0.59726727 -0.6721409 0.23877016 0.57899094 0.34963104 -1.7723066 -2.1020179 1.1247431
971 3.5955129 -0.025654754 0.49607924 -0.71883404 0.21416546 0.61067706 0.32115325 -1.7581383 -2.1952434 1.0746298
835 0.13312607 -0.07521075 -1.183835 -1.1749215 -1.1283685 -0.03839116 -0.44531128 0.3464107 -0.2896384 3.3036032
905 0.25676417 0.50515026 -2.9722888 -1.1209676 -2.4639173 -1.6651791 -2.0730999 -2.3171196 -1.9260479 1.1990137
8 -0.25711668 0.34865525 -0.8752508 -0.8699836 -1.0586226 -0.2832725 -0.46870098 0.74658036 -0.3237577 2.8655844
198 0.7456124 -1.0524929 0.8305811 -1.347985 -1.5520527 0.16921936 -0.26911682 -0.8031389 -0.8072409 2.9319139
876 2.2615118 0.027648354 0.56652284 0.11207081 -2.1005583 -1.9237088 -1.9703912 -0.038851462 -2.4601772 -1.344482
201 -0.36745203 0.64855206 -0.40565896 0.3609702 -0.9573128 -1.1273254 0.15955722 0.1312632 -0.5257852 2.4706755
690 -1.6361208 1.3690755 -0.9258172 -1.6982943 -0.79767144 -0.7732295 -0.26849237 -1.8998377 -2.6515021 1.6101354
557 1.3725399 2.0863063 0.44236168 -1.4261634 1.1061062 0.5087033 0.4172336 -1.2179217 -2.2992864 0.7164339
344 0.6688901 0.34775075 -1.9344347 -1.1665686 1.491537 -0.98233974 0.90841144 -0.4188414 -1.6031736 1.8482271
977 0.81749976 2.2742965 1.5832734 0.86684537 0.25305927 -1.2249883 1.2426476 -0.9029674 -1.4941494 1.3984346
111 -1.6100259 1.3632218 -0.92654294 -1.7382133 -0.8476266 -0.78056407 -0.25029883 -1.9696093 -2.695723 1.6391042
605 1.5545366 -0.077914335 0.77759033 0.021696474 -1.6682101 -1.5881267 -1.2760807 0.2623698 -2.0546181 -0.91321933
549 -0.36077604 0.7104481 -0.36401457 0.41412723 -1.034405 -1.2023317 0.18911555 0.099090286 -0.5809246 2.630656
840 2.2509413 0.031658847 0.5242784 0.09955022 -2.046297 -1.8842999 -2.003543 -0.062205583 -2.4264085 -1.3474308
400 -1.6636804 0.7157901 -0.37960723 1.080025 1.6243075 -0.3911917 -1.2966387 1.9491005 -2.483352 0.86132413
347 -1.6543839 1.3810868 -0.92801917 -1.6864396 -0.82099783 -0.78273743 -0.26735216 -1.9354762 -2.6642249 1.6125665
53 1.303168 -0.5856171 0.6471122 -2.4892871 1.1024687 -2.632896 -0.6265991 0.44760883 -0.5341666 1.69294
547 2.175184 -1.168756 1.319239 -0.27301627 1.3005482 -4.3221073 -2.5450137 -2.0620859 -0.41631892 0.6621328
516 2.0435789 -1.5602252 2.8058994 4.1859546 -0.39459845 -4.4120984 -0.85324645 -0.8246466 -4.3672986 0.37953573
827 1.5404555 -0.13138995 0.7135052 0.062147986 -1.64641 -1.5751301 -1.2572715 0.2775199 -1.9967023 -0.878569
471 -1.697484 0.28777406 0.527587 -2.0339663 -0.9395677 -0.34080714 -0.83722544 0.6431969 -1.9976163 1.9902703
896 0.7865541 -1.13025 0.89933234 -1.3669586 -1.6005193 0.14039476 -0.27238044 -0.822759 -0.86018133 3.0077765
304 1.3050022 -0.19273765 0.7382007 -0.018830072 -1.5629202 -1.409121 -1.080455 0.35338473 -1.818493 -0.7074695
926 0.83440024 2.260235 1.5079238 0.8935669 0.2573994 -1.2461674 1.2366487 -0.87084496 -1.4697345 1.4075688
112 2.2946718 0.03907086 0.52439237 0.09436463 -2.0375555 -1.900089 -1.9716421 -0.0666153 -2.4649339 -1.366099
225 -1.7123151 0.27887905 0.4780421 -2.0719266 -0.9288176 -0.34923542 -0.8340146 0.6181558 -2.061896 1.9835236
906 0.7951999 -1.1236832 0.8877689 -1.3637745 -1.5706426 0.098336026 -0.29868665 -0.8438019 -0.8249085 2.96981
586 0.7965134 -1.1017078 0.86371124 -1.3841707 -1.5507948 0.125083 -0.2903081 -0.8413287 -0.8100198 2.933498
33 -1.4894537 1.6149703 2.4004421 1.9104354 1.0486575 2.0910852 0.5683599 2.0936337 -3.0893073 5.0846963
6 0.6917247 -0.997387 0.7443193 -1.3268448 -1.4936739 0.108089685 -0.2489871 -0.7615947 -0.751176 2.8244603
978 -0.7495385 2.9795473 -0.1980366 -0.8171399 -0.21217702 -0.73303336 -2.5573997 -0.561056 -0.48858714 0.027153222
94 -1.0628119 0.3715102 0.19086939 2.9748907 1.2814639 1.154122 0.26974228 -3.0942798 -2.2590055 5.295167
397 2.2946165 0.06918898 0.5121042 0.099748835 -2.0765834 -1.9090269 -2.0032349 -0.03929292 -2.4873455 -1.3546616
597 -0.40829083 0.69818276 -0.38950714 0.40710953 -0.9974788 -1.2281563 0.19559738 0.12972093 -0.5701859 2.63884
551 0.7660595 -1.1703892 0.9201323 -1.3962306 -1.5913309 0.13684465 -0.29411465 -0.8294601 -0.866339 2.9828389
496 2.6845152 2.5727465 -1.0550771 -4.392836 -1.3898234 -1.2678982 -3.1632545 0.03520126 0.6476241 1.7447833
564 1.7321568 1.6579671 -0.94972515 0.03396713 -0.63542056 1.8122606 -0.5636576 -0.19157977 -1.361355 0.8466547
795 -0.21309291 0.2578223 -0.9145994 -0.90372115 -1.1158395 -0.2525543 -0.48189497 0.7759953 -0.3568964 2.8922017
985 0.38044035 -1.3473898 1.7486092 2.631559 -0.24728201 1.5837235 0.6097466 0.8345404 -3.0960536 5.210672
439 1.9670782 -0.02963191 3.652049 -1.835136 0.8896323 -1.180388 -3.4375157 1.2820929 0.26097676 1.6994913
131 1.7191386 1.635743 -0.9813629 0.04698968 -0.6583644 1.78381 -0.548447 -0.15537933 -1.3516518 0.8890043
186 2.203025 0.032901477 0.533595 0.095566764 -2.0207207 -1.8610352 -1.8706706 -0.034764353 -2.417639 -1.3076874
744 1.9334514 -0.018279621 3.637602 -1.8468019 0.843235 -1.2008148 -3.4062676 1.2290199 0.29897323 1.687284
209 -1.6839035 0.2851056 0.5183378 -2.0437918 -0.8886365 -0.35951722 -0.80853385 0.6305608 -1.9798532 1.945943
821 0.76697165 -1.0929079 0.91654825 -1.3168981 -1.5560914 0.0865596 -0.24798344 -0.8478131 -0.84073186 2.957734
518 0.2748979 0.4468499 -2.9157329 -1.191628 -2.421954 -1.6513497 -2.0323026 -2.3093972 -1.9301429 1.2179741
485 1.7909478 -0.024751067 3.2822285 -1.6902349 0.8123977 -1.1293968 -3.117445 1.1882354 0.2919433 1.4722975
830 1.9883865 0.0057708756 3.6833332 -1.893422 0.89625245 -1.265555 -3.4209096 1.2807215 0.26865083 1.7026639
945 -1.52101 -1.5285078 0.3233001 -2.1984663 -1.3591251 0.6299094 -2.000684 -1.2389972 -3.235693 1.6400781
803 1.1706805 -0.8808171 0.72161025 -0.04718543 -2.1872766 -0.93351656 -1.3113054 1.0887797 -1.4002885 0.3706729
771 -0.16464235 0.30863556 -0.9569663 -0.9429621 -1.1744522 -0.26223764 -0.4728447 0.81483847 -0.41688794 2.98056
643 1.8964566 -0.20001145 0.46936464 -1.60291 1.2020108 0.26035443 -1.6194755 1.5035936 -0.6109996 0.9159044
169 2.300803 0.047872815 0.5502523 0.1309773 -2.1154044 -1.9294308 -1.9945673 -0.07691094 -2.4920192 -1.3542101
338 -0.3659445 0.6923168 -0.36244148 0.37447652 -0.9882072 -1.2014887 0.17590135 0.1167292 -0.57929283 2.56819
956 1.4928946 0.9684556 -1.0206089 0.4970339 2.5179865 -1.7572224 -0.70925975 2.107933 -1.2289214 0.31227723
593 -0.43142566 0.7116392 -0.38978702 0.37949583 -1.0157417 -1.2577583 0.16012652 0.10367041 -0.59618807 2.7434013
143 -1.7447603 0.2696861 0.51625365 -2.0629642 -0.9115797 -0.30671197 -0.808539 0.57485086 -2.046832 1.999584
602 -0.39076647 0.72356874 -0.42426258 0.42559946 -1.0577888 -1.2511777 0.1719827 0.103711225 -0.60874045 2.7499583
110 1.6368719 1.8032453 -3.0535376 -1.1391772 -1.8659302 -5.238376 -0.55002064 0.89584106 -3.3563197 0.25398245
675 -0.65203434 2.9860349 -0.26918334 -0.7628976 -0.34667352 -0.76479334 -2.4715588 -0.52246165 -0.18726884 0.2881716
570 1.64973 1.655471 -3.0337787 -1.1509153 -1.8680829 -5.1433387 -0.54683065 0.9069895 -3.363755 0.2929238
878 -0.24381112 0.34083122 -0.8562255 -0.86140215 -1.0826751 -0.27684554 -0.42631465 0.7591699 -0.3420075 2.8422365
22 0.20731805 -0.47422227 -1.0992646 2.2976718 -1.1751194 -3.3328724 -1.246849 2.4534903 -1.3396446 2.4797802
139 -1.6191432 0.7181918 -0.36453202 1.0218757 1.6272228 -0.3449404 -1.304384 1.8739398 -2.4635313 0.8038871
497 1.1411883 -0.88476276 0.7078328 -0.1519311 -2.1990488 -0.83338344 -1.2808485 0.9857026 -1.3455821 0.42993766
880 1.7421896 1.6260031 -0.9447888 -0.015572153 -0.6799446 1.8058255 -0.56591666 -0.2215481 -1.3739976 0.89590675
983 -0.15009584 0.20593959 -1.0100387 -1.0898788 -1.178174 -0.19888733 -0.448825 0.6769669 -0.39308915 3.1430402
191 1.7584335 -0.060606446 3.261743 -1.6139245 0.77097213 -1.00594 -3.0695865 1.1610891 0.24665432 1.4054109
932 0.28672668 0.42666054 -2.8774066 -1.2871072 -2.4139392 -1.6772512 -2.1045978 -2.4761467 -1.9642617 1.1939714
984 1.4959499 0.972417 -1.0427601 0.44591603 2.5935624 -1.7810287 -0.7472989 2.187569 -1.2892016 0.33331054
566 2.6200674 2.296518 -0.8595095 -4.3875413 -1.338321 -1.2138631 -3.0455494 0.016928164 0.5796063 1.659069
275 1.9725583 -1.4785273 2.7326777 4.0856395 -0.48106223 -4.2370715 -0.69766515 -1.0663668 -4.200114 0.39531934
608 0.19557373 -0.10005195 -1.2089561 -1.2307185 -1.1609937 -0.07196928 -0.43664232 0.2680638 -0.26125863 3.472243
212 -0.31545365 0.40686536 -0.72367185 -0.60776705 -0.8770472 -0.32696337 -0.36150005 0.6471663 -0.2624351 2.3998816
273 0.19090217 -0.4524702 -1.0184134 2.210908 -1.1525685 -3.235741 -1.1896269 2.448936 -1.3350006 2.4532378
939 2.027943 -1.4664949 2.849491 4.074411 -0.5333846 -4.4646635 -0.7720243 -1.0720925 -4.322561 0.35124373
440 2.2997174 0.051834732 0.57231754 0.12675154 -2.0813928 -1.8738742 -1.9295098 -0.061000317 -2.5133712 -1.3268023
883 1.8035032 1.5350631 -0.8432715 -0.05479758 -0.6816439 1.8298558 -0.6183752 -0.14745286 -1.432785 0.79800594
514 1.7762781 1.641641 -0.8800078 -0.06615571 -0.6535521 1.8138552 -0.6067718 -0.18382 -1.3918267 0.8194931
334 1.7000793 0.83852756 -0.7432797 1.514748 -1.1581267 1.432574 -1.2802864 0.39218703 -0.9322119 1.306363
826 2.295257 0.07007399 0.5596265 0.11092857 -2.0769403 -1.8835603 -1.9590217 -0.035367005 -2.4959877 -1.336916
374 2.732373 0.24764836 0.1901902 -1.286722 0.7672659 -0.3058257 -1.8215966 1.2877434 0.25171694 1.2055576
251 -0.21459658 0.30724815 -0.8420584 -0.89894 -1.0791332 -0.24681908 -0.47895378 0.7512084 -0.3555938 2.8805249
470 1.5707626 1.7144549 -3.1149793 -1.1789434 -1.983561 -5.2901587 -0.72498953 0.8654555 -3.3762949 0.23139597
529 -0.15056421 0.20389232 -1.0424662 -1.1238067 -1.1945224 -0.2123078 -0.48148686 0.69598657 -0.38407975 3.2050004
462 1.5615623 -0.12286871 0.76116794 -0.008651299 -1.6661935 -1.6466032 -1.2738453 0.25634995 -2.0671992 -0.90251446
607 -1.6037809 1.5364249 3.023325 -0.63445365 2.4397233 -3.910555 -0.056344032 2.461831 -1.8611765 2.392677
252 -0.35909396 0.6356273 -0.36202717 0.3660514 -0.93621725 -1.1121081 0.16333121 0.13745101 -0.52332276 2.4581652
701 1.4171798 0.8858726 -1.0253613 0.51583916 2.4368963 -1.7813698 -0.5960105 1.9482833 -1.2230386 0.3432186
389 -0.41011006 0.6959876 -0.38255802 0.37270492 -1.0094514 -1.1883457 0.17043887 0.12005452 -0.56633884 2.6806645
924 1.8653873 -1.5740652 2.8845954 4.222969 -0.53127795 -4.4171834 -0.96266115 -1.0547904 -4.3606744 0.28277668
69 1.2347007 -0.89126647 0.70154315 -0.0485847 -2.1905723 -0.94116634 -1.3292925 0.99714303 -1.3772655 0.30254638
774 2.3074923 -0.636954 0.91739976 0.33212253 0.0005120381 -1.6540668 -0.76609445 3.9453046 -2.1832619 1.5621094
296 1.7567775 1.6239008 -0.95707107 -0.00078956655 -0.71739364 1.8169451 -0.61645496 -0.24372083 -1.3693324 0.86763525
473 -1.7341942 0.27534047 0.54057646 -2.0796363 -0.94798154 -0.38517573 -0.8294243 0.6367754 -2.0611327 2.0333529
60 0.97271407 4.7094283 -0.93530524 4.7955804 -2.260437 1.1296299 -1.1564626 -0.22784665 -2.9796658 1.2497687
38 -0.3350055 0.62366354 -0.31416428 0.32235336 -0.88071525 -1.0781846 0.15306775 0.10853131 -0.4658712 2.2764163
444 0.081691034 -0.45288628 -1.1569705 2.3188047 -1.154606 -3.3076165 -1.2707828 2.436786 -1.3677772 2.5593631
119 1.8126558 -0.050070982 3.258617 -1.6554996 0.79310256 -1.0712461 -3.1316702 1.1241271 0.2566016 1.3999391
941 -0.10781977 0.17510779 -1.0114467 -1.1245798 -1.21666 -0.1909311 -0.4597897 0.67963004 -0.38944897 3.1783934
187 1.5292208 -0.16266423 0.75776756 0.03969489 -1.6927783 -1.5855814 -1.283277 0.28708637 -2.0542758 -0.89126194
456 1.7487473 1.5990286 -0.9027383 -0.014605419 -0.67638767 1.7777954 -0.5914035 -0.2055672 -1.3774147 0.83071136
302 -0.3570136 0.64659625 -0.36989558 0.33537227 -0.94410914 -1.111184 0.16762376 0.13846973 -0.49619445 2.4536922
229 -0.3605348 0.65753007 -0.33313856 0.33648196 -0.96087635 -1.1202174 0.17197551 0.12334363 -0.5459162 2.4609382
875 1.3163848 -0.6621076 0.6916565 -2.5511918 1.1531123 -2.6767235 -0.6113389 0.42919838 -0.5322003 1.7383568
553 1.1766325 -0.87260264 0.7310028 -0.067258336 -2.205515 -0.88241684 -1.364139 1.0750859 -1.4259933 0.38970655
337 -0.22315425 0.2664449 -0.9357018 -0.9302599 -1.1104813 -0.27090496 -0.4281811 0.70938265 -0.35690954 2.9395552
82 1.1192307 -0.84791344 0.69149375 -0.108331084 -2.0889852 -0.8149463 -1.2415991 0.95496297 -1.3383226 0.38042092
163 1.5168383 -0.1491143 0.7512134 0.065835714 -1.6687874 -1.601722 -1.2449628 0.27540576 -2.0537353 -0.8601511
377 -0.4122493 0.6616488 -0.37944418 0.35554945 -1.0002123 -1.1922969 0.15691048 0.1140564 -0.56540513 2.6102116
204 0.94909155 2.0765224 0.40611342 1.7849671 -1.069681 1.4452252 -0.912915 0.4250493 -0.76878375 1.546453
132 -0.12219718 0.12321364 -1.0464177 -1.1005449 -1.1983105 -0.18733203 -0.49125475 0.68583167 -0.4013309 3.1959453
948 1.7513382 1.5303298 -0.867543 -0.0054271976 -0.66549355 1.8693279 -0.64360917 -0.16632485 -1.419351 0.8069166
54 1.225799 -0.29335982 -2.475999 1.9694093 0.99619657 -3.9243786 -1.4953835 0.93571675 -1.6292756 0.545178
62 0.04894238 1.3177757 -0.3014178 1.2140547 2.2390215 -2.9106925 -2.5952377 -0.06437755 0.09126023 1.1779896
430 -1.2556546 0.8716407 -0.6955312 1.4586804 1.342917 0.0867122 -0.8972455 2.0040412 -2.6299312 1.2506902
770 0.14494279 -0.48887852 -1.147849 2.3035233 -1.1771474 -3.3444543 -1.2607691 2.5054722 -1.3588306 2.6014416
892 1.9152973 -1.4917066 2.6820095 3.9887612 -0.46686193 -4.1971874 -0.75394285 -1.0088967 -4.160127 0.33915988
525 1.9095746 -0.01760618 3.5834374 -1.8793498 0.8412346 -1.1926546 -3.3507528 1.1831229 0.26040667 1.6783261
434 1.6732918 0.8869198 -0.75658137 1.4478165 -1.0970786 1.4915836 -1.2933767 0.39573863 -0.93928057 1.3034412
958 1.9556416 -0.026383102 0.57551324 0.059932593 -1.9107978 -1.7072157 -1.6859008 0.05006301 -2.23295 -1.1492175
669 2.2583556 -0.62620395 0.82811743 0.28964123 -0.10706518 -1.6710333 -0.7270182 3.9645119 -2.2012155 1.5500934
452 1.8952789 0.0005358838 3.6587274 -1.8637912 0.8598515 -1.2149302 -3.4198952 1.2734222 0.24345218 1.711145
897 1.5368248 -0.096740834 0.7514709 0.0026235494 -1.7060044 -1.6021168 -1.2482859 0.27281344 -2.0643892 -0.87274325
576 2.242717 0.07494579 0.51252645 0.07266545 -2.022232 -1.8612989 -1.9335188 -0.06309527 -2.4072373 -1.3341627
660 1.4159707 0.7498645 -0.83113104 0.41997612 0.47103292 0.08277734 0.17402282 0.64751583 -4.619329 -0.270985
617 2.0972593 -1.2092716 1.4320024 -0.28356674 1.2745725 -4.301381 -2.5833273 -2.1111414 -0.48511893 0.72151583
418 2.2988455 -0.6067672 0.8834711 0.25321388 0.024751674 -1.6731879 -0.7456499 3.979029 -2.1786475 1.5281945
319 1.1908947 -0.8645917 0.707357 -0.011677942 -2.0611436 -0.94375396 -1.2570951 1.0773367 -1.4059424 0.26933026
352 0.1882811 -0.47966674 -1.0897049 2.2478044 -1.2189338 -3.2522037 -1.2748264 2.4681773 -1.365858 2.4545715
411 1.1001823 -0.4255167 -2.43876 2.0712087 0.8479987 -3.8416603 -1.5361646 0.80141824 -1.6564542 0.5768177
790 1.4228336 0.7602468 -0.78136146 0.42823708 0.463702 0.11227118 0.12367398 0.6940175 -4.6424437 -0.2874937
548 -0.4157724 0.74617803 -0.3746358 0.38757327 -1.0324848 -1.25476 0.15694621 0.14527756 -0.593426 2.6467452
536 -0.44114617 0.69647247 -0.35712945 0.42157298 -1.0370928 -1.2343975 0.1729563 0.11034057 -0.57175523 2.6133444
243 2.2599359 -0.6490071 0.8797006 0.2588798 -0.05666999 -1.6411349 -0.80141205 3.9381607 -2.1601849 1.5080563
703 1.4475051 0.895827 -1.0241485 0.47092998 2.4017546 -1.7605443 -0.59567106 1.9611384 -1.2548801 0.30255085
772 0.8553674 2.1518803 1.4324573 0.85078615 0.27375326 -1.1685158 1.2971702 -0.920055 -1.5089151 1.3426906
223 3.2846365 0.20245205 -3.045134 1.809937 -1.2760476 -0.58665997 0.51493484 1.1030581 -0.8148192 4.7290606
233 1.6141726 0.83516806 -0.76926845 1.4755204 -1.1419572 1.448286 -1.3258587 0.45037332 -0.8798725 1.3245393
14 0.67731744 0.27582595 -1.9170504 -1.2919561 1.584992 -0.8491098 0.781761 -0.3818812 -1.5462475 1.752571
502 0.66559666 0.40210888 -1.8981715 -1.2021749 1.4831868 -0.9999296 0.9438571 -0.4604473 -1.5963796 1.9160227
85 0.85862774 2.1774886 1.464256 0.8460143 0.23829104 -1.1159382 1.3350637 -0.8723889 -1.5328512 1.3293556
190 1.2225772 -0.30151558 -2.398882 1.9893525 1.0358706 -3.901769 -1.5590836 1.0390353 -1.6186976 0.5005147
431 0.61657214 -0.2508156 1.3139473 0.6999936 0.71688026 -0.07310185 -0.59795815 -0.13243169 0.480765 2.485702
264 1.3916725 -0.6148579 0.67578375 -2.5836947 1.0130782 -2.737805 -0.6098678 0.45288533 -0.51010734 1.7961627
709 1.0673349 -0.40494812 -2.5813186 2.1967897 0.9882225 -4.1775155 -1.631514 0.8567013 -1.7439065 0.6457064
967 1.7976278 1.6469381 -0.89106077 -0.039390814 -0.6865086 1.8657316 -0.6420099 -0.21117185 -1.4064533 0.8477955
854 1.5033776 -0.14207658 0.7709895 0.017290777 -1.6579145 -1.5621241 -1.2417682 0.304702 -2.0085385 -0.84343565
729 0.09312909 -0.4803451 -1.0707488 2.2115765 -1.1303599 -3.3398776 -1.2472137 2.4321928 -1.3478032 2.5435665
349 1.6085379 0.8396309 -0.7662069 1.5097966 -1.1387248 1.3882159 -1.2793114 0.3935224 -0.8586106 1.3224683
890 2.2523983 -0.62918836 0.91046125 0.22736424 -0.058994874 -1.6910162 -0.7267254 3.9364483 -2.186251 1.538813
508 1.654464 0.87090814 -0.74113655 1.490063 -1.108399 1.4178607 -1.3131421 0.42362043 -0.8764559 1.3173084
722 1.4189982 0.78704166 -0.8012134 0.43176055 0.4738299 0.080759525 0.16666816 0.64751315 -4.61327 -0.27053452
753 0.6306089 0.36450383 -1.8100921 -1.1969221 1.4221883 -0.9811744 0.90295017 -0.42672035 -1.5043216 1.7856256
907 1.4162216 0.8944704 -1.0069196 0.5301874 2.384777 -1.7984908 -0.610814 1.9747561 -1.2265645 0.3422559
527 1.399613 0.8816149 -1.0272379 0.46392423 2.3750463 -1.7391678 -0.58939284 1.9786088 -1.2521713 0.33152378
574 1.690516 0.81296104 -0.8546778 1.6788883 -1.2991337 1.4108562 -1.4446713 0.5863111 -0.93937147 1.4781582
284 1.225576 -0.22978048 -2.4617867 2.0892065 0.9895506 -4.0479627 -1.5138841 0.8611645 -1.6659867 0.45304334
799 0.262846 -1.8232366 1.1049716 -0.26349366 0.92558527 2.027138 -0.052779496 2.0467482 -3.5876403 2.6243215
258 -1.6168516 1.5863461 2.435426 1.7961835 0.9143113 2.1356487 0.52231526 1.9287852 -3.0539966 5.0159583
260 1.362554 -0.5742099 0.70690435 -2.5387704 1.0151832 -2.7185602 -0.60375005 0.43322963 -0.53202087 1.7801946
359 2.2610118 0.067302324 0.55958956 0.10266143 -2.0497475 -1.8597544 -1.9548504 -0.045651834 -2.490611 -1.320822
611 1.7172709 -0.0416163 3.2299662 -1.6639644 0.7695219 -1.1001656 -3.0831137 1.1325741 0.26135263 1.4115077
184 3.1927402 -0.16024254 0.54022527 -0.57927686 0.25086647 0.36013323 0.3091835 -1.7274566 -1.8494669 0.9741812
598 1.2106869 -0.8836841 0.71395475 -0.04510755 -2.1905885 -0.94710934 -1.3322926 1.0730772 -1.4168118 0.35637087
247 1.8578655 -0.12554607 0.42750412 -1.585028 1.1602885 0.2535159 -1.5705881 1.5055715 -0.58997357 0.820818
354 0.13524853 -0.46925914 -1.0852923 2.252779 -1.1472566 -3.2910213 -1.2242583 2.416103 -1.3408778 2.4724705
506 0.15479599 -0.45803216 -1.0678676 2.2639067 -1.1579878 -3.2567806 -1.2469217 2.4703033 -1.3336135 2.477582
388 -0.42832825 0.7136367 -0.39636242 0.39726847 -1.0181983 -1.2090644 0.17254414 0.12290137 -0.5731998 2.7066157
279 0.1670986 -0.47858804 -1.0840886 2.2562935 -1.1481146 -3.2743604 -1.243072 2.4599047 -1.3515658 2.4707386
172 1.0785959 -0.36802274 -2.478248 2.1924057 0.864553 -4.05343 -1.5171818 0.7590046 -1.743508 0.51618665
648 1.1836327 -0.89256734 0.71910524 -0.047244485 -2.0839038 -0.9144026 -1.3051369 1.0772884 -1.4163421 0.2791851
13 1.8686188 -0.068621606 0.43630153 -1.4240681 0.8985436 0.013300094 -1.3885577 1.3354936 -0.32180583 0.89851516
381 3.081463 0.21663181 -3.0342836 1.971771 -1.0773929 -0.7724676 0.6995779 1.0508223 -0.8149049 4.9343863
56 3.297355 0.42656842 -2.9257722 1.9698102 -1.2271625 -0.651639 0.6683113 1.069121 -0.76124614 4.7766385
588 2.3846898 -0.65453255 0.9529094 0.16105258 -0.040488474 -1.7285103 -0.7522653 4.0794854 -2.3218606 1.5641012
285 0.32473525 -1.8427417 1.0648649 -0.25641784 0.9264899 1.9824655 -0.013152256 2.1240935 -3.6807997 2.5916994
836 0.18418634 -1.261042 1.7619755 2.439074 -0.26024252 1.6674373 0.622692 0.7871818 -3.0977416 5.138743
582 -0.31205833 0.37646717 -0.76730907 -0.6461139 -0.8928454 -0.35163617 -0.32382616 0.64549357 -0.27669248 2.4385571
791 1.6842595 0.8143036 -0.89465624 1.6103281 -1.2084249 1.4441136 -1.4007162 0.48880786 -0.913216 1.4200683
684 -1.2836273 0.8956002 -0.7653971 1.5303652 1.3636736 0.08371714 -0.82962024 2.0132432 -2.8077984 1.2781035
410 2.0300648 0.047376353 1.0942038 -0.05095836 1.0170257 0.22031789 -0.18346992 -1.1021154 -0.053769358 1.2792016
426 1.2342167 -0.87709653 0.6746503 0.003032703 -2.1013262 -0.95842975 -1.2940516 1.0368733 -1.40383 0.2697174
25 2.7643626 0.2599866 0.06925719 -1.2798234 0.69217855 -0.35329416 -1.8142763 1.2249815 0.30327198 1.2268963
398 2.2914622 1.3389058 -1.0979176 5.5890245 -1.7871095 -0.83051336 -0.7918202 0.69968486 -2.2699711 2.172835
5 1.1432712 0.15446734 -2.136173 3.8550947 -2.6000786 0.69908607 -3.2249722 1.1521822 -0.93451035 3.526881
622 3.1837003 0.3955766 -3.0556345 1.5617576 -1.0718136 -0.5726864 0.81985927 1.0524781 -0.84128106 5.0472655
288 1.1810691 -0.85617954 0.72250366 0.0069769616 -2.0453153 -1.0114642 -1.3010024 1.0221254 -1.4428049 0.19135767
987 1.4288783 0.8765282 -1.0490651 0.50334877 2.4053783 -1.7856658 -0.5936182 1.9583129 -1.2751839 0.3055845
406 0.16623253 -0.47413054 -1.069825 2.25929 -1.1433682 -3.3440862 -1.2193959 2.4326608 -1.386668 2.4437227
168 0.211176 -0.12616284 -1.0717962 -1.274482 -1.2348158 -0.02735541 -0.37910178 0.091512896 -0.29900786 3.3775194
577 0.35610548 -1.8446646 1.1514027 -0.2297857 0.9553797 2.001196 -0.016565574 2.1907537 -3.6145413 2.5983114
599 -1.2374681 0.88867944 -0.68143713 1.486759 1.3015782 0.08622092 -0.87272346 1.987343 -2.670938 1.192974
928 1.4709885 0.751364 -0.8101454 0.40147492 0.43918353 0.066041894 0.15987547 0.71337664 -4.795112 -0.2715881
950 0.71933687 0.2773699 -1.9107567 -1.3314689 1.5858932 -0.85041124 0.7866874 -0.4029389 -1.6016598 1.7272384
581 1.6729851 0.8464943 -0.8022884 1.6108488 -1.235852 1.4356933 -1.3860362 0.4567374 -0.9223016 1.388241
513 0.13966537 -0.49938545 -1.0888101 2.2436154 -1.1968919 -3.3380346 -1.2357643 2.4354718 -1.3596185 2.488315
991 1.1476166 -0.44364548 -2.53357 2.1236742 0.9715407 -4.1559787 -1.5926467 0.8428558 -1.7902454 0.5851918
968 1.236394 -0.87827146 0.75897413 -0.045365375 -2.1972158 -0.9149736 -1.3328344 1.0451694 -1.4168165 0.34021744
378 -0.01143479 1.1929749 -0.46842605 1.268007 2.2206123 -3.0631235 -2.576253 0.017088326 0.110499136 1.3469505
918 0.09321506 -2.0727785 1.6837707 1.5370533 0.8741838 -0.33985108 -2.7060816 -1.3760364 -0.8769433 1.4700482
457 0.7712559 1.1862353 -4.522654 -0.5428727 2.1140807 -0.8546769 -3.0493946 -2.0534277 0.7290139 3.6404839
453 1.2609984 0.18644378 -2.1104658 4.0092945 -2.6474211 0.64077985 -3.1790345 1.1554705 -1.0007888 3.5738614
495 -0.5135176 3.203619 -0.5963326 -0.73192394 -0.55167365 -0.92573196 -2.6918979 -0.48736414 0.14692336 0.8187753
372 1.2108787 0.25243092 -2.0713518 3.8314583 -2.6556153 0.5971146 -3.1035023 1.2041763 -0.92629 3.421476
975 1.6976511 0.8486537 -0.84078044 1.6387398 -1.2577721 1.4726565 -1.4281268 0.53792286 -0.9757137 1.5013142
931 0.09809136 -2.0887246 1.6605735 1.5299971 0.98673433 -0.41621763 -2.6211905 -1.313617 -0.8995993 1.4817557
837 0.73188686 1.1707032 -4.556678 -0.58926976 2.0683627 -0.97149014 -3.007145 -1.966519 0.69899553 3.5377145
641 0.6718511 0.37246388 -1.8491738 -1.2105092 1.4608157 -1.0250306 0.9530838 -0.41773158 -1.57037 1.8956742
438 -0.00740565 1.1052678 -0.451179 1.2272089 2.1725402 -3.017122 -2.6431398 -0.014218806 0.1114065 1.2527577
199 1.9699246 -0.09640285 0.4282858 -1.3847976 0.9225244 -0.04363965 -1.4335183 1.398512 -0.26423585 0.9663187
310 0.6988396 1.1073457 -4.591337 -0.56491125 2.0780995 -0.96096104 -3.0627255 -2.029305 0.70476377 3.5418408
902 -3.836383 -1.9520409 -5.248776 -0.3162373 2.1040814 1.3487096 -3.0699406 -1.6640744 -4.2065687 5.468229
31 1.3767545 0.27730262 -2.2256718 3.9558415 -2.7509985 0.49183524 -3.067062 1.1882067 -0.9774233 3.4387777
794 1.9037036 2.3993583 -1.7774467 0.8508641 -0.77707744 1.7581699 -0.41429055 -0.22592497 -1.3512152 1.7585912
100 0.21820487 -0.14596015 -1.040742 -1.2371638 -1.1544176 -0.006058388 -0.38308588 0.0920101 -0.28659654 3.2782624
442 0.22495623 -0.104414165 -1.1942146 -1.2674762 -1.1845899 -0.057756644 -0.415492 0.20189215 -0.28262654 3.4809191
467 -3.8012524 -1.9856318 -5.261002 -0.3551121 2.1383665 1.3145496 -3.107463 -1.6521626 -4.163042 5.4632387
869 1.7293494 0.82016045 -0.86992276 1.6614692 -1.2550776 1.4327449 -1.4353045 0.513537 -0.9582164 1.4529209
340 2.3377006 1.1056283 -1.1008265 5.427869 -1.693732 -0.81253475 -0.72691745 0.7511325 -2.2911084 2.179823
353 1.2824398 0.03836323 -2.155917 3.8292449 -2.6792505 0.6704849 -3.1754622 1.3028928 -0.99412227 3.4967756
667 1.6813881 0.7991174 -0.8170522 1.548112 -1.2147003 1.4396113 -1.3743161 0.51813275 -0.9507077 1.3950508
766 0.3339142 -1.4287332 1.8419963 2.4900765 -0.37819034 1.6920508 0.6099286 0.873302 -3.2305698 5.139541
420 1.0327183 2.1058576 0.41006508 1.8517226 -1.1220115 1.4568458 -0.9396172 0.4718715 -0.72313976 1.6977369
976 0.7329012 -1.1411978 0.89466506 -1.401634 -1.5498285 0.10882029 -0.2720559 -0.8637337 -0.8584952 3.080033
596 -1.2672558 0.8738497 -0.71236163 1.4879799 1.3475261 0.08526105 -0.9162274 2.0421488 -2.7470112 1.252396
519 0.19339466 -0.11914863 -1.1704167 -1.2479615 -1.1717045 -0.058037773 -0.44530278 0.20609806 -0.29266858 3.419646
148 -1.6212313 1.5218098 2.323748 1.6776141 0.8895407 1.9140562 0.5249142 2.0770214 -3.01201 4.738492
93 1.9152733 2.4060829 -1.8243464 0.8087446 -0.8078533 1.7781321 -0.44137362 -0.26969624 -1.3615146 1.7372943
335 1.0484439 2.152345 0.41013005 1.8637328 -1.187307 1.4663733 -0.9439426 0.46995932 -0.8014176 1.6995742
281 -0.010646713 1.1497265 -0.5641183 1.2764441 2.2274234 -2.919143 -2.5462418 -0.058639213 0.17500478 1.3140467
176 0.19641666 -0.14522609 -1.0531933 -1.2177625 -1.1182804 -0.016686795 -0.38555926 0.18104754 -0.26513678 3.305927
120 -1.5473385 1.4117697 2.9104052 -0.76460165 2.4027588 -3.8705113 0.022057973 2.4350486 -1.8543487 2.4029117
92 -1.0403397 4.054675 2.43272 0.14652269 -2.4549367 1.0475847 -2.7091577 0.39968935 -3.9214077 -0.23919839
429 1.9380187 2.3499148 -1.7881435 0.8336776 -0.7955372 1.7815212 -0.42982516 -0.22135508 -1.323763 1.7644163
78 0.22759613 -0.46886483 -1.0731268 2.3525832 -1.2196225 -3.336555 -1.2541177 2.5245748 -1.3823746 2.509293
894 -1.6785977 0.27467418 0.55726695 -2.0419858 -0.9671249 -0.26554304 -0.78653604 0.5670273 -2.0638218 1.9731821
898 0.18975161 -0.5266287 -1.1020321 2.2249236 -1.2040184 -3.299341 -1.2585598 2.4959042 -1.3801254 2.5050101
804 0.17290843 -0.46374467 -1.0897965 2.2742913 -1.1775492 -3.3945653 -1.2574829 2.4660232 -1.3784369 2.4688597
543 0.2468976 -0.1695889 -1.2420112 -1.2044924 -1.0902604 -0.004004195 -0.46344006 0.27890244 -0.27519295 3.4184084
48 -0.51226056 3.073357 -0.56032866 -0.69854164 -0.55195725 -0.8428829 -2.603355 -0.50247955 0.16908702 0.80036753
146 -0.50688684 3.082653 -0.6030604 -0.7127545 -0.5282177 -0.86268884 -2.6369295 -0.5208111 0.17850961 0.78858256
759 0.30609894 1.9580182 1.1670618 0.86575407 0.074895665 -1.1394513 0.790333 -0.4484036 -0.92280185 1.203891
317 0.8736888 1.1257176 -4.2734094 -0.70963514 2.0677602 -0.9103596 -2.8166564 -2.0903966 0.72516716 3.4144557
133 1.9676715 2.335428 -1.7939081 0.81418335 -0.8134892 1.7884274 -0.4693899 -0.22006996 -1.3550323 1.7121745
768 -0.07774005 1.0425339 -0.5448606 1.1303756 2.1038468 -2.8175576 -2.51413 0.061315633 0.13929203 1.2705112
366 -0.49022418 3.0947304 -0.55370283 -0.6996774 -0.536199 -0.8991866 -2.633343 -0.48740092 0.15649757 0.7594087
532 1.9363427 2.337407 -1.8114785 0.79132664 -0.8385034 1.7882634 -0.41103977 -0.20783842 -1.3551102 1.7242573
935 -0.52811533 3.1134114 -0.5197049 -0.69748676 -0.515377 -0.91895527 -2.584614 -0.48964804 0.12266088 0.7704125
507 0.70958316 0.37992808 -1.8532066 -1.2225324 1.4492071 -0.97338754 0.93213934 -0.4358378 -1.5661625 1.8332949
287 -0.5028499 3.0975368 -0.5941687 -0.7451905 -0.5422877 -0.89475995 -2.70102 -0.48674905 0.20232625 0.7857954
72 1.7257135 2.1337767 -1.5323948 0.5799364 -0.7043751 1.7024027 -0.39442828 -0.1953528 -1.2698838 1.3876699
269 -1.7233294 -0.69090647 -0.8566153 0.8548824 0.8072002 0.5239463 -4.0190463 -2.2631059 -2.1418183 0.043195635
725 0.5426444 0.16636692 0.20671628 1.5086048 -0.023607837 -1.0513774 -1.3295937 -1.361419 0.7032199 2.2898107
825 -0.6135121 2.960268 -0.3395882 -0.75226253 -0.42961785 -0.78251827 -2.4271703 -0.49443486 -0.16279966 0.37034965
409 -0.49867916 3.1140318 -0.6317958 -0.73031545 -0.5657769 -0.8921022 -2.6313589 -0.4361878 0.15865114 0.8092254
181 0.0020751744 1.2493515 -0.42791244 1.2681158 2.2523708 -3.0326896 -2.584308 -0.003322559 0.009347343 1.1623461
912 0.043231808 -0.10364529 0.83047795 1.826209 1.7301942 -0.54018235 -1.4253072 -2.6002576 0.1253291 2.4132624
603 -0.4807907 3.1260211 -0.6259797 -0.7519231 -0.5696439 -0.90152717 -2.6909194 -0.48240903 0.17815514 0.76145786
635 0.5444005 0.16120829 0.17658503 1.4194368 -0.13299808 -1.0589235 -1.2568043 -1.3367431 0.6794345 2.2157338
895 0.94485074 2.0657756 0.5981762 -0.38867396 0.990624 0.31663606 0.3080637 -1.2647088 -0.88616127 0.63419205
650 -0.40700102 0.7512047 -0.39175788 0.43752262 -1.0338945 -1.2712361 0.19032183 0.106809795 -0.60426456 2.7274058
512 0.4976533 0.050438978 0.37658876 1.2700354 -0.094550855 -0.88070774 -1.0712066 -1.0293651 0.6645655 1.9384838
937 -0.4914221 3.1450047 -0.6266954 -0.679464 -0.5736163 -0.93037206 -2.6850495 -0.46107182 0.22264482 0.856096
870 1.0008435 2.1056693 0.61417156 -0.39089394 0.97245014 0.3523521 0.32308 -1.2681266 -0.8828828 0.64597064
504 0.48996362 0.15445828 0.15714072 1.4754822 -0.08707478 -1.0526619 -1.3096756 -1.3410188 0.70668846 2.1798131
555 1.9831545 2.4332685 -1.9175473 0.92042905 -0.85351855 1.7913885 -0.46411884 -0.23603112 -1.3161259 1.853739
84 -1.5094913 1.2359483 -0.7956639 -1.5260582 -0.7434437 -0.7069754 -0.19403933 -1.6899978 -2.4249558 1.449406
740 -1.2323773 0.4489319 0.13344872 2.9564688 1.0995574 1.1897306 0.35394755 -3.1189518 -2.4313889 5.363983
903 0.24451299 -0.18642446 -1.1610876 -1.2368668 -1.1304818 -0.0069785137 -0.44883776 0.15574019 -0.27897397 3.4085467
734 0.69270664 0.41440615 -1.8664569 -1.1967697 1.441648 -1.0016865 0.914093 -0.43328917 -1.5520965 1.8689294
614 0.2805133 -0.13572346 -1.2101752 -1.313916 -1.1422276 -0.019424682 -0.41815823 0.12975465 -0.24000168 3.5588045
914 -1.5233206 1.2720962 -0.8259415 -1.5587037 -0.73554015 -0.7205599 -0.23413739 -1.738031 -2.4186602 1.4649444
863 1.0182314 -0.5357807 0.57403326 -2.4087574 1.3416649 -2.591319 -0.6320552 0.39290354 -0.59104013 1.5360214
362 2.6461616 0.19454177 0.15579562 -1.2283583 0.6841573 -0.27003732 -1.698247 1.2842238 0.21082684 1.1386225
12 -0.51883507 3.1150353 -0.5534862 -0.70963997 -0.5728334 -0.8827055 -2.6183076 -0.50250286 0.13580321 0.8079474
788 -1.6575986 1.2094319 1.400476 -0.38562062 1.3160195 -0.80156285 -1.2921333 -0.76586646 -2.5863433 -0.16637538
910 1.0404832 2.2258115 0.4322935 1.9211481 -1.1950201 1.501223 -0.93941736 0.4728494 -0.81139237 1.7548045
724 -0.3093298 0.37139007 -0.73578995 -0.595362 -0.87754 -0.36505923 -0.30685115 0.6536426 -0.26476645 2.4239845
51 -1.4893402 1.201552 -0.8441548 -1.5207186 -0.7288629 -0.66002166 -0.23086609 -1.741964 -2.425908 1.4203198
200 1.929304 -0.10536006 0.46204415 -1.6561112 1.2430049 0.34995848 -1.6464956 1.4939368 -0.66323787 0.8317712
831 0.55604446 0.038136434 0.39335495 1.2948953 -0.06788416 -0.89493185 -1.0685974 -1.0905398 0.61805516 1.9867142
952 0.94432783 -0.34450078 -1.6918744 -1.8833846 -2.343941 -2.6541758 -4.2061424 -0.60118085 1.4069595 4.3953586
210 -0.5008961 3.1342297 -0.62025636 -0.7212569 -0.52721137 -0.94948447 -2.659013 -0.47946805 0.13610929 0.7983382
640 -1.7121105 0.3172587 0.57434916 -2.049605 -0.9722713 -0.34326485 -0.7854837 0.6795398 -2.066227 2.0107822
741 0.47803208 -0.46493286 1.4976187 0.51812077 1.0625309 0.012198847 -1.2946721 -0.09996699 0.72085494 2.9652276
466 1.5403566 -0.6555452 0.7005911 -2.61381 1.0273333 -2.8200357 -0.6204158 0.45339885 -0.5781562 1.8388131
686 1.2109118 2.0734925 0.46106085 -1.1999043 0.9826621 0.436844 0.44622335 -1.2312437 -1.9625976 0.5943132
222 0.5241472 0.16009538 0.12493206 1.4870151 -0.087094754 -1.0351716 -1.3421556 -1.3527201 0.6777417 2.2708156
728 1.4309875 -0.6630663 0.7237847 -2.6151977 1.0183724 -2.7480404 -0.6447604 0.50845265 -0.57184184 1.8209192
422 2.6620548 0.18708661 0.179227 -1.2516749 0.7295828 -0.30977505 -1.7772323 1.3799267 0.2319763 1.1160812
838 1.5835742 1.7019608 -2.9861026 -1.2988365 -1.9585286 -5.3299465 -0.78925145 1.0724963 -3.5576084 0.22906107
629 3.329664 3.9974928 -1.6251997 -3.522814 0.06769384 -1.5027857 -2.4010084 0.13796628 0.7100891 1.0872773
832 0.90382916 1.990791 0.61375207 -0.35559893 0.9429954 0.3462392 0.30455306 -1.1876857 -0.8571165 0.6397104
752 -0.6427167 2.9867165 -0.344462 -0.7306037 -0.40789258 -0.7888827 -2.4625285 -0.50554955 -0.16117707 0.3649987
537 1.9255136 2.4001071 -1.8951925 0.90178174 -0.8044873 1.7761489 -0.4762669 -0.18488187 -1.3493319 1.8490934
962 -0.5008624 3.1174312 -0.59161115 -0.6790662 -0.57627594 -0.89887327 -2.6461124 -0.47084117 0.1720091 0.8208453
515 -1.5409211 1.2135204 -0.81523645 -1.5494393 -0.72768223 -0.6254837 -0.2230601 -1.649186 -2.4730108 1.4804243
822 -1.5054024 1.2036378 -0.8050853 -1.5510821 -0.73417026 -0.6464278 -0.2366066 -1.6743921 -2.4255717 1.4612825
538 1.9533541 2.4160023 -1.8726275 0.9206666 -0.7993478 1.7614461 -0.48428452 -0.21641886 -1.3014573 1.801757
423 1.8696073 2.319197 -1.7980814 0.821103 -0.8475422 1.7280265 -0.44817814 -0.18555902 -1.3061581 1.6857169
164 0.09315366 -0.13440694 0.8326626 1.7098209 1.6295505 -0.5304141 -1.1913676 -2.2421367 0.14709564 2.325054
887 2.06967 0.084432214 1.1650898 -0.052711897 1.0085957 0.20281784 -0.17471954 -1.1249249 -0.04618753 1.3280529
965 0.710116 -0.33363137 -1.4924519 -1.9312713 -2.4277062 -2.6159623 -4.3451176 -0.4848134 1.4308772 4.4230347
949 0.5229592 0.16471013 0.17143689 1.5205482 -0.053611677 -1.107692 -1.3162435 -1.3509711 0.69410634 2.256856
74 0.73500353 0.21042815 -1.9219776 -1.4341295 1.7143519 -0.7879661 0.68597406 -0.3428904 -1.6750947 1.6529552
850 1.0040256 -0.08180973 -1.92713 -1.5027577 1.7170846 -0.4953815 0.526532 -0.48334056 -1.7534009 1.509617
521 1.0223416 -0.63563305 0.5162914 -2.5370913 1.4980742 -2.6875422 -0.6711311 0.45819828 -0.6334527 1.6229464
102 0.73909426 -0.22454019 1.0809203 0.9822466 0.34886074 -0.35101476 -0.83573425 -0.4832628 0.70446795 2.2441711
510 0.8172642 -1.18521 0.99007756 -1.420931 -1.5659238 0.12353956 -0.32861972 -0.9279504 -0.8659501 2.9897835
731 0.9134458 1.9882897 0.5738827 -0.3729248 0.9574165 0.3026165 0.2914392 -1.2179271 -0.856242 0.5913426
919 1.9774683 -0.11598559 0.43164453 -1.3501664 0.88198584 0.0027718223 -1.4064318 1.3797318 -0.2778567 1.0034821
760 3.3378146 4.1225214 -1.7680521 -3.5417895 0.21014695 -1.5673734 -2.4991472 0.0716703 0.6791753 1.140382
305 1.3824768 -0.63310117 0.66651374 -2.524054 1.0442616 -2.8051414 -0.6104304 0.48727447 -0.5215372 1.8283577
234 0.9209941 -1.2342397 1.0193189 -1.4053248 -1.5856067 0.20544325 -0.32134077 -0.96945244 -0.9304867 2.9582214
451 2.7145061 0.2729509 0.10141272 -1.1457151 0.6286399 -0.39499474 -1.7967764 1.2960947 0.27872857 1.246794
805 0.98291016 2.221198 0.41966495 1.9324067 -1.1981279 1.5242604 -0.99101895 0.4921498 -0.83375585 1.7559791
297 0.8375809 1.9757773 0.6344072 -0.26569492 1.1674172 0.16657218 0.21383893 -1.3042976 -0.7054529 0.54216444
486 1.1086873 4.1429205 -0.24414574 4.653958 -2.2171965 0.8199005 -1.3627253 -1.074775 -2.0382707 1.3633761
601 1.1995282 -0.24590887 0.7276474 -0.015942803 -1.4628581 -1.3582594 -0.99716264 0.36610264 -1.7266628 -0.65218365
631 2.1923504 -1.2837113 1.4078288 -0.28430864 1.0895258 -4.2902017 -2.553202 -2.0428066 -0.5354426 0.6256832
824 1.4547014 1.0145966 -0.48600656 0.56858855 -0.65193635 1.638063 -0.8706576 -0.017614318 -0.97182876 0.7878336
149 1.4320942 1.0291878 -0.4021959 0.5668288 -0.6373166 1.6480906 -0.86194307 0.005034268 -0.95491594 0.7673161
393 0.50068915 0.21092485 0.10511425 1.5488198 -0.06624604 -1.1551381 -1.4124688 -1.4139785 0.73875296 2.3711476
867 -0.6223591 2.9698455 -0.33818454 -0.7222915 -0.41559026 -0.7553237 -2.4157605 -0.4788285 -0.115663566 0.39940685
664 2.7446694 2.6119823 -0.97189283 -4.2890396 -1.4640809 -1.2857999 -2.8509464 0.021406757 0.53242385 1.5728526
4 0.51717883 0.055341274 0.42184892 1.2263005 -0.06897871 -0.8553233 -1.0075436 -1.0240725 0.6293799 1.9382966
350 1.2595971 4.2184124 -0.21407856 4.741614 -2.225838 0.7640453 -1.2429208 -1.0277511 -2.174734 1.4065521
394 1.0958817 -0.856623 0.6981256 -0.18468468 -2.2131727 -0.78482807 -1.3293422 0.93853885 -1.3382223 0.43097827
996 0.8165185 -1.184972 0.9793825 -1.4014924 -1.4922056 0.18901612 -0.3010321 -0.9429112 -0.8555629 3.0196033
293 0.9510107 2.082331 0.5988861 -0.39007425 0.9921042 0.35251662 0.34522754 -1.2436086 -0.9053581 0.62886983
616 0.814479 -1.189255 0.914131 -1.3680052 -1.5367393 0.13386345 -0.32254583 -0.90955967 -0.8469941 2.9399965
339 0.76830614 -0.21110494 1.0597562 0.96102893 0.37072077 -0.35623518 -0.82017225 -0.41199645 0.6738103 2.22044
877 0.7973948 -1.2029696 0.9876575 -1.408644 -1.5535538 0.1668595 -0.2935827 -0.9089625 -0.8839033 3.0206525
882 2.7633443 0.31860572 0.12498011 -1.2374692 0.7465924 -0.35435316 -1.8209997 1.3500475 0.23659003 1.1757132
748 0.49512547 -0.41132215 1.5307931 0.5020026 1.0499657 -0.0016662586 -1.2645427 -0.04002868 0.723686 3.0480223
1 -0.6136602 -0.08670193 -0.8012513 0.9661892 -0.40968126 -0.4625141 -3.9905553 -2.6802413 -1.4593506 -0.3671997
231 0.7505545 -0.2856773 -1.5894787 -1.8280807 -2.2160037 -2.6590471 -4.084818 -0.5908319 1.4415327 4.5280166
531 1.1880801 -0.84049565 0.71616083 0.04649519 -1.9636712 -1.029422 -1.237786 1.0115995 -1.4104221 0.14301641
908 2.1595287 -1.2566268 1.4760369 -0.22252965 1.1320375 -4.134055 -2.3623996 -1.8196032 -0.5757383 0.6472892
356 1.8776186 2.3936808 -1.8257923 0.85235363 -0.75074303 1.7588408 -0.40856445 -0.17532802 -1.2944503 1.805698
179 -0.29788747 -0.2145874 -0.91581035 1.1303147 -0.64420605 -0.7334411 -4.3192387 -2.9015326 -1.7415379 -0.5129005
407 0.8411538 -1.1771824 0.99371254 -1.3637122 -1.5898253 0.13229682 -0.26165974 -0.90799934 -0.8531354 2.9326708
727 -0.06141551 -0.0075536957 0.7500971 1.6832675 1.6928614 -0.5873394 -1.2861917 -2.2571094 0.16087328 2.357316
674 2.0789819 -1.3251016 1.4888723 -0.32520175 1.109315 -4.3383827 -2.611526 -1.9326242 -0.47594535 0.7455711
860 1.2013435 2.1655326 0.4431947 -1.2025626 0.9907651 0.3666207 0.5135627 -1.2530465 -2.0469449 0.68152666
135 1.6920606 -2.8348975 -0.8293287 2.6785152 0.63428783 -0.7534871 -0.6598324 -1.1532853 -3.2496386 1.2869889
107 2.273384 -2.1818647 1.6924192 -1.3190848 2.9068177 -2.1004074 -0.10387419 -1.6877279 -3.296169 0.64305925
245 1.0340523 -0.09277247 -1.9019914 -1.5293181 1.723924 -0.4787774 0.51124734 -0.5643204 -1.6979489 1.5760237
542 1.1048801 -0.77204186 0.6368225 0.08001005 -1.8474526 -1.0270805 -1.1473737 0.87778664 -1.3733672 0.051777206
196 2.0114026 0.057490405 1.0720879 -0.028731855 0.99322915 0.1984287 -0.19189988 -1.0583044 0.029354623 1.3071654
915 2.1891718 -2.085878 1.6327817 -1.2471653 2.8932462 -2.1792796 -0.015340218 -1.6588534 -3.3137214 0.6348718
32 1.5320864 0.5591536 0.1758714 -1.0520986 0.9780277 1.4405735 -2.9880035 1.260704 -0.6980137 0.14408177
475 1.0339497 -0.11288653 -1.9458803 -1.4830233 1.690247 -0.50235057 0.4903282 -0.526059 -1.7414939 1.5432413
916 2.8056176 0.29197615 0.13021348 -1.2127604 0.7036836 -0.35018507 -1.8980821 1.2904481 0.3259129 1.2700725
136 1.0402467 -0.0860234 -1.9173336 -1.5498943 1.6685407 -0.48225507 0.5526995 -0.49981293 -1.8076569 1.526384
823 0.0516073 -0.086196706 0.8908354 1.7763083 1.6510463 -0.548066 -1.1797042 -2.1641834 0.18677992 2.4393613
742 0.80813843 -1.205299 0.97050977 -1.4469105 -1.6071473 0.09972033 -0.33053565 -0.93311614 -0.8750133 3.1126745
308 3.1079695 -0.03646888 0.60371345 -0.54079515 0.25313798 0.5338835 0.3462902 -1.4987617 -1.7140653 1.1358309
49 0.8495636 1.9530087 0.6580323 -0.25814262 1.1112053 0.14141633 0.17998554 -1.2796038 -0.6648247 0.5291946
579 1.476022 0.719258 -0.78553665 0.51343244 0.44865775 0.22196956 0.052896146 0.5741166 -4.54837 -0.31529686
369 2.281074 -2.208528 1.7289921 -1.277557 2.9488082 -2.192326 -0.046213906 -1.7104783 -3.3329985 0.65502244
301 2.5800333 -1.7034599 -1.435592 2.1015801 2.4124975 -0.6198315 0.2727102 -3.0183227 -2.380609 2.555491
180 1.6113939 2.0825868 -1.4209116 0.47838143 -0.72500235 1.6391163 -0.41886404 -0.23047468 -1.1987953 1.3610737
195 3.10491 -0.04406742 0.67190826 -0.48747423 0.15566051 0.5318611 0.29026654 -1.5252088 -1.6978756 1.0349154
416 3.3081324 4.1278195 -1.6884531 -3.6710572 0.055360015 -1.6240503 -2.5536919 0.11731238 0.7376604 1.2641175
563 0.51631725 0.012029936 0.42571148 1.281807 -0.057422813 -0.88944775 -1.1071206 -1.0691681 0.6477691 2.01146
556 1.4698074 1.031203 -0.45976156 0.5494048 -0.61803526 1.6451006 -0.81580466 -0.03933219 -0.9730478 0.78528357
44 1.1403875 -0.8314015 0.7371449 -0.0051350724 -1.9214966 -1.0473566 -1.2260127 0.9870449 -1.4298565 0.08639605
706 0.8035941 1.8618202 0.6276288 -0.17722401 1.1301625 0.16043958 0.19501384 -1.2594303 -0.65685153 0.5305646
360 0.5010196 0.1509619 0.2480625 1.514652 -0.14109628 -1.1133213 -1.3640906 -1.3063143 0.70046383 2.3422277
681 0.5810585 0.37011427 -1.8865299 -1.1638094 1.4431549 -1.0185146 0.92037374 -0.44317475 -1.5649836 1.873365
306 1.3843933 0.86982733 -1.0003644 0.47197685 2.3643181 -1.7296758 -0.5639226 1.936878 -1.2407707 0.3272483
331 2.0083337 -0.09606219 0.41002703 -1.3624643 0.8727489 -0.014199411 -1.4007252 1.332743 -0.23463014 1.004503
739 1.7095869 -0.090419136 3.1463172 -1.6307799 0.71829027 -1.090152 -3.0645645 1.1642164 0.26197252 1.3627319
872 1.4728988 0.6967846 -0.8293349 0.43835446 0.46961012 0.19467048 0.03328645 0.5100456 -4.6353188 -0.3445256
705 2.0069234 2.4692621 -1.9517246 0.9241847 -0.8732708 1.758265 -0.4838738 -0.2113391 -1.3230528 1.9063777
427 0.04474944 -0.10237307 0.7291744 1.7154171 1.6642736 -0.5564063 -1.1622349 -2.3529665 0.14128023 2.4189885
944 -0.60710436 -0.020694377 -0.7452443 0.980895 -0.42306206 -0.45816773 -4.105589 -2.6566155 -1.3726654 -0.28079265
492 1.0547941 -0.86910975 0.7054619 -0.20716663 -2.2264576 -0.7805622 -1.298136 0.90677106 -1.2964199 0.44341984
687 1.4410106 0.75595295 -0.7774058 0.4415466 0.48477355 0.17367092 0.058935937 0.5956982 -4.4774585 -0.33103132
862 0.52516526 0.052739155 0.38160214 1.2517031 -0.1187705 -0.8988794 -1.1000736 -1.0391216 0.65400755 1.9778783
568 -1.7408181 1.5859499 2.4730632 1.7395335 0.78715366 1.9836731 0.52980596 2.0591455 -3.1575603 5.120127
219 0.73125696 -0.2454116 1.0955033 0.9811539 0.29146215 -0.3770111 -0.8427742 -0.51151025 0.6959611 2.311744
480 -0.012986694 1.3617841 -0.27409407 1.2089363 2.2783337 -3.1386292 -2.6498706 -0.043091353 -0.01578975 1.160141
712 2.06769 0.073426515 1.152251 -0.12584561 1.0151286 0.15892176 -0.16485825 -1.0336757 0.0105081 1.3509959
634 3.047858 -3.7980525 0.7647268 1.6944628 2.0988705 1.4356215 -2.0027184 2.187505 -4.6852064 0.66651005
654 3.198564 -3.7674904 0.7856667 1.8083476 2.0001252 1.4143426 -2.001142 1.9840258 -4.716604 0.59926105
652 1.0651813 -0.75474983 0.68915826 0.02079869 -1.7869225 -1.0848994 -1.1327924 0.8656469 -1.3635359 0.03363001
128 1.0291299 -0.7497695 0.66218996 0.038603894 -1.7804168 -1.0049963 -1.089449 0.87773037 -1.3561981 0.0343984
215 1.4157274 0.5480182 0.14602031 -1.0232184 0.89951235 1.3570082 -2.810501 1.1736401 -0.6830305 0.12530345
189 1.4888985 0.7194014 -0.733134 0.5059791 0.4650634 0.21654971 0.08391861 0.53071296 -4.5038424 -0.3065408
278 3.0951335 3.8016775 -1.4880174 -3.4738743 -0.049254805 -1.4172684 -2.2264285 0.081070215 0.7461053 1.2058712
904 0.98486423 -0.08551487 -1.9188948 -1.4925044 1.6629072 -0.45502773 0.538941 -0.60523784 -1.7547837 1.554189
448 2.5618653 0.49621192 0.7705922 2.8908207 1.4916797 0.043633845 -4.9485 0.29594943 0.39615414 0.3971345
845 -0.65590316 0.15025654 1.2825564 1.7690682 2.6705523 -0.82810825 -2.167909 -2.0863626 -0.03193087 2.7090063
253 1.4365567 0.7230079 -0.83067936 0.5057092 0.45126358 0.1941413 0.062606186 0.54846084 -4.5355096 -0.3309129
754 0.68989426 1.8933355 0.58679783 -0.13256787 1.6743897 -0.03815524 -0.0009943111 -1.4625325 -0.73318464 0.45620084
153 1.3592267 0.8590062 -0.9994244 0.5117642 2.242187 -1.7287273 -0.54902786 1.8234526 -1.1596617 0.25946096
929 0.5159919 -0.19427882 1.1913477 0.73604983 0.6685353 -0.19544876 -0.44581127 -0.09948742 0.38118872 2.2483642
848 2.534873 0.49839813 0.7666707 2.8964396 1.485135 0.04939536 -4.9165225 0.29585963 0.38411054 0.39585966
930 1.3033662 -0.15396075 0.7897727 -0.0060165334 -1.5039164 -1.5547698 -1.1040646 0.34791425 -1.8801471 -0.7416487
726 0.536586 -0.44176912 1.5463688 0.48998296 1.0585614 -0.063736506 -1.370121 -0.10680859 0.7837097 3.133061
758 -0.66951495 0.36775416 0.88226616 4.987946 2.7035747 -0.3934047 -4.7880073 1.5726377 -1.9325174 1.4016254
89 1.9157695 -0.12012099 0.4489161 -1.6553966 1.1346611 0.3315318 -1.5927675 1.5288028 -0.6427648 0.8698728
626 -0.88072896 0.0500968 -0.8015338 0.9651667 -0.13019937 -0.14921342 -4.028533 -2.5394313 -1.3995013 -0.2243273
659 1.3681334 -0.13242011 0.7634759 -0.030040136 -1.52816 -1.5347598 -1.052769 0.31052297 -1.9273497 -0.7775055
787 1.7241998 -0.07117489 3.0966907 -1.5701332 0.68826044 -1.0208926 -3.020101 1.1345931 0.2943268 1.3196852
917 -0.44629693 0.2531102 0.8046816 4.909286 2.7453856 -0.42775217 -4.894874 1.5727218 -1.6646049 1.3452328
351 -0.46755344 0.15892117 0.77761155 4.850247 2.6459188 -0.26552197 -4.774679 1.4664019 -1.6950396 1.2495251
683 -0.543042 0.2483432 0.7571834 4.984028 2.8234487 -0.4702274 -4.9023275 1.5749557 -1.7103276 1.3312987
511 1.0922722 2.1735296 0.4000714 1.9309521 -1.2228394 1.5279093 -1.0533352 0.50212437 -0.7593101 1.7805866
852 -1.4773031 1.3203242 2.6685152 -0.70515877 2.2956734 -3.7466385 0.027899606 2.365777 -1.6386905 2.3432298
329 -0.72791564 2.903266 -0.16726473 -0.7977658 -0.20693214 -0.70093936 -2.4900157 -0.5445901 -0.46750066 -0.01468688
39 -0.6905469 0.013446096 -0.7311331 0.98674476 -0.24703065 -0.35089695 -4.089862 -2.6656008 -1.3316942 -0.29027867
295 1.9525646 -1.1307776 1.2547109 -0.46282014 1.3073963 -4.103019 -2.3766267 -2.1248794 -0.46344954 0.64074785
16 -0.32817715 -0.08092372 -0.8290843 1.0034437 -0.6009127 -0.63891494 -3.9743052 -2.6965253 -1.4396482 -0.39972693
30 -0.8996047 0.043374084 -0.76801944 0.99634194 -0.08903419 -0.0975314 -4.10812 -2.6205668 -1.3382454 -0.13503371
558 0.32960722 1.0385613 0.3142337 0.50630164 0.10315104 0.54373413 -3.4045064 0.5769162 0.45295066 0.76096123
151 1.9446919 -1.1390402 1.2775588 -0.3833024 1.2435591 -4.0589027 -2.3387628 -1.9699147 -0.52470654 0.5569704
780 -0.9790853 0.4440611 0.27188775 2.7244773 0.959809 1.2774463 0.4234866 -2.84606 -2.135192 5.0160003
498 3.1738672 3.6963592 -1.5933516 -3.4222913 -0.04933854 -1.3478031 -2.2471068 0.06785284 0.7364745 1.1429622
109 -0.29277587 0.39846304 -0.6466455 -0.43095607 -0.8474344 -0.41759562 -0.25029752 0.58973914 -0.23487821 2.262596
676 -0.63881516 0.12671064 1.2496672 1.8173805 2.64853 -0.76490027 -2.0852451 -2.1168509 -0.047346774 2.6543639
203 0.4002702 1.0768275 0.3931032 0.5369498 0.06249495 0.5874347 -3.4957597 0.65327907 0.4250101 0.72240317
973 -0.86650324 0.038717162 -0.7735576 1.006783 -0.15457653 -0.12835412 -4.0555573 -2.5605037 -1.4330734 -0.20714384
173 -1.752122 0.31892025 0.48283988 -2.081901 -0.89605385 -0.37689844 -0.8810222 0.62073207 -2.0030584 2.0184433
261 0.49195138 -0.5329021 1.5358535 0.5053946 1.0735095 -0.007068975 -1.383894 -0.080308534 0.74533236 3.0521455
0 -0.30265585 0.38030156 -0.6372818 -0.42874494 -0.8124673 -0.39469382 -0.2733535 0.58979475 -0.2384697 2.2807844
97 1.2431705 -0.03578635 0.24963206 -1.4717897 1.2669289 1.2298032 -1.9706756 1.1284409 -0.9834437 0.5000639
717 -1.4183832 1.0354003 1.1877257 -0.37312254 1.1811565 -0.6569434 -1.0321301 -0.5709975 -2.319985 -0.18615545
50 -0.61269015 0.07865838 1.2164226 1.7712855 2.5585246 -0.7862505 -2.0285127 -2.0245774 0.001793488 2.568161
994 2.024397 0.10538851 1.039429 -0.15787464 0.88498014 0.2033029 -0.13967344 -1.0819379 -0.081961654 1.2050937
585 -1.4705206 0.65851265 1.0788047 0.39218205 0.2987417 -0.83748865 -0.42794195 0.6009705 -3.8547177 0.12035802
528 -1.4487472 0.64117783 1.0367017 0.30745167 0.32363224 -0.99304026 -0.35261914 0.71317554 -3.9029074 0.19905317
560 0.45442 -0.16042338 1.0761594 0.7694478 0.6810594 -0.19482575 -0.41782323 -0.09296021 0.33048227 2.0700574
609 -0.32594624 -1.5335431 1.1170684 -2.8111448 1.137934 -0.0892497 -0.41194725 -1.7283635 -1.2580622 4.4435225
764 1.354432 -0.14043492 0.79536104 -0.034115084 -1.6021016 -1.5523788 -1.0978247 0.30478218 -1.9150655 -0.74524903
81 -0.4372525 0.12100878 1.1108904 1.6896715 2.1087139 -0.6715576 -1.7899396 -2.2230842 0.1345042 2.3848052
424 0.34191528 0.9867461 0.4303629 0.5035141 0.10791504 0.5426024 -3.4599385 0.6089743 0.41616797 0.79822797
679 2.0637076 0.07251065 1.0830381 -0.13841431 0.9630081 0.16739056 -0.10345362 -1.0935503 -0.10580503 1.2738351
646 1.9114469 -1.1249897 1.2936282 -0.38595685 1.3132548 -4.1135106 -2.417747 -2.094447 -0.4574244 0.5904192
781 -0.38254935 -1.5285928 1.2662038 -2.5908463 1.0778694 -0.0111926235 -0.43209782 -1.7183249 -1.0686139 4.3047037
789 -1.7796218 0.32891098 0.45822132 -2.1054313 -0.89444876 -0.37618902 -0.8788407 0.6597035 -2.0010698 2.032047
649 1.3131723 -0.13265231 0.29920393 -1.5521456 1.3791827 1.2186154 -2.017235 1.2126309 -1.0474094 0.5876634
213 0.47031736 -0.15115003 1.1372283 0.80305684 0.7019954 -0.23640996 -0.41314015 -0.15284774 0.3352034 2.1471355
299 -0.10304565 -0.021739585 0.9242199 1.7512088 1.6632922 -0.6368764 -1.4226463 -2.3419828 0.23384991 2.4556406
205 1.9428741 -0.07158533 0.39735985 -1.2532393 0.85385394 -0.10073399 -1.3892921 1.3014886 -0.17009239 0.8705011
630 0.29928997 1.1687449 0.30839956 0.6291192 0.12149598 0.5969579 -3.507115 0.55597734 0.48954654 0.795574
567 0.31098008 -1.6347969 1.0162156 -0.16737391 0.8851123 2.1933994 -0.27625087 1.8082974 -3.6917484 2.168067
899 -1.018631 3.8791509 2.1844568 0.42968282 -2.4223764 0.8923455 -2.6857653 0.38400865 -3.7714276 -0.28582796
670 0.23309903 -1.5882078 1.0186771 -0.18656471 0.86703795 2.2133868 -0.29720187 1.8425698 -3.6770113 2.092385
653 1.2567655 -0.12148483 0.24176313 -1.5185949 1.3562655 1.1664081 -1.9341865 1.2184552 -1.022781 0.59838915
323 -1.5760707 1.4960083 2.188026 1.7698517 0.73437005 1.9315856 0.56338584 1.9302337 -2.82752 4.797892
552 -0.2510264 -1.45837 0.99763185 -2.751544 1.3188763 -0.23556112 -0.23008513 -1.5928317 -1.161912 4.3143244
955 0.23555246 -1.6802032 1.0774963 -0.16553764 0.9131418 2.288119 -0.40132573 1.861689 -3.7394013 2.1465168
249 2.0760224 -1.8725427 1.5394388 -1.0885904 2.8083055 -2.0877788 -0.036000494 -1.5660706 -2.9593058 0.5433019
443 -0.3380061 0.38653004 -0.58039963 -0.21250676 -0.7636429 -0.5502496 -0.13200746 0.4469993 -0.19990529 2.195242
405 3.154252 -0.41440436 0.406235 -0.6624144 0.25701645 0.22089307 0.19858423 -1.8315233 -2.0357666 0.779008
342 0.39210656 0.71755 0.44556472 0.21753056 0.05981541 0.36822864 -2.9146714 0.6529379 0.37893647 0.62614083
885 -1.7133195 0.32171205 0.444511 -1.9966515 -0.9499456 -0.30509648 -0.82427865 0.61704254 -1.9851326 1.9004422
479 -0.3294747 0.42876166 -0.5559802 -0.18080872 -0.76931775 -0.5466194 -0.1337405 0.42407513 -0.2091211 2.1164532
539 0.89983284 -0.01883354 -1.8114194 -1.3991176 1.5558318 -0.48219886 0.565127 -0.49754983 -1.682164 1.4884751
584 -1.7406821 4.9264326 1.0767297 -1.1262103 -2.9896028 -1.1691371 -2.9652882 -1.8336376 -2.0694804 0.9141272
920 1.070457 -0.81543255 0.7077868 -0.1485836 -2.289233 -0.801792 -1.3483329 0.93865585 -1.3316134 0.47470537
793 -1.7022467 4.84881 1.1904451 -1.0687153 -3.060072 -1.1154029 -2.9562662 -1.8316272 -2.0116785 1.0042517
680 -1.2961642 1.0670141 1.1096284 -0.013557182 0.55365527 -0.51599604 -0.6590953 -0.6975289 -1.9500161 -0.09518207
711 0.47352695 -0.17113775 1.0974442 0.77006775 0.769412 -0.21527542 -0.40714675 -0.11684588 0.3232319 2.151176
271 0.8845056 -0.032988477 -1.8644842 -1.4609088 1.643825 -0.5103434 0.54252374 -0.5231792 -1.6255625 1.5835878
183 1.6422689 -1.6512917 -1.4768008 2.136018 1.7183112 -0.8313612 0.04315433 -2.6496022 -2.0522046 1.9863402
144 0.63241553 -0.022083499 0.7176158 1.1287034 0.09608157 -0.60876405 -0.84376305 -0.789853 0.662296 1.9675163
736 1.0167685 -0.8049129 0.71473867 -0.12995228 -2.241175 -0.81310606 -1.315265 0.92151695 -1.2823503 0.40515736
263 0.6918267 -0.1417439 1.0651389 0.9954526 0.31386116 -0.47408903 -0.8029851 -0.59940195 0.6734929 2.1746585
523 3.104873 -0.3519895 0.42524004 -0.6713751 0.26747823 0.24872953 0.25692475 -1.8199534 -2.0179431 0.8228528
632 2.4826996 -0.0032998426 1.2402933 0.06329398 0.8931497 0.15005611 -0.42252737 -1.3132154 0.15564239 1.5333374
578 -0.3330456 0.41988802 -0.52514774 -0.15787864 -0.6963922 -0.5313853 -0.11947448 0.44610006 -0.19172256 2.1128974
379 1.6469394 -2.8049414 -0.70459 2.5374439 0.5774085 -0.8468084 -0.5660634 -0.98233145 -3.1986535 1.2659875
682 -0.9261485 -0.13295013 -1.0054975 0.8900746 0.9908689 -2.3350286 -2.148055 -0.31053185 0.10435039 1.798783
871 3.2444673 -0.3969796 0.41419548 -0.6203507 0.29255924 0.2902727 0.1819934 -1.7853317 -2.05621 0.78794974
816 -1.5454885 0.6485046 1.1590338 0.408744 0.4677106 -0.94004667 -0.48479143 0.6616001 -4.3484545 0.18564074
855 -1.6424733 0.7889702 1.0576296 0.3722515 0.42777655 -1.0819844 -0.34511432 0.68525493 -4.349994 0.22163838
980 1.0897858 -0.3916321 0.6182463 -0.014735783 -1.5083917 -1.1825576 -0.9808403 0.4785772 -1.5606632 -0.49982432
358 -1.316111 1.108311 1.1423067 -0.0533645 0.5775188 -0.5569844 -0.7006192 -0.7105692 -2.0258145 -0.10310112
801 -0.06975883 3.6191568 4.376583 -0.8238371 -0.831 0.3053709 -0.2831795 -0.7117098 -2.7018006 1.8839421
