500 10
34 -2.2248175 0.1854834 0.29474366 0.7774475 -2.0904443 0.09415766 1.0433033 -0.40101904 1.0224832 1.5829139
71 -0.113862365 -1.922303 -1.012327 -0.8310425 -0.5498459 0.5666676 2.980535 1.0159844 -0.513402 -0.14451565
151 -0.5263163 0.37197354 1.9150156 0.41634306 -0.4586871 -1.9612503 2.1740444 1.4505559 -2.7781503 2.1096573
260 -2.2486827 0.15678832 0.3658354 0.7645725 -2.1161234 0.07698344 1.074072 -0.4325355 1.0720583 1.5851722
96 -0.537306 0.328665 1.9202433 0.4027618 -0.5598003 -2.0253737 2.2220364 1.4370948 -2.820321 2.2372103
372 -2.0533245 -2.006331 -0.1560839 0.8191371 -1.5478064 -1.2431244 -0.5293381 0.92481005 -3.7216516 0.69596577
416 -0.1881682 -1.9600126 -0.3434709 -0.82443273 -0.45867148 0.24513096 2.4864373 0.6979688 -0.6675861 -0.28074324
167 -1.996296 -1.9888468 -0.12174039 0.8142584 -1.42293 -1.3138909 -0.5039661 0.9114649 -3.672578 0.6559312
95 0.63323987 -0.2317572 -1.9774557 2.9052725 -0.9151841 0.18226926 2.3048968 1.2016222 0.33905905 2.8325233
494 -0.16050793 -1.8690591 -0.9835415 -0.76955384 -0.4430736 0.5198893 2.8505108 0.91323423 -0.47495237 -0.11887003
342 -2.313809 -0.016803645 0.19665992 1.4378802 1.4020286 1.0020097 0.5775933 1.11083 -0.62688756 0.21455434
236 -0.3598767 -1.8859198 -1.0481659 -0.8771613 -0.52237684 0.62103605 3.0604787 0.9894246 -0.38653 -0.17241319
356 -0.38499472 -2.8633559 -0.10891648 2.6155791 -2.4404671 0.32806724 -1.1822587 0.39405668 0.5202907 0.12934084
464 0.7153405 -0.30315104 -1.2295498 1.7193952 0.1801591 1.921917 1.4081345 2.0654833 -0.38161767 3.057099
201 0.42583477 -0.5902586 1.8359225 2.187772 -1.5377779 1.9993703 1.8429334 -0.6674646 -1.2866758 -0.38245022
450 0.473284 -0.6025412 1.8042248 2.227535 -1.5825508 2.0605638 1.8648851 -0.6225007 -1.3485557 -0.43463892
2 -1.6643395 0.2605213 1.6240553 0.8876753 -2.0368097 0.15573028 1.571087 -0.65385884 1.42383 1.1480236
383 -0.27119035 -1.8121486 1.625816 0.21814351 0.77373105 0.96714646 1.5162334 0.3725183 1.6797582 0.4820838
214 0.27745375 -1.2317427 1.405975 1.7530404 -0.20105666 1.0170563 1.1503041 -0.4437638 -1.6856245 -0.5721438
20 -0.019664804 0.08486732 1.8810338 0.038329262 -1.9255455 -0.7626375 0.5082985 2.9480922 0.7050263 -0.27366853
44 -1.7481393 0.20416224 0.56754 0.6603504 -1.7002344 0.03383394 1.1437205 -0.35393456 1.2084161 1.068487
83 -1.7725027 0.27254108 1.652316 0.8470605 -2.0661466 0.2091175 1.5677067 -0.6115003 1.4898031 1.1078682
11 -2.2377145 -0.015098241 0.68431 -0.085126355 -1.0802661 0.58071685 1.427631 -0.24483052 1.0176358 0.57002425
287 -1.3466979 -0.0946534 1.048502 -0.69001794 -2.2592328 -0.23578607 0.2558509 3.213204 0.5247874 -0.020394202
264 0.27766028 -1.196589 1.4294869 1.7608297 -0.17539227 1.0192825 1.2179123 -0.45508528 -1.6194936 -0.608798
196 0.7675566 -0.2703436 -1.1530969 1.6903598 0.10195589 1.8794711 1.4100951 2.0063663 -0.3396181 3.016266
397 -1.9771098 -2.0264826 -0.10788196 0.7585188 -1.4542395 -1.2183739 -0.46941307 0.84000045 -3.5023713 0.609226
347 -0.40593946 -2.907831 -0.11494472 2.705685 -2.5043979 0.24403328 -1.1597449 0.3560538 0.5634257 0.12989092
116 0.25546774 -1.0638815 1.361681 1.6624292 -0.26677144 1.0299833 1.201969 -0.45266172 -1.5298377 -0.5856657
13 -2.2617264 0.0056624366 0.19346593 1.31063 1.3161322 0.8172366 0.49592334 1.10156 -0.5818179 0.24678008
229 -2.0898118 -0.2324777 0.87895054 0.68286145 0.8930238 1.6383724 0.2633367 1.4238328 -0.90688497 0.10634722
78 0.3358864 -0.07283337 1.5505668 0.37550887 -1.3987784 -0.7600343 0.41026023 2.4355931 0.77013975 -0.24848525
303 -1.3422996 0.40593836 0.73193413 0.9047164 -1.0093582 -0.025498353 1.4821273 -0.598069 0.6159125 1.158574
18 0.7077822 -0.25543383 -1.1931303 1.6562457 0.0683709 1.8678282 1.4080794 1.9880182 -0.3694966 3.0567114
378 -0.31290928 -1.7981446 1.6466676 0.18259993 0.81630504 0.9128771 1.6113836 0.4004313 1.7298847 0.4012144
387 -2.3957527 -0.0059396 0.20288968 1.438473 1.4695979 0.9804772 0.5815163 1.2148927 -0.6784778 0.20142958
31 0.5320229 -0.5933945 1.8557053 2.0522199 -1.342099 1.8936782 1.6481556 -0.43656898 -1.3715799 -0.48479545
413 0.30906507 0.5425243 0.23394293 2.4853492 -0.5222811 -0.8193317 1.3210032 3.2431796 0.2921724 -1.3802391
332 -0.5401054 0.4715759 0.6670365 2.8674142 -0.18659171 -1.3478984 0.9836402 1.3528162 0.38169092 -1.076299
128 -1.2181287 -1.0143467 -1.2972974 0.67865264 -1.9697975 1.911584 0.8454721 3.769874 0.24893378 -2.5173264
267 -0.96121365 -2.3765142 1.31747 0.3943701 1.0108404 1.282682 0.61008275 1.0474187 1.8426763 0.7287987
343 0.2752137 0.47962964 0.20934829 2.3265438 -0.49583477 -0.718963 1.256414 3.0035498 0.3219852 -1.375473
467 0.6727332 -0.19628532 -1.9211339 2.845188 -0.862965 0.310263 2.2249854 1.2577409 0.26391375 2.8267384
40 -2.1930969 -0.1313128 0.35614672 1.167119 1.1651739 1.370445 0.28152624 1.2829769 -0.71814144 0.315593
384 -0.2190833 0.1765275 0.5824217 1.8332943 0.19611436 -1.4720895 1.8857616 1.7578104 0.62757295 -1.5618643
335 0.012810139 0.087024316 1.8706864 0.013558237 -2.0464249 -0.75111115 0.6200299 3.0247107 0.7711091 -0.22487256
130 -0.6031436 0.45381388 1.3656155 0.7054965 -0.57780415 -2.1963305 2.5386586 0.9559095 -2.5703523 1.7178876
148 -1.9964497 -2.0240228 -0.13049987 0.76929444 -1.4533954 -1.2152027 -0.5595585 0.90143037 -3.5715287 0.6945755
286 0.27205485 0.5529576 0.14168356 2.3543248 -0.5278091 -0.70974106 1.3392078 3.0058985 0.28896886 -1.3178082
354 -1.20417 -0.9575374 -1.0666287 0.64321125 -1.8899546 1.9562925 0.7700721 3.727414 0.3103813 -2.4563003
242 -0.08274362 -1.7962089 -0.857827 -0.7702542 -0.48794445 0.45963937 2.6957505 0.88775855 -0.46382394 -0.08812916
249 0.76056594 -0.29046044 -1.119541 1.6336188 0.049727075 1.9155269 1.3370161 2.02795 -0.35737383 2.978584
166 -0.07426992 0.030703705 1.9684862 -0.037736814 -1.8777792 -0.79496676 0.4591283 2.827961 0.53388464 -0.27222493
211 -0.42764875 -2.8843596 -0.12375961 2.7459939 -2.4359355 0.38607305 -1.186624 0.35507643 0.52317095 0.1883228
279 -0.39031973 -1.9036286 1.5463394 0.31771797 0.8518904 0.8687086 1.341807 0.3095784 1.6413286 0.44665283
179 -1.590921 0.31275976 1.6608967 0.8405319 -1.9746208 0.2778675 1.5468024 -0.6461236 1.4039227 1.0384891
26 -0.000682506 0.07388897 1.8982209 0.0037378846 -2.0050552 -0.9137535 0.6509501 3.1135554 0.6711136 -0.23606244
82 -2.2258766 -0.058863565 0.7115385 -0.07997133 -1.0784552 0.6089556 1.503199 -0.260402 1.0101553 0.54437196
269 -2.1059968 -0.298662 0.86564654 0.69757175 0.9446288 1.5850362 0.21203606 1.4064561 -0.8673089 0.12694645
282 0.26059222 -1.2161498 1.3825167 1.740896 -0.1903274 1.0104836 1.1595098 -0.47581 -1.5898085 -0.6183771
438 -0.21800731 -1.7925986 -0.3172261 -0.8613362 -0.4770202 0.36077452 2.2576263 0.685894 -0.52164704 -0.22227892
135 0.48605704 -0.5987274 1.7236305 1.9835427 -1.2503587 1.8044646 1.5187284 -0.47422424 -1.2089646 -0.4805589
379 0.4554645 -0.5788367 1.7703217 2.1578414 -1.5407767 1.9296216 1.7233083 -0.6220704 -1.2612461 -0.3532421
399 -0.4198415 -2.767475 -0.047459535 2.6390803 -2.3744373 0.2987791 -1.1548929 0.368091 0.63563186 0.08925102
127 0.27529058 -1.2309988 1.4091601 1.7733569 -0.19691001 1.0353141 1.1166143 -0.44591472 -1.6730546 -0.55520487
409 0.69061357 -0.318591 -2.102783 3.0624466 -0.8974811 0.15027094 2.367398 1.3634919 0.35027778 3.0245337
32 -2.7348669 -2.3772392 -0.45285034 0.16438304 -1.5509835 -1.7109675 0.20584318 0.3510342 -2.6235044 0.7625345
261 -0.61791897 0.46083578 1.4282889 0.7468523 -0.6300259 -2.314227 2.6427343 0.98230374 -2.781538 1.7611536
484 -0.13804972 -2.0188177 -0.3492676 -0.85752505 -0.5223514 0.2757474 2.5620463 0.7300878 -0.7217304 -0.27114755
485 -3.4525666 0.8125576 -0.054270785 1.2406424 -0.12385474 2.4208186 0.85231155 1.390965 -1.2634261 -0.30055657
431 -0.14498113 0.24639991 0.55691946 1.8839287 0.11094214 -1.4768579 1.6067083 1.9138435 0.5616555 -1.409013
323 -0.23019435 -1.945106 -0.9952441 -0.87944275 -0.49911135 0.5547185 3.0322793 1.0520598 -0.5109543 -0.113476396
137 -2.2133408 -0.036800455 0.6645556 -0.043184645 -1.0863724 0.5829028 1.4007494 -0.25125313 1.0026671 0.6021738
124 -3.6187449 0.80252683 -0.06884195 1.2638453 -0.2116163 2.5077355 0.81324714 1.3908653 -1.2831488 -0.26494223
423 -0.29339787 -1.9792074 -0.9760982 -0.98104227 -0.55040663 0.78079605 3.2207909 1.1326509 -0.42542008 -0.17718506
199 -0.19023752 -1.8742685 -0.9785001 -0.83054334 -0.4477174 0.5496718 2.9234235 0.9571645 -0.43573293 -0.10125829
29 0.30049202 -1.0423518 1.3330544 1.562736 -0.26759163 0.9978157 1.1119149 -0.43566242 -1.4452453 -0.5233468
181 -0.18561289 0.3325971 0.18469973 1.8117144 -0.14405808 -1.7116127 2.295788 1.4178234 0.5922213 -1.5577086
328 -2.1975124 -0.03288857 0.16410945 1.2301806 1.2431991 0.8439758 0.37801066 1.0621394 -0.58889335 0.3295154
204 -1.4081739 -0.19440599 1.026173 -0.8009824 -2.2671072 -0.20131117 0.25128993 3.0756326 0.4918674 -0.0065541174
497 -0.80678385 -2.4003427 1.7204883 0.5932641 1.267744 0.5241887 1.0633079 0.6092242 1.8539002 0.60720986
19 -2.1485946 -0.029134532 0.681121 1.5432845 1.5499842 0.9904946 0.24375436 1.357634 -0.49529535 0.85879964
439 -0.8644664 -2.4924617 1.7493337 0.5389603 1.2111322 0.526866 1.0569178 0.5939085 1.9081519 0.63982546
230 -0.47601408 0.49817774 0.72594625 2.7813704 -0.21898942 -1.2708149 0.88185364 1.5365652 0.32947737 -1.0828115
200 -0.38317052 -2.9410245 -0.020228965 2.60803 -2.558691 0.38032442 -1.2728544 0.42680717 0.5370144 0.19496962
313 0.6186403 -1.4003394 -0.3626308 -0.37512225 -0.7602469 1.3006009 1.4305286 0.88786566 -0.5031013 0.67245895
222 0.27790213 -1.1670914 1.4037923 1.6825196 -0.21803397 1.0020744 1.1459926 -0.43344596 -1.5903139 -0.59876883
425 0.7747949 -0.29107812 -1.154802 1.7161415 0.1322166 1.9850051 1.3946583 2.13375 -0.37926954 3.1191673
367 -2.2007139 -0.2826963 0.38473952 1.2667085 1.2569263 1.3844966 0.2416065 1.3209496 -0.72490716 0.43355742
198 -2.186832 0.14851068 0.29088706 0.7286698 -2.0452113 0.041099887 1.0546792 -0.3736922 1.0770952 1.5108875
471 -0.24024975 0.35748437 0.105456404 1.7631485 -0.17650072 -1.6063461 2.4460974 1.3460764 0.5495706 -1.6808743
281 -1.2287823 -1.0546548 -0.9614717 0.3019192 -1.988191 1.8024188 0.6829781 2.9901087 0.09917057 -2.1286516
304 0.30548292 0.55467534 -0.123232335 2.2118373 -0.4814118 -0.6383236 1.383594 2.5761652 0.23188171 -1.2196109
352 -2.1233017 0.20167407 0.3842261 0.75732666 -1.956241 0.036005765 1.0789762 -0.40165606 1.0781249 1.3892999
319 0.6614545 -0.20648204 -1.9086515 2.8153353 -0.7829893 0.3338044 2.2206233 1.3213704 0.25712034 2.8677938
41 -2.0656981 -4.07071 -1.2710267 4.666754 -0.1158079 -2.9690964 0.8844516 0.74678427 2.6776693 -0.61850405
393 -0.96241945 -2.4446247 1.3616697 0.47893333 1.0601366 1.3265637 0.5276367 1.1415457 1.8446277 0.619306
217 -0.43838888 -2.776776 -0.14000213 2.588132 -2.2278826 0.16998461 -1.0354624 0.23519732 0.46515688 -0.026755607
449 -0.31415924 -1.8238945 1.710734 0.18590695 0.81232303 0.98861045 1.6054169 0.3927369 1.7121971 0.42745492
14 -0.0668253 -2.6296318 0.13211837 3.5486336 1.8836344 -1.1251808 0.65180886 1.6280926 0.6003924 2.964515
46 -0.40178242 -4.4820495 2.4320326 -0.6686576 0.030306188 -2.9429588 0.3084204 4.086573 -0.50394404 3.6840758
470 -0.40095982 -4.4754047 2.5279267 -0.72568315 -0.017950319 -2.8121336 0.38756597 4.066393 -0.39391157 3.7260802
396 0.4236443 -0.019042263 1.4324172 0.6153125 -1.0374763 -0.7143357 0.35417694 2.1924384 0.7207281 -0.2967867
61 -2.4015718 0.025583887 0.19132484 1.3945166 1.321683 0.859188 0.4827458 1.1793664 -0.7226083 0.26006347
17 -2.109611 -4.116021 -1.4161131 4.651607 -0.12248688 -3.1411278 0.9396848 0.69747883 2.6138353 -0.5237692
375 0.091811575 -0.053992566 1.8409108 0.10394797 -1.828397 -0.76377106 0.4960172 2.5792313 0.71841305 -0.35385254
278 -0.89498025 -2.533255 0.04051707 2.7006216 -2.3853602 -0.029241692 -1.0795978 0.0360816 0.5622458 -0.023475405
15 -2.1485958 -0.010829816 0.26506686 1.3137428 1.3442576 0.9358621 0.4300655 1.1172044 -0.6328479 0.440777
94 0.50014514 -1.4356692 -0.43790427 -0.4421664 -0.68048996 1.1438128 1.4445415 0.8148364 -0.5319909 0.5970968
380 -0.37914884 -1.8177902 1.5372379 0.29649532 0.81881404 0.81681395 1.3747987 0.3259913 1.6475458 0.3332657
395 -0.3590185 -2.8520098 -0.049787473 2.6177392 -2.441347 0.24968724 -1.1773969 0.30646586 0.48720708 0.09342088
42 -1.8814417 -1.9125109 -0.057786673 0.6114363 -1.3050468 -1.1978312 -0.413998 0.76431024 -3.2144682 0.62992316
418 -2.5348144 -2.0957568 -0.075609125 0.29035383 -1.2119178 -1.3300418 -0.30906776 0.5072311 -2.217848 0.57807505
117 -3.0538013 -0.40734896 1.1936772 0.49663448 0.5184844 1.7276082 -0.22965209 2.657293 -1.8684213 2.7099183
5 -3.2219017 -0.6218202 1.2227533 0.42256692 0.5820759 1.6946602 -0.3132226 2.6168876 -1.7045724 2.7983327
298 -0.47868907 -0.25621015 1.9297932 -0.47834283 -2.3148203 -0.15815341 0.3766556 2.8644385 0.17204629 -0.52005666
97 0.44364786 -1.5606616 -0.48303822 -0.5385324 -0.92623794 0.51928306 1.1823306 1.2858691 -0.90372396 0.63985944
391 -1.3587382 -1.2105372 -1.1035218 0.18376718 -2.0935144 1.7395998 0.91787046 2.8716116 0.16560027 -2.2646635
232 -0.42927805 -0.2990465 1.926331 -0.5018194 -2.32095 -0.19053973 0.26891482 2.7962224 0.054353382 -0.43696368
79 0.5490035 -0.89267546 1.4316137 1.4159282 -0.53864133 1.0975951 1.0137188 -0.22433287 -1.1749301 -0.46558362
489 -0.18173368 -2.0245848 -0.28609782 -0.88927054 -0.5340194 0.34810776 2.57555 0.71588045 -0.6572296 -0.2619519
122 -0.37161857 -1.846992 1.4578508 0.24345471 0.8101784 0.8125445 1.2420365 0.2929305 1.6188884 0.43061274
53 -2.1348758 -0.32005814 0.86062354 0.7009653 0.8799102 1.6197156 0.20230757 1.4635073 -0.9781374 0.11270096
22 -0.5188838 0.37475526 1.587652 0.67742026 -0.19388343 -2.272747 2.6367397 0.8505081 -2.112117 1.777636
27 -0.48992467 0.39095742 1.4376389 0.6381293 -0.45801437 -2.1330342 2.3560426 0.9691872 -2.4708846 1.6787899
7 -1.9843564 -1.9802605 -0.083927326 0.65276235 -1.3759451 -1.149365 -0.45505992 0.75598097 -3.3206666 0.61621994
206 0.3052634 -1.2247554 1.418499 1.7651235 -0.21489446 1.0422443 1.1600374 -0.43607658 -1.6619227 -0.5468699
231 0.2597151 0.48113802 0.37263098 2.2542443 -0.48426485 -0.6555796 1.025269 3.1685698 0.2525433 -1.2191575
309 0.29279387 -1.1061213 1.4041027 1.583741 -0.19197315 0.996478 1.0897348 -0.46024022 -1.4950767 -0.55792266
305 -0.4122687 -2.6028655 -0.13253543 2.5089822 -2.255933 0.08715773 -0.9296473 0.17845026 0.583566 0.031806782
187 -2.3555465 -0.2461023 0.45182046 1.3055842 1.2512481 1.5836306 0.3092824 1.3450259 -0.8414972 0.3253562
35 0.5143966 -0.53717244 1.7920865 2.059278 -1.4672484 1.9397292 1.6348367 -0.42028862 -1.3117402 -0.52572995
374 -1.6326042 0.21318918 1.5944122 0.8361109 -2.0776112 0.20024075 1.5157509 -0.6186391 1.446287 1.0375305
210 -1.0748475 -0.04002373 0.70512193 -0.4722597 -1.8151501 -0.18012846 0.12836722 2.6389527 0.3540702 -0.14437251
234 -1.0942221 -2.535683 1.4811485 0.5065774 1.134346 1.3521918 0.5817814 1.2890849 2.0275126 0.68197405
353 0.4659533 -0.61426914 1.8234814 2.118059 -1.5831567 2.016575 1.7205737 -0.49779734 -1.4213996 -0.4339056
299 -2.128903 0.19721404 0.33401582 0.6996677 -1.9729694 0.011731867 1.0993305 -0.36062285 1.0946509 1.498142
155 0.8019909 -0.20172411 -1.0523702 1.6656439 0.11014263 1.8442593 1.3447948 2.0205302 -0.3475281 2.9740958
358 -2.2805068 0.16759302 0.30289558 0.78519154 -2.1702287 0.0015777556 1.0312492 -0.37090993 1.0156153 1.6972097
272 0.11255042 0.92734134 -0.5513923 2.1705358 -0.3684164 -0.37884018 1.7188884 2.0032623 0.10845163 -1.0524031
314 0.6685934 -0.22635739 -1.8380202 2.9021335 -0.7725978 0.24024388 2.1405232 1.3337165 0.26200464 2.8645568
402 -1.3357013 0.4836155 0.8016339 0.95822597 -1.0369273 0.05814132 1.4965488 -0.5546788 0.6048603 1.1833208
262 -2.0628846 0.11376336 0.35648993 0.74252576 -2.0765111 0.0026971316 1.0762159 -0.42267433 1.0721582 1.4828706
152 -0.20638783 -1.8878872 -0.96149766 -0.8276205 -0.44723794 0.5411433 3.0072668 1.0053765 -0.44446597 -0.16392943
265 -2.3204825 -0.0018764237 0.1791432 1.3750273 1.3930886 0.9600467 0.50028545 1.2185497 -0.6802165 0.26189917
3 0.15748778 -2.1293821 -0.9360057 -0.48858497 -0.6095077 0.45370296 1.8336143 0.8029224 -0.40551898 0.36311942
493 -0.4229167 0.4595285 0.4719291 2.446081 -0.1689592 -1.3690497 1.1665568 1.2826755 0.2917638 -1.1821798
321 -0.82292825 -2.3947763 1.7144084 0.65206015 1.2130466 0.16944525 0.49840054 0.6782301 1.4850949 0.7562983
1 0.07777497 -2.0649097 -0.9649429 -0.56731784 -0.6745377 0.35644734 1.8320397 0.7775481 -0.32087058 0.37825623
146 -1.2398045 -1.3014103 -0.9915946 0.17617905 -2.104097 1.7379212 0.70070356 3.0686772 0.057099108 -2.200637
357 -1.4943588 -1.787871 -0.3868292 3.5550413 -0.6696826 -0.27446365 1.0530455 -0.6902975 1.182444 -1.7114885
246 -1.0406511 0.49205902 -0.16773963 0.031003987 -1.4523666 0.5407023 0.47823253 2.3946793 -0.06485058 -0.6015149
289 -0.19405733 0.2522542 0.43532413 1.8316256 0.07634363 -1.5040898 1.8684357 1.4321216 0.5464819 -1.484985
440 -2.0773559 0.38596335 0.6363855 0.617333 -0.9893242 0.25669733 1.1695812 -0.10166675 1.2393628 0.8168905
447 -2.6080325 -2.2475326 0.0041921055 0.53439915 -1.3556393 -1.4534184 -0.5707135 0.72829914 -2.4812787 0.7238677
444 -1.6920768 0.05959978 1.8281878 0.16912182 -0.46547344 0.35642433 0.71689117 -0.1445633 1.001961 0.68976015
473 -1.2124348 -0.15401518 1.114858 -0.62004644 -2.1477048 -0.28527626 0.10841443 3.1320662 0.53823256 0.13947533
421 -2.1245606 -0.26118842 0.88196164 0.7304661 0.93768984 1.6411802 0.2342826 1.4517654 -0.94497436 0.07331479
280 -2.8271155 -2.3313856 -0.49762195 0.24154198 -1.555467 -1.8193525 0.34093058 0.32357964 -2.7489498 0.725818
111 -2.3503222 -5.670333 1.4441262 1.7863328 2.29303 1.233454 1.2390425 0.8368001 1.2787443 -1.0552807
338 -0.23594342 -2.007813 -0.2932616 -0.9733209 -0.519445 0.4767874 2.5785573 0.78206867 -0.6134986 -0.27731666
337 -2.4108102 -5.747783 1.50685 1.737058 2.246482 1.2302563 1.3006257 0.8925432 1.3495853 -1.0814108
75 0.056444034 -2.2531466 -1.0603715 -0.559941 -0.6577451 0.5013948 2.0320852 0.82210624 -0.3902084 0.35758176
103 -1.8803049 -3.747013 -1.2556223 4.468057 -0.24055822 -2.9498556 0.7460362 0.5917983 2.4597678 -0.33568472
455 0.031531952 -2.7293873 0.07020828 3.579303 1.8050864 -1.1564726 0.5765465 1.7597809 0.6506066 2.9094214
442 -0.30488577 -1.8122979 1.5672679 0.2778994 0.81239116 0.9137034 1.4269997 0.3577667 1.645229 0.38342226
114 0.46975446 -0.58666444 1.7350786 2.065971 -1.4828674 1.9418354 1.6804236 -0.5650123 -1.3271748 -0.53101593
195 -0.33586723 -2.7266436 -0.10081259 2.462674 -2.2910244 0.1658564 -1.0942514 0.31360093 0.5092408 0.0939713
244 -1.1231302 -0.95473164 -0.91340697 0.1724684 -2.015603 1.4697987 0.69663715 2.6843405 0.14217949 -1.9886807
9 0.31914806 -0.4788751 -1.6129762 1.6891015 -0.15080996 0.14102413 1.6227038 1.1039759 0.6469711 1.9864631
483 -0.21032605 -1.8009789 -0.966793 -0.8327194 -0.44682693 0.6037632 2.8594086 0.9452806 -0.44049045 -0.03207479
295 -1.8022379 0.16269971 0.6516791 0.7471397 -1.7776489 0.041840315 1.105758 -0.38787922 1.316642 1.2126651
463 -1.3845568 0.46618065 0.8163804 0.9312921 -1.0279118 0.060642168 1.5639431 -0.5918464 0.5771968 1.2253592
54 -0.49673086 0.35184193 1.6465139 0.7729481 -0.1409968 -2.3749287 2.7178125 0.9100337 -2.244835 1.7771442
420 -1.6482024 0.24272892 1.5102534 0.8054439 -1.9167877 0.18804447 1.4381887 -0.5964236 1.3864605 1.0596608
185 0.26120266 -0.027743405 1.5980227 0.4332088 -1.220021 -0.82852334 0.40848315 2.3071728 0.7453655 -0.31755322
93 -0.50288707 0.18705131 1.0868605 -0.13792294 -1.6975659 -0.39159545 0.2358729 2.6201298 0.5958384 -0.08253896
144 0.3602658 0.5200531 2.3791356 1.0222489 -0.8621131 -2.429942 2.6572134 1.1273171 -2.1418319 1.1465096
145 -0.2527776 0.25589332 1.8663396 0.7118695 -0.260304 -1.6375058 1.9207275 0.73198366 -1.8852386 1.8016529
315 0.20562351 0.9417442 -0.5335151 2.1693938 -0.6075371 -0.37496072 1.8670361 2.014288 0.17007865 -1.2001985
50 0.066958256 -2.6839588 0.09895126 3.5044844 1.8744576 -1.1643094 0.66234136 1.7251406 0.72145426 2.812056
91 -0.14647391 0.1724772 0.66768575 1.7733265 -0.0038167497 -1.5211288 1.9059675 1.2289197 0.33437386 -1.5952418
193 -0.7929107 -2.416439 1.855907 0.57119566 1.135391 0.13614707 0.4682989 0.80242074 1.5058688 0.76347655
377 -2.8275688 -2.3804643 -0.4894763 0.17678574 -1.4822222 -1.7285714 0.30303416 0.3019612 -2.6723666 0.7517492
0 -0.095057525 -1.1997751 1.4586633 0.78720623 -0.5879378 1.3674256 1.4615765 -0.63196015 -0.78710407 -0.8853918
80 -2.2644334 0.031838685 0.671989 -0.049936656 -1.1658757 0.61608464 1.5226412 -0.25295433 1.0132959 0.5739044
134 0.22414614 0.34400263 0.35458928 2.0380015 -0.45278043 -0.6024025 0.9292141 3.0374753 0.25706616 -1.2226855
248 0.51682866 -1.7795459 -0.45823178 -0.62842786 -1.0708108 0.57239395 1.3270804 1.5399864 -1.0535163 0.731914
245 -0.19847281 0.052815106 0.5031736 1.0915127 -1.4763217 -0.20946169 -0.13691606 3.3922465 0.09221323 -0.46386057
12 0.53886294 -1.4136688 -0.39963144 -0.35275647 -0.77136993 1.1538358 1.4358197 0.76281154 -0.5034267 0.63439304
401 -0.57504773 0.41986302 1.4376739 0.6758126 -0.49863276 -2.1814702 2.4950573 0.91243076 -2.6130157 1.7466323
84 0.21815756 0.48061386 2.3145928 0.8974061 -0.9116713 -2.3866875 2.620826 0.9091117 -2.0162823 1.1263616
251 -2.1262712 -0.14648335 0.38612098 1.2148494 1.1455171 1.3377953 0.28083327 1.1588799 -0.8268939 0.26006255
56 -0.9907444 0.49826127 0.03389423 0.12948911 -1.4317229 0.27643943 0.3397834 2.3884885 -0.06898977 -0.53311366
316 -0.08361704 -1.9966031 -0.46695513 -0.84668124 -0.5283124 0.30166143 2.4808795 0.7100072 -0.6357784 -0.13941069
23 0.30356768 0.38692176 2.2597663 0.9413243 -0.96859586 -2.4057384 2.634025 0.9191276 -2.0994766 1.157614
273 0.49434698 -1.4338193 -0.4085417 -0.41316238 -0.7794176 1.3752218 1.4449697 0.89979696 -0.5941013 0.68251663
123 -0.08865468 0.1566441 0.6215559 1.4347119 -1.1425438 -0.57037324 0.0004077264 3.274837 0.26926795 -0.42532554
77 -0.871349 -2.4867973 1.8864973 0.7354587 1.1701676 0.13885583 0.51184005 0.76147074 1.6082885 0.78532374
496 -2.0024004 -0.17312197 2.260084 0.18372075 -0.39912945 0.50853026 0.7606169 -0.08287627 1.109573 0.7471628
194 0.42079592 -0.051758826 1.0735354 0.7962786 -0.4940102 -0.83037335 0.47018293 1.7120013 0.6081666 -0.4242447
290 -2.221838 -0.15880458 0.6590318 1.4656093 1.6386372 1.0225016 0.27950585 1.238336 -0.4608127 0.7998043
21 0.76131815 -0.19405416 -1.016202 1.6304202 -0.18261221 0.9530403 1.3498889 1.3114954 -0.06532305 2.442643
70 0.33305186 0.37076986 0.41279787 2.013767 -0.4490084 -0.6002728 0.9485634 2.8106947 0.25573874 -1.1261952
189 -1.6068398 -1.9481966 -0.4591574 3.7293513 -0.56261134 -0.40601477 1.2606882 -0.67411286 1.2659864 -1.987359
275 -0.18770602 -1.9650416 -0.38752946 -0.868857 -0.51383656 0.37578207 2.4338188 0.69849074 -0.65578485 -0.1712645
63 -0.9330551 0.51111877 0.26678988 0.14152844 -1.458579 0.2460764 0.26001936 2.3889613 0.07763617 -0.48214102
284 -0.44652307 0.25949284 1.798412 0.384103 -0.4110507 -2.0835202 2.2015142 1.2080183 -2.6018064 1.858147
302 -0.15318495 -1.9151173 -0.4369697 -0.84581476 -0.51619697 0.37469152 2.4605832 0.77350074 -0.6261538 -0.17899963
446 -1.6481105 0.2860154 0.5510381 0.5917751 -0.8890536 -0.0069005825 1.0056965 -0.27575898 0.9800234 0.6961279
453 0.25650844 -1.2171307 1.458208 1.6961793 -0.19057748 1.0663793 1.090057 -0.44495758 -1.7110968 -0.55480886
469 -0.33259547 -2.544047 0.28261453 3.1564355 -1.7188272 -0.7307001 -0.09379652 -0.08239415 0.7699737 -1.0203094
324 -0.2725163 0.1841053 0.44608516 1.7611682 -0.022768982 -1.4457287 1.6498916 1.0626837 0.2983826 -1.468649
403 0.34936118 -1.5455828 -0.60226023 -0.40013894 -0.62610644 0.78544885 1.2790961 0.9139894 -0.5951236 0.4338658
434 -0.10417031 0.01913877 0.6623817 1.0981408 -1.3332088 -0.27134165 -0.16576037 3.2017384 0.15855525 -0.3371698
263 -0.56553334 0.2888782 0.50342655 0.63826835 -1.7326914 0.10943238 -0.1650386 2.8124788 0.024436004 -0.4136086
318 -2.3115427 -0.3022627 0.36502466 1.2712022 1.2886986 1.4303285 0.295546 1.2210283 -0.7195615 0.37113905
131 0.063195296 -0.45280364 -1.3995445 1.5665385 -0.018635813 -0.2366127 1.3556212 1.2608124 0.685458 1.9351399
85 0.8642507 -0.42557013 -0.8898922 1.1975746 0.037631284 1.0176597 1.2193117 1.6106665 -0.10163635 2.2995045
186 -1.0386549 0.35373706 -0.037015073 -0.13965039 -1.523847 0.4628657 0.3960061 2.224408 -0.07832456 -0.56191766
451 -0.28797272 0.2655084 0.43240407 1.8155081 0.12543847 -1.5575936 2.0037246 1.3058765 0.4723245 -1.5093014
149 0.124149404 0.8518122 -0.5253495 2.0819104 -0.42614597 -0.3932509 1.6778079 1.7879902 0.16259827 -1.089459
361 0.20449808 -1.1989703 1.3679801 1.6496803 -0.18459104 1.0129846 1.0718784 -0.45689 -1.6172352 -0.545616
115 -0.35835904 -2.5190928 0.28322098 3.295631 -1.6570605 -0.8144065 -0.07899779 -0.06551211 0.69155854 -1.033365
388 0.4506267 -0.5692235 1.7092401 1.9784291 -1.5003544 1.9865663 1.7439729 -0.52115166 -1.2634813 -0.48931563
472 -0.13629222 -1.9191327 -0.46306401 -0.80236405 -0.5754373 0.35110208 2.3200812 0.65427643 -0.6143523 -0.12546502
411 0.26105267 -1.0348412 1.3650278 1.6367552 -0.2529161 1.0422416 1.1445975 -0.45746356 -1.5562027 -0.5570381
28 0.81569713 -1.1498585 -0.24356101 1.7332338 0.5545676 0.09888888 0.42555076 2.0167344 0.31351578 2.031723
36 -0.013033058 -1.6119584 -0.68850327 -0.52025455 -0.59350824 0.42295682 1.6034056 0.5597495 -0.36718488 0.19502603
488 -0.96851593 -0.80851537 -0.7682169 0.15951069 -1.8789017 1.3842179 0.5969729 2.5185301 0.10841143 -1.8136206
221 0.5897676 -0.33193934 -1.7539262 2.5175474 -0.66067356 0.19578932 1.9802014 1.1592304 0.3179684 2.581567
258 -2.111413 0.10491816 0.32442686 0.6394043 -1.9452823 0.015660519 0.9971559 -0.4041124 0.982149 1.4055731
312 -0.5123211 0.3144596 1.6265008 0.6597342 -0.08365537 -2.1720748 2.2807207 0.84365916 -2.037654 1.5944185
252 -0.018491441 -1.6397777 -0.7160328 -0.56567466 -0.54401743 0.3890183 1.6058481 0.6361679 -0.36447626 0.21589342
345 -0.63606745 0.313902 0.5317678 0.65291905 -1.7006178 0.11051419 -0.12253873 2.9771714 0.046151586 -0.47316873
390 -1.6630497 0.26496208 0.51147187 0.51179945 -0.8575177 0.055485163 0.9617965 -0.23609386 0.9851129 0.6424917
58 -0.84575635 -2.417394 1.6773843 0.6856452 1.1577634 0.27583203 0.5437836 0.7108623 1.6153015 0.66056293
422 0.3501987 -1.0538868 1.326126 1.5781475 -0.29423177 1.0249052 1.1639761 -0.36338192 -1.5554932 -0.6030345
415 0.28023008 -0.4398509 -1.7302158 1.901241 -0.27515647 0.19418928 1.755612 1.1806934 0.6955349 2.2162151
482 -2.236394 0.03085014 0.6019758 -0.009318173 -1.1294026 0.5731778 1.4334216 -0.29607716 0.97928673 0.5989899
219 -0.85335785 -0.20681792 0.2610372 -0.57269996 -1.9372088 0.27401933 0.2477994 2.267487 0.19656564 -0.35786027
190 0.54843724 -1.4611127 -0.380039 -0.3733391 -0.8278375 1.3871197 1.4044384 0.83835036 -0.5457603 0.66765934
51 0.6852238 -0.30994993 -1.7911886 2.6130397 -0.6827805 0.34564003 2.0343323 1.2319068 0.2806478 2.6733725
8 -1.2586224 -1.6970228 -0.44995868 3.2141745 -0.7645297 -0.3187357 0.9000615 -0.56406635 1.1693716 -1.5777484
33 0.9101673 -0.6667928 -0.89460695 1.3801874 0.09745581 0.64587486 1.208903 1.29002 0.36498037 1.9192191
38 0.5669965 -0.8439564 1.4507686 1.4429502 -0.553364 1.1624162 1.0987086 -0.22373873 -1.2373152 -0.5010978
371 -0.6358995 -0.28366613 1.4704347 -0.6431721 -2.0305023 -0.10012672 0.2327699 2.5492992 0.11705046 -0.33024862
136 -0.0032582318 0.18710238 0.62885106 1.5319695 -0.78208643 -0.6932694 0.06812548 2.8904173 0.23116513 -0.30795935
233 0.3176163 -1.1420643 1.3595624 1.5758481 -0.21514739 0.9529027 1.147179 -0.37182358 -1.6665194 -0.5756712
143 -0.15385032 -1.7820214 -0.63634723 -0.8537804 -0.49549782 0.6179651 2.3913538 0.81824255 -0.45931372 -0.05858636
120 0.8432386 -0.19781323 -0.8063174 1.2881018 -0.017859207 0.8073866 1.3138418 1.5163077 -0.06288962 2.352729
429 -1.5917885 0.22720572 0.6111031 0.5224112 -0.75045455 -0.09740383 0.9208586 -0.26168078 0.8446808 0.56768966
60 -1.731979 0.18811588 0.5716053 0.64817274 -1.6108518 -0.017342795 1.0187784 -0.35321 1.1838363 1.034871
340 0.3297992 -0.839802 1.2449125 1.1996737 -0.4073856 0.9740874 0.9334575 -0.24687442 -1.2461643 -0.5549932
175 -0.20759253 -1.1774857 1.4244081 0.66737217 -0.6472694 1.3834864 1.3806193 -0.6373645 -0.7146122 -0.89655435
360 -0.7356343 -2.4621747 0.07948794 2.5795605 -2.261356 0.11777832 -1.1502889 0.1490344 0.5330618 0.08234605
266 0.112382874 0.22996601 0.5171513 1.4446132 -0.44439018 -0.4973453 0.5288931 2.6405008 0.23481707 -1.0012265
406 -2.346449 -0.11085613 0.7278209 1.6103213 1.6954237 1.0024463 0.3169232 1.3609489 -0.50140685 0.84775484
408 -1.9177688 -0.095260024 0.65741616 1.2682011 1.368654 0.94913405 0.21839738 1.0919248 -0.5401389 0.67484164
476 -1.5532275 0.24967436 1.5381607 0.8209122 -1.9165918 0.17251116 1.4763492 -0.6256981 1.3418939 0.9496319
443 -0.82597125 -2.4432404 0.10341646 2.6507516 -2.2470973 -0.019852286 -1.0894711 0.10302637 0.5277363 0.026775008
92 -1.7450963 0.11419324 0.56303513 0.5447444 -1.6903226 0.069915354 1.0939656 -0.3638846 1.2092636 1.0681354
301 -2.2804954 -2.067533 -0.09245288 0.27631462 -1.1387022 -1.422595 -0.15956916 0.47842306 -2.265491 0.63088816
188 -1.8499357 -0.28330755 0.15243585 0.6529273 0.78108215 1.1835585 0.09205345 0.7777544 -0.47911328 0.73231107
259 -1.0349553 0.47601056 -0.32071465 -0.031013679 -1.474678 0.57152575 0.65098155 2.3717175 -0.08939381 -0.74835956
37 -2.2507665 0.36316216 0.67330414 0.5608845 -1.0830775 0.21907462 1.2132883 -0.061954893 1.3560538 0.838832
373 -0.8977265 0.60795337 0.35937646 0.28095385 -1.4521518 0.1702111 0.23935586 2.5514169 0.064284585 -0.44280377
426 -2.2482235 -0.028631903 0.7075102 1.5357902 1.6460199 0.9777561 0.3270456 1.2735496 -0.5390312 0.8150249
311 -0.037086137 -2.102758 -1.1491048 -0.50852376 -0.6324324 0.43687424 2.0296834 0.8078778 -0.3401564 0.31933302
165 0.3604864 0.41678202 2.272392 1.1145036 -0.94607544 -2.537622 2.7473974 1.0655934 -2.1972718 1.117833
336 -1.2251302 -0.13720296 0.86513907 -0.71539766 -2.0586195 -0.039113414 0.21217634 2.6520243 0.41448808 -0.22233939
16 -1.9205009 -2.0646756 -0.12872039 -0.12677836 -0.3601109 -0.998289 0.11858172 0.5916903 -1.6275526 0.8183481
404 0.4486868 -1.510523 -0.47017336 -0.37138736 -0.6865903 1.1563598 1.4113096 0.7544988 -0.5814082 0.5668633
487 0.26595327 -1.109193 1.4693116 1.7069886 -0.23247786 1.0935721 1.2980398 -0.45810878 -1.6666179 -0.67599237
368 -1.6737639 0.19329697 0.86204076 0.6875062 -1.6877759 0.07851244 1.1593288 -0.47726774 1.2298998 1.086514
30 -1.5252849 0.23643239 0.7474131 0.52971137 -0.73440343 -0.030409021 0.8941088 -0.28547144 0.8009093 0.5761927
216 -0.376992 -2.5578663 -0.09958691 2.477379 -2.184053 0.3173106 -1.0394742 0.27628574 0.45200598 0.10125895
307 -1.8450042 -2.0917854 0.15293099 -0.14453444 -0.53675663 -1.0324585 -0.0037213007 0.43913874 -1.4579047 0.7451815
256 -0.65972346 -2.3054307 -0.006893675 3.1739683 -1.4409586 -1.0563601 -0.1932276 -0.15242939 0.6112296 -0.6122051
365 0.5560446 -0.87796694 1.4944893 1.4355274 -0.5088281 1.1472372 1.1036184 -0.19017996 -1.3011144 -0.5190662
161 -1.6489532 0.2709495 0.7966698 0.5954126 -0.6885145 -0.12183397 0.98512864 -0.26902387 0.85533756 0.59908605
274 -1.9942008 -0.27050337 0.76926535 0.74355507 0.89159244 1.5548881 0.18264684 1.3146572 -0.8724789 0.15681024
87 0.29148948 -1.1931899 1.4185989 1.64783 -0.24842049 1.0846171 1.0830977 -0.44101387 -1.5791569 -0.56085503
427 -0.85686016 -2.4297318 0.063940905 2.7058372 -2.29299 -0.051343583 -1.1042584 0.05336807 0.55859554 0.006919781
6 -1.8902446 -0.43503508 0.16283664 0.5937702 0.82198155 1.2182842 0.068286926 0.84952974 -0.43811333 0.788349
276 -0.011425524 -0.54300714 -1.6078266 1.8590117 0.04692008 -0.40403125 1.5497115 1.4630808 0.71537966 2.1831884
468 0.9754756 -1.3595386 -0.20266828 1.9584365 0.62042534 0.25085637 0.5050235 2.314988 0.4432338 2.3827467
381 -2.0581377 -0.3348135 0.82618433 0.6601599 0.8680511 1.6012484 0.15902385 1.3685043 -0.8240465 0.10346978
73 -1.8886285 -0.2957366 0.11877062 0.640931 0.76464075 1.1761067 0.122966535 0.8102865 -0.44608307 0.6175892
4 -1.727502 -1.88537 0.011601177 -0.0029592612 -0.58357084 -0.9770078 -0.15268779 0.4930184 -1.5051423 0.5378244
160 -0.4301309 -3.6044176 1.8372133 -0.63760626 -0.18516408 -2.3387814 0.21729133 3.0123637 -0.8513857 3.035395
247 -3.0641358 0.72474253 -0.0429761 1.1652688 -0.00759668 2.2116613 0.70497715 1.248867 -1.1434952 -0.15293472
81 0.52142406 -1.152358 -0.32680935 1.8039458 0.7437593 -0.21059075 0.43497884 1.4429554 0.29873654 1.6673994
435 0.473201 -1.6383646 -0.61323977 -0.42092845 -0.7798387 0.85585356 1.2702876 1.0342753 -0.7427959 0.47656143
213 0.7752402 -0.27692142 -1.047237 1.2569065 0.032464564 1.2969201 1.2845149 1.8342417 -0.18443073 2.5609508
45 0.48617512 -0.4741247 1.7159748 1.9006077 -1.3170079 1.7855701 1.5498571 -0.45991275 -1.2323152 -0.47106066
205 -2.0841632 -0.22052151 0.7375031 0.6985349 0.86704457 1.5468401 0.20767628 1.345441 -0.9105058 0.17979553
414 -1.5802975 0.38523635 0.85541993 0.8023589 -0.99055195 -0.016625613 1.4772872 -0.5849235 0.79289246 1.1575501
456 0.14855452 0.46722212 -0.15752691 1.8310702 -0.24238189 -0.6992591 1.2800498 1.902309 0.24808419 -1.1627809
173 -0.8874721 0.3544182 -0.31478903 -0.043046903 -1.505884 0.7168602 0.6965367 2.2306411 -0.03305219 -0.8267023
250 -1.9568399 -0.251331 0.7095202 0.69937193 0.88195413 1.5009383 0.13254726 1.1986362 -0.8270333 0.22850774
277 0.2147514 -1.0606537 1.3796983 1.5639622 -0.3115634 1.1232767 1.1057999 -0.41348305 -1.5349683 -0.6585769
126 -0.3971669 -3.3369834 1.7090114 -0.5408679 -0.123801604 -2.01518 0.105034076 2.8070583 -0.7690464 2.7030447
223 -0.6833607 -2.5344293 0.06480916 3.364763 -1.5891427 -1.2748585 -0.31420755 -0.0014213624 0.7049536 -0.6287508
293 -0.79752654 -2.3883986 1.7576176 0.51122254 1.2796626 0.48210356 1.0841569 0.5758872 1.8487911 0.5978171
47 0.8950823 -0.6816519 -0.7003052 1.4775962 0.10067098 0.2954926 1.1241155 1.2958827 0.44216096 1.9497652
410 -0.06582042 -1.7572782 -0.8017433 -0.7066271 -0.47971034 0.52753943 2.1301227 0.75002664 -0.4417634 0.108712204
86 -2.182574 0.06478613 0.63866174 0.02183303 -1.227856 0.52172107 1.4080209 -0.29908258 0.98278785 0.6298927
253 0.5382774 -0.9736224 -0.40239355 1.5917282 0.6689774 -0.039296113 0.44167942 1.5374373 0.27547166 1.6580997
147 -0.194261 0.103873916 0.6538029 1.3018782 -1.0750421 -0.49192274 -0.16805843 3.126073 0.25268978 -0.39190322
39 -0.6140808 -1.9848527 1.322701 0.43161032 0.96097654 0.4867026 0.6569294 0.54465556 1.4534972 0.3450898
98 0.015683161 -1.6862468 -0.7856653 -0.6957026 -0.41663694 0.49542615 2.200641 0.854371 -0.48419428 0.1003955
228 -0.28834295 -2.556223 -0.21318676 2.477678 -2.2000763 0.2723474 -0.91175383 0.25460678 0.5654054 0.06372343
209 -2.1325586 0.24971886 0.69045514 0.49706882 -0.9614315 0.30583784 1.1461003 -0.15667532 1.2388978 0.7812618
237 -0.89098364 -0.11521914 0.36802706 -0.5967101 -1.8016193 0.07570181 0.33839154 2.2557168 0.19162205 -0.29119956
66 0.7971379 -0.1736156 -0.91116744 1.1846354 0.07532705 0.87798697 1.3732331 1.610145 -0.062127654 2.2080467
400 -0.29998866 0.08705441 1.5754443 0.45871615 -0.12769106 -1.7867266 1.7427964 0.844352 -1.9375024 1.6712886
76 -0.99555767 0.46481475 -0.39527383 0.03556078 -1.4680792 0.7663118 0.7254045 2.452427 -0.039948 -0.8163543
24 -0.012894304 0.0790267 0.556869 1.3154867 -0.8489404 -0.48865965 0.023435201 2.9416635 0.24620855 -0.35941043
490 0.12735051 -1.5413603 -0.73141503 -0.5702328 -0.42359912 0.5814926 1.9217741 0.76659054 -0.51696485 0.17620371
351 0.4499684 -1.7928485 -0.608215 -0.65373147 -0.80597484 0.5299028 1.5899768 1.3658149 -0.8354997 0.5995791
462 -3.1287475 0.64887774 -0.067943625 1.1476926 0.009776517 2.2315004 0.69117206 1.3331802 -1.1421679 -0.09842914
445 -0.30452743 0.24557629 1.9287027 0.8239584 -0.22940989 -1.807393 1.9658053 0.7951779 -2.0701272 1.8897517
270 -0.71940637 0.12986246 0.5991942 0.19149798 -1.6180989 -0.0831045 -0.1554716 2.5621321 0.12386279 -0.22195254
320 -1.3524942 0.2744431 1.0719835 0.5794041 -1.2485565 0.045857143 1.1366478 -0.48451313 1.0260519 0.89573383
138 -0.34870088 -1.9945465 0.14424333 2.463065 -1.3171167 -0.55589086 -0.23072329 -0.06949757 0.5513059 -0.6883236
43 0.5581935 -0.90728694 1.4997396 1.3606806 -0.55378383 1.158697 1.0792174 -0.22772652 -1.25187 -0.46503294
331 -1.3601977 0.25218698 0.91300005 0.54467463 -1.2004957 0.05519947 1.0816905 -0.4090179 1.0491146 0.79512197
52 -0.25915173 -1.3990268 1.4810134 0.7515246 -0.7843937 1.3967708 1.4320679 -0.69605225 -0.8259921 -0.9522366
72 0.37600374 -0.90677214 1.3204463 1.4105587 -0.5088051 1.1670566 1.0444353 -0.35969633 -1.356429 -0.5301618
150 -1.2924571 0.28783962 1.0975708 0.71678746 -1.2884312 0.021382919 1.1860168 -0.51028156 0.9924487 0.9269865
480 0.2720281 -1.0269142 1.2822872 1.5740117 -0.25358653 1.0289502 1.1423509 -0.36740026 -1.5582637 -0.58563596
341 -0.32309586 0.17556252 1.839158 0.82835233 -0.28761512 -1.743449 1.8989998 0.7707237 -2.0482302 1.8980411
407 -0.19734801 -1.2114304 1.4633121 0.73414356 -0.7642456 1.4031446 1.4016147 -0.5374143 -0.8470038 -0.9134883
492 -1.7167304 -1.8662589 -0.06177207 -0.06148931 -0.4101115 -1.027125 0.046451014 0.5074178 -1.4911511 0.8172252
452 -0.7109365 -0.31425795 -0.13636416 -0.29777834 -1.8350828 0.75520223 0.40610114 1.9950045 0.21534775 -0.8938149
486 -0.2926621 0.22942038 1.9512995 0.8117951 -0.2798421 -1.7384924 1.9792734 0.8225663 -2.1162364 1.9665173
10 0.2827284 -0.884382 1.1862379 1.0720444 -0.36811617 1.086139 0.98293024 -0.26233083 -1.2522428 -0.5900799
291 0.14435333 0.076402895 0.5831448 1.0011126 -0.5038941 -0.44072014 0.06895981 2.0191355 0.080202855 -0.46508825
477 -0.34620133 0.6384868 0.107820325 2.175182 -0.1390475 -1.3084931 1.4078585 1.2746063 0.27041045 -1.0723516
174 -1.8553288 0.10473293 0.48873392 0.22444871 -1.129296 0.2632508 1.0963577 -0.29410186 0.92445534 0.68253297
326 -0.73775345 -2.1848004 1.4815704 0.51304746 1.115987 0.43855476 0.767742 0.47291932 1.537905 0.41414213
125 -1.8146315 0.16301481 0.39958474 0.3182304 -1.4653908 0.1761212 1.0924248 -0.35722366 0.86287576 1.0123255
475 -1.7171508 -1.7241871 -0.23548117 0.0644808 -0.8944055 -0.8154978 -0.21986185 0.5003579 -1.9200159 0.3669048
172 -2.1225696 0.039437495 0.19073808 1.1464067 1.195722 0.8340287 0.325498 1.1404299 -0.6621772 0.50502056
495 0.8329882 -0.33912903 -0.9645783 1.2641772 0.012864621 1.0588454 1.1641011 1.6616014 -0.13164409 2.3339503
240 -0.17178893 0.07339057 1.3299125 0.69954056 -0.165363 -1.793105 1.5920717 0.58386415 -1.7301683 1.049827
359 -1.9801064 -2.1192265 0.15634406 0.005819024 -0.45988733 -1.127067 -0.07066725 0.55202305 -1.5173692 0.81518364
215 -0.32400298 0.2468153 1.9204757 0.78370684 -0.33867878 -1.6692762 1.9642596 0.72367316 -2.029851 1.8871843
355 -2.0301352 -0.28828534 0.7904385 0.6249538 0.83084625 1.5587591 0.15623027 1.3445878 -0.90950596 0.17242274
394 -0.12357236 0.42918262 -0.14575921 1.4641963 0.012805245 -0.79495627 1.1849118 1.4185019 0.18344799 -1.0441537
69 0.06268552 0.026635526 0.86059 0.3762206 -1.0289036 -0.31208664 0.017610274 2.0331275 0.38660786 -0.30748367
67 -0.17381503 -0.04615487 1.2627506 0.63603544 -0.13774787 -1.7688996 1.628627 0.5492665 -1.6801162 1.2256994
255 -1.3251231 0.31128612 1.1065614 0.7142961 -1.1871643 -0.008783454 1.1294218 -0.5159628 0.9788253 0.8635129
465 -0.76535594 -2.17114 -0.026152276 2.546764 -1.9643245 -0.12737487 -0.86839956 -0.013416023 0.5516642 -0.051421493
430 -0.6618135 -0.4903651 -0.3004904 0.24341355 -1.9911736 1.1074028 0.7494714 1.7627836 0.24540217 -1.6901809
306 -2.815297 0.61093587 -0.002516668 1.0084289 0.069892675 2.0803576 0.5302071 1.2122724 -1.0661019 0.006969799
170 -0.61277497 -0.9126605 1.6057032 0.25458178 0.057511356 -2.2694802 2.0334587 0.403824 -1.7149733 1.8526372
392 0.79179114 -0.59381294 -0.96344274 1.4118757 0.047000315 0.6422006 1.2150855 1.3180293 0.35656726 1.8882421
268 0.5400495 -1.8191017 -0.59314096 -0.5770447 -0.8981164 0.64069897 1.4332293 1.346291 -0.95831853 0.60389364
417 -1.7389437 -1.7927382 -0.047848992 0.12035234 -0.7397656 -1.0892318 -0.1509274 0.42792395 -1.7451143 0.6420508
113 -0.58852625 -0.89340156 1.5259959 0.35332814 0.050593544 -2.2614686 2.0611985 0.2929344 -1.7421442 1.938126
105 0.14263071 -0.14553818 0.16110007 0.9804707 -0.49601462 -1.0582346 0.40502688 1.7689489 0.11317728 -0.55027544
68 0.20026447 0.1005924 0.32791516 1.200637 -0.28493512 -0.6423652 0.2797866 1.8303652 0.15021628 -0.48404095
346 -0.7975048 -2.4021785 1.9307148 0.7425073 1.1446328 0.1559832 0.47297046 0.65364933 1.4975574 0.69340485
184 -1.9180722 -0.04548758 0.5295983 1.109399 1.1431707 1.0227537 0.17826729 1.1120249 -0.57973766 0.641854
154 -1.5043054 0.3904009 0.82888806 0.7388515 -1.0057632 0.053944595 1.4462297 -0.5718323 0.7891545 1.2149409
386 0.5018808 -0.9475929 -0.28093022 1.7791482 0.66807514 -0.28056455 0.44486052 1.3152666 0.19404893 1.6568751
139 -0.06206556 0.039345894 0.622548 0.8785736 0.40690193 -1.4380432 1.2389916 1.0258788 -1.7168621 1.102298
142 0.26993218 0.13771662 0.38218158 1.2276002 -0.36028764 -0.40655178 0.18917303 1.8663523 0.081496954 -0.48271504
110 -1.893336 -0.18883978 0.6772889 0.6067291 0.74018884 1.6252407 0.11320933 1.283452 -0.882312 0.19756076
74 0.14411421 -0.14230852 0.34768105 0.86886364 -0.70496124 -1.1438808 0.32558638 1.8213091 0.08917909 -0.43033594
478 0.3592636 -1.7844869 -0.698621 -0.37476736 -0.6836294 0.8881347 1.3293377 0.94917315 -0.6609826 0.39042604
322 -1.7316533 -1.8822004 0.06776891 0.27380043 -0.9257748 -1.0949646 -0.32759658 0.587761 -2.3201635 0.5443505
156 -1.8858465 0.12699799 0.5095525 0.1654185 -1.1851779 0.36244747 1.1366787 -0.29139912 0.8927791 0.6474207
158 -0.3055649 0.46048367 -0.7553029 1.6605833 -0.12006091 -1.2790741 1.8718873 1.2360331 -0.007970021 -1.0999296
227 -1.7480458 0.19769472 0.5394083 0.52653366 -0.9648132 -0.010697289 0.97332317 -0.28260496 0.9666503 0.7953356
55 0.3320705 -0.380408 -1.5296029 1.7492583 -0.23033708 0.18850899 1.5786844 1.1995332 0.5923843 2.0715237
389 -1.8665808 -0.047954183 1.6845051 0.15707995 -0.68688244 0.13588847 0.8270223 -0.051559143 1.0906694 0.75387806
224 -0.21566309 -1.2388321 1.3695087 0.78265387 -0.67590874 1.2842932 1.4249475 -0.6070735 -0.9807776 -0.8781143
226 -1.290826 0.19439855 0.8317353 0.46737525 -0.47892982 0.13987054 0.6320137 -0.21338212 0.64899457 0.65359634
479 -0.2828156 0.3757163 -0.6226439 1.6230447 -0.04998264 -1.312602 1.6810876 1.1722479 0.0938109 -1.0291637
398 -0.8041783 -0.50768685 -0.59522563 0.05448689 -1.7274182 1.1105834 0.5470267 2.0339563 0.1429957 -1.4372263
364 -1.6409346 0.2684141 0.58562434 0.5839835 -0.8944667 -0.035462365 0.9224451 -0.24852286 0.906966 0.6929458
49 -1.5788723 0.053370483 0.6934782 0.95473653 0.71161145 0.86958414 -0.15772618 1.1198672 -0.6000708 0.9704744
89 -0.76414865 -2.1776621 1.3082181 0.40299872 1.0277632 0.89647615 0.60836804 0.8110135 1.6673045 0.5032799
25 0.1336994 -1.5843749 -0.62103146 -0.43275705 -0.5975821 0.5682406 1.3624673 0.598457 -0.42934352 0.28212368
327 -1.9057679 -2.0915954 -0.16540016 -0.076037556 -0.3738277 -1.0840626 0.059313852 0.58601594 -1.6067069 0.8837769
317 -0.2320057 0.44675732 -0.5176802 1.7149198 -0.11242503 -1.1987008 1.5698903 1.134518 0.11721533 -0.95994186
294 -1.9566702 -2.0556557 -0.13390452 -0.094112694 -0.38930845 -1.0011474 0.120905094 0.60564864 -1.6209036 0.9206335
104 -0.80792904 -2.0845509 1.2713219 0.4196184 1.0241042 0.92084914 0.54991096 0.8020758 1.5205599 0.39233845
207 -1.5113521 0.22987987 0.8537863 0.47610468 -1.2267244 0.13875785 1.038315 -0.3573862 1.0309191 0.7796054
132 -0.7031042 -0.5072676 -0.29982448 0.27937016 -1.96503 1.1237482 0.6527711 1.5906411 0.19375625 -1.653313
107 -1.9346515 0.16698918 0.6308484 0.32566467 -0.8789606 0.24392976 0.9834341 -0.19203044 1.0173062 0.65271497
405 0.09853626 -0.451505 -1.4511365 1.504314 -0.004206227 0.06716219 1.2888851 1.1900014 0.5605821 1.9918336
288 -1.7949318 0.25191063 0.5542196 0.6021501 -0.8693698 -0.056470413 0.94582444 -0.21255414 0.9946554 0.71409845
308 0.8427226 -0.53840226 -0.9162023 1.3203425 0.036148302 0.6668079 1.1918693 1.3962452 0.30187863 1.9510972
197 0.8237404 -0.5596504 -0.8483451 1.303212 0.09507581 0.54036146 1.110428 1.2504834 0.3184386 1.8917501
140 0.20819113 -1.7711684 -0.74217653 -0.4494935 -0.49605894 0.60859877 1.5163935 0.7768537 -0.52938056 0.3790353
168 0.83407706 -0.6534319 -0.6684664 1.3037407 0.073369905 0.25273943 1.0721428 1.2411932 0.36181965 1.8278439
432 0.69159657 -0.035323057 -0.9118019 1.7221935 -0.116639815 1.0032954 1.2158762 1.4364226 -0.116043985 2.3858829
296 -0.65388197 -2.0669284 1.2472751 0.5383817 1.0586871 0.31390512 0.55592954 0.66682047 1.4387977 0.34494555
162 0.04929585 -0.0843938 0.32625902 0.83607215 -0.593915 -0.8654799 0.16668499 1.7633804 0.19067322 -0.4752079
108 -0.056452632 -1.475644 -0.62627095 -0.44201103 -0.5264177 0.42943737 1.3250477 0.51574 -0.42831743 0.23171467
64 -1.7201122 -1.6966591 -0.108611576 0.07958839 -0.8360988 -0.96533906 -0.22927088 0.5049724 -1.7269851 0.47653323
271 -1.824646 0.30581695 0.572332 0.43349376 -0.9744021 0.16997787 1.0205803 -0.16572155 1.0186952 0.7607033
239 -1.2638284 0.22049382 1.0455333 0.53061306 -1.1338778 0.05908153 1.0637112 -0.47759455 0.93714565 0.8881333
458 0.84472454 -0.7284007 -0.6616028 1.3815252 0.15372704 0.27686474 1.0116577 1.2747784 0.3465364 1.8023105
466 -0.0016630152 -1.7113127 -0.45160925 -0.6753799 -0.48321158 0.43822667 1.6402452 0.6090576 -0.45774192 0.083941095
59 0.27812034 -0.8551834 1.2322726 1.0457155 -0.39384505 1.1555679 1.0355083 -0.25171873 -1.29396 -0.5469467
363 -0.0042134994 -0.960111 0.97182405 0.80000347 -0.7207485 0.78767866 0.8223557 -0.52139676 -0.91337365 -0.5181063
457 -1.1183047 -1.5301939 0.2301089 -0.11319189 -0.40384084 -0.8825166 -0.13750835 0.57934755 -1.174867 0.79023784
370 -2.0041761 -0.4013066 0.21447359 0.5717924 0.7644796 1.2468776 0.12202368 0.74271077 -0.4943742 0.7336773
112 -1.7669028 0.12746993 0.43286732 0.2215356 -1.0308304 0.24402426 1.0902647 -0.30470595 0.8657375 0.6607449
177 -0.9061449 0.3444532 0.0725928 -0.16449545 -1.48429 0.31732354 0.4098269 1.9539306 -0.0966168 -0.49893114
499 0.24836828 -0.9038467 1.2994984 1.2197138 -0.46079865 1.070988 0.9613004 -0.40679196 -1.2763573 -0.56290823
412 -0.14422181 0.30726495 -0.026006505 1.5270637 0.081282064 -0.9115742 1.3483431 1.3750229 0.21129757 -1.145929
348 -1.893919 0.01725864 0.46921203 1.1652004 1.0908501 0.9749373 0.2053555 0.9144121 -0.53751135 0.6004257
57 -0.12953526 0.02472785 0.5316662 1.0061302 0.45057228 -1.462966 1.2171203 1.0528991 -1.7327251 1.1167463
90 -0.4974947 -1.425855 -0.16727586 2.1332865 -1.0604445 -0.28569946 -0.05726346 -0.19215502 0.63139087 -0.6650495
178 -0.75168264 -1.873207 1.142145 0.44778335 0.9402798 0.65903836 0.6214753 0.5024706 1.4680321 0.25681874
243 -1.561211 -1.6630517 -0.05578153 0.022764925 -0.8163486 -0.9527785 -0.18875279 0.5325487 -1.7070849 0.48768565
441 0.41951808 -0.5268634 -1.07221 1.3922768 0.11831834 0.06773197 1.0433768 1.2191529 0.33947662 1.7859128
157 0.0402525 0.1468958 0.028189749 1.2285813 -0.25919846 -0.90487367 0.50063586 1.6087162 0.24759468 -0.603443
437 -1.7020141 0.14088967 0.58792907 0.29234597 -0.94767094 0.1438885 1.0432422 -0.3287654 0.8600301 0.5846862
433 -1.6210644 -1.7055383 0.035314593 0.20832865 -0.7744946 -0.89176345 -0.26614204 0.5156481 -1.9275241 0.5040679
333 0.05072752 -1.6646035 -0.64587474 -0.5625254 -0.48999912 0.58202964 1.8165743 0.6465737 -0.44576016 0.15353888
129 0.33777288 -0.60363054 1.2087728 1.3365719 -0.842283 1.300257 1.0862914 -0.33494893 -1.1519598 -0.4427745
376 -0.092644095 -1.5754029 -0.6647165 -0.5656306 -0.5648347 0.59004235 1.4568549 0.5492233 -0.37001637 0.22216643
349 -0.2520712 -0.4223187 1.173763 0.4362565 -0.015446229 -1.8617605 1.5151082 0.33397874 -1.4336169 1.2607826
218 -1.6694957 0.27176577 0.69495493 0.5227875 -0.8168071 0.03692277 0.97144085 -0.26247665 0.8709214 0.68394905
254 -0.2779938 -1.8114861 0.038326394 2.3351467 -1.215599 -0.6185624 -0.17487554 -0.13415374 0.53741074 -0.5234405
283 -1.1322054 -0.13363667 0.2552061 -0.20605794 -1.8797617 0.3692322 0.16365078 1.2473514 -0.006005402 -0.7626335
183 -1.6997167 0.12817626 0.43996364 0.31876075 -1.0267078 0.117463 1.0280946 -0.2721807 0.8728179 0.6728355
121 0.7519343 -0.6074873 -0.68120223 1.3504634 0.22332509 0.18997303 0.88474435 1.4070039 0.28881413 1.7451112
424 0.0055271983 -1.7132868 -0.75260013 -0.50595856 -0.59133244 0.54888797 1.5212559 0.5947222 -0.43660298 0.2976778
344 0.049361672 -1.64369 -0.8464166 -0.4089783 -0.5532961 0.53813046 1.4436941 0.6332493 -0.4434323 0.29038095
257 -0.77133864 -2.0639493 1.2194607 0.35090452 1.0186249 0.8684757 0.6246781 0.7095154 1.6020993 0.40548876
330 0.1917207 -0.7848353 1.1047571 1.09684 -0.53138196 1.022121 0.9385045 -0.3289847 -1.1897551 -0.58451384
48 -1.7323418 -1.7589127 -0.05979715 0.14704415 -0.8220358 -1.3619174 -0.028932659 0.30773225 -1.7070553 0.570961
461 -0.8997971 -2.2761595 0.9253396 0.54354084 1.0826917 0.3974381 0.46632707 0.58543843 1.0280532 -0.3199834
428 -0.59204453 -1.5327183 -0.18205638 2.0888734 -1.0693498 -0.448137 -0.09640507 -0.23647995 0.5895632 -0.5633228
220 -1.2752882 0.23981556 0.8413707 0.3890608 -0.42955568 0.32128888 0.6559083 -0.17610733 0.4879054 0.75473446
203 0.4564858 -0.52943933 -1.0451177 1.3843434 0.19865708 -0.09063291 1.1007818 1.2782991 0.41785026 1.7958605
436 -0.0052199466 -1.5967932 -0.80479544 -0.40802917 -0.56958395 0.52653617 1.4514034 0.4997288 -0.4082573 0.31773913
292 -0.7579948 -2.0009298 1.0063542 0.45689434 0.9786935 0.31793198 0.38817415 0.5646221 0.95447975 -0.15993412
171 0.2934462 -0.9000802 1.0892849 1.119566 -0.52213633 0.9920168 0.9443723 -0.23165262 -1.2741035 -0.57798773
385 -0.79421705 0.17502117 0.25837407 -0.24105991 -1.4720867 0.23666357 0.24982291 1.8401638 0.0031552375 -0.35025862
176 -0.6538705 -1.7561667 1.0123032 0.4093995 0.88738483 0.43198854 0.39345175 0.531697 1.195616 0.22540773
350 -0.72346413 -1.9589531 1.115144 0.40109 0.97602934 0.68986595 0.6469073 0.58829373 1.516374 0.38404468
369 0.10592278 -1.5847921 -0.71200794 -0.45439312 -0.60052055 0.51351607 1.4133419 0.63650155 -0.4431489 0.267665
153 0.25696123 -0.60187113 1.07716 1.0976527 -0.7095598 1.2020583 1.0199593 -0.35964987 -1.1023666 -0.51836115
191 -1.5633659 0.06314957 0.96248376 0.34098437 -0.6899717 -0.108756915 0.87618816 -0.2972954 0.8489521 0.6637121
481 -1.5239959 -1.6182337 0.11955363 0.10625782 -0.6718885 -1.038433 -0.1536313 0.471689 -1.5914049 0.54222554
88 -1.5340322 0.17928687 0.9291967 0.41352525 -0.6618388 -0.032902844 0.8366481 -0.21351196 0.92550987 0.6121026
106 -1.7703317 -0.009194603 0.14075148 0.60640985 0.52908266 1.2720772 0.20036082 0.87786126 -0.64663184 0.32717738
329 -1.4646021 -1.6518424 0.022421503 0.1134445 -0.6897748 -0.9817738 -0.21398464 0.43581325 -1.5421294 0.41737568
297 -0.13043116 0.013113326 0.8524449 0.8500641 0.25356576 -1.5625663 1.2915214 0.7901398 -1.5702252 1.0777509
62 -1.8333536 -0.06470602 0.15840758 0.61888486 0.56907094 1.3359914 0.14097993 0.9255136 -0.65814215 0.38437688
498 0.0642404 -1.7415034 -0.7789143 -0.44865814 -0.6072102 0.46206522 1.5575919 0.56212413 -0.4083919 0.22258614
491 -1.6679306 0.2683692 0.6756912 0.58301765 -0.6668148 -0.08821111 0.95542604 -0.2226583 0.88884145 0.46849775
65 -0.6063771 -1.831769 1.0967069 0.34728026 0.8668084 0.56519014 0.6188968 0.4324723 1.3124346 0.1712873
419 0.058635756 -1.3785821 -0.6653982 -0.50419277 -0.52765936 0.53758156 1.3967947 0.5652707 -0.4741738 0.23097695
109 -0.026575103 0.091956496 1.486818 0.5466087 -0.23549946 -1.93397 1.8286572 0.57713586 -1.6553319 1.1444011
159 -0.15303092 -0.027245173 1.0508635 0.63084775 0.010313226 -1.6310409 1.4049565 0.49633026 -1.512283 1.0770938
474 0.2579155 -0.7197888 1.0441885 1.038077 -0.5559817 1.1077781 0.9398496 -0.33112696 -1.0455706 -0.47213468
382 -1.3464677 -1.601319 0.03729079 -0.08619074 -0.37903744 -0.8476799 -0.0954188 0.5479793 -1.1208357 0.7375216
300 -1.7794422 -0.26555288 0.14126046 0.53290945 0.6509301 1.1187191 0.006269775 0.9136765 -0.48962513 0.67645377
238 -1.7760789 -0.31277043 0.16128331 0.62497944 0.7899329 1.0404518 0.12875406 0.8597034 -0.5728566 0.7188073
325 -1.7385223 0.06336684 0.13254622 0.6671779 0.5343332 1.2500219 0.1788188 0.9165135 -0.6268964 0.37284032
119 0.028098028 -1.5238386 -0.6811719 -0.43388113 -0.52193576 0.56764996 1.2939382 0.5508339 -0.48625898 0.2660051
362 0.120433174 -1.4930112 -0.5667046 -0.4855666 -0.5225433 0.6073991 1.3531275 0.5761091 -0.44047007 0.17810614
182 -1.3462391 -0.023437288 0.45921925 -0.2241862 -2.1849043 0.18051493 0.20487802 1.3650063 -0.088526785 -0.6667369
460 -1.6840215 -0.08756886 0.22349107 0.5716644 0.66391504 1.0991254 0.118980125 0.90350676 -0.63580376 0.6728961
180 -0.1465172 -1.1769862 1.0277532 0.87177384 -0.8083228 0.90927225 0.8768743 -0.608691 -1.0162598 -0.6473171
164 -1.0661674 -1.4260641 -0.43029782 2.5811658 -0.49645627 -0.48727936 0.4869437 -0.38725847 0.9112533 -1.0807539
448 -0.731226 -1.7666109 1.0146127 0.42734197 0.9392387 0.5016183 0.4497511 0.5072339 1.291329 0.24543242
202 0.16490926 -0.6581651 1.195423 1.1747065 -0.6645266 1.1653745 1.0808569 -0.467518 -1.1051852 -0.53032124
454 -1.7331195 0.07761498 0.4726236 0.9466802 0.7747193 1.1396018 0.154226 0.90340537 -0.74298435 0.522574
285 0.19836308 -0.77164847 1.0947149 1.0609596 -0.44201827 1.087358 0.92808473 -0.2898557 -1.214224 -0.47298998
100 -0.03944062 -1.4973913 -0.7290444 -0.38876736 -0.49902666 0.5014962 1.3242283 0.54705226 -0.44755858 0.21070147
366 -1.4596981 -1.6196009 0.038748417 0.09614881 -0.67865264 -1.0778883 -0.08340807 0.36788535 -1.5062989 0.57251185
334 -0.4171616 -1.7628824 0.05274326 2.2831094 -1.3283767 -0.48970565 -0.45557612 -0.035847686 0.4309718 -0.41731963
99 -1.735016 0.22280739 0.7987505 0.48242158 -0.62073284 -0.06098346 0.8867923 -0.22691484 0.8257036 0.5658438
102 0.13467501 -0.90079236 1.1023626 0.8222968 -0.5382281 1.1009269 1.0807298 -0.47525904 -0.92746353 -0.598526
192 -0.55354816 -1.5009743 -0.07058355 2.0991106 -1.03301 -0.48595008 -0.14017904 -0.22381249 0.59848654 -0.503002
133 -0.03995169 -0.91845226 0.88531995 0.8423585 -0.68530047 0.99523246 0.89433694 -0.5129724 -1.0540606 -0.56907403
235 -0.72366995 0.032892916 0.38273796 -0.36038423 -1.4533774 0.08101686 0.17766039 1.580663 0.03557745 -0.30942187
169 -1.7245632 0.05345166 0.1730988 0.72167534 0.5607326 1.1778324 0.0760788 0.84458375 -0.70671326 0.4132994
241 0.008597868 0.062402908 0.59865344 0.5154441 -0.7945356 -0.38612816 -0.10085947 1.7576131 0.18796967 -0.21336739
118 -0.5993736 -1.4069645 -0.17250906 2.0839367 -1.09098 -0.44295117 -0.15466982 -0.17372248 0.57123333 -0.470129
208 -1.0204914 -0.18920441 -0.20277765 -0.15836594 -1.8365237 0.7056945 0.5166621 1.2618493 0.037622694 -1.0281527
141 0.024473991 -1.3363816 -0.7112864 -0.37547216 -0.45489135 0.56076837 1.3622817 0.5260848 -0.38229766 0.21238634
212 -0.016729396 -1.4094299 -0.64553946 -0.42507157 -0.47707167 0.52457875 1.2449527 0.56949496 -0.55532116 0.30415612
225 0.050643526 -1.4982926 -0.50261325 -0.4269843 -0.61303574 0.45854726 1.2361207 0.44951385 -0.40223023 0.20842314
310 0.0527005 -1.4242399 -0.6307673 -0.40390787 -0.44134653 0.56520444 1.2251993 0.5249279 -0.3587598 0.23942128
339 -1.3872207 -0.038261376 1.0832986 0.19700214 -0.5493412 0.11250905 0.8124071 -0.17708379 0.9074977 0.5534132
459 0.06750441 -1.3439101 -0.6671288 -0.3419008 -0.47378755 0.56284356 1.2237256 0.51903045 -0.38334805 0.27824602
163 0.01573579 -0.67857414 1.0192289 0.89591926 -0.72162366 0.78294927 0.86420536 -0.54235 -0.9621803 -0.4373388
101 0.015154607 -1.4458411 -0.5719111 -0.3599371 -0.58269614 0.42572358 1.1220111 0.45273986 -0.49929097 0.16941921
